-1.107636
-0.012027
1.142911
-0.163295
0.858453
-0.834200
0.604974
-1.096575
0.101962
-0.241212
0.618266
0.665397
-0.426425
0.645875
1.008911
0.396107
-0.371242
0.587844
-0.136047
-0.223386
-1.116961
-1.218886
0.413144
0.685293
0.470744
-0.333345
-0.243264
-1.587990
0.704657
-0.384665
-1.487502
-1.495956
-0.298277
0.650887
1.164880
-0.869750
1.293751
-0.127770
-1.150093
0.614107
-0.549098
-0.774281
-0.812495
-0.088946
-0.213165
0.681073
0.688697
0.924103
0.653595
-0.173106
0.224424
-0.309921
0.083671
1.323664
-0.596591
0.525973
-1.557571
-0.700641
-0.237635
-0.724239
1.653437
-2.612264
-2.029106
0.194730
-0.606302
0.196766
-0.206198
0.938860
-1.259370
0.990503
-0.025737
1.535740
0.089695
0.581499
0.805070
-0.756121
0.882469
0.472143
-1.173678
-1.044981
-1.516694
-1.345508
0.000983
-0.646476
-0.172483
-0.542802
-0.665004
-0.100209
0.668038
-1.144794
-0.751050
-0.102663
-1.056356
0.313302
0.087383
0.833170
-0.588517
-0.580851
-0.330623
1.004337
0.817168
-1.190574
-0.456945
0.705751
-1.129049
0.997559
0.370142
0.323602
-0.780889
-1.135574
1.055650
-0.178103
-1.770687
-0.690479
-0.453627
0.741700
-0.605957
-0.309373
-0.400703
0.457429
-0.795500
0.895072
-0.121641
-0.230362
0.062858
0.228558
-0.062908
0.510356
0.286316
-0.611757
-1.276813
0.609670
-1.055004
0.062774
0.168332
0.375299
0.241041
-1.245187
-0.109247
-0.922383
-0.830508
0.319759
0.136479
-0.904930
0.299864
-0.518418
-0.612821
-0.106743
-0.447504
-1.169863
0.252199
-0.094180
0.359290
1.250882
-0.267261
-0.405259
0.378426
-0.579745
-0.949459
0.299891
-0.159749
1.878016
-0.940714
-1.762874
-0.003764
-1.143948
-0.795657
-0.433769
-1.169711
0.441970
0.489328
-0.770656
0.510507
0.538088
-0.328668
-0.405743
-0.818629
0.540295
0.710310
0.363800
0.468089
-0.599026
1.381233
-0.258374
0.700503
-0.592027
-0.369683
0.606260
0.607144
-0.145280
0.240021
0.820636
0.464528
0.872996
-0.932403
-0.328433
2.112097
-2.030006
-0.213127
-1.502689
0.150612
1.053847
0.370932
1.782137
0.531383
0.933773
-1.035080
-0.726800
-1.543875
0.349980
-0.151273
0.962296
-1.010740
0.139680
0.190909
0.132417
-1.033713
0.108258
0.605394
0.681300
-0.096272
0.703186
-0.617840
-1.070940
-0.240518
0.816503
0.645346
0.978802
-0.531389
-0.688248
0.349826
2.353470
-0.061095
-0.976086
0.447484
0.603723
-0.599859
-0.194279
0.303369
-0.372114
-0.028841
1.519768
-0.475459
-0.304447
-0.161666
-0.176211
-0.253724
-0.974491
0.316793
-1.132340
-1.870280
0.998660
-0.284277
0.694802
0.013368
-0.523728
-1.736974
0.646397
0.833822
-0.847156
-0.241758
-0.324529
0.560867
-0.350480
-1.092915
0.924764
-0.976157
-0.350187
-0.136811
-0.575535
0.794247
0.079414
0.155788
0.607355
-1.014979
-0.469469
0.037426
0.600637
0.515734
-0.556986
0.540460
0.691578
0.510180
-0.976442
0.306454
-0.719925
0.404616
-0.464653
0.574472
-0.031613
0.457468
0.516274
0.156631
-0.139449
0.138637
0.284503
-0.864010
0.727207
-0.258878
0.195453
0.099015
-2.521787
-0.777312
-0.215792
-1.025259
0.131274
-1.530267
-0.328642
-0.084541
-0.443329
-1.516540
-1.109417
-0.501598
0.239537
0.434574
-1.274482
-0.532540
0.275908
-0.339575
1.341102
-0.050272
0.790953
-1.447487
-0.191605
-0.618240
-1.239090
-0.534134
0.577158
-0.750286
0.228223
0.383465
0.293819
-0.174464
0.614701
-0.736940
0.111986
0.857355
-0.988709
1.284576
-0.908679
1.150135
0.242580
0.531675
-0.954131
-0.885580
-0.066097
0.379605
0.860917
-2.039009
0.398124
0.521350
0.995443
0.020836
-0.275034
0.163472
0.909312
0.418422
-0.267734
-0.477270
-0.468468
1.911191
0.644074
0.342640
-0.517500
-0.406985
1.317050
-0.514108
-1.221679
-0.745311
0.271521
-1.114006
1.751419
1.623552
-1.877010
-0.934330
-1.939189
-1.481580
-0.870039
0.429725
0.461009
-0.811083
-0.959328
-0.765157
0.647372
-0.112734
0.845061
0.018408
-0.191842
-1.392985
-0.158030
-0.567495
0.974827
0.090998
-0.569793
0.509094
-0.912883
-0.395112
-1.403795
-0.851883
-1.174745
0.373410
-2.482267
-1.461574
-1.927304
-1.361017
0.126599
1.101308
0.455903
0.685913
-0.479223
-1.104528
1.075772
0.176667
-1.065717
-1.575929
0.414513
0.877064
-1.180593
1.204964
0.319509
-0.009604
-0.289915
-0.071566
0.291666
0.666906
0.167537
0.298196
-0.674612
-0.380163
-0.838592
1.436381
0.554515
-0.352629
0.865816
0.274195
0.098215
0.461585
0.608561
-1.063732
-1.040534
-0.682419
0.164754
-0.388692
-0.315296
0.168694
-0.393110
-0.454077
0.394892
-0.079481
0.397936
-0.665723
-0.784581
0.652903
0.688392
-0.627876
-0.453390
-1.091580
-1.083855
0.079486
-0.196358
0.114220
-0.963263
-0.557494
0.266008
-0.752344
-1.488722
-0.618671
1.067303
-0.768516
0.638411
0.232117
0.273926
0.850762
-0.884036
-0.167611
-0.522696
-0.342596
0.942864
0.767039
0.314000
-1.000735
-0.295407
1.178404
-0.986503
-0.410617
0.123972
0.683603
-0.052142
-1.558548
-0.375020
1.057213
-0.558585
1.097128
0.674324
-1.414160
-0.322117
0.136624
-2.024784
1.723510
-0.450259
0.408644
0.266436
-0.018715
0.478772
0.033381
0.283002
-0.128005
0.849904
0.629794
0.181474
-0.616271
0.190809
-0.421933
0.253927
-1.380777
0.032212
-0.486941
1.281456
-0.442363
-0.827458
-0.059643
-1.030329
-0.901697
-0.422063
0.714561
0.158502
0.470643
-0.432883
0.064905
-0.471555
-1.014834
1.119284
-1.033588
0.620455
0.691355
0.907586
-1.257597
0.643739
1.356594
0.926492
-0.521154
-1.181558
-1.362823
-1.015951
0.372994
-0.706134
-0.152306
1.123027
-0.768037
0.219605
-0.693751
0.591539
-0.283832
-0.112835
0.024619
1.088019
-0.085627
-1.171678
0.089325
-0.165559
0.162412
-0.637479
0.449361
0.428633
-1.097703
-0.448635
-0.026230
-0.251649
1.072164
-1.118867
-1.964650
0.176473
-0.633194
0.978552
0.762849
0.761739
-1.698373
-0.269009
0.106499
1.479249
-1.368740
-0.717805
1.027944
1.440182
-0.297932
0.548335
-1.049952
0.233539
-0.836540
0.402322
1.583281
-1.365548
-0.108800
-0.326310
0.502219
-0.266732
-0.621881
1.237469
-0.427105
0.291849
1.022982
0.337603
0.404078
1.508974
-0.091642
-0.043239
0.019117
-0.268833
-1.151150
-1.808910
-0.846571
-0.309357
0.739461
-0.984936
0.407083
-0.495496
-0.906157
0.181237
-0.836381
-0.056188
-0.579466
1.484046
-1.563480
-0.667194
-1.248636
-0.583017
-1.910052
0.519730
1.586027
-0.691750
-0.483535
0.203124
-0.358759
-0.655448
-1.057046
1.072801
-1.173638
0.091526
0.288521
-1.081471
-0.003407
-0.018765
-1.292349
0.605857
0.223611
0.390962
0.196820
-0.833633
-1.216701
-0.132777
2.294356
0.151949
0.403151
0.269997
-0.328349
0.203663
0.484979
-0.691048
-0.112386
0.389883
0.032297
0.845293
0.329578
0.431396
0.257222
-0.795697
-0.075313
-0.757933
0.679780
0.333222
0.244912
-1.613450
0.080594
0.045135
0.170463
1.106144
0.875684
0.227491
-1.634390
-0.545258
-0.896515
1.392753
0.648151
-1.015538
0.477241
0.607593
0.728220
-1.502089
0.336935
-0.824838
-0.310429
-0.040125
1.949059
-1.807069
0.448314
-1.040345
2.837889
-1.875275
-1.431088
-0.134455
1.773810
-0.671255
0.544214
0.160793
-0.304385
-0.658741
-0.457562
0.630922
-0.062010
-0.887692
0.236661
1.651249
0.753125
-0.629298
-1.309250
-1.446769
-0.508211
0.899953
-1.148089
-0.601125
0.355910
0.429411
0.038748
-0.586497
1.285487
-0.345363
-0.751979
-0.270475
0.565651
0.615175
-0.827843
-0.963641
-0.403557
-0.965538
1.507508
0.696513
0.419303
0.232022
-1.185410
1.012641
-0.421249
-0.127302
-1.648522
-0.361509
-0.674036
1.352908
-0.034544
-1.443302
0.729298
-1.200554
0.618238
2.305090
-0.954667
-0.282377
-0.889953
0.143477
-0.354598
0.077096
-0.998355
-1.012853
0.808885
-1.148733
0.542839
0.475484
0.389232
0.176106
1.174381
0.383479
-0.979182
-0.318735
1.777078
0.547547
0.126760
-0.691053
0.695067
0.505367
-0.531462
-0.001142
-0.858140
-1.008576
-0.812506
0.242323
-0.174032
0.100280
0.070562
0.547888
-0.981456
0.991096
-0.861944
0.758189
-1.316611
0.817366
0.947843
1.391411
-1.484544
-1.450384
0.252504
-0.232298
-0.773908
-0.446419
0.565811
-0.567723
0.864317
0.750677
1.066486
-1.043740
-2.038656
-0.321343
0.366388
-0.948860
-1.182230
-1.752959
-0.938237
-1.725277
1.792621
-0.300952
0.670262
1.040829
-0.062658
0.800424
1.985397
-1.309760
-1.028106
-0.167969
-0.897484
-0.644779
-1.292571
0.234842
0.005133
0.256716
0.125236
0.251760
-0.574776
-1.151830
0.253195
0.573008
-0.453339
-1.064348
-0.625416
0.289808
0.715201
0.281785
-0.508891
0.686899
0.146002
0.429232
-0.801956
-1.171903
0.081590
0.218743
-0.809073
-0.537951
-0.965021
0.173188
0.637131
0.572389
-1.028883
1.068423
0.207298
0.660657
-1.067139
-0.057594
0.012535
1.000143
-0.924917
-0.731505
0.580475
0.464438
-0.875912
-0.498356
0.949282
-0.037421
0.466626
0.442181
0.381403
0.541058
0.481279
-0.464051
0.904978
0.260402
0.136963
0.012096
0.397389
-0.055374
-0.251694
-0.114108
-0.103278
0.126276
-0.629449
-0.750847
-0.656396
-0.822576
0.671205
-0.746778
-0.823107
0.276885
-1.227778
0.969357
-0.909149
0.428156
1.261160
0.025882
-1.676297
-0.469961
-1.840471
-0.061915
-1.030051
0.652466
-0.469060
0.558440
0.256627
0.609346
-0.149306
-0.393289
-0.391070
0.906807
-0.766709
-0.240507
-0.075737
-0.142632
0.928603
-0.089657
0.922592
0.586989
0.698945
0.193535
0.728942
0.582825
-0.497231
0.590713
0.226307
-0.930652
0.287035
0.513159
-0.384686
-0.198214
0.395684
-0.862846
-1.229077
1.084236
-0.407642
-0.491974
-0.691365
-0.576132
0.312489
-0.760764
-1.480514
-0.238428
1.157738
0.837066
-1.232363
0.362866
0.713151
-0.818257
0.262628
-0.243598
-0.235293
0.540421
0.181822
-0.529098
-0.069215
1.201679
-0.036878
0.320065
0.766514
0.055923
-0.002855
0.809509
0.115668
0.377853
0.449214
-0.993500
1.802128
-1.969050
-0.793266
-1.148141
-0.411054
-1.168626
0.192615
-1.803603
-0.461153
-0.416127
-0.209369
-0.966606
0.947780
1.352963
-0.535974
-1.416567
-0.979186
-0.569970
0.803886
-0.585972
0.213572
-0.123306
-0.719859
-0.413583
0.751843
-0.873158
-0.962879
-0.792721
-1.309423
2.435014
-0.685218
0.731359
-1.419507
-0.155981
-0.646661
0.546272
0.335320
-1.064248
-1.791448
-1.427910
-1.669012
0.271360
0.323348
-1.690487
0.395717
0.047606
0.597092
0.722617
0.864364
-0.615094
-0.660398
0.417391
-0.190640
-0.261085
0.572080
0.783512
0.773951
-0.425204
1.026655
-0.796933
0.413855
-0.632722
-0.654130
1.065207
1.027968
-0.024395
-0.646497
0.644242
-0.967578
0.350576
0.454145
-0.875625
-0.910552
-1.077392
1.271326
-0.332006
0.273694
-0.380047
-0.033141
-0.033557
0.001797
0.330434
-0.513256
-0.787856
0.319888
-1.383267
-0.134477
-0.155374
-0.320381
0.304856
0.402552
-0.151973
-0.165593
-0.056854
-0.421335
-1.071303
0.536105
-1.084899
-0.614145
-0.030726
-1.203232
0.179471
1.473206
-1.497265
-0.347704
1.057457
-1.010400
1.301420
0.047237
-1.110491
1.305857
-0.695075
-1.395235
-1.015337
1.262947
-0.041534
0.380719
-0.892734
0.236513
-0.500928
-0.225071
-0.508298
0.141632
-0.271831
-0.641633
0.794360
0.543444
-0.226557
-1.312051
0.923219
-1.198031
1.769332
-0.735103
0.753531
-0.009113
0.088718
0.020893
-0.130126
-0.710295
0.629002
-0.786255
-0.006193
1.071100
0.396695
-0.737581
-0.422291
-0.904857
-0.566142
-0.103528
0.634465
0.580175
-1.775014
-0.227343
-0.876034
1.464661
-0.151283
-1.552298
0.641152
-0.263572
-0.299862
-0.226909
-1.027415
-0.410893
-0.008340
0.813091
0.954244
-0.266214
-0.043323
0.866832
0.504765
0.843085
0.822735
-0.847136
-0.292049
0.055135
-0.251220
-0.486980
0.795895
-1.024513
0.427607
-0.126295
0.615772
-0.671869
-0.907775
-0.218120
-0.633783
0.467572
0.086621
-1.477536
-0.321056
0.077821
-1.562162
1.659285
-0.062598
0.247007
1.417721
0.056877
0.590978
-0.555871
-0.911037
-1.029343
-0.843256
-0.580750
0.753965
-0.423089
-0.932021
0.646410
-0.072874
0.390278
-1.083992
-1.057256
0.285145
0.956964
1.279290
0.554127
0.002870
-0.262109
-0.150529
0.255887
-0.088577
0.488090
0.556862
-0.255723
1.741808
-1.152888
-0.724736
-0.846382
-0.859089
0.729488
-1.192275
1.051906
1.233511
0.152874
-0.265342
-1.645293
-1.472021
1.135250
-0.569869
0.564083
1.016312
-0.876070
0.618016
0.209980
-0.048409
-1.124167
-0.073941
-1.046326
0.731648
-0.355234
-0.389644
-1.007507
0.162091
-0.680712
-0.666435
0.198318
-0.126207
-0.895443
0.511365
0.932989
-0.068536
-0.727475
0.157474
0.132187
0.216193
0.345646
0.083346
0.432959
-0.018052
-0.754422
0.752923
0.040966
-0.062215
-0.034216
-0.162907
1.495556
0.048342
-0.292874
0.261297
-0.196347
0.541756
-1.164192
-0.449584
-0.667644
-0.533359
0.154767
0.079180
0.207056
-0.306910
-0.940626
0.595575
-0.851383
0.562647
-0.880362
0.673069
1.019375
0.421495
-0.054012
0.017615
0.984961
0.834295
-0.633245
0.869344
0.052769
0.985695
-0.634324
-0.427526
-0.996023
0.358505
-0.777594
0.327746
0.603791
-0.463913
0.490470
-0.713769
-0.234533
0.875996
-0.580935
0.809512
