-1.538437
0.816159
0.078491
-0.237744
0.619690
-0.498256
-0.752425
-0.641068
-0.355009
-0.318262
-0.100761
0.762535
-1.342754
1.391142
-0.016957
0.706447
-1.438298
0.469664
-0.603963
-0.547301
-2.246179
-2.918556
0.753248
-0.382863
0.427150
-2.770693
-2.050976
-0.244905
-1.743742
-1.034249
-1.317159
-1.774385
-0.166443
1.138706
0.190634
-0.059537
0.267046
-0.450889
-0.668999
0.011947
-1.113193
-1.297899
-1.344592
0.001159
-0.790510
0.402398
1.496831
0.082269
1.195833
-0.586560
-1.426311
-0.380771
0.676844
-1.060050
-0.052210
-1.463819
-1.117907
-1.551667
-1.158510
-0.709984
-0.788638
-2.825465
-2.965650
-0.870193
-2.482883
-0.068201
-0.843218
-1.151667
-1.581334
-1.014765
0.786040
0.413755
0.244046
0.927696
0.735265
-0.782597
0.396866
0.664878
-1.065166
-0.964665
-2.953425
-2.993790
-0.921473
-1.599732
-1.305526
-2.914396
-0.416036
-2.096877
-0.187381
-2.799110
-0.223435
-0.767914
-1.490975
0.969532
-0.243393
0.738557
-0.893275
-0.756727
-0.150021
0.512113
0.502627
-1.471391
0.083062
-1.295188
-0.572296
-0.557403
0.526968
0.745332
-1.534619
-1.318937
2.805188
-2.139269
-1.770728
-1.920481
-0.203823
-1.071593
0.087517
-0.853488
-1.115020
-0.404448
-0.875729
1.110724
0.339379
-0.585089
-0.054930
0.067002
-0.421773
0.523042
0.077407
-0.686159
-1.164533
0.002866
0.369491
-1.971681
-0.185235
0.130713
-1.269747
-0.838660
-0.516383
-1.613044
-1.564862
0.759427
-1.439928
-1.255645
-1.664730
-0.602227
-1.249092
-1.634971
-2.014032
-2.045230
0.305209
-0.175085
0.937710
0.861134
-0.218603
-0.600633
0.311209
-0.472287
-0.743723
0.071050
0.122339
0.472558
-1.715342
-2.059703
-1.992497
-1.206890
-2.013368
-1.448384
-2.176281
-0.660870
0.747921
-1.155317
1.273119
0.242465
-0.235174
-0.885735
-0.987706
0.092536
0.547489
0.222549
0.931133
-0.070803
0.318938
-0.489196
0.593807
-0.476390
-1.024658
1.359336
0.136364
-0.194401
-0.454793
0.195655
0.930117
-0.312143
-0.412464
-0.302690
0.619289
-1.747581
-0.083929
-1.124370
0.794218
0.932957
1.664731
0.291263
0.912706
0.372378
-1.350596
-1.000415
-1.387682
0.006701
-0.198700
0.346369
-1.178888
0.281366
0.828104
-0.527680
-1.221343
-0.169789
0.497031
0.511350
-1.035754
1.024563
-1.927160
-1.634674
-1.599390
0.240634
-0.158530
0.717910
-1.348121
-1.213401
2.624046
-0.127394
-0.198442
-0.246850
-0.148205
1.120594
-1.078217
-1.025091
0.581281
-0.744899
0.031733
0.893290
-0.652944
-0.244379
-0.328296
0.364706
-0.670690
-0.928845
-0.016423
-0.953762
-0.951146
-0.121557
0.422752
0.718490
-0.619629
-1.041848
-1.266338
0.890710
0.039096
-1.033281
0.893110
-1.002994
0.266424
-0.395821
-0.841771
0.366176
-1.051977
-0.655153
-0.017477
-0.711394
2.165137
-0.286821
-0.391688
0.483293
-1.054270
-0.505709
-0.399554
0.281055
0.371785
-0.683330
0.718975
0.488785
0.382401
-0.542620
-0.131748
-0.780200
0.615831
-0.894597
1.169540
-0.346246
1.759592
-0.451162
0.445310
-0.415410
-0.005731
-0.022566
-0.832914
0.155261
-0.041147
-0.230566
-2.894161
-3.294698
-2.253878
-1.860382
-2.772874
-2.080766
-2.550105
-2.193593
-1.588993
-3.037225
-1.038332
-1.864279
-1.548976
1.745614
-1.789637
-0.636587
-1.948899
-0.756524
0.311169
-0.338383
0.021057
-0.622404
-1.936138
0.594971
-1.881758
-1.695905
0.483823
-0.467150
0.336596
-1.078764
0.195293
0.017326
0.173484
0.538830
-0.701098
-0.523593
1.188304
-0.982944
1.533734
-0.926258
-0.315047
0.783612
-1.443031
-1.763997
-2.076621
0.725015
-1.536360
-1.446308
-2.741255
-0.278582
0.771475
0.890100
-0.105492
-0.273759
0.188286
0.953441
0.299876
-0.407151
-0.522140
-0.540347
0.353276
0.391682
-0.039113
-0.127538
-0.838679
1.543433
-1.339791
-1.919693
-1.484866
0.346683
-0.206353
0.588176
-0.112085
-2.351456
-2.793832
-1.886985
-2.628872
-1.573858
-1.473026
-0.727753
-2.041851
-2.124119
-0.435256
-0.194078
-1.186958
0.271376
-0.681863
-1.912905
-1.250464
-1.284336
-0.279341
0.710936
-1.166348
-1.465489
-0.401585
-1.119797
-3.081142
-1.123430
-2.563926
-2.001752
-3.324783
-3.108814
-3.216051
-3.272662
-1.656783
-1.962360
0.346987
-2.206383
-0.955855
-1.705961
-0.889809
0.722811
0.390974
-1.225359
-1.131299
0.570792
0.604459
-0.636640
0.317327
0.598799
-3.138696
-1.233395
-1.165568
-0.769798
-0.454276
0.923791
-3.041344
-1.893038
-1.730350
-1.689526
0.498090
0.772561
-0.843989
1.349614
-0.724878
0.016585
0.386472
-0.006606
-0.992021
-1.033538
-0.431209
-0.316456
-0.224202
-0.396233
0.289455
-0.451251
-0.353659
0.218595
-0.000933
0.461607
-1.871701
-2.389185
0.545988
-1.583317
-0.728402
-2.402904
-1.342012
-1.190545
-1.230358
-1.273710
0.128177
-1.038761
-1.997871
0.689775
-2.284795
-1.497037
-0.633312
-0.674361
0.926962
-1.207776
0.235605
0.289885
0.948237
-0.893288
-0.104541
-0.589188
-0.195142
0.626500
0.848563
0.307065
-1.663970
-0.226706
-0.910869
-0.046277
-1.534986
2.122660
-1.281479
-1.648616
-1.463539
-0.952037
0.293549
0.400255
0.431032
0.828631
-1.031714
-1.036518
-0.538480
-0.070601
0.577198
0.181020
1.025360
0.047391
-0.169367
0.281534
0.001992
0.443850
-0.535006
0.851590
0.421840
0.175876
-1.907776
0.601068
-1.471985
-1.627715
-1.746148
-0.792063
-0.686228
-0.353475
-0.828780
-1.673876
-0.369880
-1.905283
-2.312251
0.635704
-0.987596
1.131010
-1.085856
-1.851848
0.849859
-1.709244
-0.415067
0.515935
-0.601751
0.669532
1.092821
0.465135
-0.964617
1.336848
1.256809
0.340006
-1.213345
-1.955289
-1.857544
-1.508663
0.538964
-1.244628
-0.118141
-0.099067
-1.771015
-0.185197
-0.889715
1.074196
-1.299574
-0.097876
-0.173312
1.272082
-0.811000
-1.450110
-0.640344
-0.119254
-0.570406
-1.097507
1.121535
-0.510704
-0.683998
-1.580351
-0.405821
0.102237
0.262136
-1.159602
-1.791613
0.147011
0.282402
0.332779
1.208862
0.148218
-1.306832
-0.481537
0.216659
0.370067
-2.482109
-0.551820
1.308555
-0.441374
-0.352467
-1.348005
-2.200963
0.327970
-1.673848
-0.408950
0.205914
-1.353690
-0.353263
0.455019
-0.019579
-0.853104
0.766455
-0.243312
0.533374
-0.584239
-0.194903
-0.017137
0.894707
-0.389173
-0.274223
0.154113
-1.002341
-0.826473
-2.227805
-1.369337
-1.272309
-0.370047
0.255710
-0.678412
0.183834
-0.599225
-0.783728
-0.620875
-0.742627
-0.565450
-1.876942
-1.248553
-1.107441
-4.668982
-1.160364
-2.898106
-3.679743
0.195579
-1.691832
-2.123695
-0.009146
-0.191557
-1.124642
-0.964129
-0.856309
0.805625
-1.406761
-0.104147
0.150350
-1.228369
-0.340967
-1.511541
-2.394587
-0.086489
0.850697
-1.009277
-0.871196
-1.513254
-1.620111
-0.651435
0.765912
0.526728
-0.000675
0.770383
-0.437085
-0.197462
0.637830
-0.588580
0.107215
0.544699
-0.349866
0.557256
-0.091118
0.402584
0.532366
-1.034705
0.179628
-1.158973
0.264597
0.380454
-2.135734
-2.668466
0.246889
-1.313157
0.776458
-0.705427
-0.079849
-1.047735
-1.968550
-1.292850
-0.050826
0.401879
0.909082
-0.712848
0.872766
0.591859
0.344989
-0.751182
-0.171012
-0.761655
-1.377538
1.940678
0.130513
-1.256984
-1.241160
0.641861
0.220265
-2.304795
-1.438245
-0.164746
0.443068
-0.576400
0.540587
0.051032
-0.573556
-0.717040
-0.414260
0.034809
0.208776
-0.888838
1.232594
1.718473
-1.423420
-1.254714
-2.557468
-2.254279
1.321897
-1.954454
-1.734057
-0.790063
1.430013
-0.383166
-0.149567
-0.095064
1.106340
-0.120437
-1.050767
-0.739055
0.643631
0.373720
-0.791243
-0.800410
-0.432137
-0.261753
1.022042
0.531206
0.437241
0.036681
-0.970293
0.582959
-1.942978
-1.017869
-1.272565
-2.357572
-0.416618
0.193441
-2.937701
-0.382295
-2.082175
-1.396210
3.013174
0.736758
-1.900397
-1.092011
-1.829995
-0.124780
-1.043081
0.375786
-1.783381
-1.462473
-0.216393
-0.987448
-0.029078
0.211239
0.391216
0.991039
-0.038412
-0.366853
-1.045705
0.108434
0.855565
-0.381546
0.056921
-1.250010
1.156535
-1.201871
-1.754944
0.087431
-2.184387
-1.190597
-1.867487
0.916872
-1.060760
0.210946
-0.747876
-0.496329
-1.785741
1.232713
-1.539374
-0.026027
-0.742454
0.323222
1.039317
0.530890
-1.884670
-1.106225
0.312311
-1.457596
0.161893
-0.760992
0.706211
-0.992793
-0.008543
0.831299
0.301105
-2.747277
-1.890724
-0.854699
0.125331
-1.399256
-2.473959
-1.125333
-2.296054
-0.087065
-1.046087
-0.465256
0.794977
-0.207136
1.147846
-1.293450
0.383169
-1.965674
-2.009826
-2.316522
-1.516910
-3.436104
-0.603884
-0.879239
-1.693489
-0.710270
0.811397
-1.146228
-0.482183
-1.433519
-0.109464
1.756413
-1.789455
-1.572576
-0.908311
-0.513717
0.392968
0.362642
0.298991
-0.489435
0.484582
-0.219947
-0.696294
-1.231516
0.061748
0.309368
-0.760109
-1.301580
-1.673110
0.781837
0.024837
0.627418
-0.759430
-0.759772
0.447979
0.101557
0.763843
-1.704657
-0.395955
-0.301702
-1.000747
-1.146916
1.593470
-0.194076
-1.197610
-0.565837
0.603099
0.143180
0.335034
0.479109
0.340698
0.136865
1.091984
-0.698174
0.923563
0.188252
-0.957963
-0.687482
0.118898
-0.295901
-0.557928
-0.948155
0.678577
-1.115324
-0.999528
-0.957170
-0.381862
-0.667477
0.367449
-0.536964
-0.720375
0.419664
-0.963109
0.624372
-0.834513
0.219223
1.353156
-1.688190
-1.008856
-3.002766
-1.655143
-1.877446
-1.663502
-0.927223
-1.562979
-0.542995
0.332983
0.369320
-0.364636
-0.475906
-0.412989
0.975394
-0.912223
-0.266584
-0.046693
-0.245399
0.985533
-0.244836
0.806086
0.723641
0.470720
0.063800
1.384568
0.203331
-0.573629
0.533778
0.224915
-1.592796
0.920162
-0.256681
-1.103424
-0.838007
0.771370
-1.900564
-1.153153
0.491588
-0.146761
-0.906010
-1.855380
0.196746
-0.991788
-1.566602
-2.302151
0.167701
0.772495
-0.236240
-1.568229
-0.471969
0.546284
-0.267445
-0.468406
-0.153792
0.712940
-0.700182
0.775853
-1.250024
0.264946
0.689949
-0.000380
0.580120
0.706932
0.390446
-0.203879
0.546471
0.440186
0.147132
-2.477648
-1.918595
-1.773294
-3.065203
-2.588383
-4.774536
-0.584960
-2.608351
-2.304424
-3.141364
-2.188780
-1.072099
-2.146586
-0.933779
-0.076500
1.341055
-3.292028
-2.863017
-1.791291
-1.959935
1.981368
-1.062357
-0.210903
-0.235795
-0.632683
-0.644294
0.658430
-1.164847
-1.073308
-0.889266
0.239320
0.708026
-0.396086
-0.279696
-0.744303
-1.023897
0.159574
0.881632
-0.559989
-0.818354
-4.159314
-2.981386
-2.083946
-0.133058
-2.166096
-3.031313
-0.448328
-1.281748
-0.252374
-1.421931
0.470639
-0.755769
-1.190903
0.663970
-0.038404
-0.887985
1.139526
-0.095270
1.323393
-0.713503
2.134473
-2.245530
0.486247
-1.786685
-0.679650
1.148230
-0.710096
0.010576
-1.757143
0.234832
-0.423921
0.076267
0.384329
-0.617579
-0.830595
-0.604907
0.567942
-0.249940
0.334029
-0.101379
2.014642
-0.238155
-1.059717
-0.966415
0.131244
-1.920459
0.240157
-1.092802
-1.198974
-0.161775
-0.753134
-0.248599
0.258507
-0.503698
-0.740108
-0.381683
-1.155643
-1.833151
0.138954
-1.261472
-0.416323
-0.151842
-0.598784
0.613414
0.145374
-1.934026
0.096599
1.009676
-0.705746
0.129627
-0.034521
-0.031280
0.607226
-0.938450
-0.734398
-0.985194
0.429843
0.105573
0.482428
-0.503153
0.145699
-0.486085
-0.252770
-0.488840
0.302647
-0.241763
-0.882996
0.745525
0.500686
-0.217927
-0.959406
0.736336
-0.678564
0.964596
-0.680517
0.772950
0.223447
0.329095
0.252379
-0.067916
-0.757358
0.575896
-1.100982
0.241601
0.972960
0.296710
-0.214423
-1.173480
-0.829115
-0.720346
-0.288621
0.824798
-0.142244
-1.265802
-1.442488
-0.173379
1.485428
-1.172706
-0.514419
-0.410094
-0.544017
-0.579072
-0.247044
-1.014647
-0.828974
0.364294
0.835537
-0.016296
0.393100
-0.624179
0.886853
0.458490
0.846061
0.835457
-0.792427
-0.317470
-0.026155
-0.198038
-0.523153
0.799743
-0.854781
0.155316
-0.266649
0.678867
-0.653183
-0.853280
-0.236018
-0.657304
0.554487
0.137984
-1.972125
-0.042610
0.017016
-0.836747
1.474941
-1.321031
0.681999
0.589951
-0.254936
-0.125312
-2.043914
-1.151433
-2.540232
-0.911002
-1.961970
0.533561
-1.533723
-0.652728
-0.884981
-1.312483
-0.304019
-1.083007
-1.966612
1.251390
0.181007
1.045874
-0.895583
1.492590
-1.180608
-0.577055
-0.643248
0.265808
0.528139
-0.159631
0.713827
0.239574
-1.343317
-0.464773
-1.501512
-0.689341
0.711707
-1.366160
2.330694
-0.386450
0.135053
-1.820479
-2.366633
-0.369319
-0.086230
-0.603763
0.557979
0.738035
-0.441604
0.366734
0.509438
-0.260959
-1.006784
0.028872
-1.006158
0.669025
-0.536451
-0.757997
-1.137162
0.036034
-0.505044
-1.201018
0.144333
-0.697286
-1.166534
0.421314
0.855200
-0.065356
-0.852700
0.082456
0.058080
0.200166
0.293599
0.041003
0.435027
-0.000678
-0.981238
0.542350
-0.278027
0.196344
-0.116732
-0.139739
1.888388
-0.882027
-0.177212
0.237651
-1.629218
-0.338500
-1.606239
-0.448020
-1.239525
-1.913452
0.581460
-1.150560
-0.416830
-0.754821
-1.993103
1.913564
-1.395060
-0.740334
-0.634929
0.719483
0.412472
-0.519340
-0.356246
-0.061401
0.984803
0.834565
-0.633931
0.869730
0.051928
0.986622
-0.634765
-0.426747
-0.996292
0.357494
-0.659451
0.111480
0.556298
-0.459694
0.445586
-0.811605
-0.272929
0.708456
-0.571481
0.702098
