0.000008
-0.755605
-0.532767
-0.047045
0.679296
0.383502
-0.830965
0.053462
0.671149
-0.383416
0.417486
0.588977
0.846167
-0.091965
0.415999
-0.910321
0.262453
0.736082
0.632639
0.991037
-0.247039
-0.722660
0.651519
0.631635
0.272710
0.766495
-0.237774
-0.359265
-0.486517
0.909208
-0.904653
-0.516292
0.986642
-0.266145
0.947764
0.500707
0.277082
-0.529747
-0.940980
0.761514
-0.827817
0.015868
0.868247
-0.736225
-0.999458
0.233195
-0.351015
-0.591114
0.412081
-0.269317
0.537304
-0.287212
-0.153720
0.802406
-0.534450
0.955361
0.554584
-0.624849
0.159768
-0.714710
0.090990
-0.003000
-0.026876
-0.937897
-0.180896
0.886991
-0.150335
0.385815
-0.499741
0.587187
0.590109
0.556146
-0.983305
0.141820
-0.252126
-0.464031
0.126031
0.319250
-0.126712
-0.621634
-0.247842
-0.389314
-0.028375
-0.426497
-0.947487
-0.131189
-0.092174
-0.071064
0.253057
0.783153
0.349524
0.808945
0.651646
0.679592
-0.250126
-0.471262
0.600394
-0.755844
0.951367
-0.439330
0.688981
-0.987145
0.851270
0.537426
0.103434
0.576717
-0.440039
0.869264
0.800720
0.741716
-0.886031
-0.463323
0.713422
0.667679
0.199555
-0.865883
-0.543948
0.450347
0.215532
0.315732
0.881504
-0.467532
-0.365158
-0.999117
0.630488
-0.000595
0.773352
0.319178
0.682494
-0.205262
0.708921
-0.094549
0.764005
-0.213852
0.081061
0.952160
-0.389854
0.692169
-0.776866
-0.422460
-0.193967
0.191824
0.244054
0.136455
0.601010
0.828355
0.987937
0.233599
-0.219411
-0.696007
-0.696243
-0.669521
-0.056441
0.227008
-0.699834
0.762571
-0.553911
-0.329666
0.143045
-0.485325
0.813266
0.738997
-0.135332
0.310739
-0.518084
0.258843
-0.393018
-0.475896
-0.279293
0.369742
-0.671784
-0.513936
-0.720768
-0.460697
0.321560
-0.517145
-0.401833
-0.986503
0.670098
0.541710
-0.829239
0.274210
0.546137
0.266613
0.246733
0.694024
0.817101
0.160749
-0.707826
-0.582421
0.991533
-0.279512
0.171179
0.495691
-0.163081
-0.782992
-0.436426
-0.584787
0.066850
-0.389731
-0.385769
0.659053
0.538661
-0.815932
0.686102
0.009348
-0.520960
0.220685
0.070635
-0.723764
-0.050603
0.457162
-0.446490
0.285942
0.695637
0.681164
-0.057475
-0.542393
0.856193
0.377550
0.576173
0.679332
-0.035588
0.973356
0.351319
-0.607611
0.552862
0.356925
-0.974252
-0.251528
0.813048
-0.244586
0.694856
0.263620
0.116571
0.113676
-0.006079
-0.599359
0.082507
0.375310
-0.123637
0.029635
0.494245
-0.934030
-0.359658
-0.499955
-0.671903
0.756770
0.230572
0.562602
-0.616610
0.224801
0.653012
0.744104
-0.047639
0.124945
-0.484180
0.914025
0.593546
0.496582
0.441633
-0.771944
0.442790
0.467741
0.445930
-0.205341
-0.372520
0.964851
-0.070335
0.526338
-0.517707
0.841576
0.423890
-0.713547
-0.871884
0.836598
-0.389060
-0.605603
-0.539505
0.401692
-0.083086
-0.472380
-0.104969
0.802019
0.668820
-0.243750
-0.263663
0.081006
0.232867
-0.491343
-0.266119
0.425191
0.963476
-0.795856
-0.171155
0.063804
-0.292468
-0.825837
0.726443
0.802084
0.045341
0.153315
-0.061731
0.929150
0.204563
0.699691
0.494631
0.711571
-0.200645
-0.436096
0.861187
-0.444519
-0.523772
0.753174
0.822891
-0.232078
-0.430618
0.987325
0.850531
-0.311605
0.997599
0.468075
-0.690773
0.541535
0.159216
0.821334
0.041075
0.110019
-0.518773
-0.561484
-0.516908
0.737175
0.022800
-0.670991
0.066290
-0.921117
0.380115
-0.167313
0.691126
-0.713695
0.589809
-0.929698
0.505970
-0.919236
-0.723836
0.490817
-0.976116
0.273251
-0.698558
-0.097433
-0.610738
0.495125
-0.588888
-0.151217
0.731364
-0.051617
0.320642
-0.245142
0.382969
0.597169
0.935252
-0.513148
0.650128
-0.407538
0.479783
0.534199
0.605538
0.703369
0.938254
-0.413494
-0.783002
0.681491
-0.527413
-0.143684
0.251422
0.004816
-0.275353
-0.278929
0.506820
-0.416475
-0.436491
0.766175
0.441265
-0.297064
-0.338510
0.055606
-0.485286
-0.114475
-0.864609
-0.367395
-0.162204
-0.057723
0.468101
0.883705
0.412248
0.308327
-0.814416
0.919492
0.770046
-0.572442
0.803268
-0.861622
0.869494
-0.389172
0.525670
-0.420038
0.749145
-0.338085
-0.743126
-0.879162
-0.710114
-0.359379
-0.161029
0.096429
0.562612
-0.878192
0.635205
0.878413
0.113071
0.382620
0.121740
-0.143302
-0.708588
-0.390967
-0.628767
-0.908691
-0.859213
0.428873
-0.498631
0.450735
0.740759
0.300122
0.110018
-0.972476
-0.238410
0.833474
-0.129482
-0.339119
-0.440268
-0.432877
0.382317
0.429473
-0.670197
0.698066
-0.849278
0.793382
-0.009608
0.639058
-0.644898
0.377364
-0.389500
0.693589
0.291525
0.854365
-0.144142
0.005588
-0.381955
-0.344456
0.291000
-0.124391
-0.048697
0.376817
0.755856
0.011531
0.560914
-0.415560
-0.514590
-0.842044
-0.465007
-0.050043
0.202449
0.831524
-0.839549
-0.181196
0.934110
0.369040
-0.627830
0.405786
0.444850
-0.748311
-0.131023
-0.665308
0.581285
-0.982032
-0.921473
0.967723
0.278796
0.590459
0.834691
0.730448
-0.349529
0.664147
-0.869188
-0.917967
0.951753
-0.416007
0.962535
0.526182
0.818107
-0.662893
0.941429
-0.126034
0.886726
-0.162958
-0.602405
0.838679
0.391555
-0.667348
0.000040
-0.628753
-0.574346
0.351393
-0.370837
-0.576430
0.744468
0.442624
-0.091801
-0.992419
-0.033004
-0.487212
-0.895724
0.688594
0.481720
0.947120
0.953262
-0.127088
-0.857156
0.007008
-0.050393
-0.641374
0.137093
-0.824627
0.655888
0.526454
0.903056
-0.277586
-0.391493
-0.243001
-0.728307
0.201217
-0.022556
0.187979
-0.779658
-0.666364
-0.351173
-0.292091
0.223697
-0.404765
-0.579362
0.437240
-0.834283
-0.849068
0.264662
-0.533532
-0.998736
-0.122221
-0.425107
-0.213568
-0.033077
0.106043
0.482049
0.257524
0.282464
0.208123
0.764064
0.575853
0.907848
-0.114107
-0.698163
0.747969
-0.894964
0.345891
-0.215049
-0.017785
-0.785470
-0.729983
-0.877797
0.343425
0.362191
0.080655
-0.776393
-0.493295
-0.642734
-0.352314
0.281545
0.626152
-0.157540
0.251955
-0.854603
0.608444
0.373662
-0.261863
-0.202817
-0.070950
0.963244
-0.197518
0.081326
-0.152563
0.809124
0.045520
-0.829722
0.801168
0.399215
0.655206
-0.986364
0.413580
0.108049
0.867119
-0.834369
-0.716939
0.222540
0.001574
0.409766
0.022462
-0.376501
0.793872
-0.331804
-0.653873
0.259120
-0.987042
-0.642325
-0.376933
-0.449107
0.585800
0.483601
0.081595
0.100809
-0.841668
-0.827927
0.813280
-0.839796
-0.642095
-0.815759
0.193634
-0.930652
-0.378445
-0.227756
-0.985847
0.458481
-0.279015
-0.739932
0.303932
0.813189
0.717761
-0.785073
0.577059
-0.798596
0.627795
0.471857
-0.529620
-0.857925
0.399142
0.846436
-0.456879
0.292495
1.000000
-0.741617
-0.796585
-0.600734
0.251693
0.575624
0.747701
0.989635
-0.554778
0.107010
0.246300
0.334365
0.069367
0.876262
0.145400
-0.661891
0.585027
-0.494116
-0.924830
0.256384
0.620714
-0.024167
-0.610723
-0.568438
-0.373973
0.376277
-0.583115
-0.110807
0.685165
-0.871871
0.974538
-0.475344
0.992179
0.698705
-0.474984
0.445107
0.439511
-0.997177
-0.124284
0.190258
0.656273
-0.457616
0.139185
-0.972964
-0.852208
-0.925623
0.466668
0.460251
-0.866139
-0.384766
0.814225
-0.721585
-0.313986
-0.688042
-0.165764
0.176306
0.198052
0.674452
0.323405
0.320824
0.870438
0.147775
-0.941981
0.660927
0.170347
0.165414
-0.361192
0.963839
-0.023861
0.886172
0.913224
0.172576
0.814419
0.583064
-0.471753
-0.332312
0.512964
-0.828165
0.004778
0.454566
0.843532
-0.733911
-0.422961
-0.405874
-0.525560
-0.403688
0.264789
0.184968
-0.620673
0.327313
0.184355
-0.533180
-0.925770
0.031187
-0.565061
0.140259
-0.309118
-0.162868
0.379582
0.602311
-0.335103
0.544029
0.287871
0.439320
-0.325579
0.972696
-0.318377
0.349269
0.985489
0.041885
0.785281
-0.101461
0.437511
-0.282594
-0.882302
0.670468
-0.757833
0.853380
-0.233950
0.261283
0.299503
0.991835
0.428610
-0.463801
-0.181880
0.503358
-0.898036
-0.629141
-0.544049
-0.054810
0.975294
0.869878
0.518437
0.969667
-0.228571
0.896504
-0.084773
0.771090
0.051936
-0.071637
0.269917
0.687318
0.944647
-0.911773
-0.815332
0.481877
0.703183
-0.168436
-0.210064
0.372777
0.806702
-0.658912
0.522131
0.606870
-0.021766
0.377316
0.969700
0.793286
0.453228
0.244226
0.213819
-0.407049
-0.343149
0.688401
0.778182
0.021656
-0.053752
-0.163551
0.011579
0.921468
-0.545015
-0.556517
-0.481430
-0.408673
-0.941078
-0.589636
0.282762
0.745794
-0.554309
0.117163
0.354305
-0.265734
-0.414449
0.529665
0.469946
0.098857
0.132815
0.438291
0.993806
-0.349940
-0.801629
0.301218
-0.551921
-0.506545
0.729641
0.217063
0.385219
-0.264364
-0.856503
-0.893365
0.964197
0.284081
0.718898
0.486485
-0.858476
-0.020403
0.959515
-0.997882
0.587660
-0.408225
-0.545435
-0.574699
-0.681336
-0.563862
0.292872
-0.977984
0.583705
0.521573
-0.807740
-0.594764
0.200402
0.280788
0.793055
0.789200
0.160008
0.761440
0.391793
-0.332695
-0.780210
-0.954354
0.777039
0.841948
0.768394
0.585257
-0.801599
-0.690773
0.550919
-0.586986
-0.898639
-0.259919
0.000039
-0.091840
-0.679043
0.745264
-0.981988
-0.782769
-0.086813
-0.926769
0.781356
-0.286591
-0.295857
0.909973
-0.891786
0.752406
-0.468107
0.208753
0.897771
0.958706
0.918436
-0.262890
-0.771451
-0.775716
-0.418673
0.647096
-0.829492
-0.780221
-0.119997
-0.991853
0.424933
-0.633542
0.430353
-0.798559
-0.246792
0.041603
-0.094000
-0.043491
-0.824232
0.511974
0.998299
0.211603
-0.108905
0.096877
0.387090
-0.899207
-0.817065
0.817441
0.458524
-0.592706
-0.667519
0.739097
0.625461
-0.896096
-0.328330
0.451460
-0.258829
-0.703850
-0.690966
-0.879646
0.216739
-0.785623
-0.715460
-0.195229
-0.020458
-0.760827
-0.420198
-0.676851
-0.050492
0.633692
-0.109521
0.017517
-0.538175
-0.640354
0.027800
-0.329900
-0.375769
0.768851
-0.762721
0.184594
0.838480
0.368350
-0.786713
0.815297
0.897892
0.412815
0.554443
-0.350968
0.971990
0.140848
0.801560
-0.401016
-0.602370
-0.755131
0.978601
-0.729884
-0.878878
0.677584
0.287851
-0.022169
0.944596
0.568109
0.030379
-0.641647
0.068264
0.574306
-0.210034
0.756950
-0.275348
-0.374207
-0.354434
-0.622282
0.346591
-0.516009
0.696418
-0.807667
0.736131
-0.327840
-0.440638
0.933097
0.567060
-0.987787
0.111175
-0.444486
-0.544986
-0.148493
-0.525456
-0.587793
0.908952
-0.507967
0.463210
-0.693285
0.692757
-0.250726
-0.743430
0.288709
-0.655550
0.424314
-0.431431
0.383153
0.518011
0.737829
0.513320
0.502298
-0.415590
0.029127
-0.115948
0.632031
0.510782
-0.512091
0.975647
0.946474
0.630165
0.488743
0.686839
0.849437
-0.800510
-0.449827
0.023474
0.871800
-0.458718
0.187636
-0.357162
-0.423101
0.845013
-0.924011
0.820136
0.974908
0.735949
-0.829046
0.012364
-0.605344
0.547190
-0.029054
0.577041
-0.651622
-0.735630
-0.686567
-0.754228
-0.003219
-0.569399
0.211794
0.240964
0.088676
0.593670
-0.389757
0.797826
-0.980936
-0.961583
-0.863762
-0.472729
0.870751
-0.039750
0.790158
0.041306
0.682644
-0.651416
0.273417
-0.022727
-0.228337
-0.221213
0.061747
0.288490
-0.384612
-0.740659
0.533529
0.282173
0.934847
-0.587070
0.345682
0.006556
-0.311967
-0.510074
0.220417
-0.191895
-0.644666
0.494929
0.139070
0.183774
-0.082349
-0.360519
0.296815
-0.384147
-0.866680
-0.918743
-0.747109
-0.793832
0.516082
-0.809086
-0.577993
-0.100140
-0.690319
-0.433362
0.322814
-0.983912
-0.006960
0.527021
0.627369
0.285189
-0.443561
-0.144130
0.872446
-0.756102
-0.868794
-0.328171
-0.603147
0.805742
0.417251
0.323595
0.503808
0.898505
0.453041
0.408904
-0.954362
0.482250
0.685043
0.906563
0.400413
-0.980445
-0.380316
0.829065
0.132749
-0.785494
0.780114
0.351053
0.243357
-0.024342
-0.703856
-0.088807
-0.931076
0.589635
0.576430
0.272528
0.256752
-0.810435
0.274655
0.044662
-0.578786
0.535274
-0.919610
-0.077537
0.851936
-0.956571
-0.597675
-0.433636
-0.396628
0.661178
0.673604
-0.473408
0.780460
-0.232948
0.633641
-0.485577
-0.031019
0.784966
-0.413157
0.265916
0.407080
-0.141940
0.592778
0.680462
-0.823268
0.551341
-0.754757
0.127778
-0.572303
0.607560
-0.770103
-0.383296
0.123225
-0.164800
0.345646
0.841865
0.130036
0.262527
-0.284531
-0.510689
0.980176
-0.906449
0.308516
-0.664316
0.198709
-0.110733
-0.037492
0.185770
0.847198
0.290794
0.478682
-0.665240
-0.043539
0.227704
0.882860
-0.714594
0.063062
0.640094
0.570175
-0.933295
0.359691
-0.540083
-0.965322
0.719937
-0.160983
0.660614
-0.072635
0.191256
0.496468
0.497789
0.382243
0.628710
-0.935549
-0.001301
0.505529
-0.393030
0.537968
-0.380405
0.939119
-0.766006
0.777598
-0.662258
-0.908568
-0.059507
-0.473655
0.009565
0.623197
0.611334
0.493485
0.767691
-0.772596
0.306745
0.961826
0.154770
-0.366802
-0.593871
0.579569
-0.053577
0.771369
-0.434124
0.296776
0.301690
-0.615407
0.250785
0.983965
0.901082
-0.002337
0.999875
-0.024992
0.058363
-0.154432
-0.939210
-0.291507
0.091745
0.445330
-0.446813
0.948445
0.504574
0.687722
-0.419649
-0.803778
0.958921
0.684991
-0.108694
0.060429
-0.523720
-0.374412
0.652982
-0.115234
-0.599330
0.214022
0.579126
0.968059
0.813962
-0.903943
-0.048282
0.991771
0.118094
0.488368
-0.198314
-0.417207
0.105312
0.425215
-0.915947
-0.032356
0.612437
0.403955
0.469697
0.379761
0.986112
0.240997
0.691272
0.269706
-0.021679
0.479570
0.687346
-0.277095
-0.567483
-0.717839
-0.784569
0.399060
0.155245
0.118353
-0.833942
-0.276767
-0.585313
-0.953731
0.492780
-0.269562
-0.577906
-0.304216
-0.012010
-0.224663
-0.256259
-0.240489
-0.115747
0.514668
-0.412705
0.280930
0.826259
0.935912
-0.109592
0.515788
0.133405
0.637065
-0.705220
0.870284
-0.261178
0.024367
0.958849
0.933215
-0.962295
0.729671
-0.456012
-0.171463
0.557062
0.334386
0.480262
-0.972064
-0.831783
0.137325
-0.365970
-0.362630
0.647369
-0.346061
-0.135349
-0.346350
-0.908562
0.522653
0.515333
-0.183201
0.501457
0.502441
-0.353386
0.326845
0.612926
-0.994794
0.870526
0.823612
0.038809
-0.707452
-0.958700
-0.611468
-0.816441
0.949190
0.382113
0.272879
-0.288365
-0.231332
-0.139884
-0.109039
-0.196891
-0.158363
-0.549318
-0.594898
0.689994
-0.305893
0.898144
0.630569
-0.600412
0.628793
-0.927167
-0.029845
0.684658
-0.600775
0.806936
0.299106
0.160200
0.812857
0.492720
-0.529119
-0.434714
0.470712
0.810747
0.289502
-0.208676
-0.317195
0.368418
-0.875103
0.198351
0.495345
-0.519423
-0.107650
-0.566859
-0.113697
0.850158
0.006892
0.224729
-0.853626
0.642390
-0.003859
0.235741
0.248698
0.449308
0.594900
-0.754091
-0.260497
-0.869849
0.825785
0.506497
-0.619307
-0.026315
-0.181557
-0.993945
0.137646
-0.192009
-0.341074
-0.680280
0.310742
-0.389645
-0.474292
0.643278
0.069759
0.465556
0.615903
-0.972228
0.151634
0.431069
0.990922
0.817021
0.535562
-0.303432
-0.938371
-0.030294
0.302180
0.332748
0.988146
0.444876
-0.659586
0.167258
-0.248455
0.527545
-0.527825
-0.651788
-0.143383
0.912572
0.707396
0.063574
0.379943
-0.844077
-0.252032
0.236043
0.766164
-0.814099
0.548848
-0.041205
-0.782447
0.915521
-0.037349
0.510704
0.058548
0.068487
0.110012
0.383664
0.019121
-0.418684
0.940460
0.543900
-0.896570
-0.530456
-0.225867
0.913491
-0.221611
0.226309
-0.183222
0.183592
-0.780252
-0.038689
0.539349
-0.462822
-0.964760
0.908510
-0.570475
-0.963741
-0.640747
-0.496850
-0.749050
0.387249
-0.442215
0.927888
-0.318246
0.983366
-0.094068
-0.868118
0.473519
0.345015
-0.019903
0.312961
0.782491
0.539469
0.555356
-0.374070
-0.152179
-0.987981
0.274051
0.579984
-0.619773
0.804007
0.978862
0.208015
0.172180
0.664506
0.772485
0.555676
-0.314039
0.555787
0.398886
-0.133129
0.099503
-0.575319
0.373149
-0.109961
-0.924883
-0.924060
0.666503
0.025036
0.258733
-0.132329
0.120224
0.750393
-0.007392
-0.608310
0.280504
-0.186802
0.927765
0.432281
-0.072599
-0.625957
-0.038428
-0.430544
-0.401981
0.268280
0.247239
0.870243
0.482320
-0.074191
-0.260450
-0.194420
-0.987926
0.574907
0.169961
-0.001362
0.344565
0.464724
0.962917
0.646635
-0.904258
0.848328
-0.010305
-0.458099
0.512551
-0.899374
0.371440
0.527413
0.033746
-0.064744
0.541553
0.449406
-0.456171
-0.018550
0.847093
0.104680
0.008148
0.657449
0.639537
0.598665
-0.041998
-0.753550
0.903026
0.872789
0.111000
0.138138
-0.450394
0.872537
-0.706278
-0.821730
0.842828
-0.401296
-0.441705
0.739552
-0.959450
0.686639
0.413508
-0.036347
0.890178
0.412094
0.866200
0.702093
0.421458
0.613166
-0.324888
-0.515441
-0.425387
0.790699
-0.854956
0.001982
-0.556945
0.822003
-0.361081
-0.797590
-0.484291
0.474420
-0.013204
0.327082
0.241377
-0.943367
-0.433689
-0.611110
-0.866953
0.798644
0.052307
-0.086044
0.406567
-0.084871
-0.774444
0.231432
-0.554453
0.562787
-0.635225
0.224251
0.499409
-0.744230
-0.926076
-0.118958
0.827950
0.958107
-0.176988
0.121682
-0.539444
0.146164
0.978289
-0.079463
0.144488
-0.869171
0.413834
-0.136002
0.798814
0.150603
0.262781
-0.769373
-0.093258
0.425706
0.648140
-0.664819
-0.295589
-0.985156
-0.236876
-0.008915
-0.369960
-0.185392
-0.664836
0.614574
-0.719702
0.772735
0.129940
0.208488
0.854708
-0.788025
-0.683708
-0.745159
-0.778536
-0.771757
0.982714
-0.912177
-0.696904
-0.418868
-0.032299
0.495736
-0.267698
0.503609
-0.001578
-0.288593
0.809406
-0.808157
-0.542593
-0.501596
-0.948764
0.323355
0.924618
0.477958
-0.529321
0.127650
0.272509
-0.759520
0.846801
-0.684081
-0.340302
0.571226
0.919079
-0.572855
0.087420
-0.650166
0.438150
-0.408373
-0.640353
-0.049973
0.226551
0.303654
-0.187383
-0.247379
-0.796485
0.456205
-0.985547
-0.166366
0.182036
0.888116
0.750574
0.283794
0.163278
0.746193
-0.810749
-0.118138
0.929182
0.765450
-0.337179
0.580880
-0.194762
-0.585556
-0.993522
0.693355
0.801373
0.272820
0.443746
0.793662
0.155774
-0.664473
-0.778197
-0.327066
-0.542773
0.134761
0.379537
-0.158450
0.985866
0.965764
-0.170525
0.386238
-0.808468
-0.084997
0.260604
-0.903183
-0.273822
0.018756
0.385934
-0.772257
-0.228231
0.339045
-0.682779
0.475311
0.210370
0.608697
-0.911063
0.262979
-0.765872
-0.793451
-0.168194
0.791989
-0.795564
0.876711
0.301029
-0.452226
-0.888632
0.868264
0.908343
0.778888
0.763544
-0.963608
0.259576
0.769206
0.832967
0.541271
-0.502671
-0.399013
0.338570
-0.985865
-0.442890
-0.566065
0.944444
0.272525
0.996490
0.096065
0.922469
-0.863118
0.723891
0.027857
0.445496
0.095473
0.090842
0.888361
-0.298878
-0.092134
0.329073
-0.728952
-0.177601
-0.625280
0.969812
-0.526910
0.196260
0.936388
0.825969
-0.092876
-0.571566
-0.519028
0.443783
0.083870
0.594962
-0.377918
0.372973
0.063527
-0.518765
0.898871
-0.506980
-0.110068
0.056124
-0.288424
-0.207281
-0.987015
-0.602802
-0.239675
-0.768235
-0.087461
0.915878
0.447575
-0.249349
0.842076
-0.507332
-0.239512
-0.673935
-0.999989
0.419623
0.475495
0.670501
-0.631325
0.303155
0.701545
0.316460
-0.283648
0.657040
-0.632731
-0.125300
0.648532
0.296330
0.149853
0.784104
-0.632799
-0.743437
0.463358
0.507681
0.859539
0.309995
0.539488
-0.228505
0.992714
0.624138
0.109681
0.705037
0.405471
0.801343
-0.329185
0.882779
0.570224
-0.521676
0.742078
0.514199
-0.831187
-0.457128
-0.508025
-0.126699
-0.903280
-0.954953
0.255350
0.127931
-0.496625
0.174618
-0.807969
0.244401
0.203223
0.343842
-0.749962
-0.515791
0.715645
0.631432
0.128442
-0.016661
0.180882
0.526402
-0.338733
0.938659
-0.487784
0.483750
-0.586680
-0.496410
0.292853
0.032930
-0.858465
0.535034
-0.852547
-0.349897
-0.688079
0.562408
-0.319509
0.429182
-0.520294
-0.715017
-0.277065
-0.191614
0.942594
-0.907766
0.905620
0.606210
0.301074
-0.562885
-0.232816
-0.860611
0.647845
-0.763968
0.811484
0.999272
-0.192638
0.843684
-0.481895
-0.778899
0.597498
0.062503
0.530966
0.087024
-0.931937
0.218826
-0.220368
0.397127
-0.978781
-0.507422
0.405896
-0.128647
-0.830412
-0.509373
0.898120
0.330219
-0.188448
0.890598
0.896051
-0.181833
0.182566
-0.398931
-0.012599
-0.576901
-0.892944
-0.383388
0.231686
-0.758272
-0.768315
-0.387312
-0.363500
-0.057723
0.010080
-0.369617
0.110156
0.803789
-0.686688
-0.874191
-0.197186
-0.313275
0.185997
0.479128
0.131265
-0.766752
0.408923
-0.206128
0.651182
0.000244
-0.292385
0.527005
0.376103
-0.994367
0.428288
0.736987
-0.011488
0.608649
0.458493
-0.302485
0.436774
-0.184467
0.807568
-0.205307
0.420323
-0.072185
-0.325266
0.335445
0.184429
0.819240
-0.702985
-0.908898
-0.594015
0.439163
-0.786545
0.290801
0.639849
-0.573025
0.503790
0.365579
0.442131
0.939054
-0.024058
-0.000092
0.928968
0.771272
0.327444
0.681452
0.475018
-0.155250
-0.658178
0.464982
-0.325550
0.498293
-0.551547
-0.660758
0.694179
-0.147644
-0.450797
-0.596036
-0.495824
-0.987350
0.596734
0.075529
0.764724
-0.742241
-0.604369
0.743236
0.258844
0.144520
-0.578355
0.257261
0.818957
0.403062
-0.082911
-0.031712
-0.817370
0.111248
0.128132
-0.370872
-0.905504
0.382244
0.179699
0.972507
-0.723388
0.722644
0.521720
-0.555224
0.072598
0.092097
-0.839055
-0.654699
0.363229
0.703225
-0.786054
0.846983
-0.940749
-0.006958
-0.546852
-0.176099
-0.819422
0.105714
-0.140206
0.032551
0.473728
-0.623359
-0.087403
0.978365
0.321170
0.792467
-0.045133
0.881729
-0.157518
0.281906
0.457134
0.638973
0.301772
-0.152663
0.254427
-0.409918
-0.122803
0.214934
0.404616
-0.286987
0.737757
-0.802023
0.271207
-0.726590
-0.494483
-0.119616
0.097481
-0.146436
0.141128
-0.850635
0.408813
-0.779680
-0.547793
-0.531423
0.716971
0.828795
-0.166796
0.590600
0.222719
0.154269
0.640725
-0.649298
0.790695
-0.722678
0.193981
0.654578
0.067935
0.054348
-0.795794
-0.505974
0.281133
-0.103973
0.123925
-0.228240
-0.594294
0.488769
-0.140938
-0.657922
0.544743
0.233862
0.498390
-0.556751
-0.080269
-0.376606
0.152248
-0.051657
0.328713
-0.890722
0.758976
0.336829
-0.290278
-0.945818
0.148872
0.615335
0.278163
0.345231
0.480280
0.061699
0.932629
0.969042
0.737385
0.503566
0.783518
-0.830345
-0.258663
0.508621
-0.222717
-0.318839
-0.034932
-0.165392
-0.484111
0.089241
-0.474387
-0.526859
-0.804985
0.196141
0.272718
0.636433
0.944947
-0.150209
-0.610130
0.929034
-0.371078
0.055468
-0.602173
-0.875100
-0.372148
0.847450
0.976140
-0.404870
-0.349025
-0.470694
0.451249
0.639581
0.031026
-0.663256
-0.323400
0.644425
0.658629
0.678133
0.377078
-0.892191
0.944688
-0.832443
0.406754
0.829598
-0.815556
0.866746
0.216028
0.867225
0.124615
0.116280
-0.323632
0.422255
-0.570657
-0.684601
-0.724418
-0.430951
0.481353
0.900731
-0.446826
-0.132139
-0.289971
0.208941
-0.861660
-0.004095
-0.839774
-0.808620
0.999059
0.645021
0.510685
0.440165
0.337046
0.233168
0.002740
0.284092
0.687500
-0.186622
0.707927
-0.423370
0.956580
-0.719210
0.712449
0.678823
0.608303
-0.083107
-0.136436
-0.343707
-0.659203
0.170908
-0.896041
-0.590957
-0.513876
-0.004662
-0.641758
0.034377
-0.838861
-0.590956
0.630304
-0.096957
0.255020
-0.794066
-0.064872
-0.495580
-0.043533
-0.061658
-0.322831
0.188598
0.567168
-0.319013
-0.303928
0.487266
0.477410
-0.781637
-0.997172
-0.555962
-0.867674
-0.212326
0.524466
0.080092
0.334053
0.259913
0.429996
-0.728091
-0.418863
0.993932
-0.966809
0.385205
0.419509
-0.227032
-0.755002
0.357945
-0.655743
0.964876
-0.002474
-0.336003
0.124827
-0.540897
0.339410
0.859159
0.210176
0.947406
-0.837896
-0.742059
0.765172
0.587741
0.868685
-0.085751
0.565975
-0.334118
0.700215
-0.354422
0.224500
-0.232142
-0.922879
-0.172719
0.935367
0.192166
-0.612871
-0.077584
0.702510
-0.310971
-0.749085
-0.501202
-0.526240
-0.103312
-0.026354
0.668699
-0.865404
-0.866281
-0.937865
0.510357
0.828803
-0.971231
-0.241745
-0.499089
0.494565
0.747213
-0.359508
-0.933212
-0.647822
0.366489
0.509360
-0.992238
-0.951753
-0.657717
0.228301
0.640198
0.444098
-0.896917
-0.316757
-0.828795
-0.895555
0.408592
-0.223799
0.417199
0.571772
-0.547846
-0.475250
0.065493
0.783685
0.043467
0.827623
-0.870981
0.366345
-0.819874
0.653699
-0.450241
0.097145
-0.820478
-0.504448
0.643738
0.871161
0.921288
0.344897
-0.308604
-0.168137
-0.921579
-0.296539
0.613916
0.490513
0.221660
0.825070
-0.559129
-0.927305
0.142156
-0.619438
-0.770847
0.327745
-0.865834
-0.090958
0.144617
0.943419
-0.076001
-0.044895
0.611527
0.099894
-0.802994
0.403267
-0.060514
0.469450
-0.488806
0.935323
0.319666
0.791851
0.522578
-0.657418
0.595597
-0.877683
-0.503311
0.556064
0.416864
-0.630169
-0.104518
0.494867
-0.869722
0.940115
-0.067036
-0.534706
-0.293144
0.245052
0.285083
-0.126038
0.216308
0.892495
0.154755
-0.937079
-0.705547
0.958810
-0.873345
0.525619
0.901918
-0.264111
0.604527
-0.217269
0.762816
0.608403
-0.549963
0.090729
-0.987254
0.553304
0.128471
0.446581
0.134986
-0.860994
0.214830
-0.763707
-0.977827
-0.143895
-0.647729
-0.267413
-0.343658
-0.646873
0.625149
-0.314275
-0.006174
-0.032208
-0.813526
0.011749
-0.179387
0.866444
0.546160
0.270354
0.927735
0.397239
0.497261
0.441869
-0.161890
0.673662
0.945581
-0.414362
0.289952
0.889076
0.840709
-0.005029
-0.376586
-0.913369
-0.329813
-0.503048
-0.627217
0.119345
0.549101
0.018813
0.133946
0.758880
-0.569676
0.647347
0.828495
-0.251745
-0.177140
-0.389474
0.039320
0.825772
-0.017498
0.491645
-0.719302
0.897016
-0.919154
0.139158
-0.470221
0.863707
-0.978631
-0.770228
-0.579150
-0.557198
-0.100412
0.279365
0.414654
0.998321
-0.357327
0.369517
-0.475979
0.189423
-0.221076
0.377583
-0.543321
0.468481
-0.249673
0.468383
-0.918861
-0.748262
0.506361
0.393853
-0.611700
0.894008
0.734770
-0.782663
-0.377460
0.357354
0.340383
0.691295
0.732186
0.501725
0.701251
-0.732871
0.110762
-0.329087
0.049448
0.054817
0.563231
0.334339
-0.580170
0.682820
-0.124555
0.681487
-0.930938
0.537791
-0.575559
-0.415131
0.546201
-0.920817
-0.561848
-0.235780
0.963474
-0.444878
0.321593
-0.297670
-0.328774
0.034100
0.012698
0.524894
0.522517
-0.359042
-0.313800
-0.277395
-0.545095
0.983098
0.799852
0.639639
-0.236995
-0.237268
-0.583384
-0.135849
0.181034
0.088954
0.527034
0.590217
-0.578251
-0.874737
-0.713212
0.208465
0.676925
-0.452294
-0.686737
-0.274003
-0.078887
0.480656
0.518943
-0.938959
0.073223
-0.699181
-0.977694
0.379404
-0.951430
-0.614491
-0.246707
0.066157
0.125001
-0.849683
-0.760126
0.167724
-0.708363
0.094374
-0.924907
0.591246
0.047818
-0.241323
0.167122
0.747944
-0.971865
-0.555762
-0.521988
-0.173672
-0.968752
0.405707
-0.842062
0.220151
-0.300614
0.526717
0.612966
-0.062298
-0.225315
0.022554
0.497818
0.365937
-0.354128
0.188084
0.137158
-0.631389
-0.672954
-0.447825
0.096396
0.340552
-0.436451
-0.544203
-0.404996
0.875710
-0.265756
-0.345397
-0.644759
0.450644
-0.092228
-0.200266
-0.832235
-0.498343
-0.405564
-0.097490
-0.478055
0.851574
-0.492581
-0.555478
0.998592
-0.590861
-0.257233
-0.483381
0.604762
0.821302
-0.322739
0.158154
-0.600084
-0.847324
-0.166922
-0.020501
0.535854
0.942825
-0.799772
-0.522179
0.219895
0.477690
0.263551
0.908466
-0.025865
0.299582
0.711740
0.865532
-0.233964
-0.807433
-0.280122
-0.225855
-0.368531
0.935562
0.618710
-0.949251
-0.559900
-0.095091
-0.426550
0.932668
0.149847
-0.041880
0.956667
-0.595934
-0.751501
0.034359
-0.125946
0.765350
0.653912
0.800315
0.037359
0.828749
0.505443
0.894403
-0.407087
-0.533180
0.950794
0.171907
-0.437876
-0.390511
0.015838
0.357714
0.359739
-0.544593
-0.654606
0.903948
0.730062
0.733932
-0.952882
-0.389967
0.994495
0.932861
0.127065
0.475475
-0.887706
-0.975549
0.046937
-0.242246
-0.689285
0.768534
-0.419699
0.392467
-0.090591
0.024905
-0.524481
0.168724
0.678690
-0.491773
0.844056
0.337758
0.058598
-0.070715
-0.943044
-0.671748
-0.524232
0.585513
0.296289
0.388844
-0.466173
0.846009
-0.832867
-0.527417
-0.981525
-0.714848
0.631448
0.127391
0.450887
-0.488529
-0.249207
-0.385195
-0.627271
0.206504
-0.641675
-0.412693
-0.453781
0.359137
0.572537
0.716566
-0.451453
0.511546
-0.905662
-0.341605
-0.194730
0.507221
-0.513753
0.297048
-0.454582
-0.612251
0.248032
-0.563258
-0.036906
-0.817705
0.559201
-0.325821
-0.582740
0.288136
0.810894
0.832469
0.723591
0.240848
0.812437
0.271585
0.937589
0.991034
0.207809
0.438905
-0.415946
-0.071629
-0.598928
0.474351
-0.730034
-0.817119
-0.916424
-0.304992
0.096500
-0.885207
0.610279
-0.222284
-0.825390
-0.440786
-0.655901
-0.312407
0.169913
0.782826
-0.390628
-0.675899
0.526555
0.848610
-0.581035
0.334538
0.646107
0.866525
0.957101
-0.875826
-0.363192
0.661749
0.328193
-0.120712
0.689346
0.586461
-0.842683
-0.987141
-0.588066
0.618745
-0.418716
-0.737501
-0.938620
-0.092734
0.380331
-0.924986
-0.987265
0.225297
-0.097647
-0.261051
-0.186995
0.291170
-0.888128
0.777892
0.408134
0.619409
0.007655
0.686429
-0.540096
0.464394
-0.091836
0.871794
0.891271
0.619881
-0.266274
-0.965818
-0.685156
0.043817
-0.284097
0.869029
0.989730
0.892750
-0.335630
0.619944
0.110760
-0.632327
-0.942313
0.861130
0.223943
-0.461509
0.187420
-0.390969
-0.266625
0.653211
-0.419776
-0.161044
-0.176020
0.887711
-0.195993
0.194058
-0.389277
-0.931469
-0.156846
0.110441
-0.042587
-0.230793
-0.687208
-0.415003
0.571410
0.386032
-0.632727
-0.057140
0.414166
-0.550657
0.230680
-0.227975
0.251405
0.611784
0.811771
-0.504216
-0.859652
-0.673953
0.196616
-0.184993
-0.843164
0.582760
-0.108252
0.770897
0.481499
-0.176118
-0.268917
0.605786
-0.515433
-0.607827
-0.030786
0.798113
-0.762687
-0.279319
-0.084664
-0.009808
-0.690043
-0.932119
-0.740894
-0.279705
-0.891578
0.297166
-0.374405
0.617441
-0.789155
0.802553
0.306084
0.819086
0.966036
-0.957500
0.828896
0.724868
-0.558108
0.580148
0.809211
-0.800780
0.654361
0.341543
0.184110
0.875211
-0.060952
-0.583178
0.666504
-0.477187
0.491802
0.456597
0.256650
0.847519
-0.217090
-0.489876
0.326091
-0.624270
-0.783293
0.286662
0.758686
0.712014
0.448636
-0.869819
-0.038100
0.071056
-0.610566
-0.261729
0.530074
0.734460
-0.214015
0.973640
0.811120
0.113923
-0.592605
0.062712
-0.571102
0.908070
0.895526
0.034977
-0.836316
-0.546440
-0.008743
-0.062916
0.423610
0.110699
0.092771
-0.741346
0.336637
0.751969
0.762537
-0.202065
-0.938932
0.539199
-0.284780
0.439683
-0.620150
0.436930
-0.061993
-0.237157
0.103445
0.668692
0.334118
0.376673
-0.503212
0.473907
0.064155
0.376382
-0.915935
-0.343345
-0.297378
0.140989
0.931735
-0.968016
-0.684112
-0.104207
0.583750
-0.289282
0.351996
-0.619859
0.635063
-0.724275
-0.098541
0.807686
-0.746875
-0.047470
0.968316
0.420201
-0.042063
0.511580
0.652466
-0.516523
-0.618700
0.107996
0.482632
-0.725875
0.071702
-0.690920
-0.409609
0.096635
-0.175131
0.856221
-0.534667
-0.776973
0.335454
0.971474
0.247781
0.477731
-0.266054
0.085333
-0.010162
0.953952
-0.722521
-0.752951
0.617672
-0.011304
0.963738
0.551812
0.339888
-0.931095
-0.690376
0.146212
0.997783
-0.665194
-0.797477
0.742525
0.721515
0.134566
-0.230136
0.880995
-0.057452
0.759155
-0.259294
-0.601132
0.405306
0.471291
0.789824
-0.607243
0.688248
-0.528941
-0.970457
-0.612307
0.679913
-0.220215
-0.478716
-0.288671
0.024515
0.993716
0.184112
0.948347
-0.035092
0.468942
0.716929
-0.482073
0.303652
0.858302
0.395896
0.544065
-0.336479
-0.937189
-0.123111
0.512529
0.564789
-0.860866
0.975743
-0.148561
-0.094483
-0.768021
-0.538583
0.823912
0.312343
0.887207
-0.682469
0.475732
-0.882646
0.612673
0.612155
-0.490608
-0.756330
-0.160135
0.503059
-0.802244
-0.761929
0.209390
0.102806
-0.869061
0.328907
-0.243254
-0.366387
-0.580322
0.156567
-0.157275
-0.761888
0.806018
0.264809
0.509683
-0.825380
-0.501714
0.872007
-0.347859
0.878025
0.620689
-0.395425
0.163795
-0.904314
0.950405
-0.062344
0.541229
-0.869412
0.049144
-0.975068
-0.754183
0.738201
0.290318
0.869272
0.474651
0.158911
-0.433181
-0.215663
-0.258869
0.113665
-0.752505
0.983792
0.281424
-0.770643
-0.513807
0.598985
-0.692675
-0.404535
-0.376828
-0.417933
-0.206341
0.108268
0.136493
0.946729
0.935290
0.120379
0.103068
-0.298347
0.503840
-0.000851
-0.190026
0.390862
-0.646767
-0.055843
-0.876451
0.508408
0.858753
0.175332
-0.937268
-0.084726
0.215217
0.448969
-0.112409
0.986532
-0.851709
0.536635
-0.168364
-0.348116
0.419263
-0.580886
-0.644078
0.019850
0.655039
0.572728
-0.779118
0.489807
-0.491392
-0.730746
-0.546453
-0.318938
-0.184845
0.961889
0.258515
-0.991554
-0.603351
0.621057
0.317034
-0.374865
0.698435
0.629965
-0.118032
0.507465
0.420909
0.875873
-0.251116
-0.788866
-0.762261
-0.315062
0.062236
0.065608
-0.239416
0.187751
-0.375018
-0.541770
0.897916
0.982496
0.168887
0.245287
-0.173400
-0.784924
-0.391197
-0.417043
0.941679
0.322608
0.219522
-0.143446
-0.574438
0.409115
0.866403
-0.926978
0.062140
-0.680212
0.993842
0.127651
0.525723
-0.263078
0.718322
0.475222
-0.891516
0.706873
-0.075531
-0.020825
-0.089404
0.107707
0.427576
0.776732
0.872401
0.234953
0.774060
-0.592428
-0.018940
-0.515706
0.770103
-0.455400
-0.872666
-0.560824
0.305162
0.473100
-0.686693
0.219227
-0.701310
-0.634568
-0.567209
-0.293018
0.789251
-0.076400
-0.111609
-0.331142
0.413659
-0.771992
0.145655
-0.303946
0.393061
0.450404
0.642721
0.258804
0.284661
-0.329075
0.385462
-0.880478
-0.173080
-0.046629
-0.875144
0.575666
-0.967922
0.516247
-0.270016
0.228028
-0.158039
0.657460
0.620685
-0.869146
-0.327814
0.781678
-0.753459
0.691540
-0.725866
0.379879
0.173014
-0.060905
0.382473
0.748880
-0.022817
-0.802855
0.592100
-0.100709
-0.236330
0.313337
0.906077
0.726995
-0.240725
-0.193630
0.239990
0.086619
0.615592
0.844081
-0.037915
0.438501
0.804370
-0.598856
-0.034481
0.619314
-0.153604
0.867445
0.694415
-0.918657
-0.262559
-0.804606
0.784815
0.649028
-0.318923
0.120019
0.594911
0.383166
0.988241
-0.009951
-0.665721
-0.349149
0.710341
-0.881481
0.602618
-0.652686
-0.722804
-0.532665
-0.954499
-0.142609
-0.452553
0.466183
0.480652
-0.029325
0.059229
-0.906751
-0.901746
0.267733
0.097594
-0.875876
0.262035
-0.319440
-0.629235
0.603493
-0.591542
-0.142075
0.005731
-0.712112
0.630362
0.438812
0.593334
-0.148416
0.480947
-0.606471
-0.008573
-0.489964
0.923913
0.094710
-0.878837
-0.666572
0.438043
-0.313624
0.547250
-0.566543
0.328609
0.196636
0.025786
-0.638235
-0.229199
0.565245
-0.851892
0.434892
0.156345
0.508082
0.700190
0.263124
0.019470
-0.363958
0.000391
-0.760465
0.558122
-0.707880
0.436222
-0.021412
0.146941
-0.992959
-0.378291
-0.108489
0.822003
0.556444
-0.271102
0.401591
0.118419
-0.905157
0.844067
-0.597588
0.959345
0.590001
0.360274
-0.208259
-0.003594
-0.132122
0.311355
0.201549
-0.388175
-0.922119
0.055022
-0.528321
0.201716
0.815198
0.881769
0.462729
0.005043
0.057934
-0.841823
-0.331706
0.640347
0.105029
0.606931
-0.643340
-0.102089
0.157334
0.555852
-0.781473
-0.366291
-0.981369
0.928537
0.215075
-0.943136
0.963360
-0.429088
0.652323
-0.224247
0.452107
-0.432653
0.252704
0.977453
0.011572
-0.125542
-0.566812
0.004395
0.884110
0.292969
0.045219
-0.508421
0.196226
-0.825742
0.354405
0.413208
-0.884823
0.271460
-0.693250
0.846916
0.206119
0.207823
-0.911388
0.075830
0.230075
-0.376193
0.833207
-0.348028
-0.620053
-0.290116
0.939594
-0.931972
-0.473859
0.660684
-0.005496
0.199640
-0.491886
0.766190
-0.667690
-0.385531
-0.507532
0.961094
0.956326
-0.322337
-0.721004
0.358901
0.286321
0.069268
-0.123903
0.929081
-0.876902
0.376995
-0.815770
-0.657981
-0.794318
-0.865772
-0.759235
-0.987521
-0.772633
0.873152
-0.091226
0.240573
0.494158
0.062687
0.850956
0.509565
0.490956
-0.101972
0.003091
0.794776
0.334277
0.404478
0.778499
-0.855732
0.295523
0.510663
0.874113
-0.743298
0.997880
0.186289
-0.868991
0.870425
0.746865
-0.684943
0.708695
0.240366
0.329774
-0.292871
0.876350
0.918022
-0.240646
-0.737145
-0.128601
0.917620
-0.711405
-0.727920
0.500659
-0.583257
0.713080
-0.907908
0.371660
-0.656419
0.543251
0.956478
0.921021
-0.518961
-0.776811
0.664066
0.013082
-0.777001
0.813861
-0.635722
0.648452
-0.651191
-0.022870
-0.702889
-0.944363
-0.028172
-0.425060
0.063601
-0.213359
0.723797
0.020879
0.388901
-0.019676
-0.187251
0.226519
-0.346171
-0.383494
-0.322106
-0.908578
-0.940021
-0.303168
-0.504235
-0.671604
-0.369248
0.284645
-0.258180
0.671666
-0.313489
0.105800
-0.843349
0.126351
0.288995
-0.725932
0.146665
0.152877
0.640445
0.021426
0.870862
0.754612
0.891306
0.094225
-0.096121
-0.874564
0.709358
0.253291
0.101024
-0.299446
0.780642
-0.794117
0.975353
-0.968803
-0.427924
0.693696
-0.179151
-0.082919
-0.164038
-0.625376
-0.013617
0.882201
0.677649
-0.907301
-0.360561
-0.372986
0.881748
-0.926552
0.735770
0.870795
-0.500087
-0.542750
-0.301128
0.092956
-0.473125
-0.950883
-0.553043
-0.783271
0.244853
-0.020010
0.509765
0.780867
-0.920602
-0.284783
0.268326
-0.594167
0.012822
0.443782
0.835897
0.767342
-0.810117
0.962570
-0.270202
-0.258669
0.891008
-0.499559
-0.922790
0.542928
-0.222560
-0.179110
0.442873
-0.182394
0.353881
0.857158
0.142864
-0.346204
-0.845857
-0.928190
-0.570728
0.451328
-0.767300
0.230725
0.853197
0.337946
-0.661063
-0.145582
0.641321
-0.810476
0.854048
0.154035
0.511042
0.132880
0.665036
-0.935776
0.964249
-0.645451
-0.666200
0.101704
-0.706622
-0.178536
-0.091709
-0.366317
-0.277873
0.912952
-0.377793
0.707145
0.423212
0.144585
-0.814140
-0.218768
0.347325
0.102092
-0.546695
-0.402832
0.320004
0.547677
0.390036
0.934488
0.981253
-0.193745
-0.032307
0.999068
-0.539798
0.420215
-0.077358
-0.962316
0.642912
-0.408757
0.377172
-0.337208
-0.837834
-0.742043
0.723993
-0.728549
-0.213164
0.878146
0.514424
0.566705
-0.452480
-0.668893
-0.296827
-0.854908
-0.485398
-0.260956
-0.706192
0.196602
0.375422
-0.537011
-0.747574
-0.446965
-0.638532
-0.254106
0.846078
-0.306831
0.266884
-0.321796
0.002842
0.889932
-0.080195
-0.393753
0.799406
-0.090375
-0.826917
0.876604
-0.130021
0.879540
0.596695
-0.249892
0.145571
0.793997
-0.386391
0.793193
0.735220
0.659415
0.599185
-0.401004
0.576774
0.671908
0.338824
-0.286577
0.959260
-0.014391
-0.827706
0.899792
-0.697736
0.144978
-0.373187
-0.488070
-0.556383
-0.696793
0.223901
0.480559
-0.600450
0.757138
0.092589
-0.594591
-0.451115
-0.569972
-0.930825
-0.251105
0.132514
-0.506036
0.296101
0.041634
-0.452132
0.187896
-0.036164
-0.658637
0.140946
0.137940
-0.589850
-0.406580
-0.194831
0.217508
0.774979
-0.870845
0.792855
-0.759925
0.932554
-0.885058
-0.596964
0.561284
-0.189804
-0.615698
0.595132
0.685700
0.037538
0.772235
-0.059598
-0.514546
0.097609
-0.551814
0.191648
-0.066305
0.296285
0.211476
-0.030355
0.510028
0.417797
-0.201045
0.369522
0.612495
0.833209
-0.862169
0.762398
0.029474
-0.008605
0.083018
0.702308
-0.512644
0.726695
0.008545
0.684012
-0.511037
0.231287
-0.655240
0.500684
-0.280631
-0.358626
-0.445708
-0.984827
-0.847029
0.865708
0.967051
-0.990213
-0.267149
-0.486757
-0.628923
0.803423
0.573045
-0.802070
-0.981548
-0.011037
0.676122
0.016746
-0.984815
-0.999547
-0.971752
-0.769514
-0.956357
0.941105
0.456586
-0.976143
-0.111704
0.700395
0.068179
-0.736654
-0.984865
0.500305
-0.702669
-0.891330
-0.632625
0.284665
0.177864
-0.847953
0.263967
-0.447104
-0.590277
0.692098
-0.212216
0.016374
0.329626
0.255220
-0.891097
-0.736114
-0.892580
-0.552092
0.810510
0.435092
0.240175
0.792498
-0.334289
0.419284
-0.332528
-0.875334
-0.931886
0.533009
0.198537
-0.788373
-0.353226
0.061175
-0.499421
-0.074430
-0.280276
0.843465
-0.491899
-0.644765
-0.049185
-0.147521
-0.855608
-0.603737
-0.974799
0.274061
0.932472
0.103682
-0.469924
-0.878589
0.796639
-0.630555
-0.552948
0.015931
0.663559
0.876122
-0.864044
0.025872
0.776658
0.552619
0.705713
-0.272719
-0.821651
0.705731
0.773828
-0.174458
-0.506139
0.052749
0.626624
0.332762
-0.374606
0.683535
0.442731
0.771781
-0.115464
0.725756
0.586470
0.098883
0.867194
-0.448321
0.651016
0.726253
0.444300
-0.908959
0.791475
-0.340234
-0.322282
0.039249
-0.171470
0.169493
-0.592972
0.224998
-0.823238
0.326468
-0.110168
-0.951037
0.922687
0.355693
-0.121836
-0.011932
-0.547331
-0.652535
-0.981447
0.338631
0.534209
0.915418
0.885556
-0.203169
-0.331229
-0.732951
0.550545
-0.034336
-0.043315
0.703133
0.646657
-0.235845
-0.090306
0.762331
0.471208
0.889079
-0.183679
-0.059754
-0.718400
-0.112763
0.396399
0.650649
0.046856
0.377100
-0.528782
-0.716582
0.784205
-0.979581
0.394264
-0.927110
-0.576943
-0.784399
0.998310
-0.967867
0.989648
0.580532
0.660105
0.022760
0.392713
0.463402
-0.035930
0.994294
0.116985
-0.412196
-0.344512
0.447293
0.293687
0.616182
-0.864927
0.498424
-0.543170
-0.603063
0.045230
0.063641
-0.664873
-0.863704
0.283089
0.826155
0.901768
0.057414
0.918035
-0.397063
0.994061
0.770962
0.178966
0.140895
-0.648288
0.327871
0.178303
0.555589
0.720054
0.385423
0.191602
0.073058
0.545808
0.057685
-0.113343
-0.757231
-0.365748
0.583651
-0.636679
0.290323
-0.162882
0.064409
-0.081589
0.859344
-0.451246
-0.520243
-0.202994
0.607340
-0.039579
0.614258
0.243683
-0.356142
0.153082
-0.383628
-0.703277
0.636228
0.856168
-0.149146
-0.443783
0.200475
0.348946
-0.282164
0.909412
0.973720
-0.842587
0.178292
0.866765
0.343357
0.149021
0.402236
-0.978113
0.499064
0.347148
0.913926
0.054056
-0.446252
-0.212250
0.806096
-0.745975
-0.353563
-0.703949
-0.292519
0.903670
0.328227
0.898421
-0.413443
-0.548320
-0.009083
0.955818
-0.749940
0.108557
0.109035
-0.493963
-0.171521
0.307076
0.843711
-0.417635
-0.140768
-0.973764
0.013228
-0.833076
0.246421
0.808989
-0.070569
0.825065
-0.735367
0.605534
0.631478
-0.595666
0.933917
0.705636
-0.209442
-0.984790
0.650741
0.318135
0.855122
0.761427
0.003710
-0.585758
-0.537748
0.879579
-0.743592
0.864002
0.948485
-0.115992
0.976444
-0.049180
-0.458579
-0.604948
-0.807805
0.651218
0.809580
-0.850611
-0.243130
-0.968954
0.387658
0.585451
0.766993
0.370475
0.372043
0.068749
-0.923150
-0.873849
0.703303
-0.605527
-0.500189
-0.012355
0.521288
-0.042473
0.275379
-0.238180
0.117421
0.847314
0.518559
0.090622
0.051329
-0.552969
0.069064
-0.278024
-0.888357
0.450989
-0.980380
-0.875730
0.011680
0.638066
0.028403
-0.628285
0.899373
-0.167797
0.191890
-0.731483
-0.479166
0.713126
-0.670747
-0.263670
0.616294
0.619894
0.638155
0.184719
0.052414
-0.841404
0.550438
-0.459432
-0.668276
0.923773
-0.254355
0.411012
0.711784
0.515134
0.240665
-0.980170
-0.217728
0.592125
0.472106
-0.704543
-0.067936
-0.672248
0.990203
-0.285500
-0.869662
-0.153255
-0.663098
-0.614599
0.976334
-0.125426
0.620372
-0.818700
0.900722
-0.466734
0.745261
0.291238
0.085462
-0.805011
-0.384348
-0.833638
-0.169741
0.247784
-0.478731
0.022268
-0.685168
-0.967521
-0.485219
0.218935
0.160454
-0.764748
0.887032
-0.173166
0.989508
-0.318200
-0.882381
0.862583
0.851887
-0.288397
-0.673802
-0.132838
0.769911
-0.831667
-0.679155
0.895562
-0.782630
-0.297577
0.433585
0.951832
0.088650
-0.852386
0.746570
-0.985802
0.198346
0.652174
-0.462628
-0.895637
0.645245
-0.599054
0.096016
0.560395
-0.330972
-0.548889
-0.788108
0.490267
-0.696411
-0.986056
-0.269233
0.466307
0.999349
0.370623
0.731672
0.333917
0.176098
0.186761
0.953183
0.918211
0.888480
-0.506983
0.221124
0.894714
-0.272145
-0.602174
0.814952
-0.053421
-0.524254
0.150169
-0.429494
-0.627300
-0.411590
-0.206040
0.945106
-0.574791
-0.457359
-0.819468
0.407797
-0.848170
0.961535
-0.217592
-0.952451
-0.753314
-0.657803
0.231116
0.993887
0.824841
-0.579243
0.333428
0.231342
-0.200628
0.300428
0.377680
-0.826134
0.015537
0.693407
0.317748
0.567438
-0.312604
-0.476609
-0.945957
-0.873978
-0.153915
0.135877
-0.347935
0.017661
-0.234442
-0.739406
-0.371413
0.244068
0.712820
0.400578
0.101842
-0.057958
-0.177589
0.536873
-0.818471
0.696166
0.425361
-0.168538
0.846649
-0.844770
-0.415040
0.700823
-0.714565
-0.713846
-0.663110
0.073725
-0.185094
0.053937
-0.830859
-0.794486
0.697700
0.873421
0.059624
-0.061290
0.427556
-0.469228
-0.206785
-0.910127
-0.215458
0.601114
-0.355773
0.877521
0.436620
-0.405194
-0.962839
-0.202344
0.087621
-0.996276
0.777031
-0.938345
0.309268
0.170687
-0.936162
0.656622
-0.820093
0.580098
0.594114
-0.801699
0.810667
-0.594254
0.035691
-0.366659
0.495856
-0.171457
0.554868
-0.883525
-0.253964
-0.308760
0.452559
0.889322
-0.124718
-0.160380
-0.618632
0.176916
-0.771626
0.167999
0.997649
0.518627
0.554294
0.353364
-0.088327
0.767801
-0.222250
0.104171
0.817431
-0.761591
-0.288493
-0.963007
-0.775847
-0.271092
0.295009
0.276130
0.061381
0.722816
-0.787585
0.707643
0.989258
0.838591
-0.019192
-0.442867
-0.645569
-0.905342
0.779899
0.810166
0.287298
0.516146
-0.292329
-0.234169
-0.521859
0.926336
0.899734
0.301165
0.887907
-0.965780
0.347207
0.474011
0.707834
0.906052
0.846824
-0.770513
0.783732
-0.938304
-0.633136
-0.428896
-0.603202
0.707011
0.525737
0.850998
-0.649903
-0.180298
0.256807
-0.813252
-0.881236
-0.553119
0.674122
-0.444795
0.989652
-0.433840
-0.898135
0.418337
0.527636
-0.135219
0.383996
0.263395
-0.871441
-0.070738
0.959506
-0.329949
0.580311
-0.773260
0.589810
0.954201
0.511237
-0.254882
0.601380
-0.399268
-0.707351
-0.099397
0.200476
0.632378
-0.815341
-0.841680
0.170887
0.919415
0.072733
0.632328
-0.278469
-0.179888
0.578412
0.347681
0.696453
0.949033
0.007254
0.179725
0.142996
0.809357
-0.242691
0.445937
-0.751082
-0.750589
-0.018425
0.985675
-0.989605
0.469840
-0.447257
0.827478
-0.581200
0.380487
-0.238664
0.058991
-0.352451
0.472368
-0.537799
-0.577895
-0.274114
0.935748
0.947991
-0.732218
-0.235601
-0.019758
-0.887890
0.207629
0.644177
0.046018
-0.317492
0.415942
0.151806
0.934815
-0.135814
0.677015
-0.127794
-0.971329
-0.734811
-0.584427
0.240373
0.683867
0.348341
-0.221661
-0.020835
0.225557
0.457828
0.702944
-0.032367
0.527295
-0.749995
-0.711734
-0.853635
0.333399
-0.512092
-0.857049
0.592512
0.451162
-0.264447
-0.027064
0.143923
-0.920926
-0.830658
-0.745494
0.370660
-0.853520
-0.158418
0.036022
0.815357
0.840202
-0.199553
0.926075
-0.931254
0.895104
-0.025519
0.631161
-0.450963
0.471609
-0.401679
0.038020
0.777503
-0.710639
-0.963732
-0.438307
-0.937801
-0.160986
0.355436
0.620948
0.338815
0.339681
0.572334
-0.779869
-0.933213
-0.222267
-0.058900
-0.252635
0.547888
0.360360
-0.258577
0.648206
0.072124
-0.539292
0.559023
-0.930447
-0.031219
-0.220352
-0.300331
-0.141815
0.056877
-0.257544
-0.173705
0.439647
0.191602
-0.483487
-0.300473
0.542632
0.402419
-0.958252
-0.178199
0.470073
-0.606769
-0.203772
-0.974503
-0.489344
-0.891756
-0.334654
0.042492
0.451761
-0.991584
0.779352
-0.474273
-0.325900
-0.433502
-0.978932
-0.120139
-0.877158
-0.772980
0.902745
0.945830
0.152308
-0.353906
-0.214373
0.832088
-0.548141
-0.047680
-0.543828
-0.743057
-0.944531
-0.559155
-0.961739
-0.648693
0.596333
-0.988590
-0.241381
-0.888831
0.614547
0.223264
-0.785008
0.946801
0.391560
-0.988339
0.595915
0.786416
-0.757651
-0.111584
0.184969
-0.149449
-0.652492
-0.898863
-0.085946
-0.618939
0.671089
-0.360776
0.797986
-0.170581
-0.423019
-0.625322
-0.393284
-0.306933
-0.126203
0.795777
0.407486
-0.756662
0.935095
0.978166
0.093202
0.098153
-0.940468
-0.061463
0.901021
0.783447
-0.748747
0.755537
0.591775
0.991464
-0.422288
0.256978
0.810309
0.093495
-0.234899
0.805143
-0.125421
-0.233211
0.255086
-0.289260
-0.827641
-0.877885
0.517366
-0.942999
-0.810361
-0.446429
0.796007
0.761262
-0.144679
0.953182
0.053412
-0.852979
0.329986
-0.359070
-0.835179
0.587036
-0.042983
-0.287464
-0.039141
-0.378558
-0.091496
-0.289399
0.310140
0.085713
-0.481990
0.852742
-0.555758
0.574071
0.429565
-0.512411
-0.263894
0.866923
-0.787466
-0.706412
0.089351
0.546873
0.499938
-0.813138
0.302950
-0.389370
0.045464
-0.840919
-0.972507
-0.812183
0.660550
0.468262
0.550720
-0.779669
-0.382521
-0.607614
0.707440
0.286214
0.018124
0.141508
-0.585138
-0.190013
-0.468146
-0.316229
0.416897
0.186291
0.878850
-0.124855
0.183030
0.766117
-0.369716
0.103675
-0.537537
-0.466977
0.639906
-0.370548
-0.884700
0.050732
-0.639553
0.066752
0.428267
-0.799022
0.183280
-0.617331
0.246454
0.160631
-0.956595
0.356273
0.820441
0.845981
0.441479
0.699620
-0.353428
-0.485139
-0.317878
-0.370770
0.832179
-0.368376
-0.731822
-0.072632
0.241818
0.716011
0.363534
0.842518
-0.004666
0.796295
0.349311
-0.822148
-0.268066
-0.077546
-0.553026
-0.138027
0.530361
0.146984
-0.394520
0.517305
0.470854
0.711010
-0.297306
-0.135872
0.591250
0.510334
0.029887
-0.654822
0.477932
0.727424
0.560102
-0.484231
0.065593
-0.813346
-0.475416
-0.702786
0.136244
-0.446074
0.810758
0.593039
-0.196027
0.367757
0.438576
-0.870329
0.169789
-0.900848
0.135153
-0.019048
-0.456523
0.497371
-0.658809
0.887178
-0.863421
-0.310600
-0.199066
-0.809470
-0.058622
-0.770533
-0.984837
0.370376
-0.257878
-0.140312
-0.768628
-0.670212
0.034542
0.325153
-0.308268
-0.273098
-0.567490
0.426069
-0.739342
0.076710
-0.343980
0.088107
-0.608516
-0.812989
0.965613
-0.406306
0.949560
0.051351
0.767239
0.652900
-0.043600
-0.074789
-0.293522
0.264121
0.830393
-0.920809
0.435046
-0.993124
0.101486
-0.600971
0.187260
0.069028
-0.935502
0.314364
0.639214
0.108932
0.181479
0.716000
0.148200
0.518725
0.114936
0.826765
-0.302999
0.320613
-0.053339
-0.409180
0.892360
0.408703
-0.137191
0.117751
0.281007
0.378539
0.342025
0.325779
0.638338
0.345308
0.206621
-0.143903
-0.367811
-0.653134
-0.752715
0.294787
-0.065349
-0.230344
-0.902079
0.436569
-0.639131
-0.709917
0.896416
0.808218
0.685372
-0.518768
-0.003903
-0.172922
0.241215
0.981682
0.821172
0.367559
-0.080995
0.752160
0.692245
-0.740350
0.252451
-0.403190
-0.342574
-0.620661
-0.032704
0.591358
0.116955
0.536124
-0.532245
-0.828299
0.351533
-0.940155
-0.341128
-0.837319
0.643488
-0.401368
-0.074193
-0.063176
0.633654
-0.769949
-0.109850
0.294870
-0.292557
0.820631
0.920736
-0.382054
-0.525624
-0.848523
0.717854
0.720876
-0.072034
0.793969
-0.637171
-0.619456
-0.396411
0.263256
0.945706
-0.617882
0.771627
-0.064318
-0.698485
-0.585502
-0.028969
-0.721846
0.798378
0.938466
-0.193838
-0.385412
-0.532531
0.297833
0.381884
0.033745
-0.161768
0.053278
0.686583
0.587611
0.349431
0.734109
-0.534227
-0.072077
0.748704
-0.606837
0.755640
-0.329774
0.502020
0.971851
0.539423
0.325632
-0.469839
0.741783
0.030734
0.722369
0.455841
-0.519039
0.417528
-0.935145
-0.923255
0.029441
-0.228873
-0.226658
0.470078
-0.889327
-0.928912
-0.054432
0.361035
-0.332431
-0.326256
-0.093784
0.576627
-0.575773
0.621430
0.108006
-0.639375
-0.509004
0.425217
0.520795
-0.472519
-0.679838
0.022024
-0.361001
0.359168
0.091801
0.256207
0.833274
-0.717769
-0.195247
0.087710
0.244276
-0.922541
-0.100248
0.347056
-0.806775
0.083835
0.991932
-0.588209
0.566890
-0.085637
-0.121036
-1.115854
0.807417
0.025066
0.277869
0.202103
-0.123754
-0.084030
0.630986
0.917394
0.069037
-0.192992
-0.220129
0.181809
-0.802025
0.651941
-0.613426
-0.598765
-0.734754
-0.826802
0.600198
0.479430
-0.691760
0.045767
-0.807655
0.399103
-0.659234
0.046783
-0.881474
-0.823187
-0.205106
-0.539560
-0.176664
0.869050
-0.109555
0.216084
0.332841
-0.233502
0.887716
0.328884
0.628619
0.617114
-0.567364
0.119830
-0.018967
0.948122
0.640400
-0.782617
-0.119197
-0.087108
-0.660852
0.555139
0.450583
-0.337874
0.752570
-0.642818
0.002930
0.838552
0.102848
0.773155
-0.112720
0.195714
0.947808
0.729952
0.431227
-0.204230
-0.812659
0.198030
0.810177
-0.619939
0.453956
-0.928399
0.880170
-0.259103
-0.293273
0.731615
0.666155
-0.342380
-0.822927
-0.599866
0.782084
0.093789
-0.263168
-0.142426
-0.409301
0.985868
-0.059664
-0.514708
0.193481
0.903814
-0.209655
0.163918
0.665675
-0.445486
0.826095
0.618893
0.967830
0.636373
0.310498
0.764333
-0.802679
0.788856
-0.862962
-0.897843
-0.660260
0.705009
0.509942
0.895013
0.336317
-0.666735
-0.905170
-0.889293
0.579816
-0.744605
0.513543
0.822925
0.976047
0.089091
-0.521353
-0.417563
0.420993
-0.339538
0.099104
-0.119955
0.731761
-0.607610
0.451024
0.342808
-0.051838
0.330510
0.226839
-0.773390
0.873922
-0.576596
0.324223
0.440949
0.240921
-0.606538
-0.154985
-0.550244
-0.943459
0.219856
-0.592444
0.802010
0.846172
-0.197574
-0.880306
-0.499802
-0.500252
0.462347
0.164837
-0.507480
0.341895
-0.009054
-0.175278
0.209683
0.529589
0.395808
-0.668184
0.990614
0.960128
0.829077
0.046524
0.062605
-0.886455
0.895614
0.759312
0.338228
-0.147725
-0.299912
-0.293757
0.569867
-0.751872
0.475495
-0.368270
0.855809
0.094454
0.569489
0.131532
0.706710
0.038204
-0.077423
0.709669
0.131163
0.318018
-0.624751
-0.506569
-0.608421
-0.788575
0.849916
0.648383
0.694906
-0.653914
0.382983
-0.086423
-0.679381
-0.773376
0.540207
-0.574896
0.966984
0.610075
0.077239
-0.457590
-0.503053
-0.947794
0.084420
0.193479
0.619268
-0.131323
0.300274
0.695976
0.029181
0.570378
0.489627
0.957047
0.417393
-0.159069
0.677557
0.206314
0.420474
-0.550989
-0.892587
0.514070
-0.351839
0.621586
-0.314300
0.868691
0.045198
0.844140
-0.012721
-0.592951
0.131175
-0.018660
-0.842400
-0.352620
-0.415330
0.529262
-0.160323
-0.925070
-0.581816
0.445035
0.586716
-0.049715
-0.794638
-0.341524
0.945033
-0.132448
0.490184
-0.259341
-0.294933
-0.333004
0.259082
-0.241150
-0.218290
-0.193971
-0.342869
-0.875154
-0.889427
-0.621174
0.698244
-0.633469
-0.368148
-0.252207
0.352409
-0.535315
-0.475466
-0.218812
0.155190
-0.513434
-0.751290
-0.771397
-0.857951
0.339243
-0.456079
-0.794910
0.892234
-0.814285
-0.616624
0.356924
0.529656
-0.007111
-0.249997
0.744132
-0.185980
0.568800
-0.077920
-0.874437
-0.082657
0.058890
0.151550
0.915373
-0.363239
0.792193
-0.247357
0.001803
-0.054018
0.237918
0.198796
-0.066180
-0.393582
0.212659
-0.141935
-0.328624
-0.498922
-0.602386
-0.139535
-0.580601
-0.735396
0.601486
-0.859092
0.339079
0.962836
0.354541
0.483809
0.364277
0.575976
0.460958
-0.001702
0.242928
0.897057
0.084403
-0.291892
0.044553
-0.597819
0.922533
-0.494821
-0.633688
-0.397051
-0.793709
0.990090
0.349617
0.841939
-0.071531
-0.190070
0.225041
0.225671
-0.481650
-0.497472
0.388090
-0.225998
-0.784932
0.369455
0.769938
-0.040757
-0.823540
-0.835091
0.477199
0.300654
0.105712
0.787659
-0.658033
0.194113
0.247777
0.194838
-0.220884
-0.489295
0.198004
0.721914
-0.088477
0.751146
0.988260
0.012488
0.966954
-0.713585
-0.175186
0.981317
-0.023857
0.871367
0.829168
0.819061
0.608449
0.095055
0.070848
0.060527
0.216734
-0.284474
0.791687
-0.041628
-0.239021
0.318977
-0.373340
-0.821506
0.521473
0.808004
0.929985
-1.630736
-0.945057
0.644122
-0.771797
-0.006881
0.765251
0.816673
0.008086
0.799257
0.660089
0.185339
0.831300
0.744358
-0.721495
-0.826817
0.551705
-0.291976
0.327876
0.827309
0.663685
-0.106254
-0.212373
-0.073488
0.900606
0.458841
-0.648658
-0.972567
-0.544237
0.311184
0.452864
0.553971
0.111923
-0.014931
0.134380
-0.455614
-0.571714
-0.406677
-0.689916
0.737472
-0.293157
0.101794
-0.719080
0.513317
-0.992923
-0.819365
-0.079132
-0.860938
0.186222
0.171444
0.987261
0.839561
0.791914
0.829178
-0.657588
0.823608
-0.443536
0.935032
-0.875278
-0.293974
0.017332
0.569317
0.284012
0.822942
-0.751898
-0.124937
0.460423
-0.291342
0.631356
0.714594
-0.931108
0.601258
-0.415262
-0.368291
0.849796
-0.652310
-0.583192
-0.332125
-0.129540
-0.761720
-0.175950
0.742222
-0.209087
0.180487
0.650022
0.088792
-0.554284
-0.737750
0.715143
0.424486
0.341714
-0.277851
-0.330480
0.903557
0.100707
0.080969
0.680268
0.435789
0.030881
-0.182990
-0.855223
-0.564973
-0.910824
-0.901845
0.116445
0.985568
0.052434
0.491473
-0.899764
-0.182437
-0.922582
0.697660
-0.389898
-0.138292
-0.869017
-0.583134
0.579343
-0.468347
-0.062989
-0.929540
-0.703149
-0.685452
0.032104
-0.119752
-0.320718
-0.855386
0.829922
0.552359
-0.858145
0.328903
0.888419
-0.758508
-0.116432
0.693426
-0.275500
0.966531
0.930342
0.542946
0.644862
0.848067
-0.782579
-0.872708
-0.858703
0.376032
0.789842
0.441422
0.225446
-0.110051
-0.383554
0.169757
-0.589619
-0.020668
0.025562
-0.627884
-0.383537
0.965861
-0.435270
-0.073004
-0.002251
0.961878
-0.371140
0.365280
-0.068303
0.791789
0.458776
0.945281
-0.154657
-0.269279
0.024834
0.492172
0.599158
-0.886833
-0.457715
-0.966947
0.178104
0.563739
-0.179448
-0.594218
0.696460
0.747253
-0.006810
0.484027
-0.287761
-0.504734
0.323231
-0.681366
0.114385
-0.354001
0.429368
0.413790
-0.501283
-0.591981
-0.291077
-0.396355
-0.663243
-0.813122
-0.758700
-0.084105
0.775158
0.140131
0.885663
0.616695
-0.252714
0.488072
0.569958
-0.702879
0.172675
0.471832
-0.880887
0.989141
0.959042
-0.436459
0.422035
0.270375
0.850746
0.571529
-0.310821
0.783213
0.307402
0.533724
0.598112
-0.701443
0.247222
0.263952
-0.782320
-0.042877
0.748592
0.364310
0.685624
0.241422
0.336174
-0.583654
0.148048
0.349463
0.974581
-0.689454
-0.590033
0.713376
-0.914852
0.158345
-0.123017
0.273013
0.917376
0.722005
-0.888168
0.735548
0.622785
-0.571043
-0.758181
0.001398
0.782907
0.489182
0.798383
0.403885
-0.458290
0.375474
-0.197964
-0.601347
-0.539549
0.190096
0.120349
0.308253
-0.803782
-0.599336
0.671160
-0.119880
-0.661288
-0.159432
0.919479
-0.768269
0.819543
0.052274
-0.957855
-0.465040
-0.110866
0.707606
-0.867350
0.692819
-0.591586
-0.707793
0.270656
0.377570
0.967311
-0.958095
-0.621208
-0.450763
-0.684331
-0.457031
-0.911332
-0.688121
-0.265610
-0.558169
-0.863762
0.456127
-0.860319
-0.822862
0.010933
0.992034
-0.749952
0.919183
-0.048166
-0.924129
0.473770
0.658448
0.132874
0.929914
0.277072
0.280634
-0.663234
-0.278999
0.007361
0.453630
-0.809134
0.681596
-0.825193
0.667608
-0.883511
0.468883
0.573537
-0.065742
0.243450
0.695551
0.429734
0.126571
-0.916240
-0.959447
0.585871
0.659147
-0.520829
-0.740118
-0.521133
0.527863
0.563867
-0.761764
0.562686
0.081806
-0.142435
0.902606
0.052489
0.301095
0.913752
0.046066
0.804743
0.205875
0.975356
-0.543385
0.799174
-0.414457
-0.916587
-0.366758
-0.113608
0.858909
0.447194
0.182123
0.260329
-0.847069
0.580696
0.403673
-0.534772
0.315538
0.155783
0.093629
-0.731646
-0.015608
-0.509158
-0.822779
-0.610143
0.704820
-0.126047
0.786492
0.477245
0.918041
-0.853468
0.566243
0.660850
0.580491
-0.918060
0.967361
-0.309366
-0.336532
-0.295631
-0.293576
-0.824647
-0.233126
0.008382
-1.086338
-0.840650
-0.278126
0.146261
0.597449
0.885309
0.889531
-0.135676
-0.027770
-0.209306
0.134647
0.497938
0.417922
-0.855863
0.009954
-0.983334
0.014449
-0.146994
-0.952286
-0.829077
-0.891523
-0.051975
-0.045704
0.007193
-0.527186
-0.046739
-0.466436
-0.496498
0.243124
0.818790
0.073348
0.211334
0.650011
-0.655653
-0.706020
-0.798842
-0.936677
0.376050
-0.117950
0.087423
0.848567
0.766493
-0.053700
-0.084343
-0.076262
0.834347
-0.464357
0.014067
-0.747642
-0.150715
0.828356
-0.625066
0.611008
-0.844865
-0.257007
0.533839
0.741134
-0.309339
-0.569286
-0.196752
0.187997
-0.387706
0.182014
0.722754
-0.977018
-0.518047
0.802166
-0.501352
0.114603
-0.304528
0.865392
0.061901
0.700641
0.484839
-0.428732
0.381252
-0.472055
0.347319
-0.673093
0.826133
0.393934
0.513203
-0.750391
0.323414
0.713325
-0.265857
0.344826
0.394849
-0.816451
0.642150
-0.571776
-0.640424
0.149425
-0.765993
-0.556286
0.165007
0.077900
-0.742556
0.713563
0.835774
-0.029279
0.807477
0.930521
0.741177
-0.043340
0.181555
-0.402417
-0.125507
-0.782562
0.611199
0.648053
0.509340
0.098213
-0.713444
0.655741
-0.767914
0.714478
-0.693618
0.325209
-0.560824
-0.798905
0.109789
-0.549069
0.009425
-0.092326
-0.852158
-0.173283
0.185433
0.559021
0.636965
-0.029030
-0.470715
-0.746037
0.278647
0.619956
0.333147
0.051444
0.425422
-0.775750
-0.721357
0.409831
-0.454939
-0.530270
0.720320
0.421127
-0.229543
-0.805247
0.539112
-0.264718
0.635137
0.355987
-0.789979
-0.678658
0.929614
-0.097173
-0.923679
-0.333536
-0.121853
-0.570481
0.432327
0.921974
-0.789056
0.340304
-0.101132
-0.086160
-0.411023
0.123208
0.165835
0.601821
-0.042249
-0.643838
-0.577701
-0.973493
-0.534264
0.291634
-0.161906
0.674589
0.423937
-0.031786
0.793815
0.155837
0.763680
-0.501903
-0.253112
-0.793930
-0.383125
0.821146
0.784872
0.354882
-0.113685
-0.441618
0.719939
-0.588251
-0.860327
-0.031975
-0.657424
-0.694055
-0.810175
-0.833635
0.065377
0.342932
-0.878476
-0.467428
0.815618
0.484249
0.879139
-0.906130
-0.382990
-0.751241
-0.956835
-0.690754
-0.968749
-0.407519
0.243291
0.105803
0.420172
0.906354
-0.383314
0.428445
0.635689
0.065467
0.113154
-0.899008
-0.820702
-0.435404
0.310543
0.076405
0.376463
-0.045483
0.636865
-0.440763
0.246197
-0.932385
0.790681
0.302027
-0.210572
0.205867
0.756393
0.939060
0.098816
-0.468182
0.452387
-0.386244
-0.315683
0.153849
0.238625
0.664249
-0.571767
-0.392639
0.580825
0.878723
-0.177256
-0.070743
-0.388979
0.501873
-0.169810
0.082013
0.628583
0.010753
-0.860287
-0.250816
0.528683
-0.460813
0.171209
-0.453173
-0.662428
-0.320060
-0.584076
0.068270
-0.908282
-0.927019
-0.590170
-0.992105
0.501605
-0.793208
0.411498
0.857092
0.310635
0.831582
0.141664
0.489515
-0.115744
0.866075
0.978440
-0.034537
0.573409
0.683294
-0.006214
0.784078
0.312918
-0.504593
0.839409
0.824792
0.007159
0.738210
-0.863455
-0.968886
0.128242
-0.108520
0.153991
0.004597
0.949692
-0.156185
-0.789399
-0.112358
0.524362
0.586748
-0.077225
-0.843255
-0.463654
0.748450
-0.235456
-0.795026
-0.244754
-0.278304
-0.476523
-0.426440
-0.407359
-0.396045
-0.333924
0.305615
-0.875702
-0.415775
0.077755
0.583250
-0.602164
-0.529086
0.739384
-0.222799
-0.630544
0.953059
0.916102
0.763312
-0.094466
-0.146842
0.634834
-0.007333
-0.486599
-0.801339
0.900090
0.393516
-0.277282
0.725501
0.633145
0.565333
-0.619047
-0.377804
0.616936
-0.935973
0.510696
0.156516
-0.394524
0.890147
0.960274
-0.783900
0.303221
0.254961
-0.774691
0.652188
-0.498602
-0.753486
0.864488
0.626708
0.624880
-0.252853
-0.343872
-0.084472
0.067059
-0.814767
-0.918434
-0.694648
-0.392423
-0.664505
0.371025
-0.078118
0.612859
-0.979303
0.084800
0.022467
-0.620745
-0.018966
-0.804362
-0.714511
-0.546278
-0.537503
-0.194720
-0.213444
0.833580
-0.805543
-0.291999
-0.425799
-0.122373
-0.986192
-0.702051
-0.701737
-0.028245
0.753267
0.346730
-0.910369
-0.067215
0.108051
-0.310643
-0.860310
0.713115
-0.786082
0.686003
-0.088758
0.177864
0.644055
0.909109
0.646342
-0.426576
-0.763700
-0.812831
-0.214046
-0.281270
0.262985
0.923396
0.912315
-0.736569
0.880690
0.911075
0.564737
0.579432
0.048554
0.782407
0.276193
0.733144
0.599692
-0.065380
0.828381
0.054634
-0.939137
-0.391431
-0.549018
-0.610406
-0.577900
-0.620383
0.012111
-0.564674
-0.334500
0.906768
-0.012592
0.080157
0.979748
-0.748961
0.089360
0.125852
0.702261
0.112084
0.363110
0.113992
-0.866199
0.145009
-0.818150
-0.327683
-0.342650
0.187489
-0.975384
0.894524
0.990840
0.948396
-0.758553
-0.015445
0.837174
0.283273
-0.371630
-0.420020
-0.693217
-0.415195
0.318750
-0.245903
-0.586180
0.457214
0.063300
-0.232494
-0.377585
0.619945
0.993488
0.657511
-0.288810
0.678297
-0.836135
-0.095707
0.516706
0.580685
0.111115
0.341044
-0.971814
0.711499
-0.063690
-0.075392
0.928316
0.511774
0.317343
0.407301
0.996314
0.179393
-0.143228
-0.015592
-0.219668
-0.512792
-0.144108
0.792678
0.895351
0.700050
0.458299
0.038567
0.533031
0.627127
0.638291
-0.651088
0.311058
-0.053131
-0.323479
-0.940441
0.851321
0.369071
-0.454179
0.141353
0.063096
0.224320
0.035766
0.697138
-0.765259
-0.314729
-0.408560
0.147366
0.212850
0.251974
-0.317918
-0.820150
-0.340329
-0.224441
-0.196144
-0.422634
0.842203
0.498686
0.433746
-0.905931
-0.847500
-0.894595
-0.672934
-0.157802
0.866973
0.032727
0.100114
0.485475
0.234726
0.847643
-0.089709
-0.860345
0.242534
-0.632281
0.124309
0.282229
-0.977645
0.995709
-0.319745
-0.339944
0.737561
0.108816
0.996853
0.147312
-0.359200
-0.905635
-0.102583
-0.852368
-0.249758
0.129082
-0.180952
-0.299289
0.241933
0.288837
-0.693477
-0.220607
0.952597
0.532584
0.757426
0.608583
0.220927
0.425891
-0.532388
-0.133067
-0.018157
-0.040532
0.692685
0.130133
0.987845
-0.592804
0.848572
0.128653
-0.290505
0.982407
0.928886
-0.805695
-0.113517
0.256612
0.163734
-0.708985
0.327657
-0.096732
-0.872610
0.607309
-0.398716
-0.260038
0.680951
0.565475
0.301974
0.401213
0.189302
-0.181496
-0.348364
0.051573
-0.339153
-0.844428
0.916282
-0.658706
0.558350
0.516416
-0.131531
-0.195247
-0.894916
-0.324492
0.694797
0.491006
-0.981660
0.996791
0.464806
0.077263
0.479975
0.445609
-0.106382
-0.066863
-0.037392
-0.161991
0.724164
-0.995552
0.024022
-0.918396
-0.809058
0.658996
0.226418
-0.267828
0.776226
-0.238566
0.614533
0.016889
-0.404995
-0.072584
0.096905
0.426916
-0.252885
-0.506871
0.517796
-0.607715
-0.055778
0.856456
0.917118
-0.218533
0.376249
-0.101553
-0.135374
-0.378930
0.689299
-0.784278
-0.579328
0.716816
-0.178183
-0.576348
0.474146
-0.911268
-0.366537
0.342806
0.340482
-0.610480
0.944145
-0.324206
0.772074
-0.159254
-0.777272
0.614797
-0.558285
0.389821
0.175903
0.993305
0.549307
-0.781493
0.083711
-0.582485
0.917027
0.372535
-0.288996
-0.459942
0.621013
0.959572
0.705858
0.610382
-0.024340
0.977903
0.028376
-0.733693
-0.928243
0.557122
-0.315197
0.638539
0.328407
0.046285
0.929152
-0.889697
-0.332290
-0.807583
-0.087883
-0.699241
0.546337
-0.555476
0.840664
-0.485958
-0.199746
-0.046988
0.060997
-0.802716
0.249267
-0.178683
-0.938278
0.523403
-0.373712
-0.567588
0.272551
-0.861561
0.278298
0.335454
0.575963
0.244419
-0.155059
-0.700916
-0.644520
-0.395779
-0.995195
0.199430
0.833170
0.124704
-0.505550
0.933738
0.837598
0.954203
0.036251
-0.208166
0.053255
0.709363
-0.660046
-0.788358
0.277775
0.103416
-0.030462
-0.012777
-0.106404
-0.804620
-0.535197
-0.121298
0.137504
0.077602
0.425385
0.420612
0.741669
-0.917974
-0.791898
-0.458968
0.737089
0.470280
-0.263933
0.332964
0.567890
-0.490109
-0.755512
0.014240
0.303035
-0.830804
-0.518647
0.293526
0.333495
0.405539
-0.129565
-0.466967
-0.641347
-0.869618
0.878349
0.078143
0.894847
-0.012499
0.040007
-0.638609
-0.323297
-0.559887
-0.916778
-0.171504
0.776595
-0.044531
-0.869008
0.365809
0.161087
-0.956958
0.287285
0.873870
-0.114671
-0.110943
-0.596618
0.332917
-0.725481
-0.400418
-0.165102
0.326014
0.372990
0.451290
0.412197
0.696020
-0.643450
-0.249632
-0.692107
-0.764682
-0.219155
0.061615
-0.274813
-0.974306
-0.739212
0.158520
0.850301
0.500212
-0.803418
-0.974662
0.216649
0.462887
-0.854575
-0.674083
0.644726
0.538582
0.706637
0.933709
-0.810770
0.580467
0.192869
-0.978085
-0.180692
-0.833094
-0.127377
-0.579630
-0.085405
0.585042
-0.074145
-0.127344
0.250713
0.917500
0.984649
0.808480
-0.870792
-0.057549
-0.271741
0.657866
0.004785
0.687679
-0.030884
-0.454032
0.905312
-0.121962
0.810201
0.932635
0.708850
-0.087331
0.618419
0.816365
0.922731
-0.971374
0.310736
-0.847223
-0.047256
-0.425204
-0.862728
0.012418
-0.930554
0.416346
0.988038
0.004353
-0.414546
-0.582478
-0.844774
-0.494305
0.958914
0.071685
-0.095280
0.962636
0.196679
-0.980492
-0.921423
0.473910
-0.649524
0.513340
0.698259
0.896003
0.180424
-0.167380
-0.684139
-0.716246
0.624539
-0.778274
-0.519693
-0.901056
0.041199
0.620562
-0.722781
0.360194
-0.512001
0.074459
0.581787
-0.481508
-0.966634
-0.248279
-0.902880
-0.642504
-0.853702
0.877871
0.153041
-0.178014
-0.664915
-0.226756
-0.675649
-0.680456
0.487271
-0.066753
0.347522
-0.601773
-0.857215
-0.770911
0.763010
0.668142
0.385469
0.984837
-0.636138
0.743646
-0.721275
0.529184
0.505771
-0.568140
0.686340
0.680075
0.831481
0.911432
-0.610022
-0.241764
0.738154
-0.154772
0.599442
0.371609
0.889644
0.690805
-0.064207
0.229337
0.659476
0.747599
-0.776845
-0.966738
0.877206
0.988275
0.989770
-0.495102
-0.136324
0.445536
-0.776800
0.337168
0.485013
0.063590
-0.410173
-0.704204
-0.150696
-0.021664
0.446025
-0.746267
-0.992764
0.626985
-0.757838
-0.072791
-0.156371
-0.918574
-0.450778
-0.006495
-0.864159
0.668916
0.599616
0.592994
-0.256203
-0.971083
-0.935107
0.719589
0.319782
-0.592490
0.169607
-0.279307
0.166112
0.591111
-0.586221
-0.029656
-0.157267
-0.948068
-0.727103
0.911134
-0.950542
0.828872
-0.218437
-0.611931
-0.194359
0.460704
-0.005937
-0.055300
-0.405911
-0.182151
-0.321601
-0.574734
0.982257
0.918328
0.798031
-0.202157
-0.644614
-0.492013
-0.489572
0.569197
0.849965
0.611255
-0.437525
-0.909200
-0.815432
-0.888079
-0.785206
-0.472744
-0.545312
0.336429
0.884036
0.253811
-0.125758
0.083306
-0.381363
0.471506
0.287048
0.250566
0.821104
-0.106653
-0.130131
-0.530649
0.151472
0.494352
-0.727469
-0.902279
-0.583549
-0.739610
0.697018
-0.285915
-0.958661
0.875139
0.230974
-0.872030
0.358200
-0.252440
-0.205355
0.251784
0.162812
0.158819
-0.601686
-0.742785
-0.363511
0.005617
0.406658
0.331777
0.375105
0.905544
-0.489194
-0.225096
-0.323469
0.624552
-0.214095
-0.223326
-0.103337
-0.418954
0.318575
0.807222
-0.749149
-0.362018
-0.722165
0.482471
0.602348
0.007679
-0.583125
-0.556572
0.631653
-0.231151
-0.816923
-0.013779
-0.415452
0.483977
-0.277671
-0.169367
-0.350727
-0.998771
0.690910
0.410759
0.195298
-0.224402
0.481348
0.277854
-0.067280
0.930475
0.995489
0.608201
0.301779
-0.818960
-0.753508
-0.585878
-0.608035
0.668832
-0.794967
-0.834891
-0.406808
-0.279401
0.041715
-0.999991
0.782370
0.055727
0.938706
0.934016
0.626194
0.840661
-0.944902
-0.937149
0.592017
-0.174939
-0.672047
-0.812028
0.845285
-0.162582
0.829971
0.184209
-0.124348
-0.665500
-0.495784
0.093957
-0.533793
0.606667
0.833016
-0.814755
0.558890
-0.545209
-0.236250
0.429236
-0.951672
-0.493867
0.418946
0.683904
-0.142274
-0.327454
-0.303237
0.692883
-0.087408
-0.594641
-0.007303
-0.112681
0.163416
-0.764572
0.916957
0.907001
-0.817007
0.174285
0.675364
-0.164722
-0.291064
0.616306
0.825858
0.298406
0.272780
-0.835586
0.418693
0.612295
0.043205
0.574358
0.967424
-0.181627
-0.090314
0.847046
-0.323899
0.078427
-0.116253
-0.333997
0.351399
0.873282
-0.966262
-0.620711
-0.095267
0.603955
-0.364605
0.376134
-0.476243
0.643359
0.660005
0.954865
-0.120022
-0.352139
0.424209
-0.494602
0.159497
0.215661
-0.959850
0.525071
-0.574798
0.087380
0.176014
-0.460498
-0.698191
-0.072941
-0.102432
-0.013890
0.865674
-0.096529
-0.213120
-0.021975
-0.222820
-0.133701
0.166069
0.352652
0.550665
0.349618
0.710793
0.364308
-0.264860
0.365953
-0.649873
0.291634
-0.506350
-0.453748
0.603106
-0.439720
-0.351972
-0.246874
-0.127064
0.400244
0.995675
0.220423
-0.681139
0.647671
0.608272
0.439315
0.260134
-0.853650
-0.583568
-0.833061
-0.756919
-0.803227
-0.463630
-0.561849
0.394940
0.358838
-0.705943
-0.544760
0.794404
0.560406
0.180094
0.078539
-0.132230
-0.941630
0.451387
-0.498545
-0.884510
0.635960
-0.068960
-0.023005
-0.875352
0.873310
0.237554
0.526045
-0.358606
-0.369117
0.800936
-0.641530
-0.231651
0.787493
0.958473
-0.514198
-0.483511
-0.261206
0.096867
-0.839848
-0.756906
0.313540
-0.519502
0.928343
0.383127
0.701612
-0.203993
0.192968
0.835393
-0.143646
0.284676
0.560881
-0.004280
0.414646
-0.415263
-0.545113
-0.373002
0.120844
0.055250
-0.477882
-0.016450
-0.298903
0.344511
0.036350
0.388321
0.837302
-0.069652
0.295211
-0.859681
-0.006745
-0.260559
-0.250747
-0.509493
-0.069854
0.846791
-0.494187
-0.183486
0.503738
0.372770
-0.390968
-0.506771
0.347682
-0.854241
-0.583894
0.928374
-0.000862
-0.212494
-0.331495
0.927442
0.092868
-0.832730
0.647244
-0.946378
0.554923
-0.769190
-0.587867
0.067136
-0.315719
-0.670877
0.561886
-0.128327
-0.740077
-0.450565
0.910987
-0.168304
-0.374316
0.213375
0.220931
-0.944759
-0.367032
-0.550002
-0.619226
0.528849
0.276756
0.883259
0.721717
-0.603595
-0.994242
-0.204783
0.897807
-0.143888
0.997073
-0.481281
-0.963207
0.193048
-0.987950
0.545703
-0.320868
-0.077084
-0.410836
-0.841190
0.932355
0.012690
0.377114
0.939923
-0.687728
-0.276918
-0.470720
-0.176775
0.568437
0.800743
0.932956
0.184069
-0.686084
-0.021878
0.432393
-0.859707
-0.882047
-0.157010
0.204222
0.783515
0.537238
0.547015
-0.885871
0.775232
0.348890
0.021768
0.279813
0.202815
0.471318
-0.746269
0.272671
-0.951806
-0.617687
-0.167878
0.690525
-0.330854
0.216274
0.835005
-0.107220
-0.362170
-0.925546
0.088011
0.036887
0.621557
-0.140426
-0.147959
0.782713
0.919227
0.350175
0.293769
-0.012859
0.390382
-0.791358
-0.230817
-0.782165
0.109218
0.988507
0.827033
0.116339
-0.965726
-0.512225
0.619018
0.836592
0.631173
-0.216583
-0.596533
-0.658428
-0.793095
0.116996
0.697740
-0.202445
0.165886
0.688443
-0.441846
0.042596
-0.655193
0.982162
0.450382
0.682056
-0.289105
-0.392496
-0.476030
-0.166282
0.505154
-0.629606
0.434544
0.137374
0.658925
-0.518168
-0.305360
-0.886757
0.575989
-0.212006
0.971575
0.263186
0.142860
0.599079
0.517540
-0.715510
-0.500854
-0.216227
-0.991907
-0.201062
0.445268
0.510047
0.575533
-0.153912
-0.885104
-0.061276
-0.742804
-0.271903
0.774606
0.437033
0.887459
-0.959126
0.884315
0.793595
-0.174967
0.696592
-0.329478
0.792708
0.328694
0.796051
-0.536013
-0.303213
-0.945804
0.568656
0.474459
-0.257269
0.299849
0.202998
-0.608688
-0.204021
0.377362
-0.564674
0.678627
0.401228
-0.606130
-0.091177
0.369509
-0.243053
0.940433
-0.527519
0.643828
0.144034
0.439095
-0.146978
0.932427
-0.293744
0.500703
0.505620
0.877177
-0.181979
-0.168660
0.468431
-0.549090
-0.488431
0.867657
0.567168
0.142649
0.624321
-0.751144
-0.019697
-0.986523
-0.881583
0.861100
-0.216513
-0.822826
0.045409
-0.058742
0.071763
0.909027
-0.677255
-0.739890
0.794489
-0.598385
0.532400
-0.564502
-0.188412
-0.710279
0.469645
0.028662
0.348830
0.743400
0.485109
-0.163326
-0.923860
-0.486179
-0.071015
0.105156
-0.412842
-0.946761
0.529594
0.530333
0.927191
0.119265
-0.378661
-0.516056
-0.296198
0.280855
-0.282301
0.833394
0.132540
0.717210
0.675759
-0.155552
0.770671
-0.738335
-0.835337
-0.706170
0.690515
-0.837477
0.314472
0.762704
-0.443338
0.791202
-0.133476
-0.084956
0.610769
-0.958124
-0.074458
0.360095
0.702827
-0.413419
0.033038
0.981731
-0.682535
-0.294812
-0.531706
-0.943867
-0.682030
0.090133
-0.643455
0.525166
0.242789
0.859242
0.934905
0.099590
-0.893511
0.458526
0.618979
-0.439780
-0.018103
-0.848779
0.135651
-0.792409
0.340378
-0.407070
-0.570204
-0.656354
-0.493936
0.387308
-0.422459
0.357320
-0.422972
0.243843
-0.990370
0.277123
0.598308
0.988960
0.340080
0.511299
0.890395
-0.277641
-0.795338
0.618035
-0.184999
0.497136
0.449855
-0.874369
-0.379596
0.398838
-0.724287
0.753005
-0.211802
0.610307
0.448564
-0.571403
0.160398
-0.893617
0.571509
-0.583886
0.451701
0.505197
-0.315316
0.923485
0.389221
-0.940299
0.174767
0.232914
-0.627237
-0.944185
-0.691479
0.596376
-0.329445
0.074344
0.908335
-0.987481
0.688300
-0.110841
0.470352
0.044208
0.170905
0.293812
0.577989
-0.419738
0.581090
-0.251556
-0.875761
0.352600
-0.498230
-0.765275
0.540397
-0.743656
0.210175
-0.123957
0.455867
0.504748
-0.971482
-0.699649
-0.239528
0.206860
-0.125237
-0.000857
-0.929457
-0.864087
0.708492
0.591501
-0.335231
-0.710608
0.808361
-0.983624
-0.111191
-0.974626
0.935932
-0.533875
-0.936782
-0.609250
-0.213493
-0.238758
0.594939
0.530052
-0.474933
0.125591
0.040449
0.676702
-0.263756
0.403615
-0.092369
-0.765694
0.160364
0.015404
-0.939339
0.187758
0.653547
-0.233658
-0.104778
0.623042
0.538175
-0.650640
0.678890
-0.650148
-0.204035
-0.400490
-0.853282
0.395917
-0.031972
0.302461
-0.974698
0.049633
0.528907
-0.790528
0.062640
0.579864
0.883667
-0.456793
0.271691
-0.463447
0.840836
-0.841397
0.288055
0.358599
-0.556861
0.293312
-0.967407
-0.875648
-0.272658
0.937374
-0.940381
0.201402
-0.551349
-0.942109
0.402363
-0.642435
0.568084
0.041776
-0.795487
0.860628
0.946877
-0.479979
0.676462
0.842956
0.560547
0.856408
0.498738
-0.760724
-0.283356
0.265798
0.792188
0.602291
-0.784319
0.786506
0.794963
0.157086
0.093574
-0.269352
0.888727
-0.224037
-0.791031
0.425346
-0.445577
0.672612
0.385196
0.783931
0.488015
-0.138692
-0.714340
-0.254956
0.185789
-0.259761
0.427731
-0.981298
0.958828
-0.780599
-0.854918
0.680570
0.008278
0.865423
0.849594
-0.635978
0.414649
0.961253
0.461327
-0.139989
0.846398
0.579741
0.694516
-0.186146
-0.354203
-0.320909
-0.460345
0.270050
-0.142132
0.332587
0.859347
-0.528784
-0.482037
0.369422
0.276107
-0.857984
0.573301
0.561695
-0.107969
-0.317124
-0.726069
0.250866
0.546253
-0.513908
0.191021
0.605388
-0.786679
0.416739
0.434100
-0.136340
-0.955589
0.106529
0.945634
0.482062
-0.774993
0.268872
-0.209932
-0.190060
0.949965
-0.393650
-0.620959
0.047778
0.939375
0.528822
0.642394
-0.904561
0.445670
0.361846
-0.020790
-0.135257
0.616322
-0.654698
0.379281
0.421786
-0.568794
-0.804358
-0.285581
0.579514
-0.814319
0.919354
0.427593
0.123003
0.135469
0.649702
-0.075591
-0.201645
0.648656
0.935326
-0.134546
-0.222870
0.053204
0.254793
0.228258
0.118823
-0.409588
-0.887784
-0.502380
-0.589858
0.255441
0.762896
0.927299
-0.918969
-0.569355
0.881499
-0.440005
-0.835234
-0.873470
-0.968336
-0.597737
-0.075167
-0.671461
-0.629886
0.579649
-0.429763
0.800328
-0.069369
-0.666912
-0.000071
0.765431
-0.752243
0.741584
-0.544744
-0.112571
0.094982
-0.080877
-0.148865
-0.968668
-0.262016
-0.989664
0.961319
0.024591
0.744534
0.511284
-0.458995
-0.412567
-0.825391
0.833981
0.930404
-0.426432
-0.618312
-0.579666
0.183160
0.482121
-0.577020
0.744539
-0.748872
-0.357501
0.677726
0.954206
0.731012
-0.526243
-0.311674
0.161984
0.837714
0.352231
-0.194595
-0.154136
0.195401
0.053307
-0.730927
-0.973159
0.403273
-0.786228
0.422917
-0.113165
-0.245365
0.552015
0.739796
-0.745869
0.527835
0.765553
-0.502696
-0.576765
0.905905
0.749506
-0.249636
-0.051030
0.472054
-0.629847
-0.522524
0.106924
0.736604
-0.799011
-0.795646
-0.065284
0.652469
0.210582
0.396989
-0.775462
0.180045
0.953720
-0.968159
-0.537811
0.491760
-0.658328
0.912516
-0.650372
0.766691
-0.417700
-0.095458
0.384321
-0.945163
0.864593
-0.170380
-0.774946
-0.011486
0.953223
-0.298166
-0.839197
0.078320
-0.050144
-0.570963
-0.946250
0.213311
0.265007
-0.180656
0.011227
-0.998759
-0.427128
0.867438
0.338385
-0.819513
-0.607243
-0.920569
0.494415
0.694460
-0.966724
-0.286416
0.725115
-0.265170
-0.524928
0.120945
-0.667711
-0.096837
-0.461953
-0.914513
0.519073
0.686044
0.419511
-0.163217
0.144160
0.082431
-0.609784
-0.902747
0.543624
0.775643
-0.607341
0.580388
0.521709
-0.831735
0.403865
0.010962
-0.088696
0.339085
-0.719487
0.300307
0.369696
0.080032
-0.669730
0.545925
0.079637
-0.148682
0.020322
-0.884523
-0.895019
0.810440
0.766321
-0.896662
0.615317
0.419533
0.255280
-0.015449
0.981944
0.752892
0.895074
0.553028
-0.179744
0.450946
0.471089
0.088284
0.487663
-0.358932
-0.530851
-0.912234
0.165864
0.611265
0.633744
0.295524
-0.918649
-0.686148
0.503016
-0.931177
-0.425983
-0.505844
-0.969192
-0.580465
-0.068392
0.497922
-0.059713
-0.191240
0.335502
-0.123078
-0.278357
-0.838759
-0.165899
0.755511
0.858302
-0.215107
0.365559
-0.324040
-0.591156
-0.832474
-0.701729
-0.797374
0.016659
-0.852481
0.091587
-0.729443
0.071452
0.022893
-0.618682
0.839770
0.957982
0.560836
0.528670
0.650451
0.263280
-0.053795
0.993732
0.555029
0.944457
-0.094520
-0.885693
-0.262636
-0.843106
-0.045048
0.646070
-0.856306
0.797414
-0.053356
0.227337
-0.611988
-0.165267
0.455761
0.429832
-0.152901
0.508205
0.994811
0.727303
0.763437
0.251842
-0.118233
0.387815
0.107136
0.983030
-0.501960
-0.212355
-0.329044
-0.698925
-0.536533
0.599153
-0.885119
0.436094
-0.903329
-0.377706
-0.373951
0.545570
0.245886
0.382898
0.413087
0.580719
0.451331
-0.877186
-0.126518
0.069992
0.374154
0.279960
-0.128893
0.446066
0.013778
0.268936
0.801890
-0.260376
-0.230357
-0.883202
0.542321
-0.872025
0.097695
0.540725
-0.346570
0.032870
0.572153
-0.127068
0.829303
0.275419
0.371921
-0.146670
-0.592471
-0.081297
-0.226022
0.506867
0.498480
-0.673391
0.937663
-0.997869
0.498400
-0.775821
-0.618853
-0.783003
-0.262616
0.779424
0.804750
-0.792027
0.456170
0.993331
0.608778
0.380823
-0.288203
0.741077
0.773443
0.489580
-0.916324
-0.527111
-0.176451
-0.027791
-0.837261
-0.148468
-0.527744
-0.419488
0.630618
0.320682
0.352858
0.095732
-0.227286
-0.539108
0.216372
0.721628
-0.227280
-0.252424
0.459493
-0.689648
0.378446
-0.067536
0.520206
0.865994
-0.967312
-0.879416
-0.498348
-0.480874
0.699710
-0.660179
0.894035
-0.389859
-0.088827
-0.410118
-0.222393
-0.463355
-0.177617
0.604949
-0.612919
-0.096668
-0.371204
0.052887
0.469670
0.967626
0.962770
-0.915668
0.692549
-0.223322
-0.426697
-0.679271
-0.232181
-0.339454
0.088081
0.369849
-0.129007
-0.618213
-0.930829
-0.331139
0.671522
0.290241
-0.768064
0.771331
-0.505342
-0.711197
-0.772818
0.633179
0.713232
0.467863
-0.469292
0.129666
-0.337020
-0.663727
-0.392538
0.130042
0.930359
-0.440366
-0.331793
-0.461074
0.889395
-0.800476
0.785403
0.991841
0.063291
-0.226645
0.356744
0.199975
0.988615
0.196377
0.051270
-0.188931
0.208044
-0.895332
0.216251
0.495942
0.299599
-0.286124
-0.140383
0.297042
0.231743
-0.888432
0.121708
-0.938766
0.032574
-0.465707
0.622044
0.250607
-0.029263
0.305928
-0.231657
0.930557
0.520278
-0.676883
-0.112410
0.132660
-0.050684
0.333238
-0.187981
-0.457450
-0.988003
0.728161
-0.238680
0.715339
0.991331
0.591750
0.280635
0.196662
0.960172
0.617835
0.586679
-0.512145
-0.618064
-0.777496
0.123154
0.034561
-0.415996
0.204155
0.004614
0.816697
0.064051
0.236938
-0.191760
0.069641
0.274940
-0.742749
0.873918
-0.988403
0.041813
0.934796
0.831434
-0.251473
-0.005240
-0.799262
-0.062896
0.290815
0.911181
0.401869
0.588472
0.991973
0.386854
0.414569
0.002357
-0.598016
0.895315
-0.607631
-0.971851
-0.868274
0.073336
0.504802
0.441025
-0.747646
0.983664
-0.552087
-0.315329
0.443575
0.135418
-0.192712
-0.326654
-0.532668
-0.236162
-0.528480
-0.370243
-0.519186
-0.404551
-0.317086
0.394376
0.339375
-0.006923
-0.387037
-0.456515
-0.883260
-0.166898
-0.923517
0.549323
0.017214
0.806206
-0.317473
-0.473318
0.305122
-0.946361
-0.736638
-0.920474
-0.209571
0.572882
0.716252
-0.807699
0.074276
0.298280
-0.008127
-0.621762
-0.320578
-0.044163
-0.563547
-0.860992
-0.231047
-0.111917
0.072805
0.938740
0.595817
-0.271108
-0.186507
0.977268
-0.059730
0.651003
0.148373
0.697837
0.083848
-0.716175
-0.224386
-0.971938
-0.262671
-0.281690
0.709917
0.309993
0.067728
0.341581
0.417271
0.321574
-0.986879
-0.794388
0.703349
-0.480120
-0.346400
-0.611245
0.432307
-0.217454
0.364057
0.434553
0.162656
0.492641
-0.269369
0.230433
-0.915017
-0.084187
0.569846
0.600341
-0.651568
0.173114
-0.692810
-0.503853
-0.552008
-0.018258
-0.748716
0.357306
0.524920
-0.643554
-0.937089
-0.047637
0.365082
0.553956
-0.655934
0.964849
-0.259691
0.856435
0.372813
0.313862
-0.303793
-0.268398
-0.430863
0.892156
0.025980
-0.278999
0.910761
0.816588
-0.126081
0.265389
0.331239
-0.044660
-0.023223
-0.671750
-0.012843
0.382222
0.156036
0.368418
-0.197948
0.934179
-0.740908
0.347101
-0.479660
0.780321
0.438209
-0.462515
-0.862618
0.488236
-0.319435
-0.895842
-0.511442
0.898908
0.742950
-0.689144
-0.272503
-0.077232
-0.627348
0.292799
0.747433
-0.451542
0.429707
-0.131039
-0.950470
0.259921
-0.691219
-0.230743
0.444728
-0.636516
-0.387554
0.879850
-0.141700
0.938499
-0.774717
-0.677425
0.803754
0.012408
0.404750
-0.065829
0.906977
-0.417512
0.367457
0.718697
0.490294
-2.456235
0.110276
-0.226595
0.609843
-0.230352
0.306989
-0.529822
-0.166992
-0.286501
-0.499176
0.826236
0.342241
-0.829256
0.285322
0.568724
0.859838
0.421693
-0.963866
-0.483672
-0.928888
-0.540105
-0.741604
0.249906
0.535489
0.456952
-0.407125
0.822636
0.399888
-0.434600
-0.094601
-0.513995
-0.222489
0.042094
-0.126459
-0.777925
-0.435683
-0.990921
-0.929796
-0.994355
0.416295
0.786501
0.361362
-0.890238
0.923559
0.581878
0.048300
-0.905152
0.604527
0.218151
-0.584529
0.485199
0.774817
-0.040511
0.113852
0.068706
0.438440
0.376557
0.355854
-0.047657
-0.747318
-0.133684
0.243525
0.730860
-0.254549
0.361415
-0.860976
0.763733
0.084079
0.052186
-0.730103
0.976007
0.423768
-0.779661
0.981040
-0.301453
0.990462
0.863051
-0.101940
0.398981
0.669082
-0.872842
-0.209650
0.599910
0.318396
-0.596209
0.664617
0.630082
0.220605
0.320913
-0.466428
0.047226
-0.226817
-0.338527
0.375947
0.319996
-0.326811
0.745788
-0.764390
0.483641
-0.805782
-0.237714
-0.703236
0.795416
0.174757
-0.840227
-0.665978
-0.779084
0.832727
-0.303451
0.203139
0.024667
0.127829
-0.431180
-0.969089
-0.510655
0.564730
-0.893118
-0.151305
0.612933
0.116811
-0.918809
0.647190
0.859684
-0.976772
0.601157
0.251787
0.218784
0.058951
-3.816022
-0.747972
-0.455016
0.605132
0.085158
-0.206117
0.000732
0.683165
0.887782
-0.794419
0.846637
0.834458
-0.949473
-0.387908
0.288556
-0.215367
0.818641
0.718435
0.009361
-0.974634
0.091410
-0.645950
-0.289037
0.520704
0.658336
-0.910226
-0.178019
-0.084324
-0.053445
-0.800165
0.053654
0.499856
-0.601981
0.960018
0.713710
0.974699
-0.181177
0.819210
-0.763664
-0.354790
-0.151278
-0.268749
-0.349768
0.673765
0.573178
0.942188
0.183015
0.115021
0.948742
-0.948324
-0.029556
-0.982846
-0.517916
0.881498
-0.815956
0.637347
0.349225
-0.560638
0.452345
0.806633
-0.510181
0.503120
0.181080
-0.077564
-0.341724
-0.952444
0.808763
0.885531
0.312874
0.799800
0.130496
-0.169943
-0.681450
-0.486701
-0.173028
0.281970
0.968034
-0.330813
0.736803
0.196835
-0.414275
0.448931
-0.479054
0.350163
0.977237
0.224237
0.498727
0.505158
-0.467193
-0.921598
-0.212357
-0.518059
-0.754719
-0.513343
0.431009
0.310897
-0.201169
0.018308
-0.894857
0.484859
0.552928
0.098637
-0.483955
-0.520686
0.201042
-0.354007
0.049176
0.956147
0.530676
-0.156047
-0.727489
0.099510
-0.715919
-0.633457
1.007236
-0.349311
0.614437
0.354129
-0.347229
-0.458259
0.673897
0.892432
0.656515
0.584879
0.027744
0.758801
-0.827973
0.320791
-5.346089
0.780732
0.526878
0.505375
-0.294574
-0.783902
-0.257770
0.604826
0.934555
-0.084402
-0.885120
0.113640
-0.519715
0.462086
0.304527
0.343453
0.117669
0.454546
-0.740477
-0.738927
-0.594326
-0.476859
0.616601
0.304895
0.696822
0.493237
-0.222148
-0.557289
0.323514
0.188910
-0.810824
0.469989
0.816129
0.357210
0.000018
0.790710
0.583275
0.092316
-0.423841
0.031239
0.018787
0.441458
0.648952
0.874297
-0.162568
-0.057276
-0.668252
-0.877711
0.993730
0.948386
0.276355
-0.724900
-0.725756
-0.670257
-0.806625
0.313935
-0.622884
-0.709022
-0.348349
-0.034564
0.615495
0.983578
-0.108575
0.542914
-0.204735
-0.074642
-0.252358
-0.819449
0.126401
-0.891772
-0.640963
0.197635
-0.830392
0.014518
0.480403
-0.710970
-0.011582
0.031136
-0.176431
-0.040127
-0.327390
-0.212678
-0.561235
0.095904
0.491862
0.938729
0.569613
-0.405283
-0.053429
-0.974994
0.611892
-0.450946
-0.883983
0.434416
-0.340390
-0.930666
-0.531643
0.172635
0.209532
-0.112678
-0.693024
0.929269
-0.321499
0.832227
0.339475
-0.560276
0.934885
0.958948
-0.033371
-0.101559
0.081891
0.855809
-0.989487
0.850584
0.547973
0.080496
-0.323158
0.554209
0.129363
-0.528979
-0.668375
-0.893852
-0.354798
0.617634
0.602089
-0.042212
-0.464617
0.160646
-6.204457
0.935424
-0.923120
-0.440221
-0.079836
-0.914595
-0.069266
-0.014276
0.233334
0.200870
-0.350594
-0.444545
-0.105338
-0.516201
-0.862930
-0.770116
0.194319
-0.320752
-0.989336
0.288373
0.905976
0.772903
-0.279698
0.515160
-0.480944
-0.721312
-0.099731
0.934957
-0.009146
0.419881
0.209368
0.172995
0.657581
0.090739
0.069777
-0.912614
-0.544391
0.850851
0.052537
-0.343952
-0.591814
0.537920
-0.723940
0.492339
0.065883
0.838074
-0.707177
-0.534661
0.408903
-0.978760
-0.166052
-0.003651
0.243257
-0.590783
0.164503
-0.536268
0.580028
0.581818
0.090905
-0.965565
-0.161683
0.893121
-0.273567
-0.449672
0.088739
0.456628
0.229307
0.560389
-0.792554
0.121915
0.509126
-0.225365
-0.931034
0.939091
0.326745
0.699996
0.190777
-0.512387
0.884220
0.820414
0.315969
0.094697
-0.746612
0.705784
0.467421
0.373450
-0.715812
-0.960868
0.287084
0.716734
-0.009693
-0.003810
-0.953413
0.129126
-0.860605
-0.287938
0.752505
0.391895
0.143254
0.091310
0.908674
-0.602443
-0.614635
0.062936
0.146784
0.393477
-0.492504
-0.991674
0.775764
0.434806
-0.226544
-0.896618
-0.525320
-0.834790
0.900538
0.341556
0.897988
-0.713917
-0.624752
0.638717
-0.881256
-0.154749
0.225197
-0.832113
-0.072386
-0.277018
0.127470
-0.849827
-9.313759
-0.748534
-0.870043
-0.306797
-0.741724
0.095521
0.004682
0.028181
-0.150243
-0.609662
0.132960
0.172378
-0.126013
0.621159
-0.162371
0.585268
-0.429906
-0.806122
0.714370
-0.837108
0.129557
-0.316684
-0.867863
-0.596452
-0.717180
-0.433234
0.778509
-0.224545
-0.025730
0.748801
-0.153844
-0.299131
-0.513798
0.171936
0.838358
-0.098611
0.901214
0.672971
-0.728162
0.752932
0.806511
-0.008969
0.722032
0.815647
-0.009762
-0.071367
-0.979611
0.336534
0.369226
-0.314567
0.155855
0.570440
-0.772646
-0.810526
-0.373232
0.961157
0.544815
0.846891
0.665910
-0.698010
-0.995782
0.054760
0.138594
0.216897
0.262114
0.949125
0.550565
-0.521346
0.388754
0.131864
0.946087
-0.084899
0.207631
0.520440
0.499537
0.672476
0.379478
-0.421267
0.646564
0.214692
-0.344682
-0.633956
-0.650032
0.492268
0.900237
-0.295709
-0.762133
0.505689
0.079194
0.712472
0.736692
0.189237
-0.591140
-0.602188
-0.309717
-0.139653
0.217708
0.672706
0.095373
0.661195
-0.776374
0.566800
0.454147
0.802266
0.558435
-0.238020
-0.626609
0.994028
-0.310655
0.356679
-0.086345
0.849739
0.958224
0.386714
-0.227205
-0.159259
0.759097
-0.095419
0.964050
0.723911
-0.691141
-0.499509
0.227255
0.396539
0.277950
0.468256
-0.353248
0.003930
-11.488330
-0.100613
0.671770
0.738664
-0.344465
0.692870
-0.866482
-0.376014
-0.201241
-0.027293
-0.411713
0.586650
-0.706990
0.736886
0.384509
0.450857
0.336297
-0.759104
0.256297
-0.944465
-0.104734
-0.497345
-0.882189
-0.195586
0.884695
0.859110
-0.222045
-0.436489
-0.466476
-0.415409
-0.073119
0.282887
-0.442163
-0.846875
-0.747136
0.257889
-0.405396
-0.935483
-0.463214
-0.898313
-0.019291
0.789506
0.746213
0.605167
-0.812839
-0.494787
-0.356682
-0.468617
0.203720
0.853013
0.850673
-0.297864
-0.783184
0.818299
-0.220539
-0.843967
0.586346
-0.277532
-0.436370
-0.557292
-0.612618
0.670831
0.639515
-0.626152
0.670225
-0.828268
0.528497
0.631918
-0.356245
0.034688
0.099819
-0.262531
-0.792516
0.033813
0.412978
0.630409
0.739335
0.667366
0.058018
-0.700534
-0.758132
0.442383
-0.354961
-0.369189
-0.139204
0.135215
-0.239980
0.156291
0.703366
-0.562566
0.146177
0.735328
0.876869
0.196652
-0.626658
-0.116146
-0.525892
0.496032
-0.653516
0.341639
-0.792402
-0.254357
0.472476
-0.592573
0.181938
-0.776716
-0.647298
-0.936588
-0.733823
0.119710
-0.498396
0.849069
0.077298
-0.703905
-0.366973
-0.434316
-0.640621
-0.176088
0.106857
-0.189147
0.244174
0.915503
0.278153
-0.873826
0.763409
-0.099611
-0.387004
-0.873098
-13.050937
-0.711056
-0.055448
-0.106954
-0.327007
-0.994404
-0.260588
0.394473
0.045401
-0.336817
-0.216561
0.018852
-0.390398
0.831083
0.416897
-0.544721
-0.766816
0.598816
-0.980423
0.668413
-0.437395
0.439238
-0.772345
0.149269
0.765228
0.474715
0.247061
-0.324568
0.022305
-0.737283
0.932035
0.161682
-0.266360
-0.893993
-0.865257
0.657916
0.162543
0.485021
-0.182872
-0.336163
-0.830741
-0.617568
-0.126029
0.536357
0.581389
0.842286
0.071224
-0.279751
-0.528395
0.965954
0.471263
-0.266937
-0.706620
-0.601340
-0.063789
-0.058150
0.043664
-0.011841
0.780800
0.302348
-0.154938
-0.657262
-0.816149
0.789199
0.592873
-0.537249
-0.493526
0.845505
-0.673275
0.593330
-0.180827
0.731237
-0.610161
-0.560529
-0.204683
0.759435
0.783869
-0.807137
-0.323389
-0.738708
0.775277
-0.494738
-0.388757
-0.539759
0.115384
0.685285
-0.928598
-0.413805
-0.722047
0.507216
0.907164
0.674992
-0.612411
0.673508
-0.507542
0.003810
0.320336
0.448714
-0.479804
-0.866344
0.030596
0.645735
-0.962275
0.363272
0.308525
0.680030
-0.289622
-0.759923
-0.534267
-0.298591
-0.092897
-0.167591
0.903586
0.416219
0.163944
-0.319311
-0.962195
-0.264446
0.246356
0.749410
0.299813
-0.664749
0.155325
-0.267863
-0.032728
-0.099929
-0.231009
0.216235
-14.001150
-0.178710
0.610453
-0.503275
0.362788
0.093304
-0.851450
0.476618
-0.106762
0.241234
-0.487090
-0.865074
0.440595
0.247654
0.056789
-0.712502
-0.797566
0.359285
0.849297
0.237732
0.363908
-0.496680
0.080479
-0.320391
0.518339
0.433879
0.132665
-0.541955
-0.656543
0.768794
0.976287
-0.464797
-0.969071
-0.288301
-0.887744
0.672742
-0.128884
-0.007119
0.661932
0.318589
-0.142445
1.024189
0.133096
-0.298783
-0.300010
-0.174613
-0.119420
-0.813658
-0.012580
-0.193681
-0.711532
-0.630674
-0.602257
-0.055264
0.467841
0.133493
0.822020
0.941491
-0.075159
-0.919286
0.105773
-0.461493
-0.547889
-0.652712
0.142127
-0.848364
-0.786522
0.177299
0.202297
0.597401
0.999104
0.906757
0.785863
0.855828
-0.983215
0.059377
0.132331
0.435273
-0.833015
-0.289658
0.498436
-0.087363
0.098344
-0.755292
0.458140
0.273004
-0.692585
0.894883
0.056293
-0.253606
0.435579
-0.757646
0.467846
-0.440728
-0.885039
-0.086374
-0.641708
0.439622
0.795212
-0.633117
0.627337
0.146680
0.551438
1.006859
-0.696808
-0.761676
-0.134132
0.391071
0.244580
0.536220
0.889627
-0.256144
0.290946
0.358854
-0.720070
-0.633245
0.612696
0.764940
0.371503
0.785308
-0.733489
-0.721804
-0.179183
-0.245164
0.079885
0.756979
-0.503894
0.405929
-11.414574
0.829627
-0.897692
-0.359292
0.923450
-0.100805
-0.672549
-0.655418
-0.878670
0.157582
-0.885853
-0.233807
-0.445876
0.777633
-0.142838
-0.125309
-0.927504
-0.173517
-0.374846
0.125152
0.100472
-0.663528
-0.604470
0.473040
0.391648
0.076469
0.243095
-0.907579
-0.598175
-0.929433
0.701355
0.890810
0.680396
0.075858
-0.620839
0.429914
-0.213785
-0.678634
-0.264348
0.728923
-0.538316
0.786644
0.495008
0.262782
0.278946
0.342825
-0.991797
-0.990037
0.217873
0.675097
0.546906
-0.519924
0.693659
0.319990
0.470274
0.796318
-0.350152
-0.704582
-1.010016
0.952425
-0.753679
-0.304840
-0.345525
-0.703652
-0.528260
-0.236887
0.821668
-0.612527
-0.438826
0.241809
0.862434
-0.171859
-0.513963
-0.817815
-0.534160
-0.868409
-0.985701
0.561040
-0.804315
0.197555
0.119937
0.231266
-0.870594
-0.875329
0.718332
-0.910079
-0.416084
0.181070
0.314793
-0.157954
0.037648
0.545302
0.276746
0.638332
0.498690
0.684216
0.579418
0.216841
-0.249100
-0.683960
-0.929369
-0.248094
-0.746834
-0.914788
-0.586329
0.258585
-0.043919
0.859981
0.039512
0.177216
-0.796533
-0.115423
-0.661503
0.710315
0.747814
0.240370
-0.832892
-0.861119
0.020853
0.441757
0.205648
0.707441
-0.074263
0.429893
0.264088
-0.414829
-0.257562
0.436887
-9.173988
-0.590338
-0.036852
0.794677
-0.458355
0.285520
-0.348095
-0.260054
-0.027335
0.127033
0.099566
0.813990
-0.142847
0.249674
0.377219
0.012844
0.880716
-0.442949
-0.387482
-0.588991
-0.543564
0.192707
-0.361904
0.824596
-0.674433
-0.477158
0.279971
0.872150
0.048273
0.215940
0.386168
0.216850
0.846658
-0.307568
0.553589
0.338804
0.161254
-0.102924
-0.776711
-0.908505
-0.460906
-0.768408
-0.618312
0.219448
0.168874
-0.168056
0.112191
0.779225
-0.728775
0.697494
-0.478774
0.075688
0.992902
-0.509790
0.712906
0.115820
-0.882727
-0.309493
0.385907
-0.422360
0.787705
0.271317
-0.518449
0.537512
0.857210
-0.550270
0.434803
-0.331674
0.218573
-0.511031
0.250131
-0.528401
0.959337
-0.300809
-0.127350
0.295160
0.574974
-0.735321
0.310337
-0.770524
-0.988709
-0.901257
-0.877429
0.133460
-0.586655
0.339467
-0.882152
-0.525988
0.306658
-0.375115
-0.592943
0.655959
0.170983
-0.292463
-0.323061
0.273796
-0.684301
-0.518514
0.386958
0.096920
0.471399
-0.427837
0.433382
-0.001583
0.432974
0.086800
-0.743216
0.091054
-0.130011
-0.633785
-0.977647
-0.845751
0.447219
-0.009833
-0.264330
0.298666
-0.285875
-0.469023
-0.765465
-0.078372
-0.012581
0.218628
-0.555651
0.357787
0.577493
0.569411
0.934934
0.350883
-7.177457
-0.829766
0.561750
0.909264
-0.121783
0.236800
-0.268756
-0.833223
0.620118
0.606459
-0.989890
0.103944
0.917594
-0.974269
0.642989
0.518538
0.823484
0.766424
-0.234515
0.169470
0.469457
-0.038808
-0.582100
-0.905289
-0.935692
-0.371131
-0.245979
-0.902062
-0.282035
0.605512
-0.700147
0.365403
0.600033
0.067149
0.669767
-0.414876
-0.015352
-0.174178
0.849591
0.001831
0.916841
0.178364
0.722246
0.688337
0.161009
0.273438
-0.624917
-0.762841
0.640173
-0.164743
-0.466836
-0.677545
0.654705
-0.954601
-0.812466
-0.180914
0.205765
0.969343
0.662075
-0.670562
-0.202728
-0.034873
0.059649
-0.287775
-0.366242
0.173966
0.766742
-0.930999
-0.618577
-0.537629
0.371957
0.494285
0.366237
0.714268
0.919437
-0.075437
-0.466258
-0.363703
0.582142
-0.840031
0.208267
-0.938485
-0.435364
-0.324898
0.823127
-0.585962
-0.734177
0.618879
0.266048
-0.066008
0.706703
-0.642862
-0.765164
0.981759
-0.477545
0.737382
-0.976590
0.671703
-0.637214
-0.752489
0.762407
0.185216
-0.846630
-0.380262
-0.254881
0.918064
-0.404200
0.875255
0.951020
-0.239582
0.746027
-0.081429
0.355605
-0.016057
0.748137
0.812437
-0.216106
-0.095804
0.162355
-0.824568
0.615016
-0.038637
0.011360
-0.547053
0.155745
0.728097
0.280760
0.884952
-4.242356
0.125426
0.924948
0.393994
-0.229614
0.960527
-0.758480
-0.692836
0.937499
0.685875
-0.282306
0.938346
-0.434754
-0.897238
0.185179
-0.030209
-0.313097
0.734702
0.577989
0.685841
-0.723626
-0.236207
-0.783858
-0.464001
-0.204818
0.243460
0.572255
0.961671
0.902672
0.312865
0.976930
-0.817530
0.828571
-0.009074
0.011789
0.390665
0.279941
-0.505169
0.575019
-0.799170
-0.630226
0.066514
-0.476373
0.188388
-0.853696
0.805952
-0.763436
-0.511732
-0.361877
-0.035283
-0.980950
0.085371
0.560328
0.989569
0.693211
-0.035695
-0.003866
0.989432
0.404005
0.556260
-0.732723
-0.890577
0.178793
-0.362892
0.551565
0.238633
0.626266
0.586565
-0.449030
-0.370884
-0.325389
-0.629462
-0.821365
0.621683
-0.681942
0.634388
0.142711
0.586701
-0.417998
0.005396
-0.200121
-0.083573
0.508103
0.780609
0.375276
-0.460177
-0.196470
0.539894
0.350882
0.716760
-0.193709
-0.308348
-0.890359
-0.575564
-0.394238
-0.184051
-0.308646
0.652635
-0.287715
-0.042460
0.448868
0.841750
0.714160
-0.700946
0.057489
-0.966040
0.782886
0.164992
0.451581
-0.730983
-0.044485
-0.668268
-0.934601
-0.316183
-0.167707
0.520372
-0.758588
-0.606025
0.818096
0.876700
0.068025
-0.290147
0.054565
-0.592433
-0.167223
-0.377897
-0.904552
-0.827271
-1.491484
0.929671
0.735983
-0.287124
-0.685041
-0.053117
-0.825984
-0.289149
0.740518
0.823331
-0.800742
-0.036272
-0.951842
0.409192
-0.558249
0.520739
-0.729774
0.404901
-0.313156
0.483702
0.854892
-0.433668
0.001062
0.892022
-0.112393
-0.816111
0.900479
-0.149788
0.229937
0.411840
-0.918752
0.279421
0.284808
0.097137
0.207971
-0.590258
0.254416
-0.026649
-0.902210
0.269516
0.150171
-0.478240
0.253244
0.100517
0.838487
-0.225962
-0.719395
-0.489931
-0.136507
-0.916014
-0.738224
-0.759910
0.576086
-0.933405
-0.729977
-0.773563
-0.756788
-0.464241
0.289843
-0.792422
0.960545
0.325623
0.504508
-0.196471
-0.493682
0.147457
0.141405
0.288543
-0.504239
-0.271322
0.595251
-0.552833
-0.374734
0.171931
0.074577
-0.506962
-0.107100
-0.185671
0.119277
0.482517
-0.292775
-0.324411
0.843120
-0.107928
-0.589171
0.191416
0.942245
-0.285718
-0.981915
0.894037
-0.969488
-0.263908
0.794729
-0.589451
-0.273267
0.663518
0.035250
-0.547211
0.316527
-0.036821
0.383873
-0.891242
-0.745345
0.984830
-0.448877
0.152164
0.884199
0.718768
-0.587838
0.072076
0.304717
0.531316
0.817855
0.713285
-0.946323
0.454153
-0.125444
0.198862
-0.886959
0.018491
-0.247148
-0.539573
-0.391508
0.122776
-0.289616
0.168129
-0.614395
0.715417
-0.803538
-0.436332
-0.801681
-0.926432
0.913957
-0.478571
-0.862012
0.078037
-0.480136
0.341859
0.288122
-0.605187
0.027438
0.958248
-0.340751
-0.017926
-0.954509
0.203161
-0.859367
-0.409757
0.870553
-0.446139
-0.250060
-0.520522
0.583870
0.071193
0.744607
-0.587098
0.003232
0.311581
-0.735964
-0.847066
-0.813178
-0.432744
0.514971
0.281446
-0.294605
0.606114
0.369954
-0.656813
-0.303396
0.037053
0.395849
-0.433658
0.156184
-0.815947
0.313157
0.080678
0.769530
-0.583122
-0.752314
0.973933
0.982331
0.997045
-0.260458
-0.346846
0.894636
-0.684704
0.801528
-0.541508
-0.080324
0.576171
0.259315
-0.152891
-0.770425
-0.819559
-0.769209
-0.764927
-0.379226
-0.008877
-0.345854
0.286006
-0.874070
-0.697802
-0.226974
0.350844
0.964309
0.636511
0.318868
0.495190
0.317708
-0.073205
0.885243
-0.432612
0.787128
0.155537
-0.369316
-0.802549
-0.891886
0.149168
-0.099135
0.827679
-0.455342
-0.292679
-0.254051
0.231093
0.787653
-0.203456
0.487771
-0.707236
-0.853855
0.379912
0.937491
0.764849
0.312875
-0.089585
0.015902
0.284250
0.505312
-0.175776
-0.915958
-0.980541
0.643822
-0.619194
-0.760328
-0.141215
0.275465
-0.089912
0.617225
-0.944234
-0.118316
-0.799105
-0.905313
0.558243
-0.482006
-0.371770
-0.337677
0.746631
-0.180484
0.742002
0.266611
0.506069
0.731180
0.178175
-0.715409
0.807058
0.148846
0.694023
-0.897507
0.388677
-0.180180
-0.160320
-0.139608
0.252296
0.009225
-0.174206
0.187469
-0.545161
0.813207
-0.338666
-0.661546
0.414619
0.157278
-0.821012
0.206967
0.894154
0.273098
0.220812
0.698736
0.928121
0.604264
0.156913
0.175408
0.854968
-0.388182
0.264891
-0.111465
0.116973
-0.882688
0.514305
-0.766948
-0.233650
0.020204
0.920931
0.643933
0.224191
-0.406803
-0.888149
0.153615
0.645176
0.782819
0.691042
-0.174297
0.092864
-0.171559
-0.483937
-0.487799
-0.281949
-0.869005
-0.089434
0.027919
0.165187
0.679138
-0.046318
-0.039180
0.438067
0.743565
0.879611
0.223329
0.601984
-0.913043
-0.410775
0.848490
0.385585
0.972954
0.027831
0.572159
0.867021
0.988902
-0.497901
0.168236
-0.541667
0.712452
0.715788
0.905671
-0.872270
-0.185961
-0.840856
-0.914061
0.575767
0.098734
-0.790255
-0.242290
-0.453897
-0.551130
-0.900735
-0.780952
0.726002
-0.176065
-0.422994
-0.622531
-0.953042
-0.481748
0.134639
0.348813
-0.281254
-0.821262
-0.636952
-0.142018
0.978556
-0.147807
0.249299
0.065003
0.886617
-0.422009
-0.667241
0.533261
0.503496
0.521382
-0.355700
0.935451
-0.461523
0.684061
0.437073
0.944827
-0.204593
0.462268
0.215209
0.902796
-0.813914
0.157816
0.284358
0.224637
-0.843945
0.574814
-0.996598
-0.317614
0.782129
-0.887936
0.768702
0.732175
-0.770868
0.837952
0.175134
-0.585191
-0.545844
0.179259
0.241493
-0.744428
-0.806722
0.990959
0.428521
0.143453
0.774550
-0.702088
-0.148577
0.050285
-0.553991
-0.255430
0.452494
0.612119
0.979557
-0.778415
0.140860
-0.917721
-0.722157
0.488715
-0.887478
0.725902
0.395689
-0.483238
-0.680369
-0.976163
-0.302495
-0.843654
0.255485
0.094547
-0.851329
-0.076199
0.955041
0.417731
0.836793
0.196126
0.303695
0.249989
0.949828
-0.930223
0.557207
0.882185
0.519915
-0.273668
0.686552
0.033146
-0.444414
-0.142038
-0.402212
-0.981184
-0.301968
0.750453
-0.615460
-0.069521
-0.652140
-0.099743
-0.186551
0.442932
-0.867680
-0.878419
0.980882
-0.150028
0.682236
0.874146
0.031088
-0.157400
0.082901
0.902411
-0.705303
-0.039124
0.724107
0.292678
0.100177
-0.896509
-0.755352
-0.701864
-0.543793
-0.268360
0.008049
-0.077348
0.586283
0.652652
0.769809
-0.163198
0.838827
0.929258
0.484690
-0.258886
-0.614675
0.105281
0.784206
0.560313
0.222902
0.340459
0.920842
-0.749586
-0.514484
0.773976
0.849887
-0.489372
-0.923009
-0.119919
0.088167
-0.797141
-0.672447
-0.962127
-0.294311
-0.792144
-0.066073
0.085960
-0.804184
-0.894541
0.887078
0.723663
-0.062131
0.912281
-0.829077
-0.670764
-0.969896
0.343016
0.045188
-0.357935
-0.157330
0.940953
-0.728273
-0.699064
-0.317632
-0.210563
-0.462559
0.578049
0.566775
-0.323999
0.988539
0.626513
0.837182
0.194499
-0.041109
-0.699041
0.931260
