0.000008
-0.755605
-0.532767
-0.047045
0.679296
0.383502
-0.830965
0.053462
0.671149
-0.383416
0.417486
0.588977
0.846167
-0.091965
0.415999
-0.910321
0.262453
0.736082
0.632639
0.991037
-0.247039
-0.722660
0.651519
0.631635
0.272710
0.766495
-0.237774
-0.359265
-0.486517
0.909208
-0.904653
-0.516292
0.986642
-0.266145
0.947764
0.500707
0.277082
-0.529747
-0.940980
0.761514
-0.827817
0.015868
0.868247
-0.736225
-0.999458
0.233195
-0.351015
-0.591114
0.412081
-0.269317
0.537304
-0.287212
-0.153720
0.802406
-0.534450
0.955361
0.554584
-0.624849
0.159768
-0.714710
0.090990
-0.003000
-0.026876
-0.937897
-0.180896
0.886991
-0.150335
0.385815
-0.499741
0.587187
0.590109
0.556146
-0.983305
0.141820
-0.252126
-0.464031
0.126031
0.319250
-0.126712
-0.621634
-0.247842
-0.389314
-0.028375
-0.426497
-0.947487
-0.131189
-0.092174
-0.071064
0.253057
0.783153
0.349524
0.808945
0.651646
0.679592
-0.250126
-0.471262
0.600394
-0.755844
0.951367
-0.439330
0.688981
-0.987145
0.851270
0.537426
0.103434
0.576717
-0.440039
0.869264
0.800720
0.741716
-0.886031
-0.463323
0.713422
0.667679
0.199555
-0.865883
-0.543948
0.450347
0.215532
0.315732
0.881504
-0.467532
-0.365158
-0.999117
0.630488
-0.000595
0.773352
0.319178
0.682494
-0.205262
0.708921
-0.094549
0.764005
-0.213852
0.081061
0.952160
-0.389854
0.692169
-0.776866
-0.422460
-0.193967
0.191824
0.244054
0.136455
0.601010
0.828355
0.987937
0.233599
-0.219411
-0.696007
-0.696243
-0.669521
-0.056441
0.227008
-0.699834
0.762571
-0.553911
-0.329666
0.143045
-0.485325
0.813266
0.738997
-0.135332
0.310739
-0.518084
0.258843
-0.393018
-0.475896
-0.279293
0.369742
-0.671784
-0.513936
-0.720768
-0.460697
0.321560
-0.517145
-0.401833
-0.986503
0.670098
0.541710
-0.829239
0.274210
0.546137
0.266613
0.246733
0.694024
0.817101
0.160749
-0.707826
-0.582421
0.991533
-0.279512
0.171179
0.495691
-0.163081
-0.782992
-0.436426
-0.584787
0.066850
-0.389731
-0.385769
0.659053
0.538661
-0.815932
0.686102
0.009348
-0.520960
0.220685
0.070635
-0.723764
-0.050603
0.457162
-0.446490
0.285942
0.695637
0.681164
-0.057475
-0.542393
0.856193
0.377550
0.576173
0.679332
-0.035588
0.973356
0.351319
-0.607611
0.552862
0.356925
-0.974252
-0.251528
0.813048
-0.244586
0.694856
0.263620
0.116571
0.113676
-0.006079
-0.599359
0.082507
0.375310
-0.123637
0.029635
0.494245
-0.934030
-0.359658
-0.499955
-0.671903
0.756770
0.230572
0.562602
-0.616610
0.224801
0.653012
0.744104
-0.047639
0.124945
-0.484180
0.914025
0.593546
0.496582
0.441633
-0.771944
0.442790
0.467741
0.445930
-0.205341
-0.372520
0.964851
-0.070335
0.526338
-0.517707
0.841576
0.423890
-0.713547
-0.871884
0.836598
-0.389060
-0.605603
-0.539505
0.401692
-0.083086
-0.472380
-0.104969
0.802019
0.668820
-0.243750
-0.263663
0.081006
0.232867
-0.491343
-0.266119
0.425191
0.963476
-0.795856
-0.171155
0.063804
-0.292468
-0.825837
0.726443
0.802084
0.045341
0.153315
-0.061731
0.929150
0.204563
0.699691
0.494631
0.711571
-0.200645
-0.436096
0.861187
-0.444519
-0.523772
0.753174
0.822891
-0.232078
-0.430618
0.987325
0.850531
-0.311605
0.997599
0.468075
-0.690773
0.541535
0.159216
0.821334
0.041075
0.110019
-0.518773
-0.561484
-0.516908
0.737175
0.022800
-0.670991
0.066290
-0.921117
0.380115
-0.167313
0.691126
-0.713695
0.589809
-0.929698
0.505970
-0.919236
-0.723836
0.490817
-0.976116
0.273251
-0.698558
-0.097433
-0.610738
0.495125
-0.588888
-0.151217
0.731364
-0.051617
0.320642
-0.245142
0.382969
0.597169
0.935252
-0.513148
0.650128
-0.407538
0.479783
0.534199
0.605538
0.703369
0.938254
-0.413494
-0.783002
0.681491
-0.527413
-0.143684
0.251422
0.004816
-0.275353
-0.278929
0.506820
-0.416475
-0.436491
0.766175
0.441265
-0.297064
-0.338510
0.055606
-0.485286
-0.114475
-0.864609
-0.367395
-0.162204
-0.057723
0.468101
0.883705
0.412248
0.308327
-0.814416
0.919492
0.770046
-0.572442
0.803268
-0.861622
0.869494
-0.389172
0.525670
-0.420038
0.749145
-0.338085
-0.743126
-0.879162
-0.710114
-0.359379
-0.161029
0.096429
0.562612
-0.878192
0.635205
0.878413
0.113071
0.382620
0.121740
-0.143302
-0.708588
-0.390967
-0.628767
-0.908691
-0.859213
0.428873
-0.498631
0.450735
0.740759
0.300122
0.110018
-0.972476
-0.238410
0.833474
-0.129482
-0.339119
-0.440268
-0.432877
0.382317
0.429473
-0.670197
0.698066
-0.849278
0.793382
-0.009608
0.639058
-0.644898
0.377364
-0.389500
0.693589
0.291525
0.854365
-0.144142
0.005588
-0.381955
-0.344456
0.291000
-0.124391
-0.048697
0.376817
0.755856
0.011531
0.560914
-0.415560
-0.514590
-0.842044
-0.465007
-0.050043
0.202449
0.831524
-0.839549
-0.181196
0.934110
0.369040
-0.627830
0.405786
0.444850
-0.748311
-0.131023
-0.665308
0.581285
-0.982032
-0.921473
0.967723
0.278796
0.590459
0.834691
0.730448
-0.349529
0.664147
-0.869188
-0.917967
0.951753
-0.416007
0.962535
0.526182
0.818107
-0.662893
0.941429
-0.126034
0.886726
-0.162958
-0.602405
0.838679
0.391555
-0.667348
0.000040
-0.628753
-0.574346
0.351393
-0.370837
-0.576430
0.744468
0.442624
-0.091801
-0.992419
-0.033004
-0.487212
-0.895724
0.688594
0.481720
0.947120
0.953262
-0.127088
-0.857156
0.007008
-0.050393
-0.641374
0.137093
-0.824627
0.655888
0.526454
0.903056
-0.277586
-0.391493
-0.243001
-0.728307
0.201217
-0.022556
0.187979
-0.779658
-0.666364
-0.351173
-0.292091
0.223697
-0.404765
-0.579362
0.437240
-0.834283
-0.849068
0.264662
-0.533532
-0.998736
-0.122221
-0.425107
-0.213568
-0.033077
0.106043
0.482049
0.257524
0.282464
0.208123
0.764064
0.575853
0.907848
-0.114107
-0.698163
0.747969
-0.894964
0.345891
-0.215049
-0.017785
-0.785470
-0.729983
-0.877797
0.343425
0.362191
0.080655
-0.776393
-0.493295
-0.642734
-0.352314
0.281545
0.626152
-0.157540
0.251955
-0.854603
0.608444
0.373662
-0.261863
-0.202817
-0.070950
0.963244
-0.197518
0.081326
-0.152563
0.809124
0.045520
-0.829722
0.801168
0.399215
0.655206
-0.986364
0.413580
0.108049
0.867119
-0.834369
-0.716939
0.222540
0.001574
0.409766
0.022462
-0.376501
0.793872
-0.331804
-0.653873
0.259120
-0.987042
-0.642325
-0.376933
-0.449107
0.585800
0.483601
0.081595
0.100809
-0.841668
-0.827927
0.813280
-0.839796
-0.642095
-0.815759
0.193634
-0.930652
-0.378445
-0.227756
-0.985847
0.458481
-0.279015
-0.739932
0.303932
0.813189
0.717761
-0.785073
0.577059
-0.798596
0.627795
0.471857
-0.529620
-0.857925
0.399142
0.846436
-0.456879
0.292495
1.000000
-0.741617
-0.796585
-0.600734
0.251693
0.575624
0.747701
0.989635
-0.554778
0.107010
0.246300
0.334365
0.069367
0.876262
0.145400
-0.661891
0.585027
-0.494116
-0.924830
0.256384
0.620714
-0.024167
-0.610723
-0.568438
-0.373973
0.376277
-0.583115
-0.110807
0.685165
-0.871871
0.974538
-0.475344
0.992179
0.698705
-0.474984
0.445107
0.439511
-0.997177
-0.124284
0.190258
0.656273
-0.457616
0.139185
-0.972964
-0.852208
-0.925623
0.466668
0.460251
-0.866139
-0.384766
0.814225
-0.721585
-0.313986
-0.688042
-0.165764
0.176306
0.198052
0.674452
0.323405
0.320824
0.870438
0.147775
-0.941981
0.660927
0.170347
0.165414
-0.361192
0.963839
-0.023861
0.886172
0.913224
0.172576
0.814419
0.583064
-0.471753
-0.332312
0.512964
-0.828165
0.004778
0.454566
0.843532
-0.733911
-0.422961
-0.405874
-0.525560
-0.403688
0.264789
0.184968
-0.620673
0.327313
0.184355
-0.533180
-0.925770
0.031187
-0.565061
0.140259
-0.309118
-0.162868
0.379582
0.602311
-0.335103
0.544029
0.287871
0.439320
-0.325579
0.972696
-0.318377
0.349269
0.985489
0.041885
0.785281
-0.101461
0.437511
-0.282594
-0.882302
0.670468
-0.757833
0.853380
-0.233950
0.261283
0.299503
0.991835
0.428610
-0.463801
-0.181880
0.503358
-0.898036
-0.629141
-0.544049
-0.054810
0.975294
0.869878
0.518437
0.969667
-0.228571
0.896504
-0.084773
0.771090
0.051936
-0.071637
0.269917
0.687318
0.944647
-0.911773
-0.815332
0.481877
0.703183
-0.168436
-0.210064
0.372777
0.806702
-0.658912
0.522131
0.606870
-0.021766
0.377316
0.969700
0.793286
0.453228
0.244226
0.213819
-0.407049
-0.343149
0.688401
0.778182
0.021656
-0.053752
-0.163551
0.011579
0.921468
-0.545015
-0.556517
-0.481430
-0.408673
-0.941078
-0.589636
0.282762
0.745794
-0.554309
0.117163
0.354305
-0.265734
-0.414449
0.529665
0.469946
0.098857
0.132815
0.438291
0.993806
-0.349940
-0.801629
0.301218
-0.551921
-0.506545
0.729641
0.217063
0.385219
-0.264364
-0.856503
-0.893365
0.964197
0.284081
0.718898
0.486485
-0.858476
-0.020403
0.959515
-0.997882
0.587660
-0.408225
-0.545435
-0.574699
-0.681336
-0.563862
0.292872
-0.977984
0.583705
0.521573
-0.807740
-0.594764
0.200402
0.280788
0.793055
0.789200
0.160008
0.761440
0.391793
-0.332695
-0.780210
-0.954354
0.777039
0.841948
0.768394
0.585257
-0.801599
-0.690773
0.550919
-0.586986
-0.898639
-0.259919
0.000039
-0.091840
-0.679043
0.745264
-0.981988
-0.782769
-0.086813
-0.926769
0.781356
-0.286591
-0.295857
0.909973
-0.891786
0.752406
-0.468107
0.208753
0.897771
0.958706
0.918436
-0.262890
-0.771451
-0.775716
-0.418673
0.647096
-0.829492
-0.780221
-0.119997
-0.991853
0.424933
-0.633542
0.430353
-0.798559
-0.246792
0.041603
-0.094000
-0.043491
-0.824232
0.511974
0.998299
0.211603
-0.108905
0.096877
0.387090
-0.899207
-0.817065
0.817441
0.458524
-0.592706
-0.667519
0.739097
0.625461
-0.896096
-0.328330
0.451460
-0.258829
-0.703850
-0.690966
-0.879646
0.216739
-0.785623
-0.715460
-0.195229
-0.020458
-0.760827
-0.420198
-0.676851
-0.050492
0.633692
-0.109521
0.017517
-0.538175
-0.640354
0.027800
-0.329900
-0.375769
0.768851
-0.762721
0.184594
0.838480
0.368350
-0.786713
0.815297
0.897892
0.412815
0.554443
-0.350968
0.971990
0.140848
0.801560
-0.401016
-0.602370
-0.755131
0.978601
-0.729884
-0.878878
0.677584
0.287851
-0.022169
0.944596
0.568109
0.030379
-0.641647
0.068264
0.574306
-0.210034
0.756950
-0.275348
-0.374207
-0.354434
-0.622282
0.346591
-0.516009
0.696418
-0.807667
0.736131
-0.327840
-0.440638
0.933097
0.567060
-0.987787
0.111175
-0.444486
-0.544986
-0.148493
-0.525456
-0.587793
0.908952
-0.507967
0.463210
-0.693285
0.692757
-0.250726
-0.743430
0.288709
-0.655550
0.424314
-0.431431
0.383153
0.518011
0.737829
0.513320
0.502298
-0.415590
0.029127
-0.115948
0.632031
0.510782
-0.512091
0.975647
0.946474
0.630165
0.488743
0.686839
0.849437
-0.800510
-0.449827
0.023474
0.871800
-0.458718
0.187636
-0.357162
-0.423101
0.845013
-0.924011
0.820136
0.974908
0.735949
-0.829046
0.012364
-0.605344
0.547190
-0.029054
0.577041
-0.651622
-0.735630
-0.686567
-0.754228
-0.003219
-0.569399
0.211794
0.240964
0.088676
0.593670
-0.389757
0.797826
-0.980936
-0.961583
-0.863762
-0.472729
0.870751
-0.039750
0.790158
0.041306
0.682644
-0.651416
0.273417
-0.022727
-0.228337
-0.221213
0.061747
0.288490
-0.384612
-0.740659
0.533529
0.282173
0.934847
-0.587070
0.345682
0.006556
-0.311967
-0.510074
0.220417
-0.191895
-0.644666
0.494929
0.139070
0.183774
-0.082349
-0.360519
0.296815
-0.384147
-0.866680
-0.918743
-0.747109
-0.793832
0.516082
-0.809086
-0.577993
-0.100140
-0.690319
-0.433362
0.322814
-0.983912
-0.006960
0.527021
0.627369
0.285189
-0.443561
-0.144130
0.872446
-0.756102
-0.868794
-0.328171
-0.603147
0.805742
0.417251
0.323595
0.503808
0.898505
0.453041
0.408904
-0.954362
0.482250
0.685043
0.906563
0.400413
-0.980445
-0.380316
0.829065
0.132749
-0.785494
0.780114
0.351053
0.243357
-0.024342
-0.703856
-0.088807
-0.931076
0.589635
0.576430
0.272528
0.256752
-0.810435
0.274655
0.044662
-0.578786
0.535274
-0.919610
-0.077537
0.851936
-0.956571
-0.597675
-0.433636
-0.396628
0.661178
0.673604
-0.473408
0.780460
-0.232948
0.633641
-0.485577
-0.031019
0.784966
-0.413157
0.265916
0.407080
-0.141940
0.592778
0.680462
-0.823268
0.551341
-0.754757
0.127778
-0.572303
0.607560
-0.770103
-0.383296
0.123225
-0.164800
0.345646
0.841865
0.130036
0.262527
-0.284531
-0.510689
0.980176
-0.906449
0.308516
-0.664316
0.198709
-0.110733
-0.037492
0.185770
0.847198
0.290794
0.478682
-0.665240
-0.043539
0.227704
0.882860
-0.714594
0.063062
0.640094
0.570175
-0.933295
0.359691
-0.540083
-0.965322
0.719937
-0.160983
0.660614
-0.072635
0.191256
0.496468
0.497789
0.382243
0.628710
-0.935549
-0.001301
0.505529
-0.393030
0.537968
-0.380405
0.939119
-0.766006
0.777598
-0.662258
-0.908568
-0.059507
-0.473655
0.009565
0.623197
0.611334
0.493485
0.767691
-0.772596
0.306745
0.961826
0.154770
-0.366802
-0.593871
0.579569
-0.053577
0.771369
-0.434124
0.296776
0.301690
-0.615407
0.250785
0.983965
0.901082
-0.002337
0.999875
-0.024992
0.058363
-0.154432
-0.939210
-0.291507
0.091745
0.445330
-0.446813
0.948445
0.504574
0.687722
-0.419649
-0.803778
0.958921
0.684991
-0.108694
0.060429
-0.523720
-0.374412
0.652982
-0.115234
-0.599330
0.214022
0.579126
0.968059
0.813962
-0.903943
-0.048282
0.991771
0.118094
0.488368
-0.198314
-0.417207
0.105312
0.425215
-0.915947
-0.032356
0.612437
0.403955
0.469697
0.379761
0.986112
0.240997
0.691272
0.269706
-0.021679
0.479570
0.687346
-0.277095
-0.567483
-0.717839
-0.784569
0.399060
0.155245
0.118353
-0.833942
-0.276767
-0.585313
-0.953731
0.492780
-0.269562
-0.577906
-0.304216
-0.012010
-0.224663
-0.256259
-0.240489
-0.115747
0.514668
-0.412705
0.280930
0.826259
0.935912
-0.109592
0.515788
0.133405
0.637065
-0.705220
0.870284
-0.261178
0.024367
0.958849
0.933215
-0.962295
0.729671
-0.456012
-0.171463
0.557062
0.334386
0.480262
-0.972064
-0.831783
0.137325
-0.365970
-0.362630
0.647369
-0.346061
-0.135349
-0.346350
-0.908562
0.522653
0.515333
-0.183201
0.501457
0.502441
-0.353386
0.326845
0.612926
-0.994794
0.870526
0.823612
0.038809
-0.707452
-0.958700
-0.611468
-0.816441
0.949190
0.382113
0.272879
-0.288365
-0.231332
-0.139884
-0.109039
-0.196891
-0.158363
-0.549318
-0.594898
0.689994
-0.305893
0.898144
0.630569
-0.600412
0.628793
-0.927167
-0.029845
0.684658
-0.600775
0.806936
0.299106
0.160200
0.812857
0.492720
-0.529119
-0.434714
0.470712
0.810747
0.289502
-0.208676
-0.317195
0.368418
-0.875103
0.198351
0.495345
-0.519423
-0.107650
-0.566859
-0.113697
0.850158
0.006892
0.224729
-0.853626
0.642390
-0.003859
0.235741
0.248698
0.449308
0.594900
-0.754091
-0.260497
-0.869849
0.825785
0.506497
-0.619307
-0.026315
-0.181557
-0.993945
0.137646
-0.192009
-0.341074
-0.680280
0.310742
-0.389645
-0.474292
0.643278
0.069759
0.465556
0.615903
-0.972228
0.151634
0.431069
0.990922
0.817021
0.535562
-0.303432
-0.938371
-0.030294
0.302180
0.332748
0.988146
0.444876
-0.659586
0.167258
-0.248455
0.527545
-0.527825
-0.651788
-0.143383
0.912572
0.707396
0.063574
0.379943
-0.844077
-0.252032
0.236043
0.766164
-0.814099
0.548848
-0.041205
-0.782447
0.915521
-0.037349
0.510704
0.058548
0.068487
0.110012
0.383664
0.019121
-0.418684
0.940460
0.543900
-0.896570
-0.530456
-0.225867
0.913491
-0.221611
0.226309
-0.183222
0.183592
-0.780252
-0.038689
0.539349
-0.462822
-0.964760
0.908510
-0.570475
-0.963741
-0.640747
-0.496850
-0.749050
0.387249
-0.442215
0.927888
-0.318246
0.983366
-0.094068
-0.868118
0.473519
0.345015
-0.019900
0.312959
0.782488
0.539475
0.555356
-0.374077
-0.152176
-0.987976
0.274050
0.579980
-0.619769
0.804006
0.978861
0.208017
0.172179
0.664506
0.772484
0.555678
-0.314039
0.555801
0.398880
-0.133129
0.099503
-0.575321
0.373150
-0.109971
-0.924882
-0.924058
0.666504
0.025036
0.258729
-0.132332
0.120224
0.750398
-0.007387
-0.608308
0.280504
-0.186808
0.927767
0.432282
-0.072588
-0.625952
-0.038425
-0.430541
-0.401981
0.268275
0.247239
0.870243
0.482326
-0.074190
-0.260450
-0.194419
-0.987922
0.574907
0.169964
-0.001363
0.344565
0.464712
0.962910
0.646632
-0.904255
0.848325
-0.010311
-0.458099
0.512554
-0.899373
0.371442
0.527415
0.033749
-0.064728
0.541553
0.449406
-0.456171
-0.018550
0.847096
0.104681
0.008155
0.657449
0.639532
0.598669
-0.042013
-0.753549
0.903021
0.872788
0.111000
0.138137
-0.450394
0.872537
-0.706278
-0.821731
0.842827
-0.401296
-0.441705
0.739553
-0.959458
0.686637
0.413508
-0.036346
0.890177
0.412100
0.866200
0.702095
0.421461
0.613166
-0.324880
-0.515439
-0.425386
0.790696
-0.854946
0.001982
-0.556945
0.822002
-0.361071
-0.797591
-0.484291
0.474420
-0.013206
0.327082
0.241379
-0.943367
-0.433698
-0.611117
-0.866953
0.798644
0.052317
-0.086044
0.406567
-0.087851
-0.774433
0.231430
-0.554454
0.562795
-0.635225
0.224234
0.499404
-0.744221
-0.926076
-0.118976
0.827960
0.958105
-0.176989
0.121680
-0.539441
0.146164
0.978279
-0.079459
0.144499
-0.869138
0.413824
-0.136002
0.798809
0.150597
0.262782
-0.769394
-0.093248
0.425710
0.648142
-0.664819
-0.295596
-0.985166
-0.236885
-0.008903
-0.369942
-0.185387
-0.664836
0.614575
-0.719703
0.772740
0.129954
0.208499
0.854714
-0.788015
-0.683711
-0.745158
-0.778538
-0.771757
0.982738
-0.912163
-0.696904
-0.418866
-0.032296
0.495736
-0.267697
0.503607
-0.001578
-0.288624
0.809402
-0.808165
-0.542582
-0.501598
-0.948779
0.323355
0.924618
0.477960
-0.529318
0.127653
0.272516
-0.759474
0.846807
-0.684071
-0.340306
0.571222
0.919076
-0.572854
0.087439
-0.650166
0.438139
-0.408356
-0.640378
-0.049981
0.226539
0.303651
-0.187383
-0.247386
-0.796482
0.456205
-0.985547
-0.166363
0.182026
0.888116
0.750574
0.283797
0.163258
0.746193
-0.810753
-0.118117
0.929182
0.765463
-0.337181
0.580871
-0.194760
-0.585556
-0.993501
0.693363
0.801380
0.272802
0.443778
0.793662
0.155767
-0.664476
-0.778175
-0.327069
-0.542773
0.134761
0.379527
-0.158454
0.985862
0.965775
-0.170534
0.386222
-0.808468
-0.084997
0.260623
-0.903183
-0.273818
0.007642
0.385942
-0.772253
-0.228228
0.339039
-0.682779
0.475311
0.210358
0.608694
-0.911059
0.262969
-0.765870
-0.793451
-0.168194
0.791982
-0.795559
0.876711
0.301023
-0.452226
-0.888621
0.868267
0.908347
0.778888
0.763539
-0.963608
0.259575
0.769206
0.832976
0.541271
-0.502671
-0.399013
0.338572
-0.985869
-0.442899
-0.566065
0.944451
0.272525
0.996490
0.096081
0.922465
-0.863115
0.723881
0.027858
0.445494
0.095475
0.090840
0.888374
-0.298878
-0.092134
0.329084
-0.728940
-0.177601
-0.625280
0.969804
-0.526910
0.196252
0.936388
0.825969
-0.092881
-0.571553
-0.519029
0.443789
0.083877
0.594962
-0.377918
0.372966
0.063527
-0.518765
0.898871
-0.506979
-0.110056
0.056130
-0.288412
-0.207284
-0.987021
-0.602812
-0.239675
-0.768232
-0.087461
0.915878
0.447586
-0.249338
0.842064
-0.507333
-0.239512
-0.673935
-0.999995
0.419625
0.475495
0.670501
-0.631319
0.303148
0.701545
0.316460
-0.283648
0.657037
-0.632727
-0.125304
0.648553
0.296331
0.149853
0.784102
-0.632815
-0.743443
0.463358
0.507682
0.859543
0.310002
0.539476
-0.228491
0.992713
0.624131
0.109677
0.705038
0.405468
0.801343
-0.329185
0.882774
0.570220
-0.521686
0.742090
0.514211
-0.831187
-0.457128
-0.508025
-0.126703
-0.903280
-0.954948
0.250242
0.127931
-0.496625
0.174619
-0.807969
0.244401
0.203223
0.343842
-0.749962
-0.515791
0.715644
0.631432
0.128442
-0.016661
0.180881
0.526402
-0.338733
0.938658
-0.487784
0.483750
-0.586680
-0.496410
0.292853
0.032930
-0.858465
0.535034
-0.852547
-0.349897
-0.688079
0.562408
-0.319509
0.429182
-0.520294
-0.715017
-0.277065
-0.191614
0.942594
-0.907766
0.905621
0.606210
0.301074
-0.562886
-0.232816
-0.860611
0.647846
-0.763968
0.811485
0.999272
-0.192638
0.843684
-0.481894
-0.778899
0.597498
0.062503
0.530966
0.087024
-0.931937
0.218826
-0.220369
0.397128
-0.978781
-0.507422
0.405897
-0.128647
-0.830412
-0.509373
0.898120
0.330219
-0.188448
0.890598
0.896052
-0.181833
0.182566
-0.398931
-0.012599
-0.576902
-0.892944
-0.383388
0.231686
-0.758272
-0.768315
-0.387311
-0.363500
-0.057723
0.010080
-0.369617
0.110156
0.803789
-0.686688
-0.874191
-0.197185
-0.313276
0.185997
0.479128
0.131265
-0.766752
0.408924
-0.206128
0.651183
0.000244
-0.292385
0.527004
0.376103
-0.994367
0.428288
0.736987
-0.011488
0.608649
0.458492
-0.302485
0.436774
-0.184468
0.807568
-0.205307
0.420323
-0.072185
-0.325266
0.335445
0.184429
0.819240
-0.702985
-0.908898
-0.594015
0.439163
-0.786545
0.290801
0.639849
-0.573025
0.503577
0.365579
0.442131
0.939054
-0.024058
-0.000092
0.928968
0.771272
0.327444
0.681452
0.475018
-0.155250
-0.658178
0.464982
-0.325550
0.498293
-0.551547
-0.660758
0.694179
-0.147644
-0.450797
-0.596036
-0.495824
-0.987350
0.596734
0.075529
0.764724
-0.742241
-0.604369
0.743236
0.258844
0.144520
-0.578355
0.257261
0.818957
0.403062
-0.082911
-0.031712
-0.817370
0.111248
0.128132
-0.370872
-0.905504
0.382244
0.179699
0.972507
-0.723388
0.722644
0.521720
-0.555224
0.072598
0.092097
-0.839055
-0.654699
0.363229
0.703225
-0.786054
0.846983
-0.940749
-0.006958
-0.546852
-0.176099
-0.819422
0.105714
-0.140206
0.032551
0.473728
-0.623359
-0.087403
0.978365
0.321170
0.792467
-0.045133
0.881729
-0.157518
0.281906
0.457134
0.638973
0.301772
-0.152663
0.254427
-0.409918
-0.122803
0.214934
0.404616
-0.286987
0.737757
-0.802023
0.271207
-0.726590
-0.494483
-0.119616
0.097481
-0.146436
0.141128
-0.850635
0.408813
-0.779680
-0.547793
-0.531423
0.716971
0.828795
-0.166796
0.590600
0.222719
0.154269
0.640725
-0.649298
0.790695
-0.722678
0.193981
0.654578
0.067935
0.054348
-0.795794
-0.505974
0.281133
-0.103973
0.123925
-0.228240
-0.594294
0.488769
-0.140938
-0.657922
0.544743
0.233862
0.498390
-0.556751
-0.080269
-0.376606
0.152248
-0.051657
0.328713
-0.890722
0.758976
0.336829
-0.290278
-0.945818
0.148872
0.615335
0.278163
0.345231
0.480280
0.061699
0.932629
0.969042
0.737385
0.503566
0.783518
-0.830345
-0.258663
0.508621
-0.222717
-0.318839
-0.034932
-0.165392
-0.484111
0.089241
-0.474387
-0.526859
-0.804985
0.196141
0.272718
0.636433
0.944947
-0.150209
-0.610130
0.929034
-0.371078
0.055468
-0.602173
-0.875100
-0.372148
0.847450
0.976140
-0.404870
-0.349025
-0.470694
0.451249
0.639581
0.031026
-0.663256
-0.323400
0.644425
0.658629
0.678133
0.377078
-0.892191
0.944688
-0.832443
0.406754
0.829598
-0.815556
0.866746
0.216028
0.867225
0.124615
0.116280
-0.323632
0.422255
-0.570657
-0.684601
-0.724418
-0.430951
0.481353
0.900731
-0.446826
-0.132139
-0.289971
0.208941
-0.861660
-0.004095
-0.839774
-0.808620
0.999059
0.645021
0.510685
0.440165
0.337046
0.233168
0.002740
0.284092
0.687500
-0.186622
0.707927
-0.423370
0.956580
-0.719210
0.712449
0.678823
0.608303
-0.083107
-0.136436
-0.343707
-0.659203
0.170908
-0.896041
-0.590957
-0.513876
-0.004662
-0.641758
0.034377
-0.838861
-0.590956
0.630304
-0.096957
0.255020
-0.794066
-0.064872
-0.495580
-0.043533
-0.061658
-0.322831
0.188598
0.567168
-0.319013
-0.303928
0.487266
0.477410
-0.781637
-0.997172
-0.555962
-0.867674
-0.212326
0.524466
0.080092
0.334053
0.259913
0.429996
-0.728091
-0.418863
0.993932
-0.966809
0.385205
0.419509
-0.227032
-0.755002
0.357945
-0.655743
0.964876
-0.002474
-0.336003
0.124827
-0.540897
0.339410
0.859159
0.210176
0.947406
-0.837896
-0.742059
0.765172
0.587741
0.868685
-0.085751
0.565975
-0.334118
0.700215
-0.354422
0.224500
-0.232142
-0.922879
-0.172719
0.935367
0.192166
-0.612871
-0.077584
0.702510
-0.310971
-0.749085
-0.501202
-0.526240
-0.103312
-0.026354
0.668699
-0.865404
-0.866281
-0.937865
0.510357
0.828803
-0.971231
-0.241745
-0.499089
0.494565
0.747213
-0.359508
-0.933212
-0.647822
0.366489
0.509360
-0.992238
-0.951753
-0.657717
0.228301
0.640198
0.444098
-0.896917
-0.316757
-0.828795
-0.895555
0.408592
-0.223799
0.417199
0.571772
-0.547846
-0.475250
0.065493
0.783685
0.043467
0.827623
-0.870981
0.366345
-0.819874
0.653699
-0.450241
0.097145
-0.820478
-0.504448
0.643738
0.871161
0.921288
0.344897
-0.308604
-0.168137
-0.921579
-0.296539
0.613916
0.490513
0.221660
0.825070
-0.559129
-0.927305
0.142156
-0.619438
-0.770847
0.327745
-0.865834
-0.090958
0.144617
0.943419
-0.076001
-0.044895
0.611527
0.099894
-0.802994
0.403267
-0.060514
0.469450
-0.488806
0.935323
0.319666
0.791851
0.522578
-0.657418
0.595597
-0.877683
-0.503311
0.556064
0.416864
-0.630169
-0.104518
0.494867
-0.869722
0.940115
-0.067036
-0.534706
-0.293144
0.245052
0.285083
-0.126038
0.216308
0.892495
0.154755
-0.937079
-0.705547
0.958810
-0.873345
0.525619
0.901918
-0.264111
0.604527
-0.217269
0.762816
0.608403
-0.549963
0.090729
-0.987254
0.553304
0.128471
0.446581
0.134986
-0.860994
0.214830
-0.763707
-0.977827
-0.143895
-0.647729
-0.267413
-0.343658
-0.646873
0.625149
-0.314275
-0.006174
-0.032208
-0.813526
0.011749
-0.179387
0.866444
0.546160
0.270354
0.927735
0.397239
0.497261
0.441869
-0.161890
0.673662
0.945581
-0.414362
0.289952
0.889076
0.840709
-0.005029
-0.376586
-0.913369
-0.329813
-0.503048
-0.627217
0.119345
0.549101
0.018813
0.133946
0.758880
-0.569676
0.647347
0.828495
-0.251745
-0.177140
-0.389474
0.039320
0.825772
-0.017498
0.491645
-0.719302
0.897016
-0.919154
0.139158
-0.470221
0.863707
-0.978631
-0.770228
-0.579150
-0.557198
-0.100412
0.279365
0.414654
0.998321
-0.357327
0.369517
-0.475979
0.189423
-0.221076
0.377583
-0.543321
0.468481
-0.249673
0.468383
-0.918861
-0.748262
0.506361
0.393853
-0.611700
0.894008
0.734770
-0.782663
-0.377460
0.357354
0.340383
0.691295
0.732186
0.501725
0.701251
-0.732871
0.110762
-0.329087
0.049448
0.054817
0.563231
0.334339
-0.580170
0.682820
-0.124555
0.681487
-0.930938
0.537791
-0.575559
-0.415131
0.546201
-0.920817
-0.561848
-0.235780
0.963474
-0.444878
0.321593
-0.297670
-0.328774
0.034100
0.012698
0.524894
0.522517
-0.359042
-0.313800
-0.277395
-0.545095
0.983098
0.799852
0.639639
-0.236995
-0.237268
-0.583384
-0.135849
0.181034
0.088954
0.527034
0.590217
-0.578251
-0.874737
-0.713212
0.208465
0.676925
-0.452294
-0.686737
-0.274003
-0.078887
0.480656
0.518943
-0.938959
0.073223
-0.699181
-0.977694
0.379404
-0.951430
-0.614491
-0.246707
0.066157
0.125001
-0.849683
-0.760126
0.167724
-0.708363
0.094374
-0.924907
0.591246
0.047818
-0.241323
0.167122
0.747944
-0.971865
-0.555762
-0.521988
-0.173672
-0.968752
0.405707
-0.842062
0.220151
-0.300614
0.526717
0.612966
-0.062298
-0.225315
0.022554
0.497818
0.365937
-0.354128
0.188084
0.137158
-0.631389
-0.672954
-0.447825
0.096396
0.340552
-0.436451
-0.544203
-0.404996
0.875710
-0.265756
-0.345397
-0.644759
0.450644
-0.092228
-0.200266
-0.832235
-0.498343
-0.405564
-0.097490
-0.478055
0.851574
-0.492581
-0.555478
0.998592
-0.590861
-0.257233
-0.483381
0.604762
0.821302
-0.322739
0.158154
-0.600084
-0.847324
-0.166922
-0.020501
0.535854
0.942825
-0.799772
-0.522179
0.219895
0.477690
0.263551
0.908466
-0.025865
0.299582
0.711740
0.865532
-0.233964
-0.807433
-0.280122
-0.225855
-0.368531
0.935562
0.618710
-0.949251
-0.559900
-0.095091
-0.426550
0.932668
0.149847
-0.041880
0.956667
-0.595934
-0.751501
0.034359
-0.125946
0.765350
0.653912
0.800315
0.037359
0.828749
0.505443
0.894403
-0.407087
-0.533180
0.950794
0.171907
-0.437876
-0.390511
0.015838
0.357714
0.359739
-0.544593
-0.654606
0.903948
0.730062
0.733932
-0.952882
-0.389967
0.994495
0.932861
0.127065
0.475475
-0.887706
-0.975549
0.046937
-0.242246
-0.689285
0.768534
-0.419699
0.392467
-0.090591
0.024905
-0.524481
0.168724
0.678690
-0.491773
0.844056
0.337758
0.058598
-0.070715
-0.943044
-0.671748
-0.524232
0.585513
0.296289
0.388844
-0.466173
0.846009
-0.832867
-0.527417
-0.981525
-0.714848
0.631448
0.127391
0.450887
-0.488529
-0.249207
-0.385195
-0.627271
0.206504
-0.641675
-0.412693
-0.453781
0.359137
0.572537
0.716566
-0.451453
0.511546
-0.905662
-0.341605
-0.194730
0.507221
-0.513753
0.297048
-0.454582
-0.612251
0.248032
-0.563258
-0.036906
-0.817705
0.559201
-0.325821
-0.582740
0.288136
0.810894
0.832469
0.723591
0.240848
0.812437
0.271585
0.937589
0.991034
0.207809
0.438905
-0.415946
-0.071629
-0.598928
0.474351
-0.730034
-0.817119
-0.916424
-0.304992
0.096500
-0.885207
0.610279
-0.222284
-0.825390
-0.440786
-0.655901
-0.312407
0.169913
0.782826
-0.390628
-0.675899
0.526555
0.848610
-0.581035
0.334538
0.646107
0.866525
0.957101
-0.875826
-0.363192
0.661749
0.328193
-0.120712
0.689346
0.586461
-0.842683
-0.987141
-0.588066
0.618745
-0.418716
-0.737501
-0.938620
-0.092734
0.380331
-0.924986
-0.987265
0.225297
-0.097647
-0.261051
-0.186995
0.291170
-0.888128
0.777892
0.408134
0.619409
0.007655
0.686429
-0.540096
0.464394
-0.091836
0.871794
0.891271
0.619881
-0.266274
-0.965818
-0.685156
0.043817
-0.284097
0.869029
0.989730
0.892750
-0.335630
0.619944
0.110760
-0.632327
-0.942313
0.861130
0.223943
-0.461509
0.187420
-0.390969
-0.266625
0.653211
-0.419776
-0.161044
-0.176020
0.887711
-0.195993
0.194058
-0.389277
-0.931469
-0.156846
0.110441
-0.042587
-0.230793
-0.687208
-0.415003
0.571410
0.386032
-0.632727
-0.057140
0.414166
-0.550657
0.230680
-0.227975
0.251405
0.611784
0.811771
-0.504216
-0.859652
-0.673953
0.196616
-0.184993
-0.843164
0.582760
-0.108252
0.770897
0.481499
-0.176118
-0.268917
0.605786
-0.515433
-0.607827
-0.030786
0.798113
-0.762687
-0.279319
-0.084664
-0.009808
-0.690043
-0.932119
-0.740894
-0.279705
-0.891578
0.297166
-0.374405
0.617441
-0.789155
0.802553
0.306084
0.819086
0.966036
-0.957500
0.828896
0.724868
-0.558108
0.580148
0.809211
-0.800780
0.654361
0.341543
0.184110
0.875211
-0.060952
-0.583178
0.666504
-0.477187
0.491802
0.456597
0.256650
0.847519
-0.217090
-0.489876
0.326091
-0.624270
-0.783293
0.286662
0.758686
0.712014
0.448636
-0.869819
-0.038100
0.071056
-0.610566
-0.261729
0.530074
0.734460
-0.214015
0.973640
0.811120
0.113923
-0.592605
0.062712
-0.571102
0.908070
0.895526
0.034977
-0.836316
-0.546440
-0.008743
-0.062916
0.423610
0.110699
0.092771
-0.741346
0.336637
0.751969
0.762537
-0.202065
-0.938932
0.539199
-0.284780
0.439683
-0.620150
0.436930
-0.061993
-0.237157
0.103445
0.668692
0.334118
0.376673
-0.503212
0.473907
0.064155
0.376382
-0.915935
-0.343345
-0.297378
0.140989
0.931735
-0.968016
-0.684112
-0.104207
0.583750
-0.289282
0.351996
-0.619859
0.635063
-0.724275
-0.098541
0.807686
-0.746875
-0.047470
0.968316
0.420201
-0.042063
0.511580
0.652466
-0.516523
-0.618700
0.107996
0.482632
-0.725875
0.071702
-0.690920
-0.409609
0.096635
-0.175131
0.856221
-0.534667
-0.776973
0.335454
0.971474
0.247781
0.477731
-0.266054
0.085333
-0.010162
0.953952
-0.722521
-0.752951
0.617672
-0.011304
0.963738
0.551812
0.339888
-0.931095
-0.690376
0.146212
0.997783
-0.665194
-0.797477
0.742525
0.721515
0.134566
-0.230136
0.880995
-0.057452
0.759155
-0.259294
-0.601132
0.405306
0.471291
0.789824
-0.607243
0.688248
-0.528941
-0.970457
-0.612307
0.679913
-0.220215
-0.478716
-0.288671
0.024515
0.993716
0.184112
0.948347
-0.035092
0.468942
0.716929
-0.482073
0.303652
0.858302
0.395896
0.544065
-0.336479
-0.937189
-0.123111
0.512529
0.564789
-0.860866
0.975743
-0.148561
-0.094483
-0.768021
-0.538583
0.823912
0.312343
0.887207
-0.682469
0.475732
-0.882646
0.612673
0.612155
-0.490608
-0.756330
-0.160135
0.503059
-0.802244
-0.761929
0.209390
0.102806
-0.869061
0.328907
-0.243254
-0.366387
-0.580322
0.156567
-0.157275
-0.761888
0.806018
0.264809
0.509683
-0.825380
-0.501714
0.872007
-0.347859
0.878025
0.620689
-0.395425
0.163795
-0.904314
0.950405
-0.062344
0.541229
-0.869412
0.049144
-0.975068
-0.754183
0.738201
0.290318
0.869272
0.474651
0.158911
-0.433181
-0.215663
-0.258869
0.113665
-0.752505
0.983792
0.281424
-0.770643
-0.513807
0.598985
-0.692675
-0.404535
-0.376828
-0.417933
-0.206341
0.108268
0.136493
0.946729
0.935290
0.120379
0.103068
-0.298347
0.503840
-0.000851
-0.190026
0.390862
-0.646767
-0.055843
-0.876451
0.508408
0.858753
0.175332
-0.937268
-0.084726
0.215217
0.448969
-0.112409
0.986532
-0.851709
0.536635
-0.168364
-0.348116
0.419263
-0.580886
-0.644078
0.019850
0.655039
0.572728
-0.779118
0.489807
-0.491392
-0.730746
-0.546453
-0.318938
-0.184845
0.961889
0.258515
-0.991554
-0.603351
0.621057
0.317034
-0.374865
0.698435
0.629965
-0.118032
0.507465
0.420909
0.875873
-0.251116
-0.788866
-0.762261
-0.315062
0.062236
0.065608
-0.239416
0.187751
-0.375018
-0.541770
0.897916
0.982496
0.168887
0.245287
-0.173400
-0.784924
-0.391197
-0.417043
0.941679
0.322608
0.219522
-0.143446
-0.574438
0.409115
0.866403
-0.926978
0.062140
-0.680212
0.993842
0.127651
0.525723
-0.263078
0.718322
0.475222
-0.891516
0.706873
-0.075531
-0.020825
-0.089404
0.107707
0.427576
0.776732
0.872401
0.234953
0.774060
-0.592428
-0.018940
-0.515706
0.770103
-0.455400
-0.872666
-0.560824
0.305162
0.473100
-0.686693
0.219227
-0.701310
-0.634568
-0.567209
-0.293018
0.789251
-0.076400
-0.111609
-0.331142
0.413659
-0.771992
0.145655
-0.303946
0.393061
0.450404
0.642721
0.258804
0.284661
-0.329075
0.385462
-0.880478
-0.173080
-0.046629
-0.875144
0.575666
-0.967922
0.516247
-0.270016
0.228028
-0.158039
0.657460
0.620685
-0.869146
-0.327814
0.781678
-0.753459
0.691540
-0.725866
0.379879
0.173014
-0.060905
0.382473
0.748880
-0.022817
-0.802855
0.592100
-0.100709
-0.236330
0.313337
0.906077
0.726995
-0.240725
-0.193630
0.239990
0.086619
0.615592
0.844081
-0.037915
0.438501
0.804370
-0.598856
-0.034481
0.619314
-0.153604
0.867445
0.694415
-0.918657
-0.262559
-0.804606
0.784815
0.649028
-0.318923
0.120019
0.594911
0.383166
0.988241
-0.009951
-0.665721
-0.349149
0.710341
-0.881481
0.602618
-0.652686
-0.722804
-0.532665
-0.954499
-0.142609
-0.452553
0.466183
0.480652
-0.029325
0.059229
-0.906751
-0.901746
0.267733
0.097594
-0.875876
0.262035
-0.319440
-0.629235
0.603493
-0.591542
-0.142075
0.005731
-0.712112
0.630362
0.438812
0.593334
-0.148416
0.480947
-0.606471
-0.008573
-0.489964
0.923913
0.094710
-0.878837
-0.666572
0.438043
-0.313624
0.547250
-0.566543
0.328609
0.196636
0.025786
-0.638235
-0.229199
0.565245
-0.851892
0.434892
0.156345
0.508082
0.700190
0.263124
0.019470
-0.363958
0.000391
-0.760465
0.558122
-0.707880
0.436222
-0.021412
0.146941
-0.992959
-0.378291
-0.108489
0.822003
0.556444
-0.271102
0.401591
0.118419
-0.905157
0.844067
-0.597588
0.959345
0.590001
0.360274
-0.208259
-0.003594
-0.132122
0.311355
0.201549
-0.388175
-0.922119
0.055022
-0.528321
0.201716
0.815198
0.881769
0.462729
0.005043
0.057934
-0.841823
-0.331706
0.640347
0.105029
0.606931
-0.643340
-0.102089
0.157334
0.555852
-0.781473
-0.366291
-0.981369
0.928537
0.215075
-0.943136
0.963360
-0.429088
0.652323
-0.224247
0.452107
-0.432653
0.252704
0.977453
0.011572
-0.125542
-0.566812
0.004395
0.884110
0.292969
0.045219
-0.508421
0.196226
-0.825742
0.354405
0.413208
-0.884823
0.271460
-0.693250
0.846916
0.206119
0.207823
-0.911388
0.075830
0.230075
-0.376193
0.833207
-0.348028
-0.620053
-0.290116
0.939594
-0.931972
-0.473859
0.660684
-0.005496
0.199640
-0.491886
0.766190
-0.667690
-0.385531
-0.507532
0.961094
0.956326
-0.322337
-0.721004
0.358901
0.286321
0.069268
-0.123903
0.929081
-0.876902
0.376995
-0.815770
-0.657981
-0.794318
-0.865772
-0.759235
-0.987521
-0.772633
0.873152
-0.091226
0.240573
0.494158
0.062687
0.850956
0.509565
0.490956
-0.101972
0.003091
0.794776
0.334277
0.404478
0.778499
-0.855732
0.295523
0.510663
0.874113
-0.743298
0.997880
0.186289
-0.868991
0.870425
0.746865
-0.684943
0.708695
0.240366
0.329774
-0.292871
0.876350
0.918022
-0.240646
-0.737145
-0.128601
0.917620
-0.711405
-0.727920
0.500659
-0.583257
0.713080
-0.907908
0.371660
-0.656419
0.543251
0.956478
0.921021
-0.518961
-0.776811
0.664066
0.013082
-0.777001
0.813861
-0.635722
0.648452
-0.651191
-0.022870
-0.702889
-0.944363
-0.028172
-0.425060
0.063601
-0.213359
0.723797
0.020879
0.388901
-0.019676
-0.187251
0.226519
-0.346171
-0.383494
-0.322106
-0.908578
-0.940021
-0.303168
-0.504235
-0.671604
-0.369248
0.284645
-0.258180
0.671666
-0.313489
0.105800
-0.843349
0.126351
0.288995
-0.725932
0.146665
0.152877
0.640445
0.021426
0.870862
0.754612
0.891306
0.094225
-0.096121
-0.874564
0.709358
0.253291
0.101024
-0.299446
0.780642
-0.794117
0.975353
-0.968803
-0.427924
0.693696
-0.179151
-0.082919
-0.164038
-0.625376
-0.013617
0.882201
0.677649
-0.907301
-0.360561
-0.372986
0.881748
-0.926552
0.735770
0.870795
-0.500087
-0.542750
-0.301128
0.092956
-0.473125
-0.950883
-0.553043
-0.783271
0.244853
-0.020010
0.509765
0.780867
-0.920602
-0.284783
0.268326
-0.594167
0.012822
0.443782
0.835897
0.767342
-0.810117
0.962570
-0.270202
-0.258669
0.891008
-0.499559
-0.922790
0.542928
-0.222560
-0.179110
0.442873
-0.182394
0.353881
0.857158
0.142864
-0.346204
-0.845857
-0.928190
-0.570728
0.451328
-0.767300
0.230725
0.853197
0.337946
-0.661063
-0.145582
0.641321
-0.810476
0.854048
0.154035
0.511042
0.132880
0.665036
-0.935776
0.964249
-0.645451
-0.666200
0.101704
-0.706622
-0.178536
-0.091709
-0.366317
-0.277873
0.912952
-0.377793
0.707145
0.423212
0.144585
-0.814140
-0.218768
0.347325
0.102092
-0.546695
-0.402832
0.320004
0.547677
0.390036
0.934488
0.981253
-0.193745
-0.032307
0.999068
-0.539798
0.420215
-0.077358
-0.962316
0.642912
-0.408757
0.377172
-0.337208
-0.837834
-0.742043
0.723993
-0.728549
-0.213164
0.878146
0.514424
0.566705
-0.452480
-0.668893
-0.296827
-0.854908
-0.485398
-0.260956
-0.706192
0.196602
0.375422
-0.537011
-0.747574
-0.446965
-0.638532
-0.254106
0.846078
-0.306831
0.266884
-0.321796
0.002842
0.889932
-0.080195
-0.393753
0.799406
-0.090375
-0.826917
0.876604
-0.130021
0.879540
0.596695
-0.249892
0.145571
0.793997
-0.386391
0.793193
0.735220
0.659415
0.599185
-0.401004
0.576774
0.671908
0.338824
-0.286577
0.959260
-0.014391
-0.827706
0.899792
-0.697736
0.144978
-0.373187
-0.488070
-0.556383
-0.696793
0.223901
0.480559
-0.600450
0.757138
0.092589
-0.594591
-0.451115
-0.569972
-0.930825
-0.251105
0.132514
-0.506036
0.296101
0.041634
-0.452132
0.187896
-0.036164
-0.658637
0.140946
0.137940
-0.589850
-0.406580
-0.194831
0.217508
0.774979
-0.870845
0.792855
-0.759925
0.932554
-0.885058
-0.596964
0.561284
-0.189804
-0.615698
0.595132
0.685700
0.037538
0.772235
-0.059598
-0.514546
0.097609
-0.551814
0.191648
-0.066305
0.296285
0.211476
-0.030355
0.510028
0.417797
-0.201045
0.369522
0.612495
0.833209
-0.862169
0.762398
0.029474
-0.008605
0.083018
0.702308
-0.512644
0.726695
0.008545
0.684012
-0.511037
0.231287
-0.655240
0.500684
-0.280631
-0.358626
-0.445708
-0.984827
-0.847029
0.865708
0.967051
-0.990213
-0.267149
-0.486757
-0.628923
0.803423
0.573045
-0.802070
-0.981548
-0.011037
0.676122
0.016746
-0.984815
-0.999547
-0.971752
-0.769514
-0.956357
0.941105
0.456586
-0.976143
-0.111704
0.700395
0.068179
-0.736654
-0.984865
0.500305
-0.702669
-0.891330
-0.632625
0.284665
0.177864
-0.847953
0.263967
-0.447104
-0.590277
0.692098
-0.212216
0.016374
0.329626
0.255220
-0.891097
-0.736114
-0.892580
-0.552092
0.810510
0.435092
0.240175
0.792498
-0.334289
0.419284
-0.332528
-0.875334
-0.931886
0.533009
0.198537
-0.788373
-0.353226
0.061175
-0.499421
-0.074430
-0.280276
0.843465
-0.491899
-0.644765
-0.049185
-0.147521
-0.855608
-0.603737
-0.974799
0.274061
0.932472
0.103682
-0.469924
-0.878589
0.796639
-0.630555
-0.552948
0.015931
0.663559
0.876122
-0.864044
0.025872
0.776658
0.552619
0.705713
-0.272719
-0.821651
0.705731
0.773828
-0.174458
-0.506139
0.052749
0.626624
0.332762
-0.374606
0.683535
0.442731
0.771781
-0.115464
0.725756
0.586470
0.098883
0.867194
-0.448321
0.651016
0.726253
0.444300
-0.908959
0.791475
-0.340234
-0.322282
0.039249
-0.171470
0.169493
-0.592972
0.224998
-0.823238
0.326468
-0.110168
-0.951037
0.922687
0.355693
-0.121836
-0.011932
-0.547331
-0.652535
-0.981447
0.338631
0.534209
0.915418
0.885556
-0.203169
-0.331229
-0.732951
0.550545
-0.034336
-0.043315
0.703133
0.646657
-0.235845
-0.090306
0.762331
0.471208
0.889079
-0.183679
-0.059754
-0.718400
-0.112763
0.396399
0.650649
0.046856
0.377100
-0.528782
-0.716582
0.784205
-0.979581
0.394264
-0.927110
-0.576943
-0.784399
0.998310
-0.967867
0.989648
0.580532
0.660105
0.022760
0.392713
0.463402
-0.035930
0.994294
0.116985
-0.412196
-0.344512
0.447293
0.293687
0.616182
-0.864927
0.498424
-0.543170
-0.603063
0.045230
0.063641
-0.664873
-0.863704
0.283089
0.826155
0.901768
0.057414
0.918035
-0.397063
0.994061
0.770962
0.178967
0.140894
-0.648288
0.327872
0.178303
0.555589
0.720054
0.385423
0.191602
0.073058
0.545808
0.057685
-0.113343
-0.757230
-0.365749
0.583651
-0.636679
0.290323
-0.162883
0.064410
-0.081589
0.859344
-0.451246
-0.520244
-0.202994
0.607340
-0.039579
0.614258
0.243683
-0.356142
0.153081
-0.383628
-0.703277
0.636228
0.856168
-0.149146
-0.443783
0.200474
0.348946
-0.282164
0.909413
0.973721
-0.842586
0.178292
0.866765
0.343357
0.149021
0.402236
-0.978112
0.499064
0.347148
0.913926
0.054057
-0.446252
-0.212250
0.806096
-0.745975
-0.353564
-0.703949
-0.292519
0.903670
0.328227
0.898420
-0.413443
-0.548320
-0.009083
0.955818
-0.749939
0.108558
0.109036
-0.493963
-0.171521
0.307076
0.843711
-0.417635
-0.140768
-0.973763
0.013227
-0.833076
0.246422
0.808988
-0.070568
0.825064
-0.735368
0.605534
0.631477
-0.595666
0.933917
0.705636
-0.209442
-0.984791
0.650741
0.318135
0.855123
0.761426
0.003710
-0.585758
-0.537748
0.879579
-0.743592
0.864002
0.948485
-0.115991
0.976444
-0.049179
-0.458578
-0.604949
-0.807805
0.651219
0.809580
-0.850611
-0.243130
-0.968953
0.387658
0.585451
0.766993
0.370475
0.372043
0.068749
-0.923150
-0.873850
0.703303
-0.605527
-0.500189
-0.012355
0.521288
-0.042472
0.275000
-0.238179
0.117419
0.847314
0.518561
0.090622
0.051329
-0.552969
0.069066
-0.278024
-0.888357
0.450989
-0.980381
-0.875730
0.011681
0.638066
0.028403
-0.628285
0.899372
-0.167799
0.191895
-0.731483
-0.479166
0.713126
-0.670748
-0.263670
0.616294
0.619894
0.638155
0.184719
0.052414
-0.841405
0.550437
-0.459432
-0.668274
0.923774
-0.254354
0.411011
0.711782
0.515135
0.240665
-0.980167
-0.217726
0.592126
0.472106
-0.704543
-0.067938
-0.672249
0.990203
-0.285499
-0.869662
-0.153255
-0.663098
-0.614598
0.976334
-0.125425
0.620372
-0.818700
0.900719
-0.466736
0.745259
0.291238
0.085460
-0.805013
-0.384349
-0.833638
-0.169741
0.247784
-0.478730
0.022269
-0.685163
-0.967522
-0.485220
0.218935
0.160454
-0.764746
0.887032
-0.173165
0.989507
-0.318200
-0.882380
0.862579
0.851888
-0.288399
-0.673802
-0.132838
0.769909
-0.831667
-0.679155
0.895562
-0.782631
-0.297578
0.433585
0.951832
0.088650
-0.852388
0.746570
-0.985802
0.198346
0.652173
-0.462628
-0.895637
0.645247
-0.599053
0.096017
0.560398
-0.330970
-0.548889
-0.788108
0.490269
-0.696411
-0.986056
-0.269233
0.466309
0.999349
0.370623
0.731672
0.333917
0.176098
0.186762
0.953183
0.918207
0.888480
-0.506983
0.221124
0.894717
-0.272145
-0.602172
0.813651
-0.053409
-0.524263
0.150171
-0.429474
-0.627300
-0.411595
-0.206042
0.945115
-0.574795
-0.457366
-0.819461
0.407791
-0.848170
0.961543
-0.217595
-0.952451
-0.753314
-0.657818
0.231104
0.993936
0.824827
-0.579243
0.333428
0.231343
-0.200623
0.300404
0.377678
-0.826131
0.015540
0.693403
0.317732
0.567432
-0.312604
-0.476587
-0.945951
-0.873972
-0.153915
0.135863
-0.347932
0.017666
-0.234413
-0.739382
-0.371404
0.244073
0.712820
0.400578
0.101835
-0.057958
-0.177573
0.536880
-0.818477
0.696163
0.425373
-0.168538
0.846650
-0.844768
-0.415040
0.700790
-0.714580
-0.713864
-0.663106
0.073711
-0.185098
0.053937
-0.830859
-0.794485
0.697702
0.873431
0.059631
-0.061240
0.427549
-0.469230
-0.206790
-0.910129
-0.215443
0.601114
-0.355757
0.877521
0.436620
-0.405181
-0.962879
-0.202342
0.087602
-0.996276
0.777031
-0.938365
0.309284
0.170687
-0.936162
0.656601
-0.820101
0.580098
0.594114
-0.801694
0.810656
-0.594258
0.035685
-0.366658
0.495852
-0.171457
0.554868
-0.883510
-0.253964
-0.308760
0.452590
0.889336
-0.124718
-0.160389
-0.618603
0.176906
-0.771624
0.167990
0.997674
0.518640
0.554295
0.353364
-0.088331
0.767804
-0.222244
0.104164
0.817408
-0.761591
-0.288493
-0.963004
-0.775820
-0.271084
0.295012
0.262959
0.061411
0.722797
-0.787581
0.707699
0.989258
0.838568
-0.019195
-0.442848
-0.645577
-0.905360
0.779916
0.810149
0.287298
0.516173
-0.292337
-0.234167
-0.521862
0.926306
0.899704
0.301287
0.887870
-0.965785
0.347210
0.474012
0.707845
0.905989
0.846816
-0.770509
0.783741
-0.938315
-0.633175
-0.428912
-0.603202
0.707064
0.525754
0.851012
-0.649903
-0.180339
0.256817
-0.813241
-0.881161
-0.553062
0.674147
-0.444783
0.989652
-0.433847
-0.898151
0.418337
0.527677
-0.135201
0.383983
0.263389
-0.871410
-0.070741
0.959508
-0.329945
0.580313
-0.773331
0.589767
0.954156
0.511246
-0.254914
0.601354
-0.399269
-0.707350
-0.099394
0.200480
0.632408
-0.815325
-0.841547
0.170870
0.919406
0.072719
0.632326
-0.278439
-0.179889
0.578454
0.347677
0.696450
0.949068
0.007151
0.179734
0.142948
0.809356
-0.242692
0.445885
-0.751042
-0.750589
-0.018425
0.985624
-0.989627
0.469840
-0.447257
0.827495
-0.581236
0.380477
-0.238678
0.058993
-0.352459
0.472372
-0.537800
-0.577859
-0.274116
0.935753
0.948067
-0.732185
-0.235602
-0.019782
-0.887817
0.207608
0.644179
0.045999
-0.317426
0.415977
0.151807
0.934815
-0.135824
0.677021
-0.127779
-0.971347
-0.734876
-0.584427
0.240373
0.683872
0.348408
-0.221642
-0.020826
0.191104
0.457882
0.702905
-0.032346
0.527421
-0.749995
-0.711773
-0.853640
0.333419
-0.512098
-0.857091
0.592521
0.451110
-0.264452
-0.027015
0.143904
-0.920918
-0.830695
-0.745510
0.370630
-0.853293
-0.158487
0.035959
0.815377
0.840150
-0.199560
0.925943
-0.931272
0.895107
-0.025505
0.631126
-0.451028
0.471579
-0.401701
0.038102
0.777541
-0.710618
-0.963741
-0.438388
-0.937766
-0.160976
0.355575
0.621031
0.338856
0.339695
0.572330
-0.779907
-0.933240
-0.222267
-0.058807
-0.252588
0.547858
0.360348
-0.258526
0.648206
0.072136
-0.539295
0.559044
-0.930550
-0.031283
-0.220426
-0.300320
-0.141844
0.056762
-0.257546
-0.173697
0.439662
0.191603
-0.483396
-0.300449
0.542910
0.402391
-0.958271
-0.178237
0.470087
-0.606748
-0.203798
-0.974407
-0.489364
-0.891765
-0.334578
0.042306
0.451795
-0.991682
0.779345
-0.474280
-0.325997
-0.433424
-0.978932
-0.120141
-0.877234
-0.773045
0.902733
0.945830
0.152354
-0.353969
-0.214383
0.832052
-0.548103
-0.047698
-0.543812
-0.743070
-0.944470
-0.559165
-0.961692
-0.648577
0.596389
-0.988599
-0.241438
-0.888681
0.614515
0.223243
-0.785032
0.946936
0.391633
-0.988338
0.595916
0.786404
-0.757659
-0.111572
0.184941
-0.149569
-0.652496
-0.898863
-0.085939
-0.618815
0.671129
-0.360780
0.735961
-0.170510
-0.423070
-0.625306
-0.393098
-0.306933
-0.126263
0.795778
0.407517
-0.756676
0.935048
0.978177
0.093146
0.098148
-0.940394
-0.061495
0.901032
0.783390
-0.748759
0.755496
0.592111
0.991403
-0.422395
0.257034
0.810219
0.093496
-0.235094
0.805108
-0.125418
-0.233200
0.255036
-0.289362
-0.827690
-0.877912
0.517488
-0.942949
-0.810338
-0.446449
0.795859
0.761322
-0.144668
0.953396
0.053535
-0.852927
0.330022
-0.359074
-0.835248
0.586992
-0.042983
-0.287342
-0.039086
-0.378608
-0.091507
-0.289316
0.310138
0.085731
-0.481990
0.852769
-0.555888
0.573962
0.429449
-0.512393
-0.263965
0.866734
-0.787467
-0.706378
0.089372
0.546866
0.500082
-0.813090
0.303342
-0.389430
0.045424
-0.840979
-0.972480
-0.812130
0.660526
0.468398
0.550681
-0.779701
-0.382422
-0.607858
0.707501
0.286073
0.018116
0.141506
-0.585272
-0.189904
-0.468146
-0.316231
0.416770
0.186209
0.878823
-0.124855
0.183097
0.766033
-0.369739
0.103630
-0.537511
-0.467003
0.639933
-0.370561
-0.884601
0.050721
-0.639472
0.066919
0.428340
-0.799039
0.183203
-0.617124
0.246402
0.160611
-0.956620
0.356472
0.820543
0.845981
0.441480
0.699601
-0.353434
-0.485104
-0.317888
-0.370961
0.832164
-0.368376
-0.731814
-0.072443
0.241887
0.716030
0.272589
0.842645
-0.004760
0.796294
0.349622
-0.822148
-0.268124
-0.077532
-0.552909
-0.138057
0.530276
0.147046
-0.394592
0.517301
0.471014
0.710946
-0.297292
-0.135964
0.591183
0.510290
0.030483
-0.654881
0.477785
0.727527
0.559937
-0.484227
0.065264
-0.813367
-0.475410
-0.702774
0.136175
-0.446256
0.810641
0.592996
-0.195787
0.367846
0.438613
-0.870377
0.169499
-0.900746
0.135159
-0.018651
-0.456277
0.497451
-0.658723
0.887164
-0.863544
-0.310685
-0.199066
-0.809277
-0.058542
-0.770619
-0.984839
0.370518
-0.257924
-0.140281
-0.768620
-0.670179
0.034291
0.324953
-0.308465
-0.273054
-0.567653
0.425768
-0.739340
0.076762
-0.343930
0.088069
-0.608261
-0.812867
0.966300
-0.406392
0.949507
0.051179
0.767282
0.653047
-0.043627
-0.074562
-0.293605
0.264015
0.830554
-0.921126
0.435171
-0.993335
0.101455
-0.600971
0.187054
0.069235
-0.935498
0.314363
0.639004
0.108806
0.181435
0.716004
0.148317
0.518522
0.114889
0.826708
-0.302952
0.320544
-0.053232
-0.409200
0.892534
0.408694
-0.137045
0.118096
0.281132
0.378511
0.341898
0.326137
0.638242
0.345299
0.206584
-0.143533
-0.367654
-0.653140
-0.752714
0.294751
-0.065354
-0.230260
-0.902093
0.436195
-0.639181
-0.709917
0.896424
0.808562
0.685506
-0.518673
-0.174352
-0.172773
0.241088
0.981674
0.821554
0.367558
-0.081022
0.752195
0.692429
-0.740400
0.252364
-0.403104
-0.342652
-0.620662
-0.032495
0.591272
0.116964
0.535990
-0.532288
-0.828327
0.352325
-0.940236
-0.341273
-0.837216
0.643301
-0.401348
-0.074600
-0.063184
0.633664
-0.769934
-0.109925
0.294642
-0.292718
0.820580
0.921026
-0.381936
-0.525580
-0.848603
0.717470
0.721002
-0.072022
0.794498
-0.636829
-0.619335
-0.396284
0.263232
0.945517
-0.617991
0.771627
-0.064065
-0.698355
-0.585594
-0.028973
-0.721655
0.798283
0.938496
-0.193828
-0.385385
-0.532906
0.297555
0.381617
0.033829
-0.162027
0.052956
0.686587
0.587652
0.349513
0.734065
-0.533929
-0.071893
0.749557
-0.606932
0.755571
-0.329960
0.502045
0.972061
0.539404
0.325931
-0.469962
0.741569
0.030942
0.721906
0.455954
-0.519306
0.417482
-0.935152
-0.923462
0.029709
-0.228864
-0.226658
0.469805
-0.889465
-0.928955
-0.054424
0.361178
-0.332748
-0.326344
-0.093829
0.576677
-0.575863
0.621645
0.107972
-0.639155
-0.508999
0.425424
0.521256
-0.472321
-0.679863
0.021840
-0.360540
0.359087
0.091822
0.256178
0.833732
-0.717561
-0.195259
0.087711
0.244186
-0.922535
-0.100100
0.347027
-0.807236
0.083787
0.991932
-0.588200
0.567326
-0.085467
-0.120873
-1.343926
0.807579
0.024925
0.277847
0.202516
-0.123757
-0.084080
0.631031
0.917613
0.068971
-0.193069
-0.220016
0.181741
-0.802023
0.652167
-0.613518
-0.598755
-0.734881
-0.826815
0.600109
0.480292
-0.691865
0.045641
-0.807584
0.398969
-0.659192
0.046386
-0.881492
-0.823172
-0.205091
-0.539588
-0.176932
0.868874
-0.109586
0.216344
0.332969
-0.233451
0.887618
0.328469
0.628735
0.617141
-0.566785
0.120194
-0.018825
0.948258
0.640387
-0.782856
-0.119315
-0.087108
-0.660586
0.555258
0.450513
-0.337876
0.752786
-0.642933
0.002976
0.838562
0.102871
0.772750
-0.113042
0.195418
0.947905
0.729662
0.430913
-0.204235
-0.812582
0.198113
0.810142
-0.619655
0.454194
-0.927482
0.880052
-0.259177
-0.293412
0.731634
0.666375
-0.342380
-0.822604
-0.600013
0.781817
0.094005
-0.263740
-0.142313
-0.409583
0.985819
-0.059678
-0.514958
0.193735
0.903830
-0.209656
0.163604
0.665537
-0.445530
0.826103
0.619036
0.967445
0.636269
0.310466
0.764358
-0.802781
0.789101
-0.862985
-0.897591
-0.660231
0.705220
0.510456
0.895236
0.336295
-0.666917
-0.904678
-0.889353
0.579873
-0.744654
0.514033
0.823160
0.976031
0.089096
-0.521455
-0.417554
0.421155
-0.339567
0.098646
-0.119992
0.731761
-0.607604
0.451511
0.342947
-0.051599
0.083512
0.227002
-0.773479
0.873890
-0.576176
0.324220
0.440921
0.240979
-0.606352
-0.155042
-0.550288
-0.943334
0.219787
-0.592446
0.802232
0.846099
-0.197568
-0.880411
-0.499819
-0.500408
0.463168
0.164682
-0.507518
0.341916
-0.009134
-0.175240
0.209400
0.529547
0.395822
-0.668162
0.990607
0.959866
0.828939
0.046511
0.062920
-0.886303
0.895656
0.759231
0.337862
-0.147610
-0.299877
-0.293202
0.570218
-0.751729
0.475604
-0.368279
0.855577
0.094371
0.569489
0.131816
0.706805
0.038161
-0.077417
0.709881
0.130990
0.318094
-0.624748
-0.506551
-0.608841
-0.788834
0.849646
0.648484
0.694653
-0.654218
0.382925
-0.086310
-0.679350
-0.773402
0.540483
-0.574678
0.967894
0.609964
0.077187
-0.457734
-0.503032
-0.947587
0.084419
0.193807
0.619121
-0.131456
0.300501
0.695355
0.029283
0.570122
0.489581
0.957032
0.417133
-0.158864
0.677563
0.206314
0.420161
-0.551110
-0.892602
0.514071
-0.351709
0.621260
-0.314394
0.868665
0.045210
0.844041
-0.012526
-0.592981
0.131430
-0.018584
-0.842215
-0.352097
-0.415119
0.529252
-0.160472
-0.924554
-0.581887
0.445069
0.586603
-0.049210
-0.794487
-0.341535
0.945037
-0.132537
0.490184
-0.259200
-0.294956
-0.333398
0.259012
-0.241150
-0.218282
-0.193502
-0.342792
-0.874850
-1.140966
-0.620984
0.698143
-0.633474
-0.367738
-0.252211
0.352401
-0.535324
-0.475277
-0.218852
0.155152
-0.513312
-0.751375
-0.771399
-0.857729
0.339198
-0.456070
-0.794988
0.892164
-0.814420
-0.615833
0.356829
0.529651
-0.007090
-0.250059
0.744179
-0.186145
0.568745
-0.077918
-0.874409
-0.082676
0.058604
0.151424
0.915357
-0.362929
0.792325
-0.247317
0.001700
-0.054305
0.238036
0.198867
-0.065708
-0.393242
0.212797
-0.141838
-0.328624
-0.499117
-0.602472
-0.139535
-0.580312
-0.735318
0.601440
-0.859081
0.339264
0.962628
0.354613
0.483819
0.364283
0.575545
0.460721
-0.001980
0.243018
0.896837
0.084155
-0.292001
0.044674
-0.597819
0.922512
-0.494559
-0.633442
-0.396147
-0.793833
0.990075
0.349452
0.841973
-0.071348
-0.190042
0.225333
0.225523
-0.481728
-0.497209
0.387513
-0.225889
-0.785196
0.369391
0.769916
-0.041036
-0.823319
-0.835090
0.477199
0.300339
0.105552
0.787610
-0.658034
0.194234
0.247508
0.194779
-0.220902
-0.489257
0.197907
0.722050
-0.088469
0.751389
0.988347
0.012672
0.967471
-0.713375
-0.175181
0.981160
-0.023368
0.871259
0.829166
0.818955
0.608952
0.095168
0.070837
0.060529
0.216675
-0.284493
0.791809
-0.041629
-0.239422
0.318936
-0.373340
-0.821495
0.521927
0.808080
0.930296
-1.899643
-0.944884
0.643979
-0.771810
-0.006523
0.765267
0.816622
0.008073
0.799451
0.660044
0.185283
0.831474
0.744284
-0.721506
-0.826601
0.551659
-0.291968
0.327830
0.827206
0.663559
-0.105489
-0.212403
-0.073523
0.900641
0.458774
-0.648612
-0.972648
-0.544275
0.311183
0.452883
0.553942
0.111651
-0.015068
0.134370
-0.455335
-0.571578
-0.406624
-0.690017
0.737221
-0.293054
0.101857
-0.718660
0.513628
-0.992817
-0.819273
-0.079138
-0.861089
0.186157
0.171449
0.987526
0.839652
0.791876
0.829194
-0.657434
0.823454
-0.443478
0.935038
-0.875266
-0.294390
0.017078
0.569070
0.284091
0.822710
-0.752063
-0.125096
0.460497
-0.291328
0.631349
0.714847
-0.930875
0.602099
-0.415360
-0.368261
0.849637
-0.652295
-0.583035
-0.332073
-0.129281
-0.761865
-0.175987
0.742499
-0.209582
0.180552
0.649802
0.088714
-0.554323
-0.738057
0.715371
0.424490
0.341714
-0.278122
-0.330617
0.903461
0.100708
0.081083
0.680021
0.435736
0.030843
-0.182922
-0.855339
-0.564918
-0.910799
-0.901642
0.116528
0.985762
0.052913
0.491676
-0.899758
-0.182589
-0.922126
0.697524
-0.389925
-0.138385
-0.868550
-0.583044
0.579327
-0.468348
-0.063057
-0.929571
-0.703053
-0.685460
0.031672
-0.119781
-0.320718
-0.855382
0.830348
0.552415
-0.857866
0.081460
0.888630
-0.758650
-0.116410
0.693787
-0.275499
0.966515
0.930349
0.543140
0.644850
0.847963
-0.782377
-0.872822
-0.858721
0.376165
0.789791
0.441431
0.225296
-0.110087
-0.383674
0.170538
-0.589634
-0.020814
0.025548
-0.628028
-0.383545
0.965684
-0.435277
-0.073003
-0.002225
0.961834
-0.371350
0.365121
-0.068385
0.792085
0.458950
0.945332
-0.154768
-0.269523
0.024925
0.492211
0.599611
-0.886556
-0.457610
-0.966895
0.178060
0.563622
-0.179511
-0.594196
0.696785
0.747429
-0.006834
0.484025
-0.287629
-0.504972
0.323293
-0.681397
0.114413
-0.354501
0.429156
0.413575
-0.501168
-0.592205
-0.291323
-0.396530
-0.663214
-0.813110
-0.758714
-0.083810
0.775372
0.141068
0.885593
0.616731
-0.252844
0.488070
0.570081
-0.702900
0.172999
0.471693
-0.880910
0.989434
0.958666
-0.436405
0.421854
0.270285
0.850641
0.571176
-0.310604
0.783223
0.307410
0.533504
0.597935
-0.701510
0.247221
0.264057
-0.782633
-0.042914
0.748502
0.364521
0.685510
0.241472
0.336082
-0.583518
0.148099
0.349694
0.975066
-0.689258
-0.590018
0.713182
-0.914288
0.158249
-0.123097
0.272875
0.917854
0.722175
-0.888181
0.735545
0.622700
-0.571085
-0.758129
0.001371
0.782542
0.489131
0.798383
0.403891
-0.457897
0.375525
-0.197711
-0.866890
-0.539405
0.190013
0.120342
0.308606
-0.803779
-0.599348
0.671238
-0.119683
-0.661316
-0.159521
0.919644
-0.768329
0.819534
0.052423
-0.957923
-0.465034
-0.110985
0.707609
-0.867515
0.693491
-0.591598
-0.707926
0.270655
0.377432
0.967310
-0.958336
-0.621225
-0.450763
-0.684306
-0.457070
-0.911517
-0.688234
-0.265636
-0.557903
-0.863630
0.456167
-0.860431
-0.823178
0.011011
0.992042
-0.749495
0.919437
-0.048073
-0.924095
0.473731
0.658281
0.132830
0.929923
0.277314
0.280728
-0.663244
-0.279000
0.007519
0.453391
-0.809054
0.681574
-0.825176
0.667204
-0.883745
0.468705
0.573611
-0.065946
0.243209
0.695377
0.429815
0.126582
-0.916249
-0.959175
0.586035
0.659911
-0.520903
-0.740141
-0.521220
0.527897
0.564009
-0.761778
0.562967
0.081718
-0.142449
0.902812
0.052066
0.301216
0.913594
0.045991
0.804625
0.205600
0.975549
-0.543380
0.799180
-0.414693
-0.916696
-0.366786
-0.113610
0.858985
0.446891
0.182068
0.260251
-0.846999
0.580594
0.403726
-0.534846
0.315737
0.155837
0.093826
-0.731228
-0.015437
-0.509166
-0.822879
-0.609705
0.704749
-0.126047
0.786399
0.477654
0.918256
-0.853476
0.566241
0.660797
0.580478
-0.917961
0.967331
-0.309759
-0.336560
-0.295631
-0.293589
-0.824283
-0.233088
0.008644
-1.304409
-0.840569
-0.278181
0.146244
0.597730
0.885325
0.889496
-0.135584
-0.027621
-0.209340
0.134606
0.498054
0.417892
-0.855863
0.010091
-0.983391
0.014451
-0.147066
-0.952282
-0.829231
-0.891051
-0.052016
-0.045829
0.007204
-0.527295
-0.046732
-0.466659
-0.496523
0.243124
0.818806
0.073315
0.211198
0.649955
-0.655641
-0.705845
-0.798758
-0.936665
0.375986
-0.118231
0.087492
0.848566
0.766849
-0.053522
-0.084265
-0.076245
0.834313
-0.464488
0.014043
-0.747642
-0.150564
0.828383
-0.625067
0.611010
-0.844725
-0.257175
0.533913
0.741127
-0.309337
-0.569471
-0.196933
0.187874
-0.387664
0.181857
0.722563
-0.977136
-0.517959
0.802189
-0.501350
0.114797
-0.304430
0.865899
0.061841
0.700590
0.484782
-0.428689
0.381377
-0.472057
0.347520
-0.673153
0.826108
0.394057
0.512854
-0.750271
0.323307
0.713275
-0.265913
0.344659
0.395014
-0.816450
0.642150
-0.571960
-0.640486
0.149397
-0.765993
-0.556237
0.164816
0.077838
-0.742608
0.713535
0.835707
-0.029260
0.807434
0.930715
0.741211
-0.043203
0.181848
-0.402300
-0.125521
-0.782594
0.611475
0.647995
0.509378
0.098180
-0.713165
0.655911
-0.767916
0.714478
-0.693647
0.325219
-0.560718
-0.798913
0.109471
-0.549105
0.009425
-0.092329
-0.851889
-0.173270
0.185653
0.416976
0.637028
-0.029072
-0.470729
-0.745807
0.278666
0.619915
0.333228
0.051558
0.425396
-0.775773
-0.721268
0.409808
-0.454939
-0.530165
0.720275
0.421127
-0.229599
-0.805254
0.539000
-0.264366
0.635053
0.355872
-0.789974
-0.678742
0.929617
-0.097385
-0.923734
-0.333533
-0.121838
-0.570503
0.432226
0.921947
-0.789045
0.340424
-0.101063
-0.086157
-0.411054
0.122987
0.165884
0.601816
-0.041956
-0.643707
-0.577631
-0.973486
-0.534293
0.291548
-0.161918
0.674589
0.424059
-0.031773
0.793817
0.155832
0.763791
-0.502051
-0.253051
-0.793940
-0.383125
0.821015
0.784726
0.354792
-0.113657
-0.441732
0.719802
-0.588334
-0.860245
-0.031954
-0.657424
-0.693892
-0.810114
-0.833238
0.065335
0.342885
-0.878542
-0.467380
0.815713
0.484245
0.879303
-0.906179
-0.383012
-0.751154
-0.957057
-0.690654
-0.968821
-0.407548
0.243252
0.105693
0.420301
0.906352
-0.383314
0.428321
0.635644
0.065458
0.113154
-0.898978
-0.820814
-0.435455
0.310520
0.076374
0.376421
-0.045471
0.636819
-0.440596
0.246219
-0.932283
0.790910
0.302110
-0.210583
0.205848
0.756599
0.939006
0.098850
-0.468198
0.452593
-0.386116
-0.315683
0.153849
0.238612
0.664262
-0.571680
-0.392639
0.580574
0.878644
-0.177256
-0.070742
-0.388759
0.501875
-0.169630
-0.019053
0.628636
0.010716
-0.860297
-0.250627
0.528713
-0.460864
0.171277
-0.453088
-0.662446
-0.320077
-0.584017
0.068250
-0.908283
-0.926942
-0.590207
-0.992105
0.501556
-0.793219
0.411412
0.857366
0.310526
0.831489
0.141671
0.489440
-0.115747
0.865904
0.978387
-0.034535
0.573422
0.683276
-0.006291
0.784064
0.312926
-0.504501
0.839465
0.824796
0.007127
0.738031
-0.863425
-0.968892
0.128482
-0.108418
0.154050
0.004604
0.949676
-0.156240
-0.789406
-0.112358
0.524463
0.586756
-0.077219
-0.843261
-0.463566
0.748297
-0.235410
-0.795037
-0.244753
-0.278434
-0.476644
-0.426511
-0.407338
-0.396121
-0.334046
0.305555
-0.875642
-0.415761
0.077755
0.583387
-0.602122
-0.528767
0.739348
-0.222843
-0.630633
0.953104
0.916176
0.763307
-0.094328
-0.146888
0.634811
-0.007270
-0.486760
-0.801258
0.900020
0.393493
-0.277304
0.725422
0.633255
0.565332
-0.619047
-0.377882
0.616900
-0.935975
0.510696
0.156549
-0.394618
0.890106
0.960270
-0.783919
0.303193
0.254972
-0.774732
0.652325
-0.498587
-0.753401
0.864672
0.626773
0.624864
-0.252873
-0.343695
-0.084521
0.067086
-0.814771
-0.918269
-0.694555
-0.392423
-0.664505
0.371022
-0.078106
0.612933
-0.979303
0.084605
0.022381
-0.620745
-0.018964
-0.804189
-0.714511
-0.546147
-0.613858
-0.194698
-0.213472
0.833574
-0.805454
-0.291963
-0.425841
-0.122332
-0.986151
-0.702061
-0.701744
-0.028218
0.753259
0.346725
-0.910334
-0.067236
0.108051
-0.310671
-0.860322
0.713084
-0.785952
0.685952
-0.088804
0.177889
0.644024
0.909103
0.646250
-0.426592
-0.763700
-0.812825
-0.214058
-0.281305
0.262976
0.923398
0.912361
-0.736542
0.880700
0.911052
0.564643
0.579439
0.048547
0.782523
0.276240
0.733170
0.599695
-0.065384
0.828350
0.054632
-0.939137
-0.391385
-0.549015
-0.610405
-0.577903
-0.620342
0.012029
-0.564657
-0.334506
0.906771
-0.012659
0.080104
0.979715
-0.748953
0.089327
0.125788
0.702234
0.112110
0.363118
0.113992
-0.866134
0.145030
-0.818000
-0.327703
-0.342671
0.187443
-0.975366
0.894558
0.990840
0.948463
-0.758575
-0.015474
0.837199
0.283183
-0.371584
-0.420062
-0.693228
-0.415197
0.318710
-0.245854
-0.586179
0.457214
0.063290
-0.232508
-0.377585
0.619945
0.993513
0.657443
-0.288832
0.678297
-0.836145
-0.095724
0.516706
0.580664
0.111180
0.341061
-0.971766
0.711584
-0.063660
-0.075411
0.928304
0.511858
0.317316
0.407314
0.996312
0.179471
-0.143200
-0.015593
-0.219668
-0.512793
-0.144104
0.792717
0.895351
0.699955
0.458253
0.038567
0.533031
0.627204
0.638291
-0.651025
0.280743
-0.053121
-0.323493
-0.940443
0.851355
0.369084
-0.454187
0.141367
0.063115
0.224315
0.035762
0.697158
-0.765263
-0.314730
-0.408540
0.147359
0.212850
0.251963
-0.317919
-0.820159
-0.340271
-0.224449
-0.196160
-0.422623
0.842189
0.498685
0.433706
-0.905936
-0.847500
-0.894592
-0.672941
-0.157817
0.866965
0.032727
0.100135
0.485487
0.234733
0.847639
-0.089747
-0.860342
0.242531
-0.632236
0.124328
0.282239
-0.977642
0.995707
-0.319757
-0.339947
0.737561
0.108835
0.996857
0.147312
-0.359200
-0.905618
-0.102617
-0.852360
-0.249758
0.129084
-0.180979
-0.299307
0.241917
0.288842
-0.693498
-0.220627
0.952588
0.532591
0.757432
0.608583
0.220952
0.425903
-0.532325
-0.133074
-0.018161
-0.040551
0.692691
0.130148
0.987846
-0.592777
0.848564
0.128642
-0.290492
0.982376
0.928902
-0.805714
-0.113521
0.256612
0.163711
-0.708967
0.327660
-0.096732
-0.872618
0.607304
-0.398718
-0.260038
0.680960
0.565441
0.301965
0.401213
0.189305
-0.181501
-0.348360
0.051568
-0.339130
-0.844422
0.916298
-0.658671
0.558365
0.516409
-0.131539
-0.195212
-0.894930
-0.324488
0.694791
0.491040
-0.981650
0.996790
0.464806
0.077261
0.479976
0.445624
-0.106382
-0.066900
-0.037405
-0.161991
0.724164
-0.995518
0.024024
-0.918366
-0.823364
0.658999
0.226415
-0.267827
0.776234
-0.238566
0.614533
0.016890
-0.404989
-0.072585
0.096905
0.426922
-0.252886
-0.506871
0.517806
-0.607717
-0.055778
0.856454
0.917118
-0.218533
0.376267
-0.101553
-0.135375
-0.378929
0.689297
-0.784276
-0.579338
0.716815
-0.178183
-0.576348
0.474146
-0.911273
-0.366539
0.342806
0.340489
-0.610477
0.944147
-0.324207
0.772066
-0.159252
-0.777271
0.614808
-0.558277
0.389825
0.175905
0.993305
0.549302
-0.781496
0.083711
-0.582478
0.917030
0.372535
-0.288997
-0.459937
0.621003
0.959573
0.705859
0.610382
-0.024352
0.977896
0.028370
-0.733689
-0.928248
0.557115
-0.315200
0.638539
0.328407
0.046285
0.929158
-0.889691
-0.332272
-0.807584
-0.087885
-0.699242
0.546338
-0.555470
0.840663
-0.485951
-0.199747
-0.046988
0.061003
-0.802730
0.249267
-0.178689
-0.938279
0.523403
-0.373720
-0.567581
0.272551
-0.861561
0.278289
0.335455
0.575961
0.244419
-0.155055
-0.700925
-0.644523
-0.395779
-0.995189
0.199429
0.833176
0.124704
-0.505545
0.933738
0.837599
0.954213
0.036255
-0.208166
0.053250
0.709372
-0.660050
-0.788358
0.277772
0.103424
-0.030462
-0.012777
-0.106404
-0.804623
-0.535196
-0.121295
0.137504
0.077593
0.425385
0.420612
0.741669
-0.917963
-0.791896
-0.458960
0.732076
0.470280
-0.263933
0.332964
0.567890
-0.490109
-0.755512
0.014240
0.303035
-0.830804
-0.518647
0.293526
0.333495
0.405539
-0.129565
-0.466967
-0.641347
-0.869618
0.878349
0.078143
0.894847
-0.012499
0.040007
-0.638609
-0.323297
-0.559887
-0.916778
-0.171504
0.776595
-0.044531
-0.869008
0.365809
0.161087
-0.956958
0.287285
0.873870
-0.114671
-0.110943
-0.596618
0.332917
-0.725481
-0.400418
-0.165102
0.326014
0.372990
0.451290
0.412197
0.696020
-0.643450
-0.249632
-0.692107
-0.764682
-0.219155
0.061615
-0.274813
-0.974306
-0.739212
0.158520
0.850301
0.500212
-0.803418
-0.974662
0.216649
0.462887
-0.854575
-0.674083
0.644726
0.538582
0.706637
0.933709
-0.810770
0.580467
0.192869
-0.978085
-0.180692
-0.833094
-0.127377
-0.579630
-0.085405
0.585042
-0.074145
-0.127344
0.250713
0.917500
0.984649
0.808480
-0.870792
-0.057549
-0.271741
0.657866
0.004785
0.687679
-0.030884
-0.454032
0.905312
-0.121962
0.810201
0.932635
0.708850
-0.087331
0.618419
0.816365
0.922731
-0.971374
0.310736
-0.847223
-0.047256
-0.425204
-0.862728
0.012418
-0.930554
0.416346
0.988038
0.004353
-0.414546
-0.582478
-0.844774
-0.494305
0.958914
0.071685
-0.095280
0.962636
0.196679
-0.980492
-0.921423
0.473910
-0.649524
0.513340
0.698259
0.896003
0.180424
-0.167380
-0.684139
-0.716246
0.624539
-0.778274
-0.519693
-0.901056
0.041199
0.620562
-0.722781
0.360194
-0.512001
0.074459
0.581787
-0.481508
-0.966634
-0.248279
-0.902880
-0.642504
-0.853702
0.877871
0.153041
-0.178014
-0.664915
-0.226756
-0.675649
-0.680456
0.487271
-0.066753
0.347522
-0.601773
-0.857215
-0.770911
0.763010
0.668142
0.385469
0.984837
-0.636138
0.743646
-0.721275
0.529184
0.505771
-0.568140
0.686340
0.680075
0.831481
0.911432
-0.610022
-0.241764
0.738154
-0.154772
0.599442
0.371609
0.889644
0.690805
-0.064207
0.229337
0.659476
0.747599
-0.776845
-0.966738
0.877206
0.988275
0.989770
-0.495102
-0.136324
0.445536
-0.776800
0.337168
0.485013
0.063590
-0.410173
-0.704204
-0.150696
-0.021664
0.446025
-0.746267
-0.992764
0.626985
-0.757838
-0.072791
-0.156371
-0.918574
-0.450778
-0.006495
-0.864159
0.668916
0.599616
0.592994
-0.256203
-0.971083
-0.935107
0.719589
0.319782
-0.592490
0.169607
-0.279307
0.166112
0.591111
-0.586221
-0.029656
-0.157267
-0.948068
-0.727103
0.911134
-0.950542
0.828872
-0.218437
-0.611931
-0.194359
0.460704
-0.005937
-0.055300
-0.405911
-0.182151
-0.321601
-0.574734
0.982257
0.918328
0.798031
-0.202157
-0.644614
-0.492013
-0.489572
0.569197
0.849965
0.611255
-0.437525
-0.909200
-0.815432
-0.888079
-0.785206
-0.472744
-0.545312
0.336429
0.884036
0.253811
-0.125758
0.083306
-0.381363
0.471506
0.287048
0.250566
0.821104
-0.106653
-0.130131
-0.530649
0.151472
0.494352
-0.727469
-0.902279
-0.583549
-0.739610
0.697018
-0.285915
-0.958661
0.875139
0.230974
-0.872030
0.358200
-0.252440
-0.205355
0.251784
0.162812
0.158819
-0.601686
-0.742785
-0.363511
0.005617
0.406658
0.331777
0.375105
0.905544
-0.489194
-0.225096
-0.323469
0.624552
-0.214095
-0.223326
-0.103337
-0.418954
0.318575
0.807222
-0.749149
-0.362018
-0.722165
0.482471
0.602348
0.007679
-0.583125
-0.556572
0.631653
-0.231151
-0.816923
-0.013779
-0.415452
0.483977
-0.277671
-0.169367
-0.350727
-0.998771
0.690910
0.410759
0.195298
-0.224402
0.481348
0.277854
-0.067280
0.930475
0.995489
0.608201
0.301779
-0.818960
-0.753508
-0.585878
-0.608035
0.668832
-0.794967
-0.834891
-0.406808
-0.279401
0.041715
-0.999991
0.782370
0.055727
0.938706
0.934016
0.626194
0.840661
-0.944902
-0.937149
0.592017
-0.174939
-0.672047
-0.812028
0.845285
-0.162582
0.829971
0.184209
-0.124348
-0.665500
-0.495784
0.093957
-0.533793
0.606667
0.833016
-0.814755
0.558890
-0.545209
-0.236250
0.429236
-0.951672
-0.493867
0.418946
0.683904
-0.142274
-0.327454
-0.303237
0.692883
-0.087408
-0.594641
-0.007303
-0.112681
0.163416
-0.764572
0.916957
0.907001
-0.817007
0.174285
0.675364
-0.164722
-0.291064
0.616306
0.825858
0.298406
0.272780
-0.835586
0.418693
0.612295
0.043205
0.574358
0.967424
-0.181627
-0.090314
0.847046
-0.323899
0.078427
-0.116253
-0.333997
0.351399
0.873282
-0.966262
-0.620711
-0.095267
0.603955
-0.364605
0.376134
-0.476243
0.643359
0.660005
0.954865
-0.120022
-0.352139
0.424209
-0.494602
0.159497
0.215661
-0.959850
0.525071
-0.574798
0.087380
0.176014
-0.460498
-0.698191
-0.072941
-0.102432
-0.013890
0.865674
-0.096529
-0.213120
-0.021975
-0.222820
-0.133701
0.166069
0.352652
0.550665
0.349618
0.710793
0.364308
-0.264860
0.365953
-0.649873
0.291634
-0.506350
-0.453748
0.603106
-0.439720
-0.351972
-0.246874
-0.127064
0.400244
0.995675
0.220423
-0.681139
0.647671
0.608272
0.439315
0.260134
-0.853650
-0.583568
-0.833061
-0.756919
-0.803227
-0.463630
-0.561849
0.394940
0.358838
-0.705943
-0.544760
0.794404
0.560406
0.180094
0.078539
-0.132230
-0.941630
0.451387
-0.498545
-0.884510
0.635960
-0.068960
-0.023005
-0.875352
0.873310
0.237554
0.526045
-0.358606
-0.369117
0.800936
-0.641530
-0.231651
0.787493
0.958473
-0.514198
-0.483511
-0.261206
0.096867
-0.839848
-0.756906
0.313540
-0.519502
0.928343
0.383127
0.701612
-0.203993
0.192968
0.835393
-0.143646
0.284676
0.560881
-0.004280
0.414646
-0.415263
-0.545113
-0.373002
0.120844
0.055250
-0.477882
-0.016450
-0.298903
0.344511
0.036350
0.388321
0.837302
-0.069652
0.295211
-0.859681
-0.006745
-0.260559
-0.250747
-0.509493
-0.069854
0.846791
-0.494187
-0.183486
0.503738
0.372770
-0.390968
-0.506771
0.347682
-0.854241
-0.583894
0.928374
-0.000862
-0.212494
-0.331495
0.927442
0.092868
-0.832730
0.647244
-0.946378
0.554923
-0.769190
-0.587867
0.067136
-0.315719
-0.670877
0.561886
-0.128327
-0.740077
-0.450565
0.910987
-0.168304
-0.374316
0.213375
0.220931
-0.944759
-0.367032
-0.550002
-0.619226
0.528849
0.276756
0.883259
0.721717
-0.603595
-0.994242
-0.204783
0.897807
-0.143888
0.997073
-0.481281
-0.963207
0.193048
-0.987950
0.545703
-0.320868
-0.077084
-0.410836
-0.841190
0.932355
0.012690
0.377114
0.939923
-0.687728
-0.276918
-0.470720
-0.176775
0.568437
0.800743
0.932956
0.184069
-0.686084
-0.021878
0.432393
-0.859707
-0.882047
-0.157010
0.204222
0.783515
0.537238
0.547015
-0.885871
0.775232
0.348890
0.021768
0.279813
0.202815
0.471318
-0.746269
0.272671
-0.951806
-0.617687
-0.167878
0.690525
-0.330854
0.216274
0.835005
-0.107220
-0.362170
-0.925546
0.088011
0.036887
0.621557
-0.140426
-0.147959
0.782713
0.919227
0.350175
0.293769
-0.012859
0.390382
-0.791358
-0.230817
-0.782165
0.109218
0.988507
0.827033
0.116339
-0.965726
-0.512225
0.619018
0.836592
0.631173
-0.216583
-0.596533
-0.658428
-0.793095
0.116996
0.697740
-0.202445
0.165886
0.688443
-0.441846
0.042596
-0.655193
0.982162
0.450382
0.682056
-0.289105
-0.392496
-0.476030
-0.166282
0.505154
-0.629606
0.434544
0.137374
0.658925
-0.518168
-0.305360
-0.886757
0.575989
-0.212006
0.971575
0.263186
0.142860
0.599079
0.517540
-0.715510
-0.500854
-0.216227
-0.991907
-0.201062
0.445268
0.510047
0.575533
-0.153912
-0.885104
-0.061276
-0.742804
-0.271903
0.774606
0.437033
0.887459
-0.959126
0.884315
0.793595
-0.174967
0.696592
-0.329478
0.792708
0.328694
0.796051
-0.536013
-0.303213
-0.945804
0.568656
0.474459
-0.257269
0.299849
0.202998
-0.608688
-0.204021
0.377362
-0.564674
0.678627
0.401228
-0.606130
-0.091177
0.369509
-0.243053
0.940433
-0.527519
0.643828
0.144034
0.439095
-0.146978
0.932427
-0.293744
0.500703
0.505620
0.877177
-0.181979
-0.168660
0.468431
-0.549090
-0.488431
0.867657
0.567168
0.142649
0.624322
-0.751144
-0.019698
-0.986520
-0.881583
0.861097
-0.216513
-0.822823
0.045409
-0.058743
0.071764
0.909026
-0.677255
-0.739889
0.794489
-0.598385
0.532400
-0.564502
-0.188412
-0.710275
0.469643
0.028662
0.348830
0.743399
0.485109
-0.163326
-0.923861
-0.486179
-0.071014
0.105156
-0.412844
-0.946761
0.529594
0.530334
0.927192
0.119266
-0.378662
-0.516057
-0.296197
0.280855
-0.282299
0.833396
0.132541
0.717211
0.675759
-0.155554
0.770671
-0.738335
-0.835335
-0.706171
0.690515
-0.837477
0.314473
0.762704
-0.443337
0.791202
-0.133476
-0.084959
0.610767
-0.958125
-0.074458
0.360094
0.702825
-0.413420
0.033039
0.981731
-0.682535
-0.294811
-0.531704
-0.943862
-0.682031
0.090133
-0.643455
0.525167
0.242790
0.859242
0.934906
0.099589
-0.893511
0.458527
0.618978
-0.439778
-0.018105
-0.848779
0.135650
-0.792410
0.340378
-0.407070
-0.570204
-0.656355
-0.493937
0.387307
-0.422459
0.357320
-0.422974
0.243843
-0.990371
0.277123
0.598307
0.988960
0.340080
0.511301
0.890396
-0.277640
-0.795335
0.618036
-0.185000
0.497136
0.449857
-0.874369
-0.379596
0.398837
-0.724285
0.753007
-0.211802
0.610307
0.448565
-0.571403
0.160399
-0.893617
0.571506
-0.583888
0.451701
0.505197
-0.315314
0.923485
0.389223
-0.941812
0.174766
0.232913
-0.627237
-0.944185
-0.691479
0.596376
-0.329444
0.074345
0.908334
-0.987482
0.688301
-0.110840
0.470352
0.044207
0.170904
0.293812
0.577990
-0.419738
0.581090
-0.251555
-0.875761
0.352600
-0.498230
-0.765275
0.540397
-0.743657
0.210175
-0.123957
0.455867
0.504748
-0.971482
-0.699650
-0.239528
0.206861
-0.125237
-0.000857
-0.929456
-0.864088
0.708492
0.591501
-0.335230
-0.710608
0.808361
-0.983623
-0.111191
-0.974626
0.935933
-0.533875
-0.936782
-0.609249
-0.213493
-0.238758
0.594940
0.530052
-0.474933
0.125591
0.040449
0.676702
-0.263757
0.403615
-0.092369
-0.765695
0.160364
0.015404
-0.939339
0.187759
0.653547
-0.233657
-0.104778
0.623043
0.538176
-0.650640
0.678889
-0.650149
-0.204035
-0.400490
-0.853281
0.395917
-0.031972
0.302461
-0.974698
0.049633
0.528908
-0.790528
0.062640
0.579862
0.883667
-0.456793
0.271691
-0.463448
0.840836
-0.841397
0.288055
0.358599
-0.556861
0.293311
-0.967407
-0.875647
-0.272658
0.937374
-0.940381
0.201402
-0.551348
-0.942108
0.402363
-0.642435
0.568084
0.041776
-0.795486
0.860628
0.946877
-0.479979
0.676463
0.842956
0.560547
0.856408
0.498737
-0.760724
-0.283356
0.265797
0.792188
0.602291
-0.784319
0.786506
0.794963
0.157087
0.093574
-0.270346
0.888733
-0.224041
-0.791034
0.425368
-0.445573
0.672609
0.385201
0.783945
0.488012
-0.138697
-0.714333
-0.254957
0.185789
-0.259748
0.427725
-0.981298
0.958823
-0.780601
-0.854926
0.680609
0.008260
0.865418
0.849599
-0.635983
0.414650
0.961233
0.461319
-0.139989
0.846400
0.579740
0.694504
-0.186152
-0.354204
-0.320890
-0.460341
0.270053
-0.142143
0.332564
0.859351
-0.528785
-0.482007
0.369439
0.276112
-0.857977
0.573299
0.561685
-0.107973
-0.317124
-0.726060
0.250868
0.546253
-0.513908
0.191033
0.605381
-0.786674
0.416739
0.434102
-0.136360
-0.955606
0.106516
0.945636
0.482045
-0.775008
0.268865
-0.209927
-0.190059
0.949963
-0.393634
-0.620949
0.047817
0.939370
0.528817
0.642381
-0.904560
0.445677
0.361846
-0.020776
-0.135264
0.616308
-0.654687
0.379248
0.421798
-0.568806
-0.804360
-0.285585
0.579510
-0.814305
0.919355
0.427593
0.122993
0.135465
0.649702
-0.075590
-0.201641
0.648640
0.935320
-0.134547
-0.222874
0.053197
0.254801
0.228258
0.118840
-0.409583
-0.887771
-0.502354
-0.589847
0.255438
0.762890
0.927321
-0.918972
-0.569352
0.881499
-0.439982
-0.835220
-0.873471
-0.968336
-0.597739
-0.075166
-0.671453
-0.629890
0.579623
-0.429764
0.800328
-0.069369
-0.666890
-0.000067
0.765451
-0.762104
0.741591
-0.544745
-0.112571
0.094994
-0.080876
-0.148872
-0.968668
-0.262012
-0.989664
0.961315
0.024592
0.744529
0.511284
-0.458990
-0.412568
-0.825391
0.833979
0.930402
-0.426435
-0.618289
-0.579669
0.183158
0.482124
-0.577025
0.744539
-0.748881
-0.357504
0.677726
0.954208
0.731010
-0.526251
-0.311677
0.161982
0.837724
0.352234
-0.194593
-0.154143
0.195393
0.053310
-0.730925
-0.973146
0.403284
-0.786225
0.422918
-0.113165
-0.245369
0.552012
0.739796
-0.745860
0.527837
0.765551
-0.502696
-0.576760
0.905899
0.749507
-0.249636
-0.051028
0.472041
-0.629849
-0.522532
0.106925
0.736599
-0.799022
-0.795650
-0.065284
0.652468
0.210582
0.396997
-0.775457
0.180073
0.953717
-0.968160
-0.537816
0.491762
-0.658326
0.912515
-0.650364
0.766684
-0.417702
-0.095450
0.384309
-0.945157
0.864585
-0.170382
-0.774948
-0.011491
0.953229
-0.298166
-0.839197
0.078318
-0.050150
-0.570963
-0.946250
0.213314
0.264999
-0.180656
0.011225
-0.998756
-0.427131
0.867439
0.338384
-0.819506
-0.607242
-0.920563
0.494431
0.694467
-0.966724
-0.286419
0.725129
-0.265171
-0.524929
0.120943
-0.667696
-0.096830
-0.461953
-0.914513
0.519073
0.686044
0.419514
-0.163219
0.144147
0.082427
-0.609784
-0.902748
0.543637
0.775646
-0.607332
0.572609
0.521773
-0.831756
0.403875
0.011070
-0.088687
0.339050
-0.719492
0.300321
0.369694
0.079996
-0.669720
0.545885
0.079637
-0.148644
0.020310
-0.884517
-0.895040
0.810410
0.766304
-0.896447
0.615291
0.419526
0.255309
-0.015501
0.981944
0.752774
0.895049
0.553032
-0.179733
0.450910
0.471026
0.088248
0.487642
-0.358850
-0.530812
-0.912209
0.165839
0.611198
0.633770
0.295538
-0.918517
-0.686068
0.503047
-0.931157
-0.425986
-0.505856
-0.969219
-0.580465
-0.068303
0.497960
-0.059731
-0.191246
0.335549
-0.123134
-0.278356
-0.838757
-0.165886
0.755436
0.858301
-0.215170
0.365577
-0.324075
-0.591261
-0.832480
-0.701734
-0.797365
0.016657
-0.852402
0.091618
-0.729178
0.071434
0.022885
-0.618726
0.839780
0.958018
0.560821
0.528752
0.650422
0.263278
-0.053718
0.993591
0.555058
0.944376
-0.094524
-0.885696
-0.262699
-0.843040
-0.045045
0.646073
-0.856312
0.797354
-0.053364
0.227337
-0.611950
-0.165334
0.455761
0.429802
-0.152856
0.508187
0.994820
0.727287
0.763492
0.251838
-0.118183
0.387959
0.107189
0.983024
-0.501999
-0.212207
-0.329071
-0.698937
-0.536574
0.599289
-0.885056
0.436090
-0.903329
-0.377716
-0.373953
0.545586
0.245877
0.382788
0.413047
0.580719
0.451338
-0.877068
-0.126474
0.070014
0.307329
0.280168
-0.129014
0.446124
0.014111
0.268955
0.801779
-0.260437
-0.230314
-0.883201
0.542192
-0.872008
0.097544
0.540720
-0.346463
0.032827
0.572183
-0.127160
0.829239
0.275423
0.372617
-0.146783
-0.592495
-0.081217
-0.226170
0.506868
0.498104
-0.673431
0.937675
-0.997830
0.498297
-0.776015
-0.618969
-0.783080
-0.262360
0.779541
0.804827
-0.792092
0.455988
0.993414
0.608823
0.381229
-0.287972
0.741185
0.773486
0.489573
-0.916374
-0.527205
-0.176451
-0.027491
-0.837106
-0.148542
-0.527766
-0.419346
0.630471
0.320673
0.352873
0.095778
-0.227614
-0.539140
0.216160
0.721682
-0.227402
-0.252776
0.459484
-0.689672
0.378468
-0.067537
0.520457
0.866085
-0.966463
-0.879487
-0.498372
-0.481065
0.699726
-0.660074
0.893979
-0.389596
-0.088888
-0.410134
-0.222142
-0.463830
-0.177552
0.604677
-0.612932
-0.096673
-0.371414
0.053124
0.469675
0.967632
0.962714
-0.915864
0.692523
-0.223321
-0.426578
-0.679497
-0.232170
-0.339538
0.088245
0.369796
-0.128965
-0.618257
-0.930670
-0.331179
0.671647
0.290665
-0.767903
0.771321
-0.505513
-0.710742
-0.772896
0.633126
0.713086
0.468275
-0.469097
0.129660
-0.337019
-0.663774
-0.392552
0.130049
0.930324
-0.440685
-0.331905
-0.461073
0.889415
-0.800119
0.785529
0.991844
-0.133070
-0.226252
0.356525
0.200105
0.989270
0.196402
0.050978
-0.189098
0.208125
-0.895310
0.216008
0.495949
0.299260
-0.286138
-0.140174
0.296985
0.231786
-0.888641
0.121661
-0.938709
0.033839
-0.465968
0.621876
0.250785
-0.029548
0.305908
-0.232353
0.930473
0.520293
-0.676822
-0.112591
0.132288
-0.050859
0.333085
-0.187536
-0.457225
-0.987883
0.728010
-0.238959
0.715502
0.991430
0.592472
0.281033
0.196863
0.960203
0.617823
0.586533
-0.512331
-0.618070
-0.776866
0.123451
0.034428
-0.416038
0.204403
0.004445
0.816688
0.064067
0.237043
-0.192342
0.069534
0.274502
-0.742675
0.873761
-0.989112
0.041797
0.934797
0.831461
-0.251480
-0.004765
-0.799059
-0.061243
0.290636
0.911138
0.401550
0.588533
0.992120
0.386699
0.415069
0.002225
-0.598043
0.895804
-0.608558
-0.971701
-0.868858
0.073301
0.504768
0.440588
-0.747187
0.983664
-0.552092
-0.315509
0.443163
0.135354
-0.192713
-0.326423
-0.533064
-0.236123
-0.528621
-0.369920
-0.519266
-0.404459
-0.317193
0.394654
0.339301
-0.006635
-0.386244
-0.456232
-0.883272
-0.167232
-0.922641
0.549224
0.017070
0.805968
-0.316686
-0.472938
0.305117
-0.946358
-0.736691
-0.920522
-0.209574
0.572787
0.715666
-0.807919
0.074279
0.298315
-0.007456
-0.621519
-0.320595
-0.418791
-0.562770
-0.861320
-0.230809
-0.110541
0.072818
0.937990
0.595471
-0.270881
-0.186461
0.976840
-0.059718
0.650345
0.148355
0.698251
0.083734
-0.716108
-0.224848
-0.971999
-0.262545
-0.279251
0.709335
0.309399
0.068172
0.340941
0.417223
0.320190
-0.987054
-0.794393
0.703440
-0.480596
-0.347177
-0.611538
0.432023
-0.216622
0.364481
0.434766
0.162216
0.492023
-0.269023
0.230612
-0.913612
-0.083363
0.570227
0.600407
-0.651587
0.172741
-0.693187
-0.503881
-0.550805
-0.017766
-0.749018
0.357217
0.525430
-0.643810
-0.937069
-0.047621
0.365283
0.552974
-0.656305
0.963919
-0.259583
0.856244
0.371352
0.313839
-0.303735
-0.268376
-0.430918
0.893088
0.026508
-0.275755
0.910345
0.816468
-0.126806
0.265582
0.331455
-0.044934
-0.022245
-0.672205
-0.013058
0.383165
0.154272
0.368827
-0.199178
0.934055
-0.740984
0.346304
-0.478759
0.780316
0.438179
-0.463003
-0.863435
0.488077
-0.319434
-0.895351
-0.512274
0.898952
0.742723
-0.688615
-0.272672
-0.077017
-0.627539
0.293417
0.747318
-0.450854
0.431300
-0.130483
-0.950529
0.259354
-0.689458
-0.230908
0.444458
-0.636858
-0.385935
0.880620
-0.141721
0.938535
-0.774752
-0.677550
0.803793
0.012181
0.403512
-0.066207
0.906978
-0.417487
0.368826
0.719188
0.490412
-3.174175
0.111459
-0.227047
0.610129
-0.228097
0.307003
-0.530778
-0.167377
-0.285893
-0.499149
0.825592
0.342474
-0.830206
0.285298
0.569464
0.859618
0.421809
-0.964667
-0.483773
-0.928691
-0.536058
-0.742545
0.248999
0.536176
0.455903
-0.407199
0.820392
0.399714
-0.434591
-0.094469
-0.514630
-0.223744
0.041546
-0.126929
-0.776546
-0.434977
-0.990597
-0.930506
-0.995561
0.416920
0.786743
0.363758
-0.888826
0.924184
0.582100
0.048240
-0.905867
0.603929
0.218112
-0.582625
0.485939
0.774325
-0.040615
0.114725
0.068118
0.438534
0.376562
0.356161
-0.049424
-0.748074
-0.135139
0.243811
0.730462
-0.256757
0.361411
-0.860846
0.763823
0.083911
0.053762
-0.729089
0.981174
0.423238
-0.779858
0.979822
-0.301160
0.990914
0.862665
-0.100326
0.398006
0.668503
-0.871348
-0.212188
0.600599
0.316532
-0.596472
0.664499
0.628953
0.222162
0.320909
-0.466450
0.046294
-0.228058
-0.338750
0.375955
0.320799
-0.328413
0.745758
-0.764634
0.484397
-0.806136
-0.237068
-0.703543
0.796489
0.174634
-0.839090
-0.663392
-0.778122
0.832629
-0.304326
0.205979
0.024359
0.127497
-0.431579
-0.966469
-0.509415
0.564686
-0.893046
-0.151434
0.612763
0.117086
-0.919239
0.645010
0.859134
-0.976775
0.601183
0.254077
0.219538
0.059472
-5.045043
-0.746384
-0.455661
0.605458
0.088059
-0.206100
-0.000149
0.682702
0.888858
-0.794393
0.845817
0.835052
-0.950694
-0.387926
0.289567
-0.215627
0.818798
0.717331
0.009285
-0.974428
0.096944
-0.647217
-0.289901
0.521333
0.657144
-0.910239
-0.180760
-0.084315
-0.053369
-0.800003
0.053090
0.498190
-0.602799
0.959441
0.715559
0.975690
-0.180805
0.818245
-0.765275
-0.353955
-0.150920
-0.265531
-0.347674
0.674640
0.573576
0.942108
0.181985
0.114260
0.948721
-0.945763
-0.028500
-0.983290
-0.517984
0.882673
-0.817048
0.637479
0.349193
-0.560264
0.449828
0.805582
-0.512167
0.503703
0.180312
-0.080243
-0.341717
-0.952356
0.808902
0.885274
0.314928
0.801387
0.137299
-0.170531
-0.681580
-0.488020
-0.172811
0.282601
0.967598
-0.328625
0.735403
0.195956
-0.412219
0.446007
-0.478341
0.347772
0.976842
0.224072
0.497423
0.507304
-0.467191
-0.921614
-0.213731
-0.519545
-0.754960
-0.513327
0.432048
0.308503
-0.201254
0.018085
-0.893819
0.484322
0.554172
0.098263
-0.482561
-0.520786
0.202573
-0.350429
0.050606
0.956092
0.529442
-0.152161
-0.727777
0.099295
-0.716373
-0.630012
1.008896
-0.349352
0.614535
0.353782
-0.347463
-0.457697
0.673227
0.889534
0.655881
0.584875
0.027731
0.761855
-0.827139
0.321927
-7.175849
0.782978
0.525923
0.505667
-0.290531
-0.783881
-0.259029
0.604322
0.936053
-0.084433
-0.885955
0.114741
-0.521181
0.462060
0.306144
0.343112
0.117880
0.453200
-0.740529
-0.739163
-0.586576
-0.478909
0.615707
0.305406
0.695566
0.493343
-0.225513
-0.557248
0.323599
0.189149
-0.811345
0.467554
0.815004
0.356617
0.002599
0.792134
0.583752
0.090893
-0.426201
0.032371
0.019356
0.446020
0.652054
0.875529
-0.162015
-0.057337
-0.669925
-0.878674
0.993741
0.951861
0.277637
-0.725311
-0.725784
-0.668551
-0.808712
0.314251
-0.622926
-0.708586
-0.351992
-0.036007
0.612754
0.984434
-0.109896
0.539285
-0.204937
-0.074322
-0.252217
-0.819708
0.129153
-0.889444
-0.631541
0.196720
-0.830461
0.012752
0.480666
-0.709942
-0.011992
0.034178
-0.178341
-0.041355
-0.324547
-0.217042
-0.560233
0.092710
0.491313
0.938498
0.567871
-0.402467
-0.053424
-0.975012
0.609890
-0.452797
-0.884266
0.434436
-0.339025
-0.934029
-0.531840
0.172418
0.210812
-0.113481
-0.691399
0.928826
-0.319438
0.832335
0.341599
-0.555124
0.936948
0.958930
-0.034972
-0.096169
0.081511
0.855717
-0.990289
0.855424
0.550265
0.080417
-0.323066
0.553720
0.129084
-0.528149
-0.669187
-0.897763
-0.355652
0.617633
0.602045
-0.037913
-0.463706
0.162815
-8.857401
0.938258
-0.924334
-0.440166
-0.074309
-0.914583
-0.070970
-0.014611
0.235251
0.200638
-0.351328
-0.442762
-0.106878
-0.516250
-0.860510
-0.770595
0.194550
-0.322133
-0.989437
0.287282
0.916197
0.770067
-0.280682
0.515345
-0.482227
-0.721055
-0.103644
0.934751
-0.009101
0.420222
0.208864
0.169536
0.656161
0.090323
0.073351
-0.910613
-0.543787
0.848925
0.049215
-0.342451
-0.590996
0.544097
-0.719818
0.493946
0.066623
0.838039
-0.709714
-0.535739
0.408934
-0.974338
-0.164861
-0.004084
0.243276
-0.588462
0.160858
-0.535489
0.579929
0.582291
0.085418
-0.967795
-0.164968
0.894212
-0.275533
-0.454405
0.087716
0.457493
0.229394
0.560074
-0.788884
0.124903
0.521564
-0.226715
-0.931000
0.936546
0.327222
0.701623
0.190509
-0.508374
0.881853
0.818940
0.319694
0.088199
-0.745103
0.701950
0.466666
0.373017
-0.718367
-0.957285
0.287081
0.716727
-0.012324
-0.005990
-0.953736
0.129144
-0.858832
-0.292463
0.752148
0.391670
0.144556
0.090079
0.910273
-0.602893
-0.611646
0.063624
0.149527
0.400384
-0.489790
-0.991708
0.774000
0.441745
-0.227092
-0.896693
-0.526733
-0.828164
0.903263
0.341449
0.898057
-0.714433
-0.625112
0.639856
-0.882401
-0.160017
0.224186
-0.832111
-0.072394
-0.271166
0.128298
-0.846253
-12.902222
-0.745042
-0.871704
-0.306896
-0.734340
0.095572
0.002499
0.028257
-0.147520
-0.609969
0.132110
0.175136
-0.127642
0.621100
-0.159113
0.584616
-0.429632
-0.807689
0.714066
-0.838786
0.142385
-0.319911
-0.869166
-0.596489
-0.719034
-0.432998
0.774217
-0.225166
-0.025714
0.749146
-0.154314
-0.303548
-0.515317
0.171750
0.842902
-0.095924
0.901978
0.670218
-0.732506
0.754834
0.807480
-0.000834
0.727065
0.817664
-0.008904
-0.071407
-0.982923
0.335558
0.369258
-0.309003
0.156933
0.570022
-0.772573
-0.807507
-0.377712
0.962604
0.544518
0.847320
0.658231
-0.701361
-0.999410
0.056016
0.136122
0.211119
0.259712
0.950295
0.550586
-0.521711
0.393716
0.135385
0.961827
-0.086622
0.207739
0.517127
0.500382
0.674569
0.379256
-0.416055
0.643718
0.213622
-0.339983
-0.641904
-0.647771
0.488146
0.899065
-0.296632
-0.765902
0.510433
0.079178
0.712504
0.733344
0.186620
-0.591780
-0.602172
-0.307441
-0.145339
0.217221
0.672216
0.096698
0.659401
-0.775026
0.566147
0.458395
0.803465
0.562080
-0.229167
-0.623250
0.993942
-0.312452
0.365471
-0.087065
0.849584
0.956050
0.395373
-0.223920
-0.159366
0.759146
-0.095820
0.963580
0.725348
-0.693245
-0.506608
0.226199
0.396545
0.277987
0.475756
-0.352559
0.009027
-16.030102
-0.096808
0.669821
0.738362
-0.335694
0.692944
-0.869168
-0.375462
-0.197271
-0.027746
-0.412802
0.590151
-0.708671
0.736826
0.388500
0.450047
0.336542
-0.760677
0.256033
-0.947061
-0.090103
-0.500343
-0.883838
-0.195538
0.882019
0.859401
-0.226064
-0.437816
-0.466460
-0.415101
-0.073713
0.277803
-0.443620
-0.846789
-0.741883
0.261022
-0.404620
-0.939083
-0.468625
-0.896267
-0.018276
0.799138
0.751873
0.607517
-0.812019
-0.494865
-0.360769
-0.469433
0.203737
0.859258
0.851541
-0.298109
-0.783077
0.821897
-0.225004
-0.841956
0.585950
-0.277255
-0.445630
-0.561608
-0.616714
0.672158
0.636468
-0.632085
0.666757
-0.826913
0.528453
0.631586
-0.350527
0.038637
0.117608
-0.264631
-0.792393
0.030560
0.414161
0.632972
0.739204
0.673376
0.054901
-0.700907
-0.752829
0.434138
-0.351932
-0.373084
-0.140648
0.133324
-0.244661
0.161674
0.703338
-0.562528
0.141685
0.732555
0.875940
0.196661
-0.624428
-0.122830
-0.526479
0.495127
-0.652533
0.339441
-0.791336
-0.255097
0.477859
-0.591379
0.186265
-0.766558
-0.643524
-0.936682
-0.735442
0.129535
-0.499224
0.849122
0.074826
-0.693939
-0.362795
-0.434429
-0.640587
-0.176412
0.106400
-0.187320
0.240723
0.906543
0.277039
-0.873816
0.763384
-0.091032
-0.386486
-0.866734
-18.194648
-0.707375
-0.057092
-0.107274
-0.317419
-0.994352
-0.264339
0.395898
0.050101
-0.337396
-0.217948
0.022820
-0.391981
0.831033
0.421332
-0.545794
-0.766671
0.597039
-0.980511
0.664622
-0.422062
0.436598
-0.774685
0.149473
0.762163
0.474960
0.242758
-0.326344
0.022344
-0.736916
0.931159
0.156615
-0.267671
-0.893782
-0.859563
0.660987
0.163176
0.480918
-0.189765
-0.334001
-0.829924
-0.606777
-0.120176
0.539001
0.582228
0.842104
0.066647
-0.280511
-0.528373
0.972156
0.471961
-0.267074
-0.706597
-0.597154
-0.068817
-0.055651
0.043285
-0.011653
0.771353
0.297651
-0.159425
-0.655967
-0.819699
0.783158
0.589071
-0.535459
-0.493602
0.845249
-0.667158
0.597295
-0.162591
0.728787
-0.610646
-0.563187
-0.203131
0.762674
0.783665
-0.800688
-0.326422
-0.738782
0.780365
-0.502884
-0.384962
-0.543260
0.113943
0.682656
-0.933358
-0.408328
-0.722076
0.507247
0.901661
0.672359
-0.613149
0.673514
-0.505630
-0.003406
0.319444
0.447367
-0.479501
-0.868556
0.031553
0.644659
-0.956012
0.364384
0.313218
0.690443
-0.285693
-0.760072
-0.535682
-0.288664
-0.093722
-0.167112
0.901350
0.426407
0.168982
-0.319450
-0.962173
-0.264773
0.246218
0.751895
0.296177
-0.674551
0.153911
-0.267839
-0.032796
-0.090910
-0.230720
0.223372
-19.284531
-0.175646
0.609330
-0.503583
0.371880
0.093443
-0.855386
0.478760
-0.102358
0.240639
-0.488529
-0.861310
0.439417
0.247646
0.061029
-0.713711
-0.797496
0.357498
0.849288
0.233512
0.377780
-0.498996
0.077823
-0.320108
0.515437
0.433974
0.127671
-0.543533
-0.656515
0.769219
0.975431
-0.469134
-0.970062
-0.287975
-0.882511
0.675373
-0.128503
-0.010896
0.654640
0.320625
-0.141995
1.034787
0.138532
-0.296236
-0.299345
-0.174848
-0.123624
-0.814279
-0.012575
-0.188282
-0.711199
-0.630779
-0.602311
-0.051036
0.462136
0.136182
0.821694
0.941617
-0.081912
-0.923493
0.101742
-0.460480
-0.551391
-0.658365
0.138631
-0.846132
-0.786582
0.177117
0.208160
0.600757
1.015425
0.904406
0.784709
0.853643
-0.981423
0.062804
0.132067
0.441331
-0.835545
-0.289784
0.502551
-0.095210
0.102448
-0.758322
0.456939
0.270709
-0.696354
0.900090
0.056255
-0.253580
0.430429
-0.759764
0.467407
-0.440729
-0.883590
-0.092855
-0.642811
0.438149
0.794759
-0.635013
0.627936
0.145351
0.557749
1.007742
-0.692416
-0.752369
-0.130614
0.390836
0.243530
0.544988
0.888875
-0.255230
0.289577
0.368017
-0.714875
-0.633364
0.612714
0.764746
0.371741
0.788138
-0.736108
-0.731240
-0.180851
-0.245104
0.079839
0.765385
-0.503775
0.412671
-16.231392
0.832058
-0.898607
-0.359656
0.931572
-0.100382
-0.676127
-0.653038
-0.874871
0.157042
-0.887124
-0.230572
-0.446677
0.777652
-0.139135
-0.126507
-0.927462
-0.174999
-0.374875
0.121333
0.112065
-0.666085
-0.607022
0.473423
0.389017
0.076453
0.238020
-0.909339
-0.598162
-0.929077
0.700687
0.887229
0.679800
0.076260
-0.616470
0.432045
-0.213598
-0.681761
-0.271196
0.730616
-0.538185
0.796386
0.499658
0.264997
0.279384
0.342533
-0.995074
-0.990446
0.217862
0.679516
0.546836
-0.520071
0.693514
0.323964
0.464639
0.798998
-0.350466
-0.704537
-1.013808
0.948863
-0.756933
-0.304326
-0.348659
-0.708758
-0.531388
-0.234478
0.821656
-0.612630
-0.433610
0.244458
0.876246
-0.173845
-0.515419
-0.820008
-0.532217
-0.865291
-0.985956
0.566272
-0.806638
0.197152
0.122930
0.224026
-0.866448
-0.878083
0.717421
-0.911639
-0.418620
0.185593
0.314746
-0.157944
0.033787
0.543614
0.276496
0.638331
0.499870
0.679290
0.578267
0.215665
-0.250008
-0.685547
-0.929143
-0.249559
-0.740862
-0.914309
-0.582389
0.266490
-0.041022
0.859700
0.038847
0.184512
-0.797191
-0.114464
-0.662113
0.718181
0.752616
0.240297
-0.832882
-0.860994
0.021319
0.444612
0.203724
0.698812
-0.076219
0.429993
0.264189
-0.407522
-0.257465
0.442799
-13.153003
-0.588490
-0.037792
0.794365
-0.451953
0.286284
-0.351059
-0.258106
-0.024453
0.126639
0.098665
0.816405
-0.143516
0.249690
0.379962
0.011877
0.880737
-0.444022
-0.387576
-0.591725
-0.534993
0.189870
-0.364026
0.824988
-0.676611
-0.477293
0.275840
0.870136
0.048280
0.216244
0.385651
0.214134
0.846402
-0.307217
0.556789
0.340335
0.161354
-0.105242
-0.782080
-0.907322
-0.460927
-0.760798
-0.614830
0.221072
0.169146
-0.168367
0.110093
0.779023
-0.728779
0.700781
-0.479045
0.075491
0.992709
-0.506655
0.708596
0.118063
-0.883071
-0.309503
0.383059
-0.424791
0.785335
0.271477
-0.520787
0.533431
0.854732
-0.548259
0.434816
-0.331730
0.222580
-0.509124
0.260671
-0.529824
0.958126
-0.303053
-0.125638
0.297420
0.574691
-0.731330
0.308337
-0.771061
-0.986650
-0.906582
-0.873853
0.131164
-0.587353
0.338397
-0.883663
-0.522481
0.306628
-0.375111
-0.595290
0.654649
0.170874
-0.292462
-0.322154
0.270624
-0.685240
-0.519173
0.386096
0.095724
0.471466
-0.429159
0.438208
-0.001392
0.436124
0.092787
-0.741094
0.090789
-0.130351
-0.628297
-0.978216
-0.845105
0.446964
-0.003820
-0.260524
0.298632
-0.285869
-0.468691
-0.765072
-0.076090
-0.014282
0.211887
-0.557561
0.357855
0.577708
0.575007
0.935051
0.355404
-10.079155
-0.828595
0.560765
0.909114
-0.117793
0.237493
-0.270694
-0.832043
0.621930
0.606274
-0.990454
0.105371
0.917059
-0.974266
0.644631
0.517913
0.823492
0.765729
-0.234711
0.167955
0.474639
-0.041118
-0.583574
-0.905079
-0.937054
-0.371282
-0.248636
-0.903496
-0.282009
0.605722
-0.700544
0.363715
0.599959
0.067375
0.671715
-0.414034
-0.015296
-0.175699
0.846370
0.002474
0.916770
0.183022
0.724376
0.689266
0.161189
0.273135
-0.625946
-0.762897
0.640170
-0.162775
-0.466997
-0.677659
0.654551
-0.952696
-0.814754
-0.179530
0.205496
0.969353
0.659660
-0.672048
-0.204180
-0.034882
0.058215
-0.290189
-0.367658
0.175199
0.766752
-0.931065
-0.616234
-0.536483
0.378448
0.493400
0.365491
0.712607
0.920492
-0.074161
-0.466514
-0.361275
0.580750
-0.840592
0.209558
-0.941902
-0.433036
-0.326477
0.822611
-0.586585
-0.734949
0.621093
0.266039
-0.066009
0.705547
-0.643687
-0.765201
0.981760
-0.476925
0.735856
-0.977147
0.671435
-0.637722
-0.753373
0.762445
0.184355
-0.843561
-0.380097
-0.252979
0.921767
-0.402935
0.874988
0.950887
-0.236179
0.745587
-0.081046
0.355437
-0.012399
0.750472
0.812422
-0.216098
-0.095532
0.162567
-0.823231
0.613460
-0.042816
0.009947
-0.547041
0.155879
0.731553
0.280832
0.887746
-5.947258
0.126057
0.924214
0.393909
-0.227427
0.960935
-0.759501
-0.692218
0.938495
0.685775
-0.282660
0.939132
-0.435055
-0.897252
0.186065
-0.030590
-0.313094
0.734280
0.577794
0.685005
-0.720771
-0.237684
-0.784813
-0.463862
-0.205563
0.243366
0.570586
0.960799
0.902690
0.313000
0.976629
-0.818466
0.828504
-0.008949
0.012868
0.391125
0.279994
-0.506105
0.573250
-0.798869
-0.630309
0.069085
-0.475194
0.188857
-0.853578
0.805740
-0.763953
-0.511751
-0.361877
-0.034236
-0.981009
0.085325
0.560231
0.990598
0.692038
-0.034981
-0.004028
0.989448
0.402396
0.555280
-0.733522
-0.890611
0.178009
-0.364120
0.550827
0.239316
0.626295
0.586508
-0.447797
-0.370253
-0.321825
-0.629949
-0.821798
0.620670
-0.681405
0.635079
0.142554
0.588024
-0.418773
0.004829
-0.199412
-0.085813
0.509377
0.779703
0.374963
-0.460586
-0.196951
0.541130
0.350883
0.716757
-0.194110
-0.308779
-0.890368
-0.575564
-0.393888
-0.184782
-0.308960
0.652543
-0.287998
-0.043031
0.448935
0.841272
0.715834
-0.700730
0.058534
-0.963994
0.783584
0.164763
0.451495
-0.729083
-0.044784
-0.668053
-0.934728
-0.314171
-0.166471
0.520365
-0.758585
-0.605869
0.818211
0.877422
0.067015
-0.292454
0.053742
-0.592433
-0.167175
-0.376044
-0.904542
-0.825715
-2.389469
0.929967
0.735615
-0.287166
-0.684010
-0.052969
-0.826441
-0.288877
0.740993
0.823276
-0.800903
-0.035908
-0.951984
0.409183
-0.557825
0.520550
-0.729774
0.404691
-0.313262
0.483276
0.856264
-0.434381
0.000584
0.892133
-0.112748
-0.816146
0.899653
-0.150204
0.229938
0.411904
-0.918904
0.278962
0.284758
0.097180
0.208499
-0.590047
0.254455
-0.027127
-0.903072
0.269656
0.150125
-0.477019
0.253816
0.100733
0.838571
-0.226054
-0.719671
-0.489953
-0.136507
-0.915524
-0.738255
-0.759922
0.576039
-0.932935
-0.730476
-0.773244
-0.756855
-0.464237
0.289084
-0.792932
0.960142
0.325602
0.504138
-0.197005
-0.493978
0.147794
0.141423
0.288512
-0.503646
-0.271000
0.596943
-0.553083
-0.374952
0.171426
0.074823
-0.506617
-0.107175
-0.185056
0.118911
0.482118
-0.292445
-0.325580
0.843729
-0.108374
-0.589315
0.191148
0.941897
-0.285125
-0.981910
0.894033
-0.969614
-0.264122
0.794728
-0.589451
-0.273112
0.663209
0.035101
-0.547234
0.316372
-0.037094
0.383949
-0.891453
-0.744561
0.985034
-0.448379
0.153130
0.884538
0.718627
-0.587884
0.072957
0.304547
0.531434
0.817770
0.714256
-0.945776
0.454148
-0.125436
0.198948
-0.886899
0.018847
-0.247580
-0.540680
-0.391880
0.122776
-0.289596
0.168989
-0.614385
0.716177
-1.223470
-0.436232
-0.801788
-0.926456
0.914274
-0.478545
-0.862186
0.078109
-0.479979
0.341838
0.288058
-0.605080
0.027384
0.958248
-0.340632
-0.017977
-0.954509
0.203095
-0.859399
-0.409870
0.870976
-0.446368
-0.250209
-0.520453
0.583765
0.071174
0.744357
-0.587228
0.003237
0.311598
-0.735989
-0.847213
-0.813193
-0.432736
0.515129
0.281538
-0.294594
0.605971
0.369707
-0.656774
-0.303409
0.037422
0.396030
-0.433594
0.156222
-0.815968
0.313061
0.080676
0.769530
-0.582941
-0.752324
0.973921
0.982326
0.997174
-0.260620
-0.346755
0.894616
-0.684703
0.801322
-0.541644
-0.080454
0.576171
0.259209
-0.153050
-0.770482
-0.819465
-0.769203
-0.764939
-0.379048
-0.008784
-0.345308
0.285943
-0.874114
-0.697963
-0.226900
0.350926
0.964286
0.636714
0.318762
0.495054
0.317828
-0.073586
0.885424
-0.432767
0.787084
0.155429
-0.369450
-0.802369
-0.891886
0.149166
-0.099183
0.827610
-0.455344
-0.292679
-0.253998
0.231001
0.787618
-0.203465
0.487749
-0.707322
-0.853833
0.379842
0.937716
0.764938
0.313019
-0.089280
0.016005
0.284208
0.505299
-0.175484
-0.916003
-0.980510
0.643784
-0.618874
-0.760151
-0.141217
0.275470
-0.089878
0.617230
-0.944135
-0.118461
-0.799450
-0.905413
0.558243
-0.481998
-0.371506
-0.337670
0.746871
-0.313828
0.742048
0.266573
0.506066
0.731285
0.178180
-0.715471
0.807066
0.148895
0.694022
-0.897549
0.388706
-0.180214
-0.160319
-0.139584
0.252285
0.009225
-0.174232
0.187457
-0.545183
0.813347
-0.338751
-0.661613
0.414643
0.157244
-0.821026
0.206879
0.894126
0.273102
0.220816
0.698724
0.928073
0.604264
0.156916
0.175455
0.855009
-0.388182
0.264836
-0.111521
0.116982
-0.882688
0.514412
-0.766890
-0.233628
0.020221
0.920922
0.643911
0.224193
-0.406803
-0.888072
0.153621
0.645175
0.782817
0.691076
-0.174362
0.092886
-0.171574
-0.483934
-0.487871
-0.281997
-0.869046
-0.089427
0.027880
0.165125
0.679118
-0.046299
-0.039180
0.438068
0.743625
0.879638
0.223528
0.601971
-0.913043
-0.410827
0.848510
0.385590
0.972944
0.027905
0.572122
0.866967
0.988959
-0.498037
0.168285
-0.541722
0.712434
0.715744
0.905613
-0.872204
-0.185962
-0.840856
-0.914069
0.575729
0.098733
-0.790255
-0.242267
-0.453932
-0.551133
-0.900741
-0.780937
0.725973
-0.176065
-0.423026
-0.622468
-0.953019
-0.481701
0.134747
0.348849
-0.281271
-0.821263
-0.636839
-0.142028
0.978558
-0.147831
0.249415
0.065066
0.886617
-0.422009
-0.667228
0.533251
0.503513
0.521330
-0.355802
0.935403
-0.461523
0.684062
0.437163
0.944829
-0.204525
0.412303
0.215221
0.902788
-0.813912
0.157835
0.284358
0.224628
-0.843950
0.574823
-0.996596
-0.317630
0.782136
-0.887949
0.768702
0.732176
-0.770869
0.837952
0.175126
-0.585191
-0.545844
0.179285
0.241485
-0.744447
-0.806718
0.990952
0.428516
0.143437
0.774551
-0.702087
-0.148577
0.050283
-0.554000
-0.255432
0.452494
0.612125
0.979567
-0.778415
0.140851
-0.917725
-0.722156
0.488716
-0.887465
0.725911
0.395694
-0.483235
-0.680371
-0.976164
-0.302496
-0.843654
0.255504
0.094552
-0.851328
-0.076200
0.955043
0.417708
0.836793
0.196121
0.303697
0.249976
0.949818
-0.930230
0.557212
0.882176
0.519894
-0.273673
0.686550
0.033147
-0.444413
-0.142023
-0.402206
-0.981142
-0.301968
0.750457
-0.615470
-0.069518
-0.652146
-0.099745
-0.186535
0.442926
-0.867691
-0.878403
0.980857
-0.150024
0.682224
0.874140
0.031086
-0.157415
0.082915
0.902411
-0.705303
-0.039120
0.724094
0.292678
0.100177
-0.896503
-0.755366
-0.701862
-0.543797
-0.268348
0.008044
-0.077348
0.586274
0.652656
0.769807
-0.163186
0.838848
0.929265
0.484688
-0.258888
-0.614650
0.105280
0.784203
0.560306
0.222923
0.340469
0.920842
-0.749586
-0.514483
0.773971
0.849886
-0.489375
-0.923023
-0.119931
0.088167
-0.797141
-0.672432
-0.962125
-0.294304
-0.804393
-0.066073
0.085960
-0.804184
-0.894541
0.887078
0.723663
-0.062131
0.912281
-0.829077
-0.670764
-0.969896
0.343016
0.045188
-0.357935
-0.157330
0.940953
-0.728273
-0.699064
-0.317632
-0.210563
-0.462559
0.578049
0.566775
-0.323999
0.988539
0.626513
0.837182
0.194499
-0.041109
-0.699041
