-1.351267
0.711540
0.182157
-0.112150
0.729400
-0.428879
-0.541594
-0.529198
-0.207452
-0.226400
0.051471
0.778554
-1.053611
1.283749
0.153812
0.661601
-1.149266
0.526124
-0.438290
-0.419093
-1.699209
-2.166705
0.904239
-0.012610
0.520901
-2.077695
-1.450212
-0.079212
-1.205900
-0.596202
-1.132923
-1.509610
-0.070539
1.086607
0.296439
-0.060594
0.331795
-0.259654
-0.644680
0.134326
-0.864854
-1.051328
-1.095317
0.039456
-0.583063
0.518866
1.303925
0.257565
1.052064
-0.464804
-1.048516
-0.181401
0.647911
-0.655924
0.128952
-0.941172
-0.831898
-1.170776
-0.776274
-0.469432
-0.336847
-2.145827
-2.228684
-0.424898
-1.822862
0.211682
-0.425333
-0.645243
-1.182153
-0.478740
0.676363
0.466519
0.278463
0.890831
0.726359
-0.745272
0.458851
0.712391
-1.023666
-0.935606
-2.171633
-2.171060
-0.421767
-1.068188
-0.809177
-2.072761
-0.112299
-1.421568
0.199244
-2.148826
-0.250957
-0.651918
-1.235258
0.888134
-0.179131
0.726450
-0.709167
-0.620146
-0.152077
0.616558
0.516676
-1.176510
0.132553
-0.909514
-0.445235
-0.253835
0.603644
0.706382
-1.285794
-1.121659
2.398879
-1.657048
-1.412673
-1.531391
-0.049621
-0.658762
0.192365
-0.650288
-0.847901
-0.140345
-0.788789
1.029125
0.238971
-0.542065
0.005429
0.104715
-0.319446
0.561139
0.156352
-0.637271
-0.864991
0.139144
0.277227
-1.627255
0.073701
0.278990
-0.827127
-0.598585
-0.285815
-1.364253
-1.019145
0.836330
-0.992028
-0.875618
-1.088294
-0.305675
-0.829132
-1.169840
-1.433995
-1.589354
0.323708
-0.138922
0.852360
0.860261
-0.224994
-0.576087
0.350793
-0.450952
-0.760048
0.087111
0.255202
0.639173
-1.255511
-1.612570
-1.355138
-0.834297
-1.410026
-0.993452
-1.618547
-0.263418
0.709853
-1.032323
1.097296
0.245007
-0.254947
-0.778098
-0.915823
0.254441
0.633684
0.272814
0.879850
-0.076703
0.365220
-0.388915
0.677778
-0.412943
-0.882045
1.180366
0.216830
-0.121473
-0.259773
0.337858
0.864440
-0.099818
-0.249718
-0.203103
0.627847
-1.382353
0.021970
-0.985831
0.788267
0.931383
1.400030
0.406498
0.901576
0.431682
-1.152547
-0.780973
-1.228667
0.098514
-0.138271
0.428417
-1.028911
0.326101
0.728048
-0.449529
-1.097574
-0.064570
0.547050
0.577283
-0.768167
0.974784
-1.498270
-1.327857
-1.100260
0.447468
0.157088
0.800740
-0.995848
-0.982493
2.175864
0.086091
-0.034442
-0.260480
-0.021731
0.994535
-0.931411
-0.772449
0.668109
-0.641840
0.038027
0.898722
-0.546005
-0.185959
-0.181081
0.333731
-0.579959
-0.826425
0.078237
-0.905309
-0.804479
-0.028002
0.418998
0.690493
-0.455645
-0.774977
-1.046135
0.809221
0.193348
-0.894830
0.646510
-0.939040
0.361140
-0.332958
-0.831364
0.428491
-0.974750
-0.549047
0.003797
-0.661090
1.767265
-0.216715
-0.250742
0.534841
-0.999362
-0.484760
-0.322705
0.401970
0.437922
-0.627290
0.697639
0.525011
0.441214
-0.593672
-0.084260
-0.730305
0.566137
-0.798630
1.066949
-0.324398
1.435070
-0.312027
0.430198
-0.338270
0.104344
0.094734
-0.750056
0.249238
-0.013073
-0.165602
-1.938213
-2.343191
-1.412138
-1.126302
-1.961179
-1.282047
-1.721662
-1.433344
-0.932734
-2.187588
-0.754217
-1.475861
-1.109888
1.586368
-1.429172
-0.509815
-1.515896
-0.435404
0.353524
-0.008385
0.133796
-0.261506
-1.565934
0.582668
-1.469293
-1.381229
0.447471
-0.337355
0.207968
-0.846655
0.301835
0.154239
0.214452
0.493706
-0.600565
-0.422599
1.002006
-0.823689
1.352710
-0.843259
-0.070791
0.769728
-0.974941
-1.263593
-1.521184
0.787657
-1.027595
-0.881570
-2.124691
0.066310
0.747105
0.873017
-0.062108
-0.245918
0.196192
0.924946
0.317686
-0.362855
-0.485563
-0.516640
0.527961
0.518101
0.189835
-0.076205
-0.667644
1.371227
-1.066775
-1.585299
-1.175810
0.483937
0.004886
0.702513
0.214425
-1.785691
-2.056742
-1.366556
-1.988799
-1.167304
-0.878703
-0.263283
-1.583598
-1.601713
-0.185410
0.011635
-0.779968
0.460759
-0.337704
-1.313215
-0.987845
-0.947746
-0.021987
0.817081
-0.786718
-0.988711
-0.015902
-0.807697
-2.280222
-0.824775
-1.920933
-1.581115
-2.344545
-2.221291
-2.324894
-2.466926
-1.099885
-1.286269
0.609165
-1.400431
-0.351366
-0.998307
-0.817698
0.686921
0.381270
-1.109803
-1.025884
0.582525
0.616927
-0.620668
0.412747
0.647289
-2.317321
-0.746286
-0.634333
-0.330267
-0.004198
0.956913
-2.218505
-1.297197
-1.123172
-1.221545
0.533488
0.755182
-0.683583
1.230315
-0.538215
0.102539
0.457078
0.161479
-0.888506
-0.956660
-0.443067
-0.304475
-0.230038
-0.386864
0.284315
-0.441635
-0.359003
0.236706
0.009035
0.466777
-1.415750
-1.788700
0.743975
-0.975191
-0.348886
-1.708626
-0.898010
-0.865001
-0.842682
-0.853634
0.262763
-0.807378
-1.538281
0.748705
-1.777705
-1.224108
-0.453700
-0.358331
0.773491
-0.921788
0.245584
0.295698
0.934084
-0.892109
-0.111330
-0.583698
-0.205833
0.642054
0.849112
0.310202
-1.283904
-0.170575
-0.422471
0.074885
-1.198417
1.825491
-0.921149
-1.161488
-1.188363
-0.700405
0.350740
0.354899
0.498094
0.775172
-0.942294
-0.890686
-0.406361
-0.070990
0.616462
0.233648
0.906743
0.064338
-0.132801
0.312984
0.031960
0.418141
-0.480591
0.875371
0.479421
0.200096
-1.391814
0.642601
-1.099305
-1.153632
-1.273359
-0.446640
-0.363423
-0.002742
-0.484979
-1.308032
-0.120595
-1.490709
-1.754661
0.587009
-0.665702
1.014775
-0.783090
-1.337118
0.850051
-1.399103
-0.334003
0.587262
-0.548157
0.680538
1.050609
0.543416
-0.838680
1.196979
1.169286
0.393907
-0.800493
-1.465909
-1.491949
-1.124052
0.574419
-0.976227
0.002350
0.039649
-1.357508
0.102105
-0.710355
0.889060
-1.063842
-0.041451
-0.014642
1.148870
-0.565729
-1.197856
-0.378201
0.001952
-0.406757
-0.812063
1.042560
-0.275565
-0.640091
-1.248780
-0.188112
0.107216
0.459929
-1.021135
-1.574279
0.244517
0.260313
0.405196
1.135936
0.243217
-1.096039
-0.420888
0.215740
0.479167
-1.966436
-0.355741
1.234276
-0.132951
-0.184855
-0.874965
-1.611366
0.489673
-1.279322
-0.111283
0.336886
-1.132878
-0.150906
0.455992
0.070665
-0.620583
0.656760
-0.090575
0.435436
-0.480305
-0.013922
0.153944
0.870799
-0.093848
0.000386
0.230779
-0.708951
-0.539686
-1.754926
-1.169338
-1.096900
-0.233127
0.455423
-0.577120
0.188313
-0.508552
-0.700123
-0.515140
-0.647965
-0.470840
-1.288906
-0.551677
-0.641530
-3.580981
-0.527945
-2.040953
-2.677464
0.492445
-0.811258
-1.440078
-0.045220
-0.139993
-0.865876
-0.749827
-0.721735
0.829317
-1.183469
0.011953
0.276688
-1.100327
-0.187702
-1.083358
-1.869197
0.246723
0.849679
-0.692073
-0.497296
-1.124518
-1.322827
-0.389963
0.783863
0.528412
0.046781
0.762341
-0.406516
-0.155041
0.660388
-0.535599
0.118296
0.557274
-0.308241
0.613126
0.009677
0.459067
0.506557
-0.992675
0.114029
-1.077926
0.349126
0.414737
-1.615437
-2.039282
0.423506
-0.851013
0.804430
-0.298294
0.221324
-0.568077
-1.570632
-0.958634
-0.056523
0.437964
0.898230
-0.673740
0.843788
0.616561
0.363827
-0.726682
-0.145731
-0.739304
-1.016301
1.657791
0.307127
-1.038937
-0.824704
0.566013
0.409220
-1.828016
-1.115738
0.027872
0.508681
-0.465195
0.556238
0.093117
-0.463477
-0.608214
-0.349169
0.180367
0.255086
-0.843884
1.168082
1.521468
-1.024544
-0.871342
-1.935231
-1.757128
1.167793
-1.472375
-1.325019
-0.486514
1.240722
-0.272190
-0.030214
-0.108750
1.047095
-0.132716
-0.987485
-0.628093
0.675723
0.413802
-0.746725
-0.748326
-0.348278
-0.262140
0.951805
0.564276
0.464713
0.106783
-0.922676
0.612518
-1.415839
-0.572041
-0.917386
-1.795629
-0.137314
0.406836
-2.068091
-0.131064
-1.363254
-0.959255
2.543209
0.722188
-1.546960
-0.756200
-1.393465
0.032285
-0.687065
0.375567
-1.449917
-1.241514
-0.088128
-0.812655
0.082828
0.299590
0.457899
0.855338
0.040562
-0.169492
-0.869927
0.192858
0.890199
-0.035596
0.208682
-0.892917
1.129174
-0.860817
-1.270865
0.173665
-1.690705
-0.946458
-1.488684
0.849433
-0.748574
0.350402
-0.520820
-0.184289
-1.325639
1.128869
-1.266907
0.178820
-0.549564
0.304877
0.924486
0.596148
-1.559292
-0.903677
0.282485
-1.070322
0.180215
-0.570500
0.716002
-0.686714
0.174195
0.859083
0.459306
-2.164630
-1.506680
-0.595406
0.311513
-1.138362
-1.910028
-0.844097
-1.776240
-0.087077
-0.648581
-0.156337
0.861479
0.082062
1.034270
-0.995374
0.569660
-1.397241
-1.468939
-1.644095
-1.007311
-2.537105
-0.271133
-0.541556
-1.139708
-0.223680
0.778961
-0.849365
-0.341166
-1.224146
0.004268
1.468768
-1.455948
-1.320828
-0.719432
-0.318439
0.429192
0.395907
0.167017
-0.411388
0.490171
-0.111304
-0.623967
-1.113214
0.149847
0.351820
-0.631589
-1.064848
-1.341553
0.761060
0.183856
0.654512
-0.645665
-0.498647
0.489289
0.266526
0.581827
-1.440614
-0.268067
-0.059275
-0.767616
-0.867757
1.412531
-0.046427
-1.040416
-0.389000
0.631139
0.159590
0.360162
0.478034
0.340882
0.188295
1.026920
-0.655353
0.925532
0.203355
-0.697107
-0.401492
0.274255
-0.162775
-0.401764
-0.620849
0.562442
-0.829563
-0.807602
-0.816312
-0.387174
-0.674069
0.372134
-0.536463
-0.717292
0.423858
-0.965797
0.630437
-0.835052
0.220871
1.328204
-1.135128
-0.694264
-2.309177
-1.263243
-1.362730
-1.180116
-0.501414
-0.995605
-0.092923
0.305254
0.398789
-0.277084
-0.413594
-0.369452
0.963763
-0.872439
-0.246172
-0.038119
-0.225991
0.982348
-0.209527
0.844133
0.727671
0.503973
0.098673
1.247140
0.228001
-0.538747
0.555768
0.252546
-1.308228
0.847077
-0.099643
-0.872485
-0.542388
0.748581
-1.515384
-1.027833
0.663071
-0.033661
-0.655314
-1.429191
0.227746
-0.694830
-1.223789
-1.812118
0.209902
0.846216
0.037278
-1.318865
-0.288818
0.608246
-0.224027
-0.308870
-0.006212
0.582030
-0.497240
0.699179
-1.111899
0.255290
0.704352
0.015999
0.580296
0.706326
0.367203
-0.191254
0.576050
0.436381
0.156481
-1.664497
-1.193637
-0.929335
-2.156160
-1.712713
-3.438453
-0.056306
-1.781520
-1.474938
-2.319992
-1.553951
-0.661945
-1.440065
-0.556991
0.262014
1.376893
-2.429379
-2.111547
-1.241226
-1.476003
1.632309
-0.986606
-0.077152
-0.186568
-0.630778
-0.565112
0.679379
-1.054543
-1.018214
-0.839601
0.188180
0.689410
-0.311719
-0.104902
-0.581331
-0.751977
0.212761
0.800489
-0.387279
-0.694063
-3.177613
-2.121744
-1.427585
0.191472
-1.501404
-2.246905
-0.092530
-0.700443
0.082206
-0.786685
0.589440
-0.641956
-1.022550
0.636292
-0.040074
-0.725072
0.993059
0.089463
1.187447
-0.629928
1.867326
-1.779421
0.571289
-1.437419
-0.535302
1.075370
-0.291390
0.085772
-1.357807
0.450476
-0.440836
0.066808
0.393638
-0.606127
-0.812014
-0.612154
0.547572
-0.229705
0.348393
-0.095324
1.692300
-0.221623
-0.908781
-0.678159
0.192868
-1.609358
0.265415
-0.950271
-0.932975
-0.004275
-0.621625
-0.126023
0.338233
-0.360157
-0.475742
-0.200187
-0.862862
-1.470344
0.382427
-1.124277
-0.262600
-0.000234
-0.545736
0.570131
0.251444
-1.653582
0.214477
0.900950
-0.670911
0.250442
0.051373
-0.097814
0.525933
-0.860504
-0.711101
-0.921843
0.439046
0.179772
0.523828
-0.466851
0.166166
-0.470573
-0.245461
-0.483474
0.259589
-0.256382
-0.865514
0.766762
0.515563
-0.211388
-0.956191
0.739430
-0.690428
0.958497
-0.678628
0.774779
0.225187
0.335668
0.255231
-0.066350
-0.650446
0.550317
-0.967776
0.254456
0.963826
0.341588
-0.239285
-1.051107
-0.757444
-0.652112
-0.153276
0.786416
0.010136
-1.072024
-1.113544
-0.044564
1.331526
-0.866456
-0.515514
-0.273053
-0.453515
-0.452754
-0.164148
-0.932282
-0.711024
0.351922
0.781334
0.183999
0.338107
-0.552883
0.883808
0.462936
0.850857
0.837151
-0.796667
-0.318960
-0.023456
-0.198395
-0.521812
0.801588
-0.869087
0.146700
-0.254800
0.682960
-0.647452
-0.852239
-0.230262
-0.641525
0.561537
0.140826
-1.654285
0.117242
0.108724
-0.722301
1.328208
-1.014078
0.683323
0.630253
-0.099359
0.027639
-1.445983
-0.794816
-1.863099
-0.586515
-1.427035
0.681863
-1.039413
-0.439908
-0.548523
-0.879327
-0.127325
-0.853649
-1.564507
1.186094
0.242979
0.969565
-0.529587
1.322464
-1.002417
-0.417825
-0.451786
0.336235
0.527655
0.000913
0.612237
0.439138
-1.107555
-0.408992
-1.266887
-0.591396
0.796181
-1.062810
2.024186
-0.223557
0.205326
-1.391776
-1.933385
-0.262937
0.186757
-0.392700
0.553410
0.758387
-0.454305
0.380874
0.492714
-0.247756
-0.991961
0.040289
-0.991647
0.675910
-0.479171
-0.577295
-1.040128
0.099214
-0.533699
-1.049165
0.202845
-0.433702
-1.011387
0.493135
0.812810
-0.058672
-0.827391
0.094000
0.087939
0.214829
0.310411
0.072691
0.449931
0.009348
-0.864833
0.618953
-0.132741
0.228146
-0.094644
-0.117858
1.613092
-0.671258
-0.138258
0.309458
-1.128545
-0.004724
-1.279626
-0.316937
-0.973719
-1.467773
0.585327
-0.785959
-0.173683
-0.506821
-1.609235
1.649800
-1.180370
-0.499420
-0.426369
0.668672
0.472268
-0.239681
-0.159247
0.099976
0.984829
0.834637
-0.633781
0.869713
0.052005
0.986452
-0.634857
-0.426911
-0.996181
0.357592
-0.663768
0.139101
0.582255
-0.446574
0.457731
-0.790811
-0.260194
0.748447
-0.552283
0.727239
