0.000008
-0.755605
-0.532767
-0.047045
0.679296
0.383502
-0.830965
0.053462
0.671149
-0.383416
0.417486
0.588977
0.846167
-0.091965
0.415999
-0.910321
0.262453
0.736082
0.632639
0.991037
-0.247039
-0.722660
0.651519
0.631635
0.272710
0.766495
-0.237774
-0.359265
-0.486517
0.909208
-0.904653
-0.516292
0.986642
-0.266145
0.947764
0.500707
0.277082
-0.529747
-0.940980
0.761514
-0.827817
0.015868
0.868247
-0.736225
-0.999458
0.233195
-0.351015
-0.591114
0.412081
-0.269317
0.537304
-0.287212
-0.153720
0.802406
-0.534450
0.955361
0.554584
-0.624849
0.159768
-0.714710
0.090990
-0.003000
-0.026876
-0.937897
-0.180896
0.886991
-0.150335
0.385815
-0.499741
0.587187
0.590109
0.556146
-0.983305
0.141820
-0.252126
-0.464031
0.126031
0.319250
-0.126712
-0.621634
-0.247842
-0.389314
-0.028375
-0.426497
-0.947487
-0.131189
-0.092174
-0.071064
0.253057
0.783153
0.349524
0.808945
0.651646
0.679592
-0.250126
-0.471262
0.600394
-0.755844
0.951367
-0.439330
0.688981
-0.987145
0.851270
0.537426
0.103434
0.576717
-0.440039
0.869264
0.800720
0.741716
-0.886031
-0.463323
0.713422
0.667679
0.199555
-0.865883
-0.543948
0.450347
0.215532
0.315732
0.881504
-0.467532
-0.365158
-0.999117
0.630488
-0.000595
0.773352
0.319178
0.682494
-0.205262
0.708921
-0.094549
0.764005
-0.213852
0.081061
0.952160
-0.389854
0.692169
-0.776866
-0.422460
-0.193967
0.191824
0.244054
0.136455
0.601010
0.828355
0.987937
0.233599
-0.219411
-0.696007
-0.696243
-0.669521
-0.056441
0.227008
-0.699834
0.762571
-0.553911
-0.329666
0.143045
-0.485325
0.813266
0.738997
-0.135332
0.310739
-0.518084
0.258843
-0.393018
-0.475896
-0.279293
0.369742
-0.671784
-0.513936
-0.720768
-0.460697
0.321560
-0.517145
-0.401833
-0.986503
0.670098
0.541710
-0.829239
0.274210
0.546137
0.266613
0.246733
0.694024
0.817101
0.160749
-0.707826
-0.582421
0.991533
-0.279512
0.171179
0.495691
-0.163081
-0.782992
-0.436426
-0.584787
0.066850
-0.389731
-0.385769
0.659053
0.538661
-0.815932
0.686102
0.009348
-0.520960
0.220685
0.070635
-0.723764
-0.050603
0.457162
-0.446490
0.285942
0.695637
0.681164
-0.057475
-0.542393
0.856193
0.377550
0.576173
0.679332
-0.035588
0.973356
0.351319
-0.607611
0.552862
0.356925
-0.974252
-0.251528
0.813048
-0.244586
0.694856
0.263620
0.116571
0.113676
-0.006079
-0.599359
0.082507
0.375310
-0.123637
0.029635
0.494245
-0.934030
-0.359658
-0.499955
-0.671903
0.756770
0.230572
0.562602
-0.616610
0.224801
0.653012
0.744104
-0.047639
0.124945
-0.484180
0.914025
0.593546
0.496582
0.441633
-0.771944
0.442790
0.467741
0.445930
-0.205341
-0.372520
0.964851
-0.070335
0.526338
-0.517707
0.841576
0.423890
-0.713547
-0.871884
0.836598
-0.389060
-0.605603
-0.539505
0.401692
-0.083086
-0.472380
-0.104969
0.802019
0.668820
-0.243750
-0.263663
0.081006
0.232867
-0.491343
-0.266119
0.425191
0.963476
-0.795856
-0.171155
0.063804
-0.292468
-0.825837
0.726443
0.802084
0.045341
0.153315
-0.061731
0.929150
0.204563
0.699691
0.494631
0.711571
-0.200645
-0.436096
0.861187
-0.444519
-0.523772
0.753174
0.822891
-0.232078
-0.430618
0.987325
0.850531
-0.311605
0.997599
0.468075
-0.690773
0.541535
0.159216
0.821334
0.041075
0.110019
-0.518773
-0.561484
-0.516908
0.737175
0.022800
-0.670991
0.066290
-0.921117
0.380115
-0.167313
0.691126
-0.713695
0.589809
-0.929698
0.505970
-0.919236
-0.723836
0.490817
-0.976116
0.273251
-0.698558
-0.097433
-0.610738
0.495125
-0.588888
-0.151217
0.731364
-0.051617
0.320642
-0.245142
0.382969
0.597169
0.935252
-0.513148
0.650128
-0.407538
0.479783
0.534199
0.605538
0.703369
0.938254
-0.413494
-0.783002
0.681491
-0.527413
-0.143684
0.251422
0.004816
-0.275353
-0.278929
0.506820
-0.416475
-0.436491
0.766175
0.441265
-0.297064
-0.338510
0.055606
-0.485286
-0.114475
-0.864609
-0.367395
-0.162204
-0.057723
0.468101
0.883705
0.412248
0.308327
-0.814416
0.919492
0.770046
-0.572442
0.803268
-0.861622
0.869494
-0.389172
0.525670
-0.420038
0.749145
-0.338085
-0.743126
-0.879162
-0.710114
-0.359379
-0.161029
0.096429
0.562612
-0.878192
0.635205
0.878413
0.113071
0.382620
0.121740
-0.143302
-0.708588
-0.390967
-0.628767
-0.908691
-0.859213
0.428873
-0.498631
0.450735
0.740759
0.300122
0.110018
-0.972476
-0.238410
0.833474
-0.129482
-0.339119
-0.440268
-0.432877
0.382317
0.429473
-0.670197
0.698066
-0.849278
0.793382
-0.009608
0.639058
-0.644898
0.377364
-0.389500
0.693589
0.291525
0.854365
-0.144142
0.005588
-0.381955
-0.344456
0.291000
-0.124391
-0.048697
0.376817
0.755856
0.011531
0.560914
-0.415560
-0.514590
-0.842044
-0.465007
-0.050043
0.202449
0.831524
-0.839549
-0.181196
0.934110
0.369040
-0.627830
0.405786
0.444850
-0.748311
-0.131023
-0.665308
0.581285
-0.982032
-0.921473
0.967723
0.278796
0.590459
0.834691
0.730448
-0.349529
0.664147
-0.869188
-0.917967
0.951753
-0.416007
0.962535
0.526182
0.818107
-0.662893
0.941429
-0.126034
0.886726
-0.162958
-0.602405
0.838679
0.391555
-0.667348
0.000040
-0.628753
-0.574346
0.351393
-0.370837
-0.576430
0.744468
0.442624
-0.091801
-0.992419
-0.033004
-0.487212
-0.895724
0.688594
0.481720
0.947120
0.953262
-0.127088
-0.857156
0.007008
-0.050393
-0.641374
0.137093
-0.824627
0.655888
0.526454
0.903056
-0.277586
-0.391493
-0.243001
-0.728307
0.201217
-0.022556
0.187979
-0.779658
-0.666364
-0.351173
-0.292091
0.223697
-0.404765
-0.579362
0.437240
-0.834283
-0.849068
0.264662
-0.533532
-0.998736
-0.122221
-0.425107
-0.213568
-0.033077
0.106043
0.482049
0.257524
0.282464
0.208123
0.764064
0.575853
0.907848
-0.114107
-0.698163
0.747969
-0.894964
0.345891
-0.215049
-0.017785
-0.785470
-0.729983
-0.877797
0.343425
0.362191
0.080655
-0.776393
-0.493295
-0.642734
-0.352314
0.281545
0.626152
-0.157540
0.251955
-0.854603
0.608444
0.373662
-0.261863
-0.202817
-0.070950
0.963244
-0.197518
0.081326
-0.152563
0.809124
0.045520
-0.829722
0.801168
0.399215
0.655206
-0.986364
0.413580
0.108049
0.867119
-0.834369
-0.716939
0.222540
0.001574
0.409766
0.022462
-0.376501
0.793872
-0.331804
-0.653873
0.259120
-0.987042
-0.642325
-0.376933
-0.449107
0.585800
0.483601
0.081595
0.100809
-0.841668
-0.827927
0.813280
-0.839796
-0.642095
-0.815759
0.193634
-0.930652
-0.378445
-0.227756
-0.985847
0.458481
-0.279015
-0.739932
0.303932
0.813189
0.717761
-0.785073
0.577059
-0.798596
0.627795
0.471857
-0.529620
-0.857925
0.399142
0.846436
-0.456879
0.292495
1.000000
-0.741617
-0.796585
-0.600734
0.251693
0.575624
0.747701
0.989635
-0.554778
0.107010
0.246300
0.334365
0.069367
0.876262
0.145400
-0.661891
0.585027
-0.494116
-0.924830
0.256384
0.620714
-0.024167
-0.610723
-0.568438
-0.373973
0.376277
-0.583115
-0.110807
0.685165
-0.871871
0.974538
-0.475344
0.992179
0.698705
-0.474984
0.445107
0.439511
-0.997177
-0.124284
0.190258
0.656273
-0.457616
0.139185
-0.972964
-0.852208
-0.925623
0.466668
0.460251
-0.866139
-0.384766
0.814225
-0.721585
-0.313986
-0.688042
-0.165764
0.176306
0.198052
0.674452
0.323405
0.320824
0.870438
0.147775
-0.941981
0.660927
0.170347
0.165414
-0.361192
0.963839
-0.023861
0.886172
0.913224
0.172576
0.814419
0.583064
-0.471753
-0.332312
0.512964
-0.828165
0.004778
0.454566
0.843532
-0.733911
-0.422961
-0.405874
-0.525560
-0.403688
0.264789
0.184968
-0.620673
0.327313
0.184355
-0.533180
-0.925770
0.031187
-0.565061
0.140259
-0.309118
-0.162868
0.379582
0.602311
-0.335103
0.544029
0.287871
0.439320
-0.325579
0.972696
-0.318377
0.349269
0.985489
0.041885
0.785281
-0.101461
0.437511
-0.282594
-0.882302
0.670468
-0.757833
0.853380
-0.233950
0.261283
0.299503
0.991835
0.428610
-0.463801
-0.181880
0.503358
-0.898036
-0.629141
-0.544049
-0.054810
0.975294
0.869878
0.518437
0.969667
-0.228571
0.896504
-0.084773
0.771090
0.051936
-0.071637
0.269917
0.687318
0.944647
-0.911773
-0.815332
0.481877
0.703183
-0.168436
-0.210064
0.372777
0.806702
-0.658912
0.522131
0.606870
-0.021766
0.377316
0.969700
0.793286
0.453228
0.244226
0.213819
-0.407049
-0.343149
0.688401
0.778182
0.021656
-0.053752
-0.163551
0.011579
0.921468
-0.545015
-0.556517
-0.481430
-0.408673
-0.941078
-0.589636
0.282762
0.745794
-0.554309
0.117163
0.354305
-0.265734
-0.414449
0.529665
0.469946
0.098857
0.132815
0.438291
0.993806
-0.349940
-0.801629
0.301218
-0.551921
-0.506545
0.729641
0.217063
0.385219
-0.264364
-0.856503
-0.893365
0.964197
0.284081
0.718898
0.486485
-0.858476
-0.020403
0.959515
-0.997882
0.587660
-0.408225
-0.545435
-0.574699
-0.681336
-0.563862
0.292872
-0.977984
0.583705
0.521573
-0.807740
-0.594764
0.200402
0.280788
0.793055
0.789200
0.160008
0.761440
0.391793
-0.332695
-0.780210
-0.954354
0.777039
0.841948
0.768394
0.585257
-0.801599
-0.690773
0.550919
-0.586986
-0.898639
-0.259919
0.000039
-0.091840
-0.679043
0.745264
-0.981988
-0.782769
-0.086813
-0.926769
0.781356
-0.286591
-0.295857
0.909973
-0.891786
0.752406
-0.468107
0.208753
0.897771
0.958706
0.918436
-0.262890
-0.771451
-0.775716
-0.418673
0.647096
-0.829492
-0.780221
-0.119997
-0.991853
0.424933
-0.633542
0.430353
-0.798559
-0.246792
0.041603
-0.094000
-0.043491
-0.824232
0.511974
0.998299
0.211603
-0.108905
0.096877
0.387090
-0.899207
-0.817065
0.817441
0.458524
-0.592706
-0.667519
0.739097
0.625461
-0.896096
-0.328330
0.451460
-0.258829
-0.703850
-0.690966
-0.879646
0.216739
-0.785623
-0.715460
-0.195229
-0.020458
-0.760827
-0.420198
-0.676851
-0.050492
0.633692
-0.109521
0.017517
-0.538175
-0.640354
0.027800
-0.329900
-0.375769
0.768851
-0.762721
0.184594
0.838480
0.368350
-0.786713
0.815297
0.897892
0.412815
0.554443
-0.350968
0.971990
0.140848
0.801560
-0.401016
-0.602370
-0.755131
0.978601
-0.729884
-0.878878
0.677584
0.287851
-0.022169
0.944596
0.568109
0.030379
-0.641647
0.068264
0.574306
-0.210034
0.756950
-0.275348
-0.374207
-0.354434
-0.622282
0.346591
-0.516009
0.696418
-0.807667
0.736131
-0.327840
-0.440638
0.933097
0.567060
-0.987787
0.111175
-0.444486
-0.544986
-0.148493
-0.525456
-0.587793
0.908952
-0.507967
0.463210
-0.693285
0.692757
-0.250726
-0.743430
0.288709
-0.655550
0.424314
-0.431431
0.383153
0.518011
0.737829
0.513320
0.502298
-0.415590
0.029127
-0.115948
0.632031
0.510782
-0.512091
0.975647
0.946474
0.630165
0.488743
0.686839
0.849437
-0.800510
-0.449827
0.023474
0.871800
-0.458718
0.187636
-0.357162
-0.423101
0.845013
-0.924011
0.820136
0.974908
0.735949
-0.829046
0.012364
-0.605344
0.547190
-0.029054
0.577041
-0.651622
-0.735630
-0.686567
-0.754228
-0.003219
-0.569399
0.211794
0.240964
0.088676
0.593670
-0.389757
0.797826
-0.980936
-0.961583
-0.863762
-0.472729
0.870751
-0.039750
0.790158
0.041306
0.682644
-0.651416
0.273417
-0.022727
-0.228337
-0.221213
0.061747
0.288490
-0.384612
-0.740659
0.533529
0.282173
0.934847
-0.587070
0.345682
0.006556
-0.311967
-0.510074
0.220417
-0.191895
-0.644666
0.494929
0.139070
0.183774
-0.082349
-0.360519
0.296815
-0.384147
-0.866680
-0.918743
-0.747109
-0.793832
0.516082
-0.809086
-0.577993
-0.100140
-0.690319
-0.433362
0.322814
-0.983912
-0.006960
0.527021
0.627369
0.285189
-0.443561
-0.144130
0.872446
-0.756102
-0.868794
-0.328171
-0.603147
0.805742
0.417251
0.323595
0.503808
0.898505
0.453041
0.408904
-0.954362
0.482250
0.685043
0.906563
0.400413
-0.980445
-0.380316
0.829065
0.132749
-0.785494
0.780114
0.351053
0.243357
-0.024342
-0.703856
-0.088807
-0.931076
0.589635
0.576430
0.272528
0.256752
-0.810435
0.274655
0.044662
-0.578786
0.535274
-0.919610
-0.077537
0.851936
-0.956571
-0.597675
-0.433636
-0.396628
0.661178
0.673604
-0.473408
0.780460
-0.232948
0.633641
-0.485577
-0.031019
0.784966
-0.413157
0.265916
0.407080
-0.141940
0.592778
0.680462
-0.823268
0.551341
-0.754757
0.127778
-0.572303
0.607560
-0.770103
-0.383296
0.123225
-0.164800
0.345646
0.841865
0.130036
0.262527
-0.284531
-0.510689
0.980176
-0.906449
0.308516
-0.664316
0.198709
-0.110733
-0.037492
0.185770
0.847198
0.290794
0.478682
-0.665240
-0.043539
0.227704
0.882860
-0.714594
0.063062
0.640094
0.570175
-0.933295
0.359691
-0.540083
-0.965322
0.719937
-0.160983
0.660614
-0.072635
0.191256
0.496468
0.497789
0.382243
0.628710
-0.935549
-0.001301
0.505529
-0.393030
0.537968
-0.380405
0.939119
-0.766006
0.777598
-0.662258
-0.908568
-0.059507
-0.473655
0.009565
0.623197
0.611334
0.493485
0.767691
-0.772596
0.306745
0.961826
0.154770
-0.366802
-0.593871
0.579569
-0.053577
0.771369
-0.434124
0.296776
0.301690
-0.615407
0.250785
0.983965
0.901082
-0.002337
0.999875
-0.024992
0.058363
-0.154432
-0.939210
-0.291507
0.091745
0.445330
-0.446813
0.948445
0.504574
0.687722
-0.419649
-0.803778
0.958921
0.684991
-0.108694
0.060429
-0.523720
-0.374412
0.652982
-0.115234
-0.599330
0.214022
0.579126
0.968059
0.813962
-0.903943
-0.048282
0.991771
0.118094
0.488368
-0.198314
-0.417207
0.105312
0.425215
-0.915947
-0.032356
0.612437
0.403955
0.469697
0.379761
0.986112
0.240997
0.691272
0.269706
-0.021679
0.479570
0.687346
-0.277095
-0.567483
-0.717839
-0.784569
0.399060
0.155245
0.118353
-0.833942
-0.276767
-0.585313
-0.953731
0.492780
-0.269562
-0.577906
-0.304216
-0.012010
-0.224663
-0.256259
-0.240489
-0.115747
0.514668
-0.412705
0.280930
0.826259
0.935912
-0.109592
0.515788
0.133405
0.637065
-0.705220
0.870284
-0.261178
0.024367
0.958849
0.933215
-0.962295
0.729671
-0.456012
-0.171463
0.557062
0.334386
0.480262
-0.972064
-0.831783
0.137325
-0.365970
-0.362630
0.647369
-0.346061
-0.135349
-0.346350
-0.908562
0.522653
0.515333
-0.183201
0.501457
0.502441
-0.353386
0.326845
0.612926
-0.994794
0.870526
0.823612
0.038809
-0.707452
-0.958700
-0.611468
-0.816441
0.949190
0.382113
0.272879
-0.288365
-0.231332
-0.139884
-0.109039
-0.196891
-0.158363
-0.549318
-0.594898
0.689994
-0.305893
0.898144
0.630569
-0.600412
0.628793
-0.927167
-0.029845
0.684658
-0.600775
0.806936
0.299106
0.160200
0.812857
0.492720
-0.529119
-0.434714
0.470712
0.810747
0.289502
-0.208676
-0.317195
0.368418
-0.875103
0.198351
0.495345
-0.519423
-0.107650
-0.566859
-0.113697
0.850158
0.006892
0.224729
-0.853626
0.642390
-0.003859
0.235741
0.248698
0.449308
0.594900
-0.754091
-0.260497
-0.869849
0.825785
0.506497
-0.619307
-0.026315
-0.181557
-0.993945
0.137646
-0.192009
-0.341074
-0.680280
0.310742
-0.389645
-0.474292
0.643278
0.069759
0.465556
0.615903
-0.972228
0.151634
0.431069
0.990922
0.817021
0.535562
-0.303432
-0.938371
-0.030294
0.302180
0.332748
0.988146
0.444876
-0.659586
0.167258
-0.248455
0.527545
-0.527825
-0.651788
-0.143383
0.912572
0.707396
0.063574
0.379943
-0.844077
-0.252032
0.236043
0.766164
-0.814099
0.548848
-0.041205
-0.782447
0.915521
-0.037349
0.510704
0.058548
0.068487
0.110012
0.383664
0.019121
-0.418684
0.940460
0.543900
-0.896570
-0.530456
-0.225867
0.913491
-0.221611
0.226309
-0.183222
0.183592
-0.780252
-0.038689
0.539349
-0.462822
-0.964760
0.908510
-0.570475
-0.963741
-0.640747
-0.496850
-0.749050
0.387249
-0.442215
0.927888
-0.318246
0.983366
-0.094068
-0.868118
0.473519
0.345015
-0.019903
0.312997
0.782471
0.539434
0.555363
-0.374031
-0.152166
-0.987987
0.274038
0.580001
-0.619800
0.804015
0.978868
0.208023
0.172202
0.664506
0.772496
0.555670
-0.314042
0.555723
0.398946
-0.133129
0.099518
-0.575265
0.373168
-0.109933
-0.924886
-0.924084
0.666465
0.025036
0.258761
-0.132325
0.120194
0.750353
-0.007376
-0.608299
0.280514
-0.186770
0.927784
0.432286
-0.072649
-0.625963
-0.038391
-0.430567
-0.401980
0.268293
0.247215
0.870243
0.482347
-0.074221
-0.260450
-0.194411
-0.987912
0.574907
0.169948
-0.001320
0.344565
0.464800
0.962944
0.646632
-0.904250
0.848350
-0.010277
-0.458099
0.512549
-0.899395
0.371435
0.527388
0.033751
-0.064800
0.541550
0.449370
-0.456171
-0.018558
0.847120
0.104693
0.008141
0.657449
0.639584
0.598626
-0.041988
-0.753572
0.903011
0.872829
0.111000
0.138147
-0.450394
0.872537
-0.706278
-0.821730
0.842827
-0.401296
-0.441705
0.739532
-0.959423
0.686650
0.413510
-0.036382
0.890255
0.412040
0.866204
0.702042
0.421408
0.613187
-0.324945
-0.515492
-0.425386
0.790703
-0.855028
0.001984
-0.556928
0.822006
-0.361122
-0.797590
-0.484291
0.474420
-0.013229
0.327125
0.241385
-0.943368
-0.433660
-0.611090
-0.866953
0.798644
0.052287
-0.086057
0.406584
-0.083362
-0.774428
0.231537
-0.554585
0.562724
-0.635240
0.224338
0.499417
-0.744214
-0.926140
-0.118944
0.827842
0.958125
-0.176931
0.121771
-0.539337
0.146164
0.978426
-0.079536
0.144435
-0.869293
0.413988
-0.136002
0.798915
0.150720
0.262822
-0.769319
-0.093336
0.425653
0.648056
-0.664819
-0.295591
-0.985203
-0.236864
-0.009002
-0.369902
-0.185367
-0.664803
0.614656
-0.719717
0.772813
0.129836
0.208485
0.854766
-0.788040
-0.683694
-0.745143
-0.778607
-0.771757
0.982694
-0.912281
-0.696904
-0.418805
-0.032310
0.495736
-0.267726
0.503746
-0.001578
-0.288395
0.809408
-0.808229
-0.542585
-0.501581
-0.948652
0.323349
0.924642
0.477912
-0.529334
0.127503
0.272490
-0.759605
0.846735
-0.684078
-0.340305
0.571188
0.919178
-0.572786
0.087336
-0.650166
0.438270
-0.408480
-0.640375
-0.050004
0.226545
0.303729
-0.187383
-0.247385
-0.796486
0.456194
-0.985546
-0.166366
0.182085
0.888116
0.750574
0.283750
0.163348
0.746180
-0.810705
-0.118256
0.929337
0.765332
-0.337109
0.580786
-0.194875
-0.585511
-0.993648
0.693274
0.801371
0.272912
0.443538
0.793650
0.155878
-0.664393
-0.778243
-0.327065
-0.542773
0.134761
0.379529
-0.158360
0.985859
0.965747
-0.170553
0.386281
-0.808468
-0.084997
0.260563
-0.903201
-0.273675
0.024385
0.385954
-0.772228
-0.228330
0.339061
-0.682814
0.475315
0.210349
0.608728
-0.911103
0.262952
-0.765926
-0.793451
-0.168148
0.792069
-0.795498
0.876711
0.301157
-0.452291
-0.888685
0.868283
0.908368
0.778888
0.763621
-0.963608
0.259578
0.769198
0.832889
0.541271
-0.502671
-0.399013
0.338499
-0.985928
-0.442802
-0.566065
0.944469
0.272525
0.996503
0.096078
0.922408
-0.863043
0.723897
0.027869
0.445469
0.095510
0.090857
0.888347
-0.298898
-0.092134
0.328984
-0.728996
-0.177601
-0.625231
0.969763
-0.526910
0.196260
0.936437
0.825969
-0.092838
-0.571629
-0.519101
0.443771
0.083833
0.595020
-0.377924
0.373003
0.063527
-0.518765
0.898768
-0.507012
-0.110026
0.056058
-0.288333
-0.207283
-0.987037
-0.602757
-0.239628
-0.768311
-0.087461
0.915898
0.447552
-0.249397
0.842095
-0.507302
-0.239525
-0.673935
-1.000018
0.419622
0.475484
0.670501
-0.631325
0.303213
0.701545
0.316460
-0.283648
0.657054
-0.632773
-0.125256
0.648485
0.296313
0.149853
0.784174
-0.632778
-0.743440
0.463358
0.507679
0.859573
0.309992
0.539580
-0.228560
0.992695
0.624211
0.109761
0.705085
0.405472
0.801343
-0.329185
0.882831
0.570219
-0.521703
0.742061
0.514097
-0.831187
-0.457128
-0.508025
-0.126698
-0.903269
-0.954829
0.257937
0.127931
-0.496624
0.174614
-0.807968
0.244399
0.203223
0.343841
-0.749961
-0.515792
0.715644
0.631430
0.128442
-0.016659
0.180885
0.526405
-0.338733
0.938664
-0.487787
0.483748
-0.586679
-0.496409
0.292853
0.032933
-0.858465
0.535034
-0.852547
-0.349900
-0.688079
0.562408
-0.319509
0.429179
-0.520297
-0.715013
-0.277065
-0.191613
0.942594
-0.907765
0.905621
0.606208
0.301077
-0.562885
-0.232816
-0.860612
0.647847
-0.763967
0.811484
0.999272
-0.192638
0.843680
-0.481897
-0.778899
0.597500
0.062501
0.530966
0.087024
-0.931935
0.218826
-0.220367
0.397125
-0.978784
-0.507423
0.405895
-0.128645
-0.830412
-0.509372
0.898120
0.330219
-0.188453
0.890597
0.896053
-0.181836
0.182570
-0.398931
-0.012600
-0.576900
-0.892942
-0.383391
0.231686
-0.758271
-0.768316
-0.387314
-0.363499
-0.057721
0.010079
-0.369617
0.110155
0.803789
-0.686689
-0.874191
-0.197186
-0.313273
0.185997
0.479128
0.131265
-0.766751
0.408922
-0.206126
0.651180
0.000244
-0.292385
0.527007
0.376104
-0.994367
0.428288
0.736987
-0.011487
0.608649
0.458496
-0.302487
0.436773
-0.184464
0.807571
-0.205305
0.420323
-0.072185
-0.325266
0.335447
0.184429
0.819239
-0.702986
-0.908903
-0.594015
0.439163
-0.786545
0.290801
0.639849
-0.573020
0.503898
0.365579
0.442131
0.939054
-0.024058
-0.000092
0.928968
0.771272
0.327444
0.681452
0.475018
-0.155250
-0.658178
0.464982
-0.325550
0.498293
-0.551547
-0.660758
0.694179
-0.147644
-0.450797
-0.596036
-0.495824
-0.987350
0.596734
0.075529
0.764724
-0.742241
-0.604369
0.743236
0.258844
0.144520
-0.578355
0.257261
0.818957
0.403062
-0.082911
-0.031712
-0.817370
0.111248
0.128132
-0.370872
-0.905504
0.382244
0.179699
0.972507
-0.723388
0.722644
0.521720
-0.555224
0.072598
0.092097
-0.839055
-0.654699
0.363229
0.703225
-0.786054
0.846983
-0.940749
-0.006958
-0.546852
-0.176099
-0.819422
0.105714
-0.140206
0.032551
0.473728
-0.623359
-0.087403
0.978365
0.321170
0.792467
-0.045133
0.881729
-0.157518
0.281906
0.457134
0.638973
0.301772
-0.152663
0.254427
-0.409918
-0.122803
0.214934
0.404616
-0.286987
0.737757
-0.802023
0.271207
-0.726590
-0.494483
-0.119616
0.097481
-0.146436
0.141128
-0.850635
0.408813
-0.779680
-0.547793
-0.531423
0.716971
0.828795
-0.166796
0.590600
0.222719
0.154269
0.640725
-0.649298
0.790695
-0.722678
0.193981
0.654578
0.067935
0.054348
-0.795794
-0.505974
0.281133
-0.103973
0.123925
-0.228240
-0.594294
0.488769
-0.140938
-0.657922
0.544743
0.233862
0.498390
-0.556751
-0.080269
-0.376606
0.152248
-0.051657
0.328713
-0.890722
0.758976
0.336829
-0.290278
-0.945818
0.148872
0.615335
0.278163
0.345231
0.480280
0.061699
0.932629
0.969042
0.737385
0.503566
0.783518
-0.830345
-0.258663
0.508621
-0.222717
-0.318839
-0.034932
-0.165392
-0.484111
0.089241
-0.474387
-0.526859
-0.804985
0.196141
0.272718
0.636433
0.944947
-0.150209
-0.610130
0.929034
-0.371078
0.055468
-0.602173
-0.875100
-0.372148
0.847450
0.976140
-0.404870
-0.349025
-0.470694
0.451249
0.639581
0.031026
-0.663256
-0.323400
0.644425
0.658629
0.678133
0.377078
-0.892191
0.944688
-0.832443
0.406754
0.829598
-0.815556
0.866746
0.216028
0.867225
0.124615
0.116280
-0.323632
0.422255
-0.570657
-0.684601
-0.724418
-0.430951
0.481353
0.900731
-0.446826
-0.132139
-0.289971
0.208941
-0.861660
-0.004095
-0.839774
-0.808620
0.999059
0.645021
0.510685
0.440165
0.337046
0.233168
0.002740
0.284092
0.687500
-0.186622
0.707927
-0.423370
0.956580
-0.719210
0.712449
0.678823
0.608303
-0.083107
-0.136436
-0.343707
-0.659203
0.170908
-0.896041
-0.590957
-0.513876
-0.004662
-0.641758
0.034377
-0.838861
-0.590956
0.630304
-0.096957
0.255020
-0.794066
-0.064872
-0.495580
-0.043533
-0.061658
-0.322831
0.188598
0.567168
-0.319013
-0.303928
0.487266
0.477410
-0.781637
-0.997172
-0.555962
-0.867674
-0.212326
0.524466
0.080092
0.334053
0.259913
0.429996
-0.728091
-0.418863
0.993932
-0.966809
0.385205
0.419509
-0.227032
-0.755002
0.357945
-0.655743
0.964876
-0.002474
-0.336003
0.124827
-0.540897
0.339410
0.859159
0.210176
0.947406
-0.837896
-0.742059
0.765172
0.587741
0.868685
-0.085751
0.565975
-0.334118
0.700215
-0.354422
0.224500
-0.232142
-0.922879
-0.172719
0.935367
0.192166
-0.612871
-0.077584
0.702510
-0.310971
-0.749085
-0.501202
-0.526240
-0.103312
-0.026354
0.668699
-0.865404
-0.866281
-0.937865
0.510357
0.828803
-0.971231
-0.241745
-0.499089
0.494565
0.747213
-0.359508
-0.933212
-0.647822
0.366489
0.509360
-0.992238
-0.951753
-0.657717
0.228301
0.640198
0.444098
-0.896917
-0.316757
-0.828795
-0.895555
0.408592
-0.223799
0.417199
0.571772
-0.547846
-0.475250
0.065493
0.783685
0.043467
0.827623
-0.870981
0.366345
-0.819874
0.653699
-0.450241
0.097145
-0.820478
-0.504448
0.643738
0.871161
0.921288
0.344897
-0.308604
-0.168137
-0.921579
-0.296539
0.613916
0.490513
0.221660
0.825070
-0.559129
-0.927305
0.142156
-0.619438
-0.770847
0.327745
-0.865834
-0.090958
0.144617
0.943419
-0.076001
-0.044895
0.611527
0.099894
-0.802994
0.403267
-0.060514
0.469450
-0.488806
0.935323
0.319666
0.791851
0.522578
-0.657418
0.595597
-0.877683
-0.503311
0.556064
0.416864
-0.630169
-0.104518
0.494867
-0.869722
0.940115
-0.067036
-0.534706
-0.293144
0.245052
0.285083
-0.126038
0.216308
0.892495
0.154755
-0.937079
-0.705547
0.958810
-0.873345
0.525619
0.901918
-0.264111
0.604527
-0.217269
0.762816
0.608403
-0.549963
0.090729
-0.987254
0.553304
0.128471
0.446581
0.134986
-0.860994
0.214830
-0.763707
-0.977827
-0.143895
-0.647729
-0.267413
-0.343658
-0.646873
0.625149
-0.314275
-0.006174
-0.032208
-0.813526
0.011749
-0.179387
0.866444
0.546160
0.270354
0.927735
0.397239
0.497261
0.441869
-0.161890
0.673662
0.945581
-0.414362
0.289952
0.889076
0.840709
-0.005029
-0.376586
-0.913369
-0.329813
-0.503048
-0.627217
0.119345
0.549101
0.018813
0.133946
0.758880
-0.569676
0.647347
0.828495
-0.251745
-0.177140
-0.389474
0.039320
0.825772
-0.017498
0.491645
-0.719302
0.897016
-0.919154
0.139158
-0.470221
0.863707
-0.978631
-0.770228
-0.579150
-0.557198
-0.100412
0.279365
0.414654
0.998321
-0.357327
0.369517
-0.475979
0.189423
-0.221076
0.377583
-0.543321
0.468481
-0.249673
0.468383
-0.918861
-0.748262
0.506361
0.393853
-0.611700
0.894008
0.734770
-0.782663
-0.377460
0.357354
0.340383
0.691295
0.732186
0.501725
0.701251
-0.732871
0.110762
-0.329087
0.049448
0.054817
0.563231
0.334339
-0.580170
0.682820
-0.124555
0.681487
-0.930938
0.537791
-0.575559
-0.415131
0.546201
-0.920817
-0.561848
-0.235780
0.963474
-0.444878
0.321593
-0.297670
-0.328774
0.034100
0.012698
0.524894
0.522517
-0.359042
-0.313800
-0.277395
-0.545095
0.983098
0.799852
0.639639
-0.236995
-0.237268
-0.583384
-0.135849
0.181034
0.088954
0.527034
0.590217
-0.578251
-0.874737
-0.713212
0.208465
0.676925
-0.452294
-0.686737
-0.274003
-0.078887
0.480656
0.518943
-0.938959
0.073223
-0.699181
-0.977694
0.379404
-0.951430
-0.614491
-0.246707
0.066157
0.125001
-0.849683
-0.760126
0.167724
-0.708363
0.094374
-0.924907
0.591246
0.047818
-0.241323
0.167122
0.747944
-0.971865
-0.555762
-0.521988
-0.173672
-0.968752
0.405707
-0.842062
0.220151
-0.300614
0.526717
0.612966
-0.062298
-0.225315
0.022554
0.497818
0.365937
-0.354128
0.188084
0.137158
-0.631389
-0.672954
-0.447825
0.096396
0.340552
-0.436451
-0.544203
-0.404996
0.875710
-0.265756
-0.345397
-0.644759
0.450644
-0.092228
-0.200266
-0.832235
-0.498343
-0.405564
-0.097490
-0.478055
0.851574
-0.492581
-0.555478
0.998592
-0.590861
-0.257233
-0.483381
0.604762
0.821302
-0.322739
0.158154
-0.600084
-0.847324
-0.166922
-0.020501
0.535854
0.942825
-0.799772
-0.522179
0.219895
0.477690
0.263551
0.908466
-0.025865
0.299582
0.711740
0.865532
-0.233964
-0.807433
-0.280122
-0.225855
-0.368531
0.935562
0.618710
-0.949251
-0.559900
-0.095091
-0.426550
0.932668
0.149847
-0.041880
0.956667
-0.595934
-0.751501
0.034359
-0.125946
0.765350
0.653912
0.800315
0.037359
0.828749
0.505443
0.894403
-0.407087
-0.533180
0.950794
0.171907
-0.437876
-0.390511
0.015838
0.357714
0.359739
-0.544593
-0.654606
0.903948
0.730062
0.733932
-0.952882
-0.389967
0.994495
0.932861
0.127065
0.475475
-0.887706
-0.975549
0.046937
-0.242246
-0.689285
0.768534
-0.419699
0.392467
-0.090591
0.024905
-0.524481
0.168724
0.678690
-0.491773
0.844056
0.337758
0.058598
-0.070715
-0.943044
-0.671748
-0.524232
0.585513
0.296289
0.388844
-0.466173
0.846009
-0.832867
-0.527417
-0.981525
-0.714848
0.631448
0.127391
0.450887
-0.488529
-0.249207
-0.385195
-0.627271
0.206504
-0.641675
-0.412693
-0.453781
0.359137
0.572537
0.716566
-0.451453
0.511546
-0.905662
-0.341605
-0.194730
0.507221
-0.513753
0.297048
-0.454582
-0.612251
0.248032
-0.563258
-0.036906
-0.817705
0.559201
-0.325821
-0.582740
0.288136
0.810894
0.832469
0.723591
0.240848
0.812437
0.271585
0.937589
0.991034
0.207809
0.438905
-0.415946
-0.071629
-0.598928
0.474351
-0.730034
-0.817119
-0.916424
-0.304992
0.096500
-0.885207
0.610279
-0.222284
-0.825390
-0.440786
-0.655901
-0.312407
0.169913
0.782826
-0.390628
-0.675899
0.526555
0.848610
-0.581035
0.334538
0.646107
0.866525
0.957101
-0.875826
-0.363192
0.661749
0.328193
-0.120712
0.689346
0.586461
-0.842683
-0.987141
-0.588066
0.618745
-0.418716
-0.737501
-0.938620
-0.092734
0.380331
-0.924986
-0.987265
0.225297
-0.097647
-0.261051
-0.186995
0.291170
-0.888128
0.777892
0.408134
0.619409
0.007655
0.686429
-0.540096
0.464394
-0.091836
0.871794
0.891271
0.619881
-0.266274
-0.965818
-0.685156
0.043817
-0.284097
0.869029
0.989730
0.892750
-0.335630
0.619944
0.110760
-0.632327
-0.942313
0.861130
0.223943
-0.461509
0.187420
-0.390969
-0.266625
0.653211
-0.419776
-0.161044
-0.176020
0.887711
-0.195993
0.194058
-0.389277
-0.931469
-0.156846
0.110441
-0.042587
-0.230793
-0.687208
-0.415003
0.571410
0.386032
-0.632727
-0.057140
0.414166
-0.550657
0.230680
-0.227975
0.251405
0.611784
0.811771
-0.504216
-0.859652
-0.673953
0.196616
-0.184993
-0.843164
0.582760
-0.108252
0.770897
0.481499
-0.176118
-0.268917
0.605786
-0.515433
-0.607827
-0.030786
0.798113
-0.762687
-0.279319
-0.084664
-0.009808
-0.690043
-0.932119
-0.740894
-0.279705
-0.891578
0.297166
-0.374405
0.617441
-0.789155
0.802553
0.306084
0.819086
0.966036
-0.957500
0.828896
0.724868
-0.558108
0.580148
0.809211
-0.800780
0.654361
0.341543
0.184110
0.875211
-0.060952
-0.583178
0.666504
-0.477187
0.491802
0.456597
0.256650
0.847519
-0.217090
-0.489876
0.326091
-0.624270
-0.783293
0.286662
0.758686
0.712014
0.448636
-0.869819
-0.038100
0.071056
-0.610566
-0.261729
0.530074
0.734460
-0.214015
0.973640
0.811120
0.113923
-0.592605
0.062712
-0.571102
0.908070
0.895526
0.034977
-0.836316
-0.546440
-0.008743
-0.062916
0.423610
0.110699
0.092771
-0.741346
0.336637
0.751969
0.762537
-0.202065
-0.938932
0.539199
-0.284780
0.439683
-0.620150
0.436930
-0.061993
-0.237157
0.103445
0.668692
0.334118
0.376673
-0.503212
0.473907
0.064155
0.376382
-0.915935
-0.343345
-0.297378
0.140989
0.931735
-0.968016
-0.684112
-0.104207
0.583750
-0.289282
0.351996
-0.619859
0.635063
-0.724275
-0.098541
0.807686
-0.746875
-0.047470
0.968316
0.420201
-0.042063
0.511580
0.652466
-0.516523
-0.618700
0.107996
0.482632
-0.725875
0.071702
-0.690920
-0.409609
0.096635
-0.175131
0.856221
-0.534667
-0.776973
0.335454
0.971474
0.247781
0.477731
-0.266054
0.085333
-0.010162
0.953952
-0.722521
-0.752951
0.617672
-0.011304
0.963738
0.551812
0.339888
-0.931095
-0.690376
0.146212
0.997783
-0.665194
-0.797477
0.742525
0.721515
0.134566
-0.230136
0.880995
-0.057452
0.759155
-0.259294
-0.601132
0.405306
0.471291
0.789824
-0.607243
0.688248
-0.528941
-0.970457
-0.612307
0.679913
-0.220215
-0.478716
-0.288671
0.024515
0.993716
0.184112
0.948347
-0.035092
0.468942
0.716929
-0.482073
0.303652
0.858302
0.395896
0.544065
-0.336479
-0.937189
-0.123111
0.512529
0.564789
-0.860866
0.975743
-0.148561
-0.094483
-0.768021
-0.538583
0.823912
0.312343
0.887207
-0.682469
0.475732
-0.882646
0.612673
0.612155
-0.490608
-0.756330
-0.160135
0.503059
-0.802244
-0.761929
0.209390
0.102806
-0.869061
0.328907
-0.243254
-0.366387
-0.580322
0.156567
-0.157275
-0.761888
0.806018
0.264809
0.509683
-0.825380
-0.501714
0.872007
-0.347859
0.878025
0.620689
-0.395425
0.163795
-0.904314
0.950405
-0.062344
0.541229
-0.869412
0.049144
-0.975068
-0.754183
0.738201
0.290318
0.869272
0.474651
0.158911
-0.433181
-0.215663
-0.258869
0.113665
-0.752505
0.983792
0.281424
-0.770643
-0.513807
0.598985
-0.692675
-0.404535
-0.376828
-0.417933
-0.206341
0.108268
0.136493
0.946729
0.935290
0.120379
0.103068
-0.298347
0.503840
-0.000851
-0.190026
0.390862
-0.646767
-0.055843
-0.876451
0.508408
0.858753
0.175332
-0.937268
-0.084726
0.215217
0.448969
-0.112409
0.986532
-0.851709
0.536635
-0.168364
-0.348116
0.419263
-0.580886
-0.644078
0.019850
0.655039
0.572728
-0.779118
0.489807
-0.491392
-0.730746
-0.546453
-0.318938
-0.184845
0.961889
0.258515
-0.991554
-0.603351
0.621057
0.317034
-0.374865
0.698435
0.629965
-0.118032
0.507465
0.420909
0.875873
-0.251116
-0.788866
-0.762261
-0.315062
0.062236
0.065608
-0.239416
0.187751
-0.375018
-0.541770
0.897916
0.982496
0.168887
0.245287
-0.173400
-0.784924
-0.391197
-0.417043
0.941679
0.322608
0.219522
-0.143446
-0.574438
0.409115
0.866403
-0.926978
0.062140
-0.680212
0.993842
0.127651
0.525723
-0.263078
0.718322
0.475222
-0.891516
0.706873
-0.075531
-0.020825
-0.089404
0.107707
0.427576
0.776732
0.872401
0.234953
0.774060
-0.592428
-0.018940
-0.515706
0.770103
-0.455400
-0.872666
-0.560824
0.305162
0.473100
-0.686693
0.219227
-0.701310
-0.634568
-0.567209
-0.293018
0.789251
-0.076400
-0.111609
-0.331142
0.413659
-0.771992
0.145655
-0.303946
0.393061
0.450404
0.642721
0.258804
0.284661
-0.329075
0.385462
-0.880478
-0.173080
-0.046629
-0.875144
0.575666
-0.967922
0.516247
-0.270016
0.228028
-0.158039
0.657460
0.620685
-0.869146
-0.327814
0.781678
-0.753459
0.691540
-0.725866
0.379879
0.173014
-0.060905
0.382473
0.748880
-0.022817
-0.802855
0.592100
-0.100709
-0.236330
0.313337
0.906077
0.726995
-0.240725
-0.193630
0.239990
0.086619
0.615592
0.844081
-0.037915
0.438501
0.804370
-0.598856
-0.034481
0.619314
-0.153604
0.867445
0.694415
-0.918657
-0.262559
-0.804606
0.784815
0.649028
-0.318923
0.120019
0.594911
0.383166
0.988241
-0.009951
-0.665721
-0.349149
0.710341
-0.881481
0.602618
-0.652686
-0.722804
-0.532665
-0.954499
-0.142609
-0.452553
0.466183
0.480652
-0.029325
0.059229
-0.906751
-0.901746
0.267733
0.097594
-0.875876
0.262035
-0.319440
-0.629235
0.603493
-0.591542
-0.142075
0.005731
-0.712112
0.630362
0.438812
0.593334
-0.148416
0.480947
-0.606471
-0.008573
-0.489964
0.923913
0.094710
-0.878837
-0.666572
0.438043
-0.313624
0.547250
-0.566543
0.328609
0.196636
0.025786
-0.638235
-0.229199
0.565245
-0.851892
0.434892
0.156345
0.508082
0.700190
0.263124
0.019470
-0.363958
0.000391
-0.760465
0.558122
-0.707880
0.436222
-0.021412
0.146941
-0.992959
-0.378291
-0.108489
0.822003
0.556444
-0.271102
0.401591
0.118419
-0.905157
0.844067
-0.597588
0.959345
0.590001
0.360274
-0.208259
-0.003594
-0.132122
0.311355
0.201549
-0.388175
-0.922119
0.055022
-0.528321
0.201716
0.815198
0.881769
0.462729
0.005043
0.057934
-0.841823
-0.331706
0.640347
0.105029
0.606931
-0.643340
-0.102089
0.157334
0.555852
-0.781473
-0.366291
-0.981369
0.928537
0.215075
-0.943136
0.963360
-0.429088
0.652323
-0.224247
0.452107
-0.432653
0.252704
0.977453
0.011572
-0.125542
-0.566812
0.004395
0.884110
0.292969
0.045219
-0.508421
0.196226
-0.825742
0.354405
0.413208
-0.884823
0.271460
-0.693250
0.846916
0.206119
0.207823
-0.911388
0.075830
0.230075
-0.376193
0.833207
-0.348028
-0.620053
-0.290116
0.939594
-0.931972
-0.473859
0.660684
-0.005496
0.199640
-0.491886
0.766190
-0.667690
-0.385531
-0.507532
0.961094
0.956326
-0.322337
-0.721004
0.358901
0.286321
0.069268
-0.123903
0.929081
-0.876902
0.376995
-0.815770
-0.657981
-0.794318
-0.865772
-0.759235
-0.987521
-0.772633
0.873152
-0.091226
0.240573
0.494158
0.062687
0.850956
0.509565
0.490956
-0.101972
0.003091
0.794776
0.334277
0.404478
0.778499
-0.855732
0.295523
0.510663
0.874113
-0.743298
0.997880
0.186289
-0.868991
0.870425
0.746865
-0.684943
0.708695
0.240366
0.329774
-0.292871
0.876350
0.918022
-0.240646
-0.737145
-0.128601
0.917620
-0.711405
-0.727920
0.500659
-0.583257
0.713080
-0.907908
0.371660
-0.656419
0.543251
0.956478
0.921021
-0.518961
-0.776811
0.664066
0.013082
-0.777001
0.813861
-0.635722
0.648452
-0.651191
-0.022870
-0.702889
-0.944363
-0.028172
-0.425060
0.063601
-0.213359
0.723797
0.020879
0.388901
-0.019676
-0.187251
0.226519
-0.346171
-0.383494
-0.322106
-0.908578
-0.940021
-0.303168
-0.504235
-0.671604
-0.369248
0.284645
-0.258180
0.671666
-0.313489
0.105800
-0.843349
0.126351
0.288995
-0.725932
0.146665
0.152877
0.640445
0.021426
0.870862
0.754612
0.891306
0.094225
-0.096121
-0.874564
0.709358
0.253291
0.101024
-0.299446
0.780642
-0.794117
0.975353
-0.968803
-0.427924
0.693696
-0.179151
-0.082919
-0.164038
-0.625376
-0.013617
0.882201
0.677649
-0.907301
-0.360561
-0.372986
0.881748
-0.926552
0.735770
0.870795
-0.500087
-0.542750
-0.301128
0.092956
-0.473125
-0.950883
-0.553043
-0.783271
0.244853
-0.020010
0.509765
0.780867
-0.920602
-0.284783
0.268326
-0.594167
0.012822
0.443782
0.835897
0.767342
-0.810117
0.962570
-0.270202
-0.258669
0.891008
-0.499559
-0.922790
0.542928
-0.222560
-0.179110
0.442873
-0.182394
0.353881
0.857158
0.142864
-0.346204
-0.845857
-0.928190
-0.570728
0.451328
-0.767300
0.230725
0.853197
0.337946
-0.661063
-0.145582
0.641321
-0.810476
0.854048
0.154035
0.511042
0.132880
0.665036
-0.935776
0.964249
-0.645451
-0.666200
0.101704
-0.706622
-0.178536
-0.091709
-0.366317
-0.277873
0.912952
-0.377793
0.707145
0.423212
0.144585
-0.814140
-0.218768
0.347325
0.102092
-0.546695
-0.402832
0.320004
0.547677
0.390036
0.934488
0.981253
-0.193745
-0.032307
0.999068
-0.539798
0.420215
-0.077358
-0.962316
0.642912
-0.408757
0.377172
-0.337208
-0.837834
-0.742043
0.723993
-0.728549
-0.213164
0.878146
0.514424
0.566705
-0.452480
-0.668893
-0.296827
-0.854908
-0.485398
-0.260956
-0.706192
0.196602
0.375422
-0.537011
-0.747574
-0.446965
-0.638532
-0.254106
0.846078
-0.306831
0.266884
-0.321796
0.002842
0.889932
-0.080195
-0.393753
0.799406
-0.090375
-0.826917
0.876604
-0.130021
0.879540
0.596695
-0.249892
0.145571
0.793997
-0.386391
0.793193
0.735220
0.659415
0.599185
-0.401004
0.576774
0.671908
0.338824
-0.286577
0.959260
-0.014391
-0.827706
0.899792
-0.697736
0.144978
-0.373187
-0.488070
-0.556383
-0.696793
0.223901
0.480559
-0.600450
0.757138
0.092589
-0.594591
-0.451115
-0.569972
-0.930825
-0.251105
0.132514
-0.506036
0.296101
0.041634
-0.452132
0.187896
-0.036164
-0.658637
0.140946
0.137940
-0.589850
-0.406580
-0.194831
0.217508
0.774979
-0.870845
0.792855
-0.759925
0.932554
-0.885058
-0.596964
0.561284
-0.189804
-0.615698
0.595132
0.685700
0.037538
0.772235
-0.059598
-0.514546
0.097609
-0.551814
0.191648
-0.066305
0.296285
0.211476
-0.030355
0.510028
0.417797
-0.201045
0.369522
0.612495
0.833209
-0.862169
0.762398
0.029474
-0.008605
0.083018
0.702308
-0.512644
0.726695
0.008545
0.684012
-0.511037
0.231287
-0.655240
0.500684
-0.280631
-0.358626
-0.445708
-0.984827
-0.847029
0.865708
0.967051
-0.990213
-0.267149
-0.486757
-0.628923
0.803423
0.573045
-0.802070
-0.981548
-0.011037
0.676122
0.016746
-0.984815
-0.999547
-0.971752
-0.769514
-0.956357
0.941105
0.456586
-0.976143
-0.111704
0.700395
0.068179
-0.736654
-0.984865
0.500305
-0.702669
-0.891330
-0.632625
0.284665
0.177864
-0.847953
0.263967
-0.447104
-0.590277
0.692098
-0.212216
0.016374
0.329626
0.255220
-0.891097
-0.736114
-0.892580
-0.552092
0.810510
0.435092
0.240175
0.792498
-0.334289
0.419284
-0.332528
-0.875334
-0.931886
0.533009
0.198537
-0.788373
-0.353226
0.061175
-0.499421
-0.074430
-0.280276
0.843465
-0.491899
-0.644765
-0.049185
-0.147521
-0.855608
-0.603737
-0.974799
0.274061
0.932472
0.103682
-0.469924
-0.878589
0.796639
-0.630555
-0.552948
0.015931
0.663559
0.876122
-0.864044
0.025872
0.776658
0.552619
0.705713
-0.272719
-0.821651
0.705731
0.773828
-0.174458
-0.506139
0.052749
0.626624
0.332762
-0.374606
0.683535
0.442731
0.771781
-0.115464
0.725756
0.586470
0.098883
0.867194
-0.448321
0.651016
0.726253
0.444300
-0.908959
0.791475
-0.340234
-0.322282
0.039249
-0.171470
0.169493
-0.592972
0.224998
-0.823238
0.326468
-0.110168
-0.951037
0.922687
0.355693
-0.121836
-0.011932
-0.547331
-0.652535
-0.981447
0.338631
0.534209
0.915418
0.885556
-0.203169
-0.331229
-0.732951
0.550545
-0.034336
-0.043315
0.703133
0.646657
-0.235845
-0.090306
0.762331
0.471208
0.889079
-0.183679
-0.059754
-0.718400
-0.112763
0.396399
0.650649
0.046856
0.377100
-0.528782
-0.716582
0.784205
-0.979581
0.394264
-0.927110
-0.576943
-0.784399
0.998310
-0.967867
0.989648
0.580532
0.660105
0.022760
0.392713
0.463402
-0.035930
0.994294
0.116985
-0.412196
-0.344512
0.447293
0.293687
0.616182
-0.864927
0.498424
-0.543170
-0.603063
0.045230
0.063641
-0.664873
-0.863704
0.283089
0.826155
0.901768
0.057414
0.918035
-0.397063
0.994061
0.770962
0.178965
0.140897
-0.648289
0.327868
0.178303
0.555589
0.720057
0.385422
0.191602
0.073058
0.545808
0.057685
-0.113343
-0.757231
-0.365747
0.583651
-0.636678
0.290323
-0.162882
0.064402
-0.081589
0.859344
-0.451244
-0.520239
-0.202993
0.607340
-0.039579
0.614258
0.243683
-0.356142
0.153085
-0.383628
-0.703278
0.636224
0.856170
-0.149145
-0.443777
0.200477
0.348948
-0.282164
0.909409
0.973718
-0.842584
0.178290
0.866765
0.343358
0.149019
0.402236
-0.978110
0.499060
0.347148
0.913926
0.054058
-0.446252
-0.212251
0.806098
-0.745975
-0.353557
-0.703946
-0.292517
0.903671
0.328230
0.898423
-0.413437
-0.548320
-0.009083
0.955818
-0.749940
0.108557
0.109030
-0.493963
-0.171523
0.307076
0.843710
-0.417634
-0.140768
-0.973764
0.013229
-0.833076
0.246420
0.808990
-0.070570
0.825064
-0.735362
0.605534
0.631483
-0.595666
0.933917
0.705636
-0.209441
-0.984790
0.650742
0.318135
0.855122
0.761429
0.003711
-0.585758
-0.537750
0.879586
-0.743592
0.864002
0.948480
-0.115996
0.976445
-0.049182
-0.458581
-0.604948
-0.807809
0.651215
0.809580
-0.850611
-0.243130
-0.968957
0.387658
0.585451
0.766993
0.370475
0.372046
0.068749
-0.923150
-0.873845
0.703303
-0.605527
-0.500189
-0.012360
0.521288
-0.042475
0.275570
-0.238186
0.117430
0.847311
0.518547
0.090623
0.051329
-0.552960
0.069062
-0.278027
-0.888355
0.450989
-0.980379
-0.875729
0.011680
0.638072
0.028403
-0.628283
0.899374
-0.167794
0.191868
-0.731482
-0.479166
0.713133
-0.670733
-0.263667
0.616295
0.619894
0.638154
0.184717
0.052414
-0.841391
0.550439
-0.459437
-0.668291
0.923782
-0.254351
0.411031
0.711794
0.515142
0.240664
-0.980182
-0.217735
0.592136
0.472099
-0.704543
-0.067936
-0.672255
0.990203
-0.285490
-0.869672
-0.153253
-0.663097
-0.614595
0.976334
-0.125428
0.620381
-0.818700
0.900741
-0.466727
0.745268
0.291240
0.085471
-0.805003
-0.384332
-0.833639
-0.169741
0.247784
-0.478733
0.022268
-0.685185
-0.967521
-0.485227
0.218935
0.160454
-0.764741
0.887033
-0.173166
0.989512
-0.318200
-0.882389
0.862588
0.851883
-0.288398
-0.673783
-0.132838
0.769927
-0.831668
-0.679155
0.895562
-0.782627
-0.297574
0.433589
0.951832
0.088648
-0.852380
0.746573
-0.985802
0.198336
0.652197
-0.462628
-0.895637
0.645228
-0.599068
0.096020
0.560385
-0.330980
-0.548887
-0.788119
0.490255
-0.696409
-0.986056
-0.269232
0.466296
0.999348
0.370622
0.731672
0.333915
0.176111
0.186763
0.953183
0.918224
0.888480
-0.506983
0.221124
0.894697
-0.272149
-0.602179
0.815611
-0.053525
-0.524133
0.150062
-0.429609
-0.627293
-0.411581
-0.205911
0.945063
-0.574855
-0.457215
-0.819477
0.407876
-0.848168
0.961563
-0.217529
-0.952451
-0.753311
-0.657755
0.231160
0.993639
0.824972
-0.579243
0.333498
0.231458
-0.200595
0.300492
0.377732
-0.826179
0.015425
0.693408
0.317871
0.567462
-0.312611
-0.476779
-0.945842
-0.873923
-0.153898
0.135951
-0.347838
0.017653
-0.234578
-0.739430
-0.371294
0.244013
0.712820
0.400568
0.101802
-0.057958
-0.177453
0.536834
-0.818397
0.696171
0.425441
-0.168538
0.846620
-0.844654
-0.415040
0.700996
-0.714533
-0.713786
-0.663086
0.073797
-0.185039
0.053937
-0.830860
-0.794498
0.697611
0.873388
0.059620
-0.061459
0.427579
-0.469348
-0.206776
-0.910066
-0.215374
0.601114
-0.355755
0.877521
0.436620
-0.405354
-0.962785
-0.202388
0.087595
-0.996228
0.777031
-0.938211
0.309196
0.170687
-0.936164
0.656643
-0.820058
0.580098
0.594114
-0.801744
0.810637
-0.594239
0.035725
-0.366819
0.496128
-0.171457
0.554868
-0.883727
-0.254039
-0.308759
0.452426
0.889176
-0.124699
-0.160369
-0.618666
0.176983
-0.771630
0.168068
0.997529
0.518603
0.554281
0.353364
-0.088385
0.767957
-0.222224
0.104238
0.817538
-0.761591
-0.288493
-0.963027
-0.776013
-0.271247
0.295024
0.282802
0.061164
0.723104
-0.787823
0.707348
0.989275
0.838635
-0.018885
-0.442993
-0.645728
-0.904999
0.779872
0.810352
0.287304
0.516221
-0.292168
-0.234191
-0.521833
0.926427
0.899812
0.300558
0.888254
-0.965757
0.347357
0.474339
0.707926
0.906221
0.846963
-0.770618
0.783488
-0.938284
-0.632832
-0.428845
-0.603238
0.706631
0.526016
0.851135
-0.649802
-0.180110
0.257041
-0.813266
-0.881579
-0.553177
0.674424
-0.444924
0.989652
-0.433860
-0.898240
0.418337
0.527955
-0.135299
0.384176
0.263413
-0.871248
-0.070735
0.959433
-0.329669
0.580280
-0.772904
0.589922
0.954327
0.511290
-0.254724
0.601535
-0.399248
-0.707361
-0.099467
0.200277
0.632287
-0.815349
-0.842117
0.170929
0.919123
0.072758
0.632459
-0.278257
-0.179874
0.578446
0.347691
0.696479
0.948652
0.007388
0.179604
0.142934
0.809511
-0.242685
0.446286
-0.751242
-0.750588
-0.018436
0.985755
-0.989519
0.469863
-0.447257
0.827380
-0.581263
0.380519
-0.238579
0.058592
-0.351774
0.472366
-0.537800
-0.578401
-0.274267
0.935769
0.947720
-0.732554
-0.235562
-0.019769
-0.887962
0.207788
0.644175
0.046164
-0.317796
0.415868
0.151779
0.934797
-0.135962
0.677366
-0.127712
-0.971187
-0.734568
-0.584427
0.240373
0.683835
0.347941
-0.222049
-0.020812
0.243007
0.457637
0.703443
-0.032749
0.526686
-0.749938
-0.711601
-0.853248
0.333201
-0.512351
-0.856582
0.592424
0.451446
-0.264376
-0.026877
0.144266
-0.921069
-0.830492
-0.745507
0.370651
-0.854587
-0.157878
0.036323
0.815598
0.840942
-0.199292
0.926487
-0.931034
0.894888
-0.025850
0.631342
-0.450515
0.471636
-0.401817
0.037492
0.777924
-0.710474
-0.963297
-0.437959
-0.937517
-0.160918
0.354807
0.620842
0.339332
0.339559
0.572343
-0.779907
-0.933426
-0.222267
-0.058544
-0.252800
0.548223
0.360480
-0.258329
0.648206
0.072022
-0.538813
0.558783
-0.930036
-0.031030
-0.220205
-0.300266
-0.141703
0.057398
-0.257519
-0.173795
0.439335
0.191330
-0.483808
-0.300537
0.541689
0.402400
-0.958633
-0.178082
0.470104
-0.606323
-0.203598
-0.974615
-0.489286
-0.891620
-0.335307
0.042822
0.451487
-0.991655
0.779723
-0.474265
-0.325114
-0.433876
-0.978937
-0.120181
-0.877015
-0.772769
0.902995
0.945830
0.152085
-0.353998
-0.214378
0.832289
-0.548922
-0.046574
-0.543921
-0.742988
-0.945364
-0.559279
-0.961771
-0.649019
0.595915
-0.988498
-0.241457
-0.889002
0.614800
0.223367
-0.784917
0.946179
0.391349
-0.988369
0.595871
0.786182
-0.757238
-0.111402
0.185063
-0.149183
-0.652492
-0.898863
-0.085976
-0.619542
0.670378
-0.360574
0.829402
-0.170823
-0.422433
-0.625781
-0.394127
-0.306870
-0.126069
0.796360
0.407251
-0.757032
0.935836
0.978098
0.093556
0.098211
-0.940228
-0.060986
0.900888
0.783700
-0.748843
0.755546
0.590242
0.991913
-0.421845
0.257189
0.811381
0.093813
-0.234333
0.805438
-0.125750
-0.233517
0.255285
-0.288581
-0.827584
-0.878169
0.516589
-0.942391
-0.810123
-0.445660
0.796563
0.761672
-0.144601
0.952276
0.053236
-0.852195
0.329697
-0.359060
-0.835227
0.586649
-0.042983
-0.286875
-0.039539
-0.378090
-0.091366
-0.289016
0.310140
0.085615
-0.481317
0.852416
-0.555229
0.574450
0.429803
-0.512297
-0.263688
0.867650
-0.787415
-0.706591
0.088876
0.546476
0.499539
-0.813242
0.301644
-0.389323
0.044808
-0.840717
-0.972541
-0.811581
0.660757
0.468186
0.550823
-0.779326
-0.383445
-0.607164
0.707033
0.286069
0.018896
0.141510
-0.583973
-0.190630
-0.468164
-0.316282
0.417220
0.186525
0.879453
-0.124858
0.182687
0.766046
-0.369651
0.103943
-0.538618
-0.465349
0.639718
-0.370467
-0.885933
0.050702
-0.639439
0.066304
0.427627
-0.798834
0.183118
-0.617654
0.246842
0.160748
-0.956501
0.355433
0.820125
0.845958
0.441393
0.699197
-0.352793
-0.484851
-0.317848
-0.370222
0.832202
-0.368376
-0.731857
-0.073604
0.240712
0.716192
0.409597
0.842111
-0.003715
0.795197
0.347929
-0.822075
-0.267985
-0.076417
-0.554070
-0.138753
0.531782
0.146825
-0.393953
0.517355
0.471265
0.711895
-0.297478
-0.135411
0.591196
0.510294
0.027168
-0.654261
0.478337
0.727854
0.562001
-0.483732
0.066450
-0.813001
-0.476047
-0.703031
0.136569
-0.444812
0.810891
0.592316
-0.197560
0.368961
0.438948
-0.869022
0.170831
-0.899990
0.135262
-0.020691
-0.456843
0.498932
-0.659433
0.887232
-0.863500
-0.311454
-0.199066
-0.808108
-0.059575
-0.769801
-0.984634
0.371185
-0.257823
-0.140582
-0.767187
-0.670484
0.035588
0.325840
-0.307955
-0.272788
-0.566908
0.427100
-0.739261
0.076413
-0.344823
0.087084
-0.609158
-0.813266
0.963475
-0.406231
0.948162
0.051992
0.767223
0.654069
-0.043197
-0.074805
-0.293338
0.264935
0.828743
-0.920326
0.434408
-0.993560
0.103397
-0.600971
0.188938
0.067645
-0.935549
0.314324
0.639966
0.109174
0.182362
0.715897
0.147600
0.518644
0.115168
0.827102
-0.304943
0.323784
-0.054079
-0.409069
0.890058
0.408615
-0.136795
0.116642
0.279752
0.378859
0.341909
0.324926
0.638878
0.345424
0.206787
-0.145330
-0.368234
-0.653265
-0.752827
0.293998
-0.063979
-0.229774
-0.902038
0.437536
-0.639039
-0.709918
0.896364
0.806316
0.683354
-0.518609
0.082421
-0.173530
0.242554
0.980229
0.819466
0.367648
-0.081000
0.753667
0.690310
-0.741284
0.254118
-0.403396
-0.341878
-0.620633
-0.032152
0.592559
0.116828
0.536875
-0.532262
-0.828381
0.347883
-0.939324
-0.340879
-0.836557
0.646008
-0.400774
-0.073183
-0.063113
0.632782
-0.770296
-0.109483
0.296650
-0.292287
0.819441
0.918877
-0.380337
-0.525086
-0.846346
0.719369
0.722231
-0.071908
0.791764
-0.637750
-0.617225
-0.397440
0.263372
0.945776
-0.619104
0.771627
-0.062185
-0.699585
-0.584626
-0.028748
-0.720700
0.798647
0.938058
-0.191837
-0.385568
-0.530700
0.298910
0.382208
0.034228
-0.160782
0.054444
0.686692
0.587349
0.348022
0.732662
-0.534886
-0.072475
0.745954
-0.606766
0.753637
-0.329189
0.502003
0.973413
0.539958
0.325688
-0.469507
0.743265
0.028733
0.722972
0.455081
-0.519708
0.420673
-0.935138
-0.921308
0.027383
-0.229006
-0.226681
0.471081
-0.889066
-0.927964
-0.054690
0.360198
-0.332204
-0.325783
-0.093488
0.574053
-0.571304
0.619796
0.108172
-0.642482
-0.509185
0.426055
0.518962
-0.474751
-0.679417
0.021779
-0.362413
0.359793
0.091831
0.256354
0.831481
-0.718221
-0.195482
0.087602
0.243330
-0.920712
-0.099558
0.347123
-0.805394
0.083866
0.991921
-0.588272
0.564107
-0.088228
-0.120963
-1.000378
0.806401
0.026584
0.276434
0.200130
-0.123589
-0.083978
0.632724
0.915611
0.068200
-0.191853
-0.220361
0.182581
-0.801986
0.652464
-0.612203
-0.598817
-0.734023
-0.826873
0.600266
0.475381
-0.690720
0.046015
-0.806789
0.401363
-0.658738
0.047634
-0.881443
-0.823942
-0.205575
-0.539478
-0.174534
0.869389
-0.111129
0.214422
0.334681
-0.232915
0.890813
0.330532
0.630223
0.617068
-0.569657
0.119216
-0.016593
0.946900
0.640477
-0.782367
-0.120490
-0.087108
-0.658430
0.554094
0.451342
-0.337658
0.753860
-0.642482
0.002395
0.840670
0.102669
0.775239
-0.111460
0.196164
0.948330
0.731222
0.432348
-0.203946
-0.812994
0.196628
0.808580
-0.620499
0.453483
-0.931413
0.880195
-0.261203
-0.292976
0.731680
0.667810
-0.341842
-0.822971
-0.599457
0.783953
0.091903
-0.262635
-0.143193
-0.409939
0.989566
-0.059636
-0.512406
0.191759
0.903546
-0.209673
0.165107
0.665979
-0.444440
0.825819
0.618190
0.968255
0.636955
0.310715
0.761705
-0.797781
0.787120
-0.862851
-0.901210
-0.660863
0.706154
0.507650
0.892193
0.336767
-0.667196
-0.906978
-0.888700
0.579782
-0.744303
0.511529
0.822465
0.975798
0.088903
-0.522462
-0.415509
0.421744
-0.339481
0.100607
-0.119931
0.731746
-0.607658
0.447982
0.340491
-0.052138
0.455679
0.225748
-0.772003
0.872545
-0.578710
0.324304
0.441001
0.242617
-0.607616
-0.155798
-0.549710
-0.943750
0.220513
-0.592337
0.802481
0.847412
-0.197605
-0.879615
-0.499858
-0.500097
0.458289
0.166248
-0.507406
0.342826
-0.007043
-0.174786
0.210236
0.529636
0.395194
-0.668832
0.990617
0.962291
0.829373
0.045055
0.060363
-0.884650
0.896140
0.762477
0.339896
-0.146134
-0.300010
-0.296098
0.569270
-0.749637
0.474405
-0.368222
0.856050
0.093206
0.569489
0.133872
0.705761
0.038880
-0.077180
0.710949
0.131775
0.317307
-0.622523
-0.506801
-0.606095
-0.787717
0.850393
0.648859
0.696229
-0.652790
0.384058
-0.087041
-0.680095
-0.774953
0.539489
-0.575295
0.963900
0.610096
0.075447
-0.457138
-0.503147
-0.946169
0.085154
0.193253
0.619600
-0.130085
0.298360
0.696358
0.028389
0.569784
0.493345
0.957053
0.419964
-0.160227
0.677428
0.206294
0.421895
-0.550602
-0.891905
0.513954
-0.352441
0.621941
-0.313722
0.868884
0.042627
0.849025
-0.014045
-0.592804
0.127742
-0.020176
-0.841178
-0.355187
-0.417694
0.529555
-0.161201
-0.927494
-0.581233
0.445060
0.587747
-0.051774
-0.794887
-0.341720
0.944903
-0.133495
0.492596
-0.258621
-0.294770
-0.331756
0.259257
-0.241155
-0.218342
-0.197066
-0.344606
-0.875751
-0.761923
-0.622168
0.699708
-0.634706
-0.370175
-0.252175
0.352392
-0.533574
-0.476221
-0.219689
0.155485
-0.513702
-0.750672
-0.771226
-0.857611
0.340382
-0.456194
-0.794220
0.892274
-0.814186
-0.620395
0.357834
0.529646
-0.006192
-0.248412
0.744594
-0.185637
0.569022
-0.078159
-0.875137
-0.082592
0.061019
0.151876
0.914420
-0.365371
0.793925
-0.246933
0.004846
-0.052657
0.239381
0.198670
-0.068341
-0.394335
0.214604
-0.142755
-0.328658
-0.498819
-0.603412
-0.139535
-0.578583
-0.736311
0.602152
-0.858837
0.340299
0.963522
0.353866
0.485817
0.364138
0.578301
0.461697
-0.001217
0.243379
0.898200
0.085221
-0.290416
0.043906
-0.598302
0.920907
-0.495579
-0.634295
-0.400178
-0.793646
0.988603
0.350201
0.841708
-0.070108
-0.189227
0.224807
0.225950
-0.480952
-0.499384
0.388429
-0.226695
-0.785232
0.372853
0.769977
-0.038156
-0.824599
-0.835115
0.477171
0.301928
0.106316
0.788805
-0.658097
0.193599
0.248051
0.195167
-0.220706
-0.491768
0.202454
0.721103
-0.088371
0.747937
0.986424
0.013667
0.964439
-0.715232
-0.174952
0.980480
-0.026309
0.872109
0.829218
0.820325
0.606437
0.094880
0.070647
0.060425
0.215554
-0.282048
0.792388
-0.041540
-0.237898
0.319053
-0.373356
-0.821561
0.518354
0.806320
0.929220
-1.494729
-0.945952
0.645555
-0.772827
-0.008543
0.765332
0.816752
0.009548
0.798492
0.659367
0.185578
0.830889
0.744831
-0.721247
-0.826496
0.552793
-0.292092
0.328519
0.827521
0.663758
-0.109571
-0.212035
-0.073317
0.901391
0.460314
-0.648224
-0.972446
-0.543836
0.311135
0.452427
0.554126
0.113839
-0.014677
0.133904
-0.457483
-0.570276
-0.406250
-0.687375
0.738713
-0.291932
0.101766
-0.720947
0.512560
-0.991238
-0.820016
-0.079100
-0.860875
0.185270
0.171433
0.988955
0.838124
0.792430
0.829358
-0.656541
0.824052
-0.443970
0.936795
-0.875314
-0.291710
0.018198
0.569679
0.284322
0.824051
-0.751403
-0.122911
0.460013
-0.291656
0.630215
0.714009
-0.931537
0.598473
-0.415310
-0.369387
0.850227
-0.652434
-0.581968
-0.331347
-0.129759
-0.761297
-0.175571
0.740313
-0.208862
0.179855
0.649866
0.091958
-0.554086
-0.735158
0.714074
0.424439
0.341692
-0.276995
-0.329941
0.905208
0.100629
0.080675
0.680366
0.436067
0.031077
-0.185068
-0.851247
-0.565194
-0.910794
-0.904624
0.114847
0.986636
0.050218
0.490180
-0.899573
-0.182902
-0.924655
0.698451
-0.389860
-0.137265
-0.870849
-0.583253
0.579134
-0.468350
-0.064231
-0.927327
-0.702609
-0.685445
0.033298
-0.119716
-0.320751
-0.855422
0.827219
0.551136
-0.858835
0.453948
0.887296
-0.757125
-0.117974
0.691814
-0.275535
0.966625
0.931524
0.541886
0.643830
0.848409
-0.783167
-0.872597
-0.858310
0.376909
0.791327
0.441301
0.226789
-0.110231
-0.383694
0.166535
-0.589185
-0.019947
0.027156
-0.626360
-0.382569
0.966225
-0.435150
-0.073230
-0.002759
0.961988
-0.369616
0.365270
-0.068694
0.790002
0.460376
0.945791
-0.151946
-0.267856
0.025859
0.492497
0.597274
-0.887423
-0.455951
-0.967260
0.178268
0.563428
-0.180498
-0.594279
0.698025
0.745292
-0.006625
0.484604
-0.286927
-0.503983
0.322772
-0.679184
0.114344
-0.351183
0.430209
0.413616
-0.501043
-0.590889
-0.290083
-0.393891
-0.663479
-0.813258
-0.759401
-0.084615
0.774962
0.137634
0.885478
0.615980
-0.252516
0.487965
0.571494
-0.701887
0.172258
0.472179
-0.880512
0.987108
0.958824
-0.436985
0.421699
0.273468
0.851283
0.574346
-0.312046
0.783064
0.307358
0.534767
0.598663
-0.700095
0.247157
0.263691
-0.782247
-0.042670
0.749023
0.361846
0.689622
0.241158
0.336621
-0.586255
0.146664
0.350282
0.972440
-0.690604
-0.589829
0.713503
-0.916997
0.158873
-0.122718
0.274163
0.915749
0.721715
-0.888323
0.735602
0.621766
-0.568687
-0.757614
0.001564
0.783371
0.489270
0.798342
0.403880
-0.460337
0.374472
-0.198056
-0.467083
-0.540564
0.191032
0.119157
0.306820
-0.803736
-0.599335
0.672287
-0.121283
-0.662004
-0.158687
0.919212
-0.768067
0.819692
0.052812
-0.956799
-0.465111
-0.110037
0.707358
-0.867313
0.689931
-0.591314
-0.707481
0.271749
0.379067
0.967937
-0.957701
-0.621220
-0.450947
-0.684902
-0.456825
-0.909836
-0.688011
-0.266281
-0.559424
-0.862413
0.456535
-0.857953
-0.821563
0.011822
0.992127
-0.751642
0.918790
-0.046579
-0.924417
0.473869
0.658555
0.131998
0.929888
0.278769
0.279096
-0.663180
-0.278765
0.008302
0.454458
-0.809615
0.683364
-0.825213
0.669655
-0.882754
0.468972
0.573814
-0.064852
0.244048
0.697732
0.429375
0.126471
-0.916586
-0.959842
0.585854
0.656938
-0.520882
-0.741172
-0.520951
0.527808
0.565152
-0.761095
0.562535
0.081974
-0.142285
0.900705
0.052411
0.300515
0.913444
0.048977
0.805101
0.208343
0.974359
-0.543486
0.799140
-0.413511
-0.916260
-0.365943
-0.113623
0.858739
0.447438
0.182453
0.260621
-0.848998
0.584228
0.403399
-0.534827
0.313051
0.154562
0.094818
-0.733225
-0.016909
-0.508935
-0.822725
-0.612043
0.705299
-0.125951
0.787142
0.475836
0.917761
-0.853580
0.566300
0.659779
0.582643
-0.917515
0.967525
-0.308444
-0.336466
-0.295654
-0.293519
-0.826257
-0.233763
0.007830
-0.975932
-0.841379
-0.277526
0.145574
0.596334
0.885458
0.889571
-0.134898
-0.029133
-0.209705
0.135240
0.497782
0.418210
-0.855870
0.010138
-0.982687
0.014433
-0.146633
-0.952392
-0.828888
-0.893578
-0.051769
-0.045494
0.007684
-0.526060
-0.046491
-0.466079
-0.496348
0.242976
0.818231
0.073490
0.212466
0.650133
-0.656273
-0.706653
-0.797932
-0.936535
0.377513
-0.116914
0.088100
0.848517
0.765185
-0.053924
-0.083189
-0.076430
0.834435
-0.464202
0.013402
-0.747642
-0.149349
0.827329
-0.625043
0.610984
-0.844134
-0.256307
0.533411
0.742277
-0.309340
-0.568402
-0.196142
0.188255
-0.387443
0.182704
0.723089
-0.975701
-0.518458
0.801997
-0.501393
0.114277
-0.304565
0.863819
0.061948
0.699725
0.485009
-0.428820
0.382043
-0.471726
0.347327
-0.673008
0.826196
0.392686
0.513132
-0.750901
0.323155
0.715434
-0.265742
0.346512
0.393961
-0.816510
0.642148
-0.571318
-0.640282
0.149989
-0.765993
-0.556328
0.165188
0.078297
-0.742350
0.712339
0.838315
-0.029320
0.807155
0.928614
0.740417
-0.042375
0.180666
-0.403381
-0.125361
-0.782751
0.609886
0.648414
0.509279
0.098387
-0.714530
0.655487
-0.767970
0.714483
-0.694392
0.326681
-0.560491
-0.798876
0.110705
-0.548974
0.009406
-0.092315
-0.853306
-0.173660
0.184791
0.630966
0.636432
-0.028604
-0.471168
-0.746955
0.278871
0.620011
0.333689
0.050261
0.425148
-0.775372
-0.721513
0.410054
-0.454949
-0.530143
0.720829
0.421127
-0.229355
-0.805309
0.539272
-0.266313
0.635552
0.356240
-0.789611
-0.677755
0.929724
-0.096658
-0.923305
-0.333676
-0.122393
-0.570381
0.433178
0.922064
-0.789433
0.339741
-0.100494
-0.086091
-0.410355
0.124072
0.166347
0.601780
-0.043373
-0.644057
-0.576795
-0.973568
-0.534183
0.291713
-0.162413
0.674589
0.424991
-0.032382
0.793905
0.155832
0.764184
-0.501240
-0.253382
-0.793082
-0.383125
0.821721
0.785362
0.355053
-0.113438
-0.441115
0.720214
-0.587319
-0.860726
-0.032285
-0.657424
-0.694314
-0.810225
-0.834914
0.065455
0.342246
-0.878163
-0.467518
0.816209
0.484536
0.879115
-0.906085
-0.382907
-0.752078
-0.956965
-0.691152
-0.969013
-0.405930
0.243380
0.106993
0.419389
0.906228
-0.383315
0.428718
0.635734
0.065620
0.113149
-0.899024
-0.820811
-0.435006
0.310679
0.075528
0.378391
-0.045549
0.636610
-0.442187
0.245694
-0.931842
0.789860
0.301125
-0.210477
0.205361
0.755265
0.939366
0.098753
-0.468033
0.451478
-0.386522
-0.315705
0.153849
0.238058
0.665363
-0.571575
-0.392639
0.581498
0.878895
-0.177273
-0.070743
-0.390043
0.501677
-0.170379
0.133201
0.628208
0.011174
-0.860670
-0.251553
0.528817
-0.460731
0.171601
-0.454068
-0.662633
-0.319806
-0.584151
0.068466
-0.908293
-0.926921
-0.589771
-0.992105
0.501754
-0.793252
0.411579
0.855834
0.311109
0.831862
0.141952
0.490309
-0.115666
0.866517
0.978877
-0.034666
0.572964
0.683350
-0.005560
0.784140
0.312650
-0.505041
0.839887
0.824869
0.007639
0.738894
-0.863023
-0.968923
0.127350
-0.108670
0.154699
0.004522
0.949733
-0.156144
-0.789808
-0.112358
0.525171
0.586357
-0.077113
-0.843243
-0.463252
0.748960
-0.235609
-0.794351
-0.244754
-0.277899
-0.476128
-0.426326
-0.407166
-0.395742
-0.333623
0.306357
-0.876003
-0.416137
0.077755
0.583053
-0.602254
-0.530119
0.739419
-0.223342
-0.630105
0.953015
0.916569
0.763542
-0.094548
-0.146822
0.635013
-0.007921
-0.486715
-0.801664
0.899834
0.394732
-0.277246
0.726303
0.632476
0.565251
-0.619047
-0.377709
0.616965
-0.935936
0.510657
0.156482
-0.394553
0.890481
0.960332
-0.784561
0.304683
0.254883
-0.774882
0.651068
-0.498878
-0.753098
0.863751
0.625916
0.624991
-0.253547
-0.344674
-0.084187
0.067000
-0.814719
-0.919150
-0.694852
-0.392424
-0.664505
0.370583
-0.077248
0.612976
-0.979303
0.085274
0.022688
-0.620751
-0.018966
-0.805255
-0.714648
-0.546655
-0.498830
-0.194819
-0.213217
0.833405
-0.805883
-0.292040
-0.425688
-0.122262
-0.986554
-0.702127
-0.701634
-0.028299
0.753337
0.346750
-0.910336
-0.067040
0.108051
-0.310544
-0.860302
0.713154
-0.786641
0.686286
-0.088630
0.177891
0.644325
0.909128
0.646579
-0.426413
-0.763769
-0.813036
-0.214034
-0.280993
0.263008
0.923247
0.912087
-0.736383
0.880776
0.911424
0.565068
0.579578
0.048548
0.781999
0.276091
0.733444
0.599645
-0.065372
0.828436
0.054436
-0.939137
-0.391110
-0.549167
-0.610372
-0.577902
-0.620211
0.012260
-0.564706
-0.334197
0.906761
-0.012425
0.080340
0.979787
-0.748901
0.089489
0.125991
0.702579
0.111937
0.362900
0.113992
-0.866296
0.144971
-0.818621
-0.327688
-0.342868
0.187727
-0.975414
0.894706
0.990890
0.948324
-0.758525
-0.015271
0.836979
0.283348
-0.371826
-0.420135
-0.692745
-0.415194
0.319101
-0.246137
-0.586227
0.457212
0.063302
-0.232486
-0.377584
0.619927
0.993466
0.657614
-0.288654
0.678302
-0.836411
-0.095147
0.516707
0.580630
0.110606
0.340824
-0.971627
0.711136
-0.064064
-0.075327
0.927910
0.511528
0.317483
0.407273
0.996317
0.179072
-0.143285
-0.015594
-0.219668
-0.512931
-0.143758
0.792688
0.895351
0.700298
0.458409
0.038567
0.533031
0.626724
0.638218
-0.651274
0.326412
-0.053183
-0.323365
-0.940515
0.851176
0.369057
-0.454159
0.141414
0.062922
0.224280
0.035829
0.697078
-0.765229
-0.314716
-0.408546
0.147444
0.212850
0.252029
-0.317927
-0.820131
-0.340586
-0.224391
-0.196120
-0.422620
0.842337
0.498701
0.433841
-0.905922
-0.847509
-0.894699
-0.672928
-0.157678
0.866988
0.032639
0.100021
0.485566
0.234772
0.847791
-0.089565
-0.860279
0.242535
-0.632458
0.124258
0.282368
-0.977677
0.995712
-0.319723
-0.340030
0.737561
0.108961
0.996756
0.147323
-0.359203
-0.905570
-0.102506
-0.852391
-0.249626
0.129079
-0.180835
-0.299208
0.241955
0.288871
-0.693379
-0.220565
0.952699
0.532543
0.757357
0.608555
0.220895
0.425879
-0.532590
-0.133074
-0.018265
-0.040437
0.692665
0.130215
0.987867
-0.592842
0.848587
0.128720
-0.290590
0.982449
0.928808
-0.805747
-0.113318
0.256612
0.163917
-0.709062
0.327635
-0.096733
-0.872591
0.607315
-0.398657
-0.260038
0.680940
0.565538
0.302040
0.401213
0.189165
-0.181246
-0.348407
0.051555
-0.339378
-0.844534
0.916349
-0.658862
0.558160
0.516440
-0.131667
-0.195385
-0.894845
-0.324499
0.694831
0.490871
-0.981682
0.996777
0.464806
0.077223
0.480133
0.445623
-0.106382
-0.066758
-0.037362
-0.161991
0.724164
-0.995683
0.023941
-0.918496
-0.801812
0.658964
0.226463
-0.267858
0.776180
-0.238565
0.614533
0.016923
-0.405080
-0.072604
0.096914
0.426909
-0.252864
-0.506866
0.517799
-0.607690
-0.055778
0.856475
0.917118
-0.218531
0.376154
-0.101553
-0.135375
-0.378923
0.689371
-0.784276
-0.579311
0.716816
-0.178183
-0.576400
0.474146
-0.911225
-0.366528
0.342777
0.340420
-0.610441
0.944164
-0.324143
0.772117
-0.159223
-0.777271
0.614738
-0.558304
0.389872
0.175874
0.993305
0.549314
-0.781514
0.083711
-0.582430
0.916974
0.372546
-0.289002
-0.459916
0.621044
0.959557
0.705902
0.610382
-0.024284
0.977939
0.028391
-0.733680
-0.928206
0.557148
-0.315170
0.638538
0.328405
0.046246
0.929141
-0.889705
-0.332358
-0.807584
-0.087938
-0.699236
0.546336
-0.555444
0.840682
-0.485969
-0.199745
-0.046985
0.060961
-0.802706
0.249246
-0.178701
-0.938248
0.523403
-0.373676
-0.567605
0.272549
-0.861561
0.278325
0.335457
0.576046
0.244419
-0.155063
-0.700887
-0.644502
-0.395779
-0.995246
0.199535
0.833109
0.124700
-0.505629
0.933713
0.837609
0.954167
0.036172
-0.208160
0.053255
0.709279
-0.660018
-0.788358
0.277819
0.103370
-0.030462
-0.012793
-0.106404
-0.804617
-0.535140
-0.121283
0.137504
0.077641
0.425385
0.420612
0.741669
-0.917996
-0.791969
-0.459003
0.739628
0.470280
-0.263933
0.332964
0.567890
-0.490109
-0.755512
0.014240
0.303035
-0.830804
-0.518647
0.293526
0.333495
0.405539
-0.129565
-0.466967
-0.641347
-0.869618
0.878349
0.078143
0.894847
-0.012499
0.040007
-0.638609
-0.323297
-0.559887
-0.916778
-0.171504
0.776595
-0.044531
-0.869008
0.365809
0.161087
-0.956958
0.287285
0.873870
-0.114671
-0.110943
-0.596618
0.332917
-0.725481
-0.400418
-0.165102
0.326014
0.372990
0.451290
0.412197
0.696020
-0.643450
-0.249632
-0.692107
-0.764682
-0.219155
0.061615
-0.274813
-0.974306
-0.739212
0.158520
0.850301
0.500212
-0.803418
-0.974662
0.216649
0.462887
-0.854575
-0.674083
0.644726
0.538582
0.706637
0.933709
-0.810770
0.580467
0.192869
-0.978085
-0.180692
-0.833094
-0.127377
-0.579630
-0.085405
0.585042
-0.074145
-0.127344
0.250713
0.917500
0.984649
0.808480
-0.870792
-0.057549
-0.271741
0.657866
0.004785
0.687679
-0.030884
-0.454032
0.905312
-0.121962
0.810201
0.932635
0.708850
-0.087331
0.618419
0.816365
0.922731
-0.971374
0.310736
-0.847223
-0.047256
-0.425204
-0.862728
0.012418
-0.930554
0.416346
0.988038
0.004353
-0.414546
-0.582478
-0.844774
-0.494305
0.958914
0.071685
-0.095280
0.962636
0.196679
-0.980492
-0.921423
0.473910
-0.649524
0.513340
0.698259
0.896003
0.180424
-0.167380
-0.684139
-0.716246
0.624539
-0.778274
-0.519693
-0.901056
0.041199
0.620562
-0.722781
0.360194
-0.512001
0.074459
0.581787
-0.481508
-0.966634
-0.248279
-0.902880
-0.642504
-0.853702
0.877871
0.153041
-0.178014
-0.664915
-0.226756
-0.675649
-0.680456
0.487271
-0.066753
0.347522
-0.601773
-0.857215
-0.770911
0.763010
0.668142
0.385469
0.984837
-0.636138
0.743646
-0.721275
0.529184
0.505771
-0.568140
0.686340
0.680075
0.831481
0.911432
-0.610022
-0.241764
0.738154
-0.154772
0.599442
0.371609
0.889644
0.690805
-0.064207
0.229337
0.659476
0.747599
-0.776845
-0.966738
0.877206
0.988275
0.989770
-0.495102
-0.136324
0.445536
-0.776800
0.337168
0.485013
0.063590
-0.410173
-0.704204
-0.150696
-0.021664
0.446025
-0.746267
-0.992764
0.626985
-0.757838
-0.072791
-0.156371
-0.918574
-0.450778
-0.006495
-0.864159
0.668916
0.599616
0.592994
-0.256203
-0.971083
-0.935107
0.719589
0.319782
-0.592490
0.169607
-0.279307
0.166112
0.591111
-0.586221
-0.029656
-0.157267
-0.948068
-0.727103
0.911134
-0.950542
0.828872
-0.218437
-0.611931
-0.194359
0.460704
-0.005937
-0.055300
-0.405911
-0.182151
-0.321601
-0.574734
0.982257
0.918328
0.798031
-0.202157
-0.644614
-0.492013
-0.489572
0.569197
0.849965
0.611255
-0.437525
-0.909200
-0.815432
-0.888079
-0.785206
-0.472744
-0.545312
0.336429
0.884036
0.253811
-0.125758
0.083306
-0.381363
0.471506
0.287048
0.250566
0.821104
-0.106653
-0.130131
-0.530649
0.151472
0.494352
-0.727469
-0.902279
-0.583549
-0.739610
0.697018
-0.285915
-0.958661
0.875139
0.230974
-0.872030
0.358200
-0.252440
-0.205355
0.251784
0.162812
0.158819
-0.601686
-0.742785
-0.363511
0.005617
0.406658
0.331777
0.375105
0.905544
-0.489194
-0.225096
-0.323469
0.624552
-0.214095
-0.223326
-0.103337
-0.418954
0.318575
0.807222
-0.749149
-0.362018
-0.722165
0.482471
0.602348
0.007679
-0.583125
-0.556572
0.631653
-0.231151
-0.816923
-0.013779
-0.415452
0.483977
-0.277671
-0.169367
-0.350727
-0.998771
0.690910
0.410759
0.195298
-0.224402
0.481348
0.277854
-0.067280
0.930475
0.995489
0.608201
0.301779
-0.818960
-0.753508
-0.585878
-0.608035
0.668832
-0.794967
-0.834891
-0.406808
-0.279401
0.041715
-0.999991
0.782370
0.055727
0.938706
0.934016
0.626194
0.840661
-0.944902
-0.937149
0.592017
-0.174939
-0.672047
-0.812028
0.845285
-0.162582
0.829971
0.184209
-0.124348
-0.665500
-0.495784
0.093957
-0.533793
0.606667
0.833016
-0.814755
0.558890
-0.545209
-0.236250
0.429236
-0.951672
-0.493867
0.418946
0.683904
-0.142274
-0.327454
-0.303237
0.692883
-0.087408
-0.594641
-0.007303
-0.112681
0.163416
-0.764572
0.916957
0.907001
-0.817007
0.174285
0.675364
-0.164722
-0.291064
0.616306
0.825858
0.298406
0.272780
-0.835586
0.418693
0.612295
0.043205
0.574358
0.967424
-0.181627
-0.090314
0.847046
-0.323899
0.078427
-0.116253
-0.333997
0.351399
0.873282
-0.966262
-0.620711
-0.095267
0.603955
-0.364605
0.376134
-0.476243
0.643359
0.660005
0.954865
-0.120022
-0.352139
0.424209
-0.494602
0.159497
0.215661
-0.959850
0.525071
-0.574798
0.087380
0.176014
-0.460498
-0.698191
-0.072941
-0.102432
-0.013890
0.865674
-0.096529
-0.213120
-0.021975
-0.222820
-0.133701
0.166069
0.352652
0.550665
0.349618
0.710793
0.364308
-0.264860
0.365953
-0.649873
0.291634
-0.506350
-0.453748
0.603106
-0.439720
-0.351972
-0.246874
-0.127064
0.400244
0.995675
0.220423
-0.681139
0.647671
0.608272
0.439315
0.260134
-0.853650
-0.583568
-0.833061
-0.756919
-0.803227
-0.463630
-0.561849
0.394940
0.358838
-0.705943
-0.544760
0.794404
0.560406
0.180094
0.078539
-0.132230
-0.941630
0.451387
-0.498545
-0.884510
0.635960
-0.068960
-0.023005
-0.875352
0.873310
0.237554
0.526045
-0.358606
-0.369117
0.800936
-0.641530
-0.231651
0.787493
0.958473
-0.514198
-0.483511
-0.261206
0.096867
-0.839848
-0.756906
0.313540
-0.519502
0.928343
0.383127
0.701612
-0.203993
0.192968
0.835393
-0.143646
0.284676
0.560881
-0.004280
0.414646
-0.415263
-0.545113
-0.373002
0.120844
0.055250
-0.477882
-0.016450
-0.298903
0.344511
0.036350
0.388321
0.837302
-0.069652
0.295211
-0.859681
-0.006745
-0.260559
-0.250747
-0.509493
-0.069854
0.846791
-0.494187
-0.183486
0.503738
0.372770
-0.390968
-0.506771
0.347682
-0.854241
-0.583894
0.928374
-0.000862
-0.212494
-0.331495
0.927442
0.092868
-0.832730
0.647244
-0.946378
0.554923
-0.769190
-0.587867
0.067136
-0.315719
-0.670877
0.561886
-0.128327
-0.740077
-0.450565
0.910987
-0.168304
-0.374316
0.213375
0.220931
-0.944759
-0.367032
-0.550002
-0.619226
0.528849
0.276756
0.883259
0.721717
-0.603595
-0.994242
-0.204783
0.897807
-0.143888
0.997073
-0.481281
-0.963207
0.193048
-0.987950
0.545703
-0.320868
-0.077084
-0.410836
-0.841190
0.932355
0.012690
0.377114
0.939923
-0.687728
-0.276918
-0.470720
-0.176775
0.568437
0.800743
0.932956
0.184069
-0.686084
-0.021878
0.432393
-0.859707
-0.882047
-0.157010
0.204222
0.783515
0.537238
0.547015
-0.885871
0.775232
0.348890
0.021768
0.279813
0.202815
0.471318
-0.746269
0.272671
-0.951806
-0.617687
-0.167878
0.690525
-0.330854
0.216274
0.835005
-0.107220
-0.362170
-0.925546
0.088011
0.036887
0.621557
-0.140426
-0.147959
0.782713
0.919227
0.350175
0.293769
-0.012859
0.390382
-0.791358
-0.230817
-0.782165
0.109218
0.988507
0.827033
0.116339
-0.965726
-0.512225
0.619018
0.836592
0.631173
-0.216583
-0.596533
-0.658428
-0.793095
0.116996
0.697740
-0.202445
0.165886
0.688443
-0.441846
0.042596
-0.655193
0.982162
0.450382
0.682056
-0.289105
-0.392496
-0.476030
-0.166282
0.505154
-0.629606
0.434544
0.137374
0.658925
-0.518168
-0.305360
-0.886757
0.575989
-0.212006
0.971575
0.263186
0.142860
0.599079
0.517540
-0.715510
-0.500854
-0.216227
-0.991907
-0.201062
0.445268
0.510047
0.575533
-0.153912
-0.885104
-0.061276
-0.742804
-0.271903
0.774606
0.437033
0.887459
-0.959126
0.884315
0.793595
-0.174967
0.696592
-0.329478
0.792708
0.328694
0.796051
-0.536013
-0.303213
-0.945804
0.568656
0.474459
-0.257269
0.299849
0.202998
-0.608688
-0.204021
0.377362
-0.564674
0.678627
0.401228
-0.606130
-0.091177
0.369509
-0.243053
0.940433
-0.527519
0.643828
0.144034
0.439095
-0.146978
0.932427
-0.293744
0.500703
0.505620
0.877177
-0.181979
-0.168660
0.468431
-0.549090
-0.488431
0.867657
0.567168
0.142649
0.624313
-0.751140
-0.019705
-0.986534
-0.881583
0.861110
-0.216503
-0.822832
0.045405
-0.058738
0.071763
0.909030
-0.677256
-0.739890
0.794494
-0.598385
0.532403
-0.564504
-0.188412
-0.710297
0.469659
0.028662
0.348837
0.743414
0.485110
-0.163327
-0.923843
-0.486179
-0.071026
0.105156
-0.412830
-0.946760
0.529589
0.530322
0.927199
0.119271
-0.378640
-0.516049
-0.296190
0.280853
-0.282311
0.833387
0.132550
0.717205
0.675759
-0.155550
0.770665
-0.738335
-0.835326
-0.706178
0.690515
-0.837475
0.314478
0.762704
-0.443340
0.791211
-0.133476
-0.084939
0.610776
-0.958122
-0.074456
0.360094
0.702831
-0.413408
0.033036
0.981731
-0.682535
-0.294816
-0.531706
-0.943882
-0.682032
0.090128
-0.643455
0.525162
0.242796
0.859247
0.934905
0.099588
-0.893511
0.458514
0.618974
-0.439785
-0.018103
-0.848760
0.135651
-0.792394
0.340378
-0.407070
-0.570204
-0.656352
-0.493934
0.387318
-0.422459
0.357318
-0.422973
0.243843
-0.990369
0.277112
0.598330
0.988960
0.340077
0.511283
0.890382
-0.277636
-0.795350
0.618029
-0.184998
0.497135
0.449842
-0.874369
-0.379598
0.398839
-0.724298
0.753001
-0.211802
0.610307
0.448563
-0.571389
0.160402
-0.893617
0.571516
-0.583882
0.451701
0.505197
-0.315325
0.923483
0.389216
-0.939532
0.174766
0.232913
-0.627233
-0.944183
-0.691479
0.596380
-0.329445
0.074340
0.908340
-0.987478
0.688299
-0.110842
0.470352
0.044209
0.170909
0.293812
0.577993
-0.419738
0.581090
-0.251562
-0.875761
0.352600
-0.498229
-0.765274
0.540398
-0.743652
0.210175
-0.123957
0.455867
0.504748
-0.971475
-0.699644
-0.239529
0.206855
-0.125236
-0.000860
-0.929457
-0.864080
0.708495
0.591504
-0.335232
-0.710609
0.808366
-0.983630
-0.111191
-0.974620
0.935933
-0.533875
-0.936775
-0.609255
-0.213493
-0.238755
0.594941
0.530052
-0.474932
0.125595
0.040449
0.676703
-0.263749
0.403611
-0.092371
-0.765688
0.160369
0.015404
-0.939338
0.187750
0.653547
-0.233657
-0.104778
0.623039
0.538171
-0.650641
0.678890
-0.650146
-0.204031
-0.400489
-0.853284
0.395914
-0.031972
0.302458
-0.974697
0.049634
0.528905
-0.790522
0.062641
0.579870
0.883667
-0.456798
0.271693
-0.463446
0.840836
-0.841397
0.288055
0.358600
-0.556859
0.293316
-0.967407
-0.875647
-0.272649
0.937374
-0.940383
0.201404
-0.551356
-0.942107
0.402360
-0.642436
0.568085
0.041778
-0.795491
0.860630
0.946877
-0.479978
0.676460
0.842955
0.560547
0.856408
0.498739
-0.760719
-0.283358
0.265800
0.792189
0.602291
-0.784318
0.786506
0.794960
0.157087
0.093574
-0.268819
0.888684
-0.223989
-0.791087
0.425248
-0.445552
0.672613
0.385263
0.783814
0.487984
-0.138617
-0.714359
-0.254929
0.185789
-0.259752
0.427783
-0.981298
0.958855
-0.780585
-0.854902
0.680372
0.008400
0.865425
0.849607
-0.635874
0.414654
0.961309
0.461352
-0.139996
0.846352
0.579746
0.694621
-0.186126
-0.354267
-0.321008
-0.460267
0.270064
-0.141933
0.332685
0.859404
-0.528801
-0.482155
0.369403
0.276221
-0.858047
0.573303
0.561703
-0.108031
-0.317124
-0.725948
0.250798
0.546276
-0.513923
0.191082
0.605403
-0.786704
0.416828
0.434048
-0.136263
-0.955547
0.106558
0.945660
0.482128
-0.774964
0.268940
-0.209964
-0.190090
0.949923
-0.393666
-0.620967
0.047633
0.939380
0.528718
0.642485
-0.904550
0.445722
0.361859
-0.020776
-0.135241
0.616406
-0.654741
0.379315
0.421735
-0.568822
-0.804224
-0.285580
0.579555
-0.814454
0.919344
0.427591
0.123029
0.135477
0.649706
-0.075611
-0.201646
0.648685
0.935367
-0.134539
-0.222975
0.053433
0.254726
0.228223
0.118654
-0.409649
-0.887696
-0.502471
-0.590020
0.255470
0.762867
0.927212
-0.918919
-0.569364
0.881504
-0.440112
-0.835268
-0.873485
-0.968336
-0.597770
-0.075077
-0.671438
-0.629819
0.579746
-0.429761
0.800328
-0.069369
-0.667053
-0.000151
0.765344
-0.747249
0.741539
-0.544712
-0.112623
0.094912
-0.080873
-0.148849
-0.968620
-0.262043
-0.989701
0.961365
0.024580
0.744550
0.511288
-0.458981
-0.412533
-0.825391
0.834003
0.930414
-0.426431
-0.618424
-0.579643
0.183160
0.482152
-0.576953
0.744557
-0.748848
-0.357476
0.677714
0.954171
0.731023
-0.526187
-0.311667
0.161961
0.837659
0.352283
-0.194584
-0.154028
0.195442
0.053338
-0.730926
-0.973225
0.403264
-0.786169
0.422906
-0.113165
-0.245380
0.551987
0.739796
-0.745816
0.527809
0.765559
-0.502688
-0.576733
0.905925
0.749484
-0.249578
-0.051046
0.472105
-0.629845
-0.522513
0.106944
0.736632
-0.798966
-0.795619
-0.065291
0.652456
0.210572
0.396968
-0.775471
0.179961
0.953723
-0.968198
-0.537774
0.491757
-0.658291
0.912540
-0.650373
0.766708
-0.417683
-0.095514
0.384330
-0.945195
0.864590
-0.170314
-0.774944
-0.011433
0.953177
-0.298173
-0.839200
0.078326
-0.050122
-0.570960
-0.946254
0.213299
0.265017
-0.180650
0.011243
-0.998840
-0.427005
0.867422
0.338385
-0.819609
-0.607274
-0.920541
0.494351
0.694412
-0.966714
-0.286436
0.725047
-0.265155
-0.524925
0.120963
-0.667775
-0.096862
-0.461960
-0.914513
0.519046
0.686108
0.419525
-0.163201
0.144202
0.082451
-0.609786
-0.902744
0.543530
0.775594
-0.607354
0.584329
0.521363
-0.831381
0.403363
0.010368
-0.088662
0.339222
-0.719055
0.300249
0.369381
0.080538
-0.669798
0.546102
0.079681
-0.148508
0.020674
-0.884543
-0.894839
0.810523
0.766313
-0.897690
0.615552
0.419549
0.255536
-0.014816
0.982196
0.753229
0.895531
0.552803
-0.179991
0.451068
0.471559
0.088354
0.487557
-0.359552
-0.530406
-0.912050
0.166435
0.611618
0.634036
0.295607
-0.919218
-0.686224
0.503538
-0.931320
-0.425977
-0.505961
-0.969410
-0.580465
-0.067987
0.497769
-0.059575
-0.191109
0.335772
-0.122892
-0.278482
-0.838211
-0.166022
0.755808
0.858255
-0.215064
0.365708
-0.323863
-0.590661
-0.832318
-0.701735
-0.797498
0.016529
-0.852758
0.091516
-0.730167
0.071483
0.022501
-0.618470
0.839843
0.958393
0.561003
0.528605
0.650515
0.263379
-0.054406
0.993929
0.554794
0.944392
-0.094192
-0.885699
-0.262211
-0.843446
-0.045133
0.646022
-0.856328
0.797624
-0.053230
0.227333
-0.612153
-0.165156
0.455732
0.430022
-0.153655
0.509217
0.994745
0.727388
0.762663
0.251747
-0.118169
0.387224
0.106797
0.983175
-0.502067
-0.212733
-0.328861
-0.698865
-0.536213
0.598583
-0.885312
0.436026
-0.903341
-0.377906
-0.373372
0.545675
0.246009
0.383232
0.413293
0.580707
0.451307
-0.877855
-0.127160
0.070169
0.408000
0.279126
-0.127478
0.444508
0.012042
0.268953
0.802285
-0.259054
-0.230636
-0.884203
0.543891
-0.872209
0.098301
0.540863
-0.345970
0.033971
0.571841
-0.126434
0.829338
0.275204
0.368781
-0.145722
-0.592288
-0.080608
-0.224057
0.507691
0.499565
-0.672608
0.937026
-0.998749
0.498768
-0.774548
-0.618707
-0.783315
-0.264350
0.780746
0.805294
-0.790365
0.457129
0.994151
0.609099
0.379051
-0.288504
0.742613
0.773106
0.489591
-0.916698
-0.527741
-0.176449
-0.026754
-0.837959
-0.147778
-0.527261
-0.418761
0.631301
0.320341
0.354457
0.095268
-0.226126
-0.539094
0.216555
0.722027
-0.226857
-0.250779
0.459831
-0.689592
0.378153
-0.068023
0.519214
0.865718
-0.969644
-0.879404
-0.499438
-0.480160
0.700022
-0.658878
0.894603
-0.390162
-0.088674
-0.409825
-0.224388
-0.462679
-0.178264
0.604751
-0.612003
-0.096651
-0.369817
0.051260
0.469471
0.967472
0.962703
-0.915016
0.692912
-0.223336
-0.427257
-0.678894
-0.232357
-0.338935
0.085654
0.372854
-0.129265
-0.617998
-0.933134
-0.331400
0.671539
0.288762
-0.769139
0.771687
-0.505591
-0.712071
-0.772317
0.633445
0.714423
0.466207
-0.469853
0.129471
-0.337073
-0.664292
-0.391050
0.130497
0.930822
-0.439457
-0.331403
-0.461114
0.889297
-0.802086
0.783546
0.992625
0.162746
-0.227743
0.359470
0.197005
0.985304
0.196535
0.052219
-0.186506
0.207552
-0.897399
0.218956
0.495525
0.300734
-0.285739
-0.139108
0.299193
0.231225
-0.886959
0.121326
-0.939406
0.026979
-0.463918
0.623155
0.251853
-0.025748
0.307586
-0.229563
0.931410
0.519095
-0.678467
-0.111598
0.134748
-0.050689
0.332717
-0.190929
-0.454985
-0.986987
0.731872
-0.237102
0.716634
0.992080
0.588542
0.280168
0.199423
0.959870
0.617857
0.585738
-0.513311
-0.618038
-0.776095
0.121663
0.036039
-0.414856
0.205372
0.005421
0.816117
0.067069
0.235563
-0.189319
0.069771
0.275339
-0.742085
0.874341
-0.985026
0.042250
0.934578
0.830476
-0.252367
-0.007368
-0.799887
-0.067570
0.290832
0.909414
0.403091
0.588496
0.994547
0.388320
0.413780
0.002770
-0.597139
0.891586
-0.606321
-0.973114
-0.868505
0.075411
0.504930
0.444086
-0.751104
0.983350
-0.552408
-0.315375
0.444922
0.136515
-0.192746
-0.328084
-0.532288
-0.236647
-0.527564
-0.375025
-0.513832
-0.405208
-0.316441
0.390196
0.339048
-0.007206
-0.389262
-0.458311
-0.882723
-0.167400
-0.925223
0.550101
0.017838
0.808145
-0.320504
-0.474525
0.304930
-0.946458
-0.737894
-0.918043
-0.208687
0.573601
0.717354
-0.807122
0.074182
0.298121
-0.011426
-0.625316
-0.318638
0.145681
-0.564997
-0.856652
-0.236970
-0.118049
0.073260
0.941013
0.600575
-0.272288
-0.190537
0.982510
-0.060366
0.653370
0.149080
0.700191
0.088070
-0.716897
-0.221057
-0.972739
-0.264065
-0.292305
0.713836
0.312948
0.069870
0.348614
0.420369
0.325594
-0.985420
-0.796393
0.700849
-0.478059
-0.342301
-0.611417
0.431058
-0.222545
0.368771
0.436523
0.170637
0.495844
-0.267026
0.231932
-0.921061
-0.085150
0.575167
0.599578
-0.651515
0.171373
-0.695235
-0.503810
-0.549398
-0.021469
-0.745798
0.359448
0.527313
-0.642726
-0.937986
-0.042081
0.361853
0.558563
-0.655324
0.965803
-0.258269
0.856892
0.379281
0.314446
-0.304391
-0.270692
-0.433194
0.887978
0.024490
-0.288069
0.911127
0.813335
-0.122911
0.264819
0.336248
-0.041683
-0.024726
-0.670533
-0.009932
0.375353
0.158516
0.365823
-0.198295
0.939913
-0.740650
0.352680
-0.486494
0.779978
0.437721
-0.461967
-0.860171
0.491071
-0.319697
-0.899075
-0.510791
0.898253
0.744506
-0.698067
-0.261979
-0.078691
-0.626047
0.284599
0.747006
-0.451801
0.425758
-0.134694
-0.949250
0.258964
-0.695392
-0.229458
0.445893
-0.634035
-0.393528
0.877371
-0.141988
0.937996
-0.777308
-0.672983
0.805548
0.013965
0.407164
-0.065012
0.906821
-0.417620
0.360386
0.711660
0.493765
-2.092178
0.107978
-0.220415
0.599390
-0.240400
0.307862
-0.527251
-0.158451
-0.291634
-0.505760
0.836099
0.340866
-0.825203
0.286308
0.572851
0.866863
0.420408
-0.957990
-0.484824
-0.931128
-0.558092
-0.734465
0.253597
0.539842
0.469430
-0.402340
0.828525
0.401733
-0.438616
-0.097854
-0.511120
-0.214959
0.042005
-0.129566
-0.786424
-0.426765
-0.987315
-0.915723
-0.988982
0.421686
0.788404
0.351210
-0.892025
0.933817
0.579645
0.048493
-0.907484
0.599306
0.218193
-0.577624
0.479072
0.779486
-0.037464
0.119019
0.070246
0.436687
0.386578
0.350866
-0.039360
-0.745637
-0.132472
0.246204
0.731799
-0.245518
0.362063
-0.861975
0.759590
0.077892
0.046325
-0.732756
0.961254
0.424023
-0.786996
0.986137
-0.301854
0.999300
0.867909
-0.103433
0.401452
0.675515
-0.883640
-0.207131
0.595972
0.316503
-0.583214
0.664988
0.638697
0.208810
0.320552
-0.466978
0.049747
-0.223540
-0.334177
0.375124
0.314867
-0.325341
0.745410
-0.762647
0.468284
-0.785536
-0.242609
-0.701262
0.780582
0.174029
-0.838618
-0.673877
-0.786593
0.834869
-0.304914
0.194332
0.026638
0.129825
-0.428398
-0.978716
-0.514104
0.564015
-0.894362
-0.156300
0.621260
0.120469
-0.915845
0.651237
0.861091
-0.976981
0.601020
0.239075
0.207176
0.063379
-3.193173
-0.752146
-0.445432
0.589534
0.071011
-0.204606
0.002929
0.696280
0.877975
-0.803588
0.859149
0.831963
-0.943755
-0.386557
0.294838
-0.205433
0.816907
0.727399
0.007672
-0.977502
0.065837
-0.634577
-0.285802
0.528963
0.675442
-0.903938
-0.171626
-0.083995
-0.059876
-0.804712
0.056447
0.511405
-0.601819
0.953653
0.701719
0.988629
-0.175610
0.841931
-0.755801
-0.345201
-0.149449
-0.282460
-0.352544
0.689597
0.568985
0.942474
0.180194
0.106463
0.948735
-0.935563
-0.038282
-0.977800
-0.513897
0.890239
-0.812845
0.633907
0.364120
-0.565907
0.464290
0.809270
-0.508823
0.506764
0.183434
-0.066697
-0.340802
-0.953641
0.803018
0.874590
0.306025
0.796099
0.111119
-0.170106
-0.693334
-0.481572
-0.172891
0.294986
0.974770
-0.332008
0.740102
0.206478
-0.427886
0.450275
-0.483469
0.346179
0.999753
0.224749
0.509166
0.488764
-0.467654
-0.922162
-0.207780
-0.514462
-0.748805
-0.514648
0.424734
0.313568
-0.200931
0.020019
-0.916991
0.516620
0.543667
0.101424
-0.505655
-0.523155
0.205384
-0.367448
0.034836
0.958900
0.528150
-0.171614
-0.725165
0.101953
-0.712637
-0.646160
1.003276
-0.350267
0.612258
0.346156
-0.334358
-0.452207
0.678050
0.897561
0.658279
0.584587
0.027768
0.740441
-0.842643
0.325305
-4.419144
0.772049
0.541626
0.483917
-0.314854
-0.781764
-0.255228
0.624475
0.923040
-0.096785
-0.873146
0.109530
-0.512668
0.463804
0.312390
0.356891
0.115432
0.466517
-0.742328
-0.741497
-0.630748
-0.458844
0.620206
0.317613
0.718006
0.501292
-0.215247
-0.557192
0.315789
0.181984
-0.808645
0.488149
0.817204
0.346450
-0.017707
0.810704
0.590788
0.126899
-0.412121
0.046146
0.019644
0.422349
0.644680
0.896919
-0.168689
-0.057051
-0.670907
-0.889828
0.993629
0.968856
0.266402
-0.719627
-0.720845
-0.656482
-0.800065
0.307707
-0.601846
-0.714728
-0.330291
-0.031095
0.618134
0.988422
-0.104256
0.556779
-0.200462
-0.077257
-0.258398
-0.834320
0.117851
-0.896786
-0.668460
0.197441
-0.847071
0.021298
0.479869
-0.692913
-0.002402
0.029795
-0.172699
-0.027137
-0.345721
-0.211951
-0.567103
0.090123
0.525394
0.939436
0.584875
-0.424094
-0.054119
-0.975863
0.617867
-0.446402
-0.876750
0.432810
-0.347714
-0.927554
-0.530125
0.174395
0.179061
-0.066146
-0.704376
0.932456
-0.352911
0.823853
0.347976
-0.582639
0.911587
0.962304
-0.041048
-0.128782
0.085143
0.858130
-0.983034
0.832321
0.543305
0.079212
-0.325553
0.542036
0.149793
-0.519742
-0.664062
-0.887003
-0.352323
0.617352
0.602305
-0.069041
-0.481988
0.162871
-4.860543
0.921995
-0.904944
-0.465262
-0.106843
-0.911620
-0.066513
0.011947
0.223773
0.186452
-0.341295
-0.450201
-0.098121
-0.513966
-0.854881
-0.753547
0.191856
-0.307277
-0.991280
0.286830
0.857052
0.795891
-0.276207
0.531235
-0.455606
-0.712388
-0.092221
0.936274
-0.016139
0.411318
0.211258
0.199685
0.660260
0.076611
0.043302
-0.887691
-0.535190
0.897738
0.068700
-0.323714
-0.592920
0.512289
-0.730686
0.521142
0.058212
0.838189
-0.708134
-0.549580
0.408785
-0.950986
-0.177161
0.002238
0.248400
-0.571995
0.176896
-0.545937
0.608223
0.576036
0.120095
-0.959992
-0.156710
0.898879
-0.266707
-0.433222
0.103995
0.451166
0.224336
0.542742
-0.803242
0.115612
0.470445
-0.225489
-0.951173
0.949654
0.324951
0.723279
0.203226
-0.514598
0.887962
0.835350
0.291406
0.095261
-0.754644
0.699172
0.513153
0.374314
-0.690350
-0.981043
0.286616
0.715547
-0.004320
0.002400
-0.944761
0.127498
-0.868765
-0.283153
0.756313
0.393772
0.106351
0.152560
0.897880
-0.600013
-0.656568
0.044525
0.160772
0.360879
-0.520781
-0.987774
0.759193
0.393330
-0.222298
-0.894622
-0.513014
-0.860429
0.896004
0.340011
0.896209
-0.730542
-0.593498
0.650470
-0.876218
-0.145002
0.228153
-0.832487
-0.072231
-0.313733
0.109831
-0.852979
-7.495800
-0.766276
-0.847727
-0.335521
-0.775907
0.099948
0.007863
0.059731
-0.161735
-0.626151
0.141102
0.163661
-0.120012
0.624220
-0.154530
0.605449
-0.432838
-0.790965
0.712424
-0.838405
0.068391
-0.293382
-0.863777
-0.577557
-0.684223
-0.421979
0.786491
-0.220240
-0.032318
0.740427
-0.151640
-0.264318
-0.510275
0.158186
0.802780
-0.069344
0.912191
0.732790
-0.707720
0.777319
0.804063
-0.041989
0.712982
0.849981
-0.017838
-0.071302
-0.978891
0.318415
0.369122
-0.280905
0.138435
0.576207
-0.766794
-0.788323
-0.357472
0.948436
0.579433
0.842487
0.709836
-0.688262
-0.989555
0.061259
0.147923
0.235982
0.294887
0.941757
0.546985
-0.540761
0.374273
0.124702
0.895106
-0.085167
0.186999
0.534256
0.496857
0.701102
0.395365
-0.425151
0.650480
0.226408
-0.375935
-0.633777
-0.660962
0.485966
0.958935
-0.293994
-0.723010
0.481922
0.079023
0.711312
0.742623
0.197581
-0.576640
-0.603670
-0.318255
-0.132812
0.222988
0.675786
0.053973
0.736656
-0.785474
0.567627
0.401520
0.774558
0.577205
-0.280157
-0.658045
0.998602
-0.329475
0.301984
-0.080738
0.851962
0.977063
0.353059
-0.231557
-0.160843
0.757841
-0.117076
1.007461
0.737379
-0.682670
-0.485501
0.230187
0.395788
0.277959
0.424188
-0.369259
-0.005035
-9.187743
-0.123865
0.697110
0.707398
-0.382604
0.698428
-0.862219
-0.341537
-0.222191
-0.044538
-0.401613
0.575899
-0.701224
0.740122
0.391167
0.473369
0.333961
-0.743210
0.254506
-0.944587
-0.174698
-0.477785
-0.878202
-0.174514
0.926794
0.871969
-0.214766
-0.427172
-0.472751
-0.422931
-0.070240
0.323231
-0.438051
-0.859638
-0.786949
0.289611
-0.394652
-0.865417
-0.437864
-0.872687
-0.022396
0.751393
0.734677
0.642433
-0.820162
-0.494561
-0.353716
-0.488622
0.203673
0.890873
0.826332
-0.294180
-0.777566
0.842203
-0.204414
-0.858187
0.623936
-0.279852
-0.381916
-0.544291
-0.605270
0.677610
0.651688
-0.607698
0.717117
-0.835142
0.526519
0.612763
-0.373119
0.027399
0.041240
-0.262365
-0.811226
0.047837
0.409643
0.660856
0.757191
0.663257
0.061707
-0.694271
-0.795723
0.441820
-0.369173
-0.373996
-0.070638
0.139335
-0.190606
0.131385
0.703052
-0.563272
0.158441
0.744738
0.895440
0.195515
-0.632908
-0.106899
-0.520616
0.500802
-0.695939
0.425885
-0.798856
-0.256913
0.412631
-0.621061
0.203867
-0.824294
-0.681451
-0.932183
-0.747498
0.060004
-0.492161
0.850790
0.098964
-0.742833
-0.372508
-0.435902
-0.641304
-0.202273
0.158037
-0.175231
0.258406
0.935852
0.280978
-0.874654
0.763757
-0.143416
-0.399875
-0.887255
-10.445412
-0.739027
-0.031900
-0.138785
-0.366235
-0.988095
-0.253762
0.429173
0.013448
-0.353683
-0.199705
0.008402
-0.383414
0.833486
0.422935
-0.521862
-0.768193
0.614233
-0.982146
0.670114
-0.510607
0.455211
-0.767189
0.171095
0.810172
0.486952
0.255181
-0.312974
0.015562
-0.747850
0.936278
0.203759
-0.261428
-0.909597
-0.903220
0.691468
0.171678
0.560776
-0.153453
-0.309819
-0.834704
-0.658459
-0.137414
0.576076
0.574483
0.842822
0.075231
-0.300673
-0.528442
1.009201
0.444178
-0.264638
-0.702653
-0.575483
-0.043960
-0.074205
0.083229
-0.013623
0.835933
0.316199
-0.147034
-0.649960
-0.801873
0.804936
0.642345
-0.544744
-0.494228
0.829556
-0.688859
0.588180
-0.240266
0.731774
-0.630942
-0.548568
-0.208579
0.789577
0.800967
-0.809199
-0.321354
-0.735659
0.733658
-0.496333
-0.404818
-0.545065
0.189589
0.691442
-0.875047
-0.439998
-0.722517
0.506781
0.926562
0.682939
-0.597048
0.672815
-0.511250
0.014198
0.327232
0.454944
-0.523537
-0.778039
0.025402
0.639161
-1.025747
0.336084
0.333491
0.633541
-0.328325
-0.755427
-0.542487
-0.358154
-0.086716
-0.167041
0.922808
0.376861
0.156507
-0.320939
-0.962615
-0.293309
0.301007
0.763727
0.313714
-0.641625
0.158659
-0.268960
-0.032240
-0.142004
-0.240682
0.198643
-11.325959
-0.207188
0.628756
-0.532084
0.327338
0.100765
-0.844938
0.508337
-0.142941
0.225792
-0.463615
-0.872811
0.448494
0.248870
0.063007
-0.692209
-0.798360
0.371849
0.847481
0.239860
0.298164
-0.484326
0.085740
-0.301000
0.559053
0.442680
0.142297
-0.531775
-0.662692
0.754688
0.980389
-0.426719
-0.964363
-0.305889
-0.916678
0.705007
-0.122783
0.061727
0.689288
0.343492
-0.146882
0.986200
0.125235
-0.260070
-0.305444
-0.174065
-0.116164
-0.833516
-0.012591
-0.149094
-0.737253
-0.628508
-0.599895
-0.029344
0.492429
0.117209
0.859358
0.940155
-0.038533
-0.908205
0.113008
-0.453154
-0.534256
-0.641948
0.185104
-0.857738
-0.787331
0.167515
0.190685
0.594798
0.947671
0.907475
0.762610
0.865040
-0.986560
0.086891
0.146646
0.436301
-0.833625
-0.287206
0.459529
-0.090092
0.083720
-0.761556
0.528344
0.277859
-0.646752
0.865436
0.055682
-0.253921
0.451230
-0.752913
0.478093
-0.440970
-0.887000
-0.078113
-0.633661
0.445617
0.753868
-0.551169
0.623910
0.137906
0.492039
0.985156
-0.669820
-0.797647
-0.175712
0.395406
0.239385
0.482817
0.894775
-0.256624
0.301328
0.324662
-0.727639
-0.634626
0.612304
0.738393
0.422854
0.799138
-0.725275
-0.699904
-0.175314
-0.246832
0.080240
0.715878
-0.510736
0.389548
-8.975895
0.805936
-0.883086
-0.382610
0.892663
-0.092392
-0.667228
-0.630319
-0.913476
0.145118
-0.862401
-0.241240
-0.438660
0.777933
-0.138022
-0.108484
-0.927942
-0.165375
-0.376470
0.127293
0.046180
-0.651170
-0.599465
0.488301
0.425460
0.081532
0.253870
-0.895925
-0.604234
-0.942449
0.704444
0.922630
0.684298
0.059964
-0.641138
0.456741
-0.210935
-0.625136
-0.240195
0.749444
-0.542006
0.752438
0.489774
0.297123
0.275079
0.343413
-0.989884
-1.007884
0.217906
0.714785
0.525071
-0.516827
0.695044
0.342037
0.496435
0.782270
-0.319533
-0.705199
-0.992456
0.961338
-0.747539
-0.295874
-0.333401
-0.695288
-0.494338
-0.247317
0.818615
-0.616465
-0.447962
0.239602
0.819553
-0.169916
-0.535225
-0.808671
-0.537356
-0.845871
-0.975346
0.562787
-0.805080
0.201111
0.088240
0.228968
-0.883785
-0.882315
0.777847
-0.907532
-0.383436
0.151717
0.314139
-0.158197
0.045866
0.547554
0.282704
0.638199
0.497337
0.688863
0.588398
0.221901
-0.283058
-0.614382
-0.930661
-0.256729
-0.797661
-0.927308
-0.563358
0.232610
-0.083273
0.863812
0.032235
0.134012
-0.792176
-0.116451
-0.657879
0.680987
0.740019
0.239498
-0.833463
-0.881175
0.063570
0.452467
0.210765
0.727530
-0.069768
0.427699
0.263765
-0.452343
-0.263121
0.422268
-7.157782
-0.606136
-0.024412
0.778467
-0.481594
0.292060
-0.344157
-0.243267
-0.055081
0.118761
0.115728
0.806535
-0.137531
0.249630
0.380126
0.025160
0.880327
-0.438567
-0.388952
-0.587636
-0.583126
0.206969
-0.357431
0.835021
-0.649779
-0.474235
0.289997
0.885732
0.042242
0.205398
0.388083
0.240330
0.849699
-0.318355
0.539550
0.357160
0.162472
-0.068441
-0.757734
-0.893754
-0.463556
-0.795528
-0.623495
0.245298
0.166305
-0.167492
0.113232
0.765681
-0.728765
0.726667
-0.493235
0.078889
0.993624
-0.494319
0.732408
0.105791
-0.860259
-0.309998
0.398079
-0.416712
0.792202
0.278775
-0.509289
0.544041
0.880842
-0.559812
0.429458
-0.333164
0.211600
-0.512896
0.217339
-0.526307
0.943384
-0.290873
-0.128979
0.311427
0.581518
-0.734581
0.310026
-0.766409
-1.010402
-0.903179
-0.888252
0.126875
-0.543385
0.341084
-0.862400
-0.550179
0.306200
-0.375282
-0.589507
0.656602
0.173860
-0.292508
-0.323968
0.275124
-0.675946
-0.515163
0.363018
0.147403
0.470890
-0.434392
0.396469
-0.007819
0.447394
0.067504
-0.773723
0.094062
-0.139536
-0.664436
-0.974018
-0.846805
0.448427
-0.032877
-0.271621
0.298255
-0.286323
-0.483042
-0.734720
-0.071676
-0.008080
0.234531
-0.551286
0.356344
0.576473
0.540686
0.930212
0.339119
-5.706343
-0.837852
0.571725
0.899769
-0.136108
0.240357
-0.266088
-0.823988
0.601591
0.601740
-0.981460
0.098578
0.921024
-0.974208
0.644654
0.526071
0.823304
0.768972
-0.235332
0.170024
0.445623
-0.026251
-0.578820
-0.899441
-0.921525
-0.369672
-0.238793
-0.892806
-0.286738
0.598382
-0.699142
0.379661
0.601685
0.061438
0.661356
-0.404261
-0.014802
-0.155747
0.861530
0.010561
0.915218
0.161117
0.718485
0.704019
0.159329
0.273984
-0.624626
-0.770903
0.640180
-0.147253
-0.474564
-0.675436
0.655220
-0.945857
-0.803695
-0.186765
0.219961
0.968706
0.672423
-0.666819
-0.199973
-0.030022
0.065455
-0.284348
-0.354072
0.166537
0.761188
-0.932098
-0.622890
-0.538677
0.351530
0.495692
0.356458
0.721798
0.919336
-0.065392
-0.462592
-0.363711
0.582096
-0.835809
0.196103
-0.939301
-0.442251
-0.329664
0.849241
-0.585022
-0.724782
0.602410
0.265807
-0.066135
0.707696
-0.642828
-0.764182
0.981729
-0.478151
0.736630
-0.970782
0.673298
-0.651500
-0.722333
0.761939
0.181014
-0.868843
-0.385007
-0.247210
0.905510
-0.423555
0.877731
0.943203
-0.258482
0.748839
-0.082193
0.356203
-0.030494
0.743342
0.812331
-0.216268
-0.105044
0.180864
-0.820926
0.620110
-0.028414
0.014573
-0.547469
0.155026
0.711326
0.277879
0.877291
-3.376297
0.121594
0.931307
0.389044
-0.237514
0.962116
-0.756868
-0.688317
0.926388
0.683472
-0.277583
0.935152
-0.432944
-0.897064
0.186084
-0.026028
-0.313102
0.736226
0.577766
0.686315
-0.736759
-0.227699
-0.781551
-0.460846
-0.197406
0.244039
0.577072
0.967590
0.899664
0.308775
0.977743
-0.809800
0.829410
-0.011950
0.007079
0.396161
0.280348
-0.494799
0.581711
-0.794920
-0.631025
0.056635
-0.478776
0.196892
-0.854952
0.806322
-0.763204
-0.516102
-0.361877
-0.025887
-0.984359
0.086341
0.560510
0.994140
0.696926
-0.038728
0.003984
0.989042
0.410319
0.559223
-0.731338
-0.887827
0.182142
-0.361566
0.557307
0.233987
0.622212
0.585365
-0.451591
-0.371217
-0.336814
-0.628752
-0.826891
0.626477
-0.682088
0.639750
0.144669
0.586470
-0.418015
0.009313
-0.206244
-0.083052
0.504044
0.777662
0.389494
-0.459363
-0.191626
0.530540
0.350700
0.716654
-0.193358
-0.308592
-0.890152
-0.575567
-0.394529
-0.184826
-0.305060
0.653317
-0.295545
-0.025524
0.448282
0.839220
0.701800
-0.705527
0.061545
-0.973113
0.771542
0.166796
0.447278
-0.741705
-0.042639
-0.668746
-0.934316
-0.324300
-0.170268
0.520344
-0.758656
-0.611568
0.828034
0.878452
0.071593
-0.284176
0.056237
-0.592514
-0.167498
-0.386276
-0.905766
-0.831943
-1.034790
0.927832
0.739076
-0.289383
-0.688763
-0.052382
-0.825075
-0.287042
0.735118
0.822186
-0.798339
-0.037606
-0.951023
0.409307
-0.557877
0.522692
-0.729774
0.405615
-0.313231
0.484107
0.848627
-0.429479
0.002307
0.893436
-0.109072
-0.815881
0.902932
-0.146917
0.228545
0.410004
-0.918206
0.283063
0.285255
0.096078
0.205652
-0.587707
0.254702
-0.021110
-0.899077
0.271366
0.149816
-0.483048
0.251973
0.104423
0.837731
-0.225821
-0.719226
-0.491929
-0.136507
-0.911597
-0.739611
-0.759490
0.576054
-0.931253
-0.728523
-0.774924
-0.753158
-0.464342
0.292640
-0.790816
0.961164
0.326979
0.506122
-0.196135
-0.491283
0.145273
0.139322
0.287493
-0.505486
-0.271450
0.589758
-0.552504
-0.377433
0.174306
0.074290
-0.504573
-0.106132
-0.185819
0.119329
0.485198
-0.295415
-0.323684
0.840966
-0.109369
-0.582623
0.192025
0.945272
-0.289876
-0.982026
0.893985
-0.969371
-0.264020
0.794802
-0.589451
-0.273376
0.663187
0.036967
-0.546992
0.312769
-0.028695
0.383279
-0.892446
-0.751240
0.981444
-0.446845
0.148778
0.878776
0.719706
-0.589235
0.067020
0.305697
0.531027
0.818118
0.709434
-0.947364
0.454127
-0.125563
0.196052
-0.882391
0.019336
-0.245805
-0.536623
-0.390827
0.122742
-0.289731
0.164378
-0.615029
0.712974
-0.590364
-0.436915
-0.800656
-0.927266
0.912667
-0.478381
-0.861556
0.078614
-0.481881
0.341421
0.288991
-0.605560
0.027659
0.958288
-0.340604
-0.017224
-0.954509
0.203505
-0.859439
-0.409673
0.868603
-0.444771
-0.249567
-0.520043
0.584981
0.071317
0.745326
-0.586117
0.002729
0.311113
-0.735828
-0.846000
-0.813143
-0.432969
0.514235
0.282240
-0.294493
0.608000
0.370941
-0.656271
-0.303434
0.035546
0.395510
-0.432463
0.155916
-0.815916
0.313090
0.080013
0.769530
-0.581777
-0.752859
0.974130
0.982378
0.997709
-0.259962
-0.347257
0.895895
-0.684718
0.802249
-0.541126
-0.080256
0.576594
0.259720
-0.152631
-0.769972
-0.820201
-0.769903
-0.765323
-0.379664
-0.008901
-0.347553
0.286083
-0.874838
-0.697145
-0.227057
0.351710
0.964720
0.636356
0.318898
0.496273
0.316847
-0.072995
0.884511
-0.433084
0.789124
0.155833
-0.368182
-0.803739
-0.891943
0.149155
-0.099168
0.827679
-0.455252
-0.292679
-0.254091
0.230991
0.788162
-0.203410
0.486472
-0.704709
-0.854096
0.379607
0.935608
0.763455
0.313488
-0.090734
0.014246
0.284547
0.505109
-0.177575
-0.915638
-0.980619
0.644066
-0.620437
-0.760599
-0.141235
0.275416
-0.090769
0.618684
-0.943961
-0.118010
-0.798293
-0.905108
0.558233
-0.482044
-0.372765
-0.337917
0.745996
-0.112948
0.741813
0.267011
0.505631
0.730683
0.178187
-0.715256
0.807228
0.148269
0.693778
-0.897198
0.388545
-0.180146
-0.160306
-0.139476
0.252620
0.009225
-0.173977
0.187446
-0.545244
0.812613
-0.338157
-0.661229
0.414828
0.157708
-0.820954
0.207201
0.894268
0.272889
0.220676
0.698815
0.928404
0.604193
0.156867
0.175131
0.855289
-0.388148
0.265674
-0.111110
0.117089
-0.882631
0.513838
-0.766989
-0.233291
0.020100
0.920942
0.643787
0.223963
-0.406803
-0.887758
0.153471
0.645201
0.782955
0.691197
-0.174086
0.092713
-0.171036
-0.483942
-0.487658
-0.281793
-0.869038
-0.089304
0.028040
0.165415
0.679255
-0.046526
-0.039443
0.438008
0.743274
0.879588
0.222832
0.602006
-0.913161
-0.410591
0.848474
0.385975
0.973174
0.027681
0.572173
0.867518
0.988563
-0.497862
0.167992
-0.541794
0.713051
0.715926
0.906027
-0.872642
-0.185989
-0.840857
-0.914126
0.575832
0.098756
-0.790255
-0.242318
-0.453929
-0.550976
-0.900677
-0.781460
0.726774
-0.176111
-0.422969
-0.623145
-0.953577
-0.481625
0.134263
0.348292
-0.281137
-0.821358
-0.637576
-0.141925
0.978528
-0.147619
0.248883
0.064930
0.886617
-0.422011
-0.667550
0.533781
0.503521
0.521452
-0.355542
0.935524
-0.461524
0.684058
0.436742
0.944780
-0.204590
0.487575
0.215181
0.902889
-0.814044
0.157716
0.284351
0.224656
-0.843929
0.574731
-0.996676
-0.317570
0.782087
-0.887952
0.768704
0.732229
-0.770773
0.837952
0.175215
-0.585193
-0.545900
0.179170
0.241565
-0.744324
-0.806686
0.991039
0.428539
0.143501
0.774517
-0.702144
-0.148610
0.050300
-0.553971
-0.255473
0.452478
0.612081
0.979635
-0.778415
0.141015
-0.917640
-0.722166
0.488759
-0.887553
0.725923
0.395745
-0.483263
-0.680368
-0.976239
-0.302547
-0.843654
0.255530
0.094516
-0.851342
-0.076134
0.955037
0.417809
0.836765
0.196248
0.303694
0.250008
0.949874
-0.930239
0.557227
0.882219
0.520022
-0.273655
0.686515
0.033095
-0.444382
-0.142158
-0.402223
-0.981241
-0.301972
0.750483
-0.615430
-0.069511
-0.652038
-0.099687
-0.186620
0.442932
-0.867563
-0.878477
0.980889
-0.150070
0.682221
0.874233
0.031098
-0.157359
0.082839
0.902411
-0.705303
-0.039142
0.724143
0.292681
0.100177
-0.896519
-0.755341
-0.701839
-0.543757
-0.268470
0.008167
-0.077367
0.586336
0.652551
0.769714
-0.163225
0.838771
0.929195
0.484705
-0.258922
-0.614779
0.105296
0.784200
0.560388
0.222826
0.340451
0.920842
-0.749586
-0.514529
0.774075
0.849853
-0.489365
-0.922999
-0.119913
0.088167
-0.797141
-0.672482
-0.962147
-0.294232
-0.785940
-0.066073
0.085960
-0.804184
-0.894541
0.887078
0.723663
-0.062131
0.912281
-0.829077
-0.670764
-0.969896
0.343016
0.045188
-0.357935
-0.157330
0.940953
-0.728273
-0.699064
-0.317632
-0.210563
-0.462559
0.578049
0.566775
-0.323999
0.988539
0.626513
0.837182
0.194499
-0.041109
-0.699041
0.931260
