0.000008
-0.755605
-0.532767
-0.047045
0.679296
0.383502
-0.830965
0.053462
0.671149
-0.383416
0.417486
0.588977
0.846167
-0.091965
0.415999
-0.910321
0.262453
0.736082
0.632639
0.991037
-0.247039
-0.722660
0.651519
0.631635
0.272710
0.766495
-0.237774
-0.359265
-0.486517
0.909208
-0.904653
-0.516292
0.986642
-0.266145
0.947764
0.500707
0.277082
-0.529747
-0.940980
0.761514
-0.827817
0.015868
0.868247
-0.736225
-0.999458
0.233195
-0.351015
-0.591114
0.412081
-0.269317
0.537304
-0.287212
-0.153720
0.802406
-0.534450
0.955361
0.554584
-0.624849
0.159768
-0.714710
0.090990
-0.003000
-0.026876
-0.937897
-0.180896
0.886991
-0.150335
0.385815
-0.499741
0.587187
0.590109
0.556146
-0.983305
0.141820
-0.252126
-0.464031
0.126031
0.319250
-0.126712
-0.621634
-0.247842
-0.389314
-0.028375
-0.426497
-0.947487
-0.131189
-0.092174
-0.071064
0.253057
0.783153
0.349524
0.808945
0.651646
0.679592
-0.250126
-0.471262
0.600394
-0.755844
0.951367
-0.439330
0.688981
-0.987145
0.851270
0.537426
0.103434
0.576717
-0.440039
0.869264
0.800720
0.741716
-0.886031
-0.463323
0.713422
0.667679
0.199555
-0.865883
-0.543948
0.450347
0.215532
0.315732
0.881504
-0.467532
-0.365158
-0.999117
0.630488
-0.000595
0.773352
0.319178
0.682494
-0.205262
0.708921
-0.094549
0.764005
-0.213852
0.081061
0.952160
-0.389854
0.692169
-0.776866
-0.422460
-0.193967
0.191824
0.244054
0.136455
0.601010
0.828355
0.987937
0.233599
-0.219411
-0.696007
-0.696243
-0.669521
-0.056441
0.227008
-0.699834
0.762571
-0.553911
-0.329666
0.143045
-0.485325
0.813266
0.738997
-0.135332
0.310739
-0.518084
0.258843
-0.393018
-0.475896
-0.279293
0.369742
-0.671784
-0.513936
-0.720768
-0.460697
0.321560
-0.517145
-0.401833
-0.986503
0.670098
0.541710
-0.829239
0.274210
0.546137
0.266613
0.246733
0.694024
0.817101
0.160749
-0.707826
-0.582421
0.991533
-0.279512
0.171179
0.495691
-0.163081
-0.782992
-0.436426
-0.584787
0.066850
-0.389731
-0.385769
0.659053
0.538661
-0.815932
0.686102
0.009348
-0.520960
0.220685
0.070635
-0.723764
-0.050603
0.457162
-0.446490
0.285942
0.695637
0.681164
-0.057475
-0.542393
0.856193
0.377550
0.576173
0.679332
-0.035588
0.973356
0.351319
-0.607611
0.552862
0.356925
-0.974252
-0.251528
0.813048
-0.244586
0.694856
0.263620
0.116571
0.113676
-0.006079
-0.599359
0.082507
0.375310
-0.123637
0.029635
0.494245
-0.934030
-0.359658
-0.499955
-0.671903
0.756770
0.230572
0.562602
-0.616610
0.224801
0.653012
0.744104
-0.047639
0.124945
-0.484180
0.914025
0.593546
0.496582
0.441633
-0.771944
0.442790
0.467741
0.445930
-0.205341
-0.372520
0.964851
-0.070335
0.526338
-0.517707
0.841576
0.423890
-0.713547
-0.871884
0.836598
-0.389060
-0.605603
-0.539505
0.401692
-0.083086
-0.472380
-0.104969
0.802019
0.668820
-0.243750
-0.263663
0.081006
0.232867
-0.491343
-0.266119
0.425191
0.963476
-0.795856
-0.171155
0.063804
-0.292468
-0.825837
0.726443
0.802084
0.045341
0.153315
-0.061731
0.929150
0.204563
0.699691
0.494631
0.711571
-0.200645
-0.436096
0.861187
-0.444519
-0.523772
0.753174
0.822891
-0.232078
-0.430618
0.987325
0.850531
-0.311605
0.997599
0.468075
-0.690773
0.541535
0.159216
0.821334
0.041075
0.110019
-0.518773
-0.561484
-0.516908
0.737175
0.022800
-0.670991
0.066290
-0.921117
0.380115
-0.167313
0.691126
-0.713695
0.589809
-0.929698
0.505970
-0.919236
-0.723836
0.490817
-0.976116
0.273251
-0.698558
-0.097433
-0.610738
0.495125
-0.588888
-0.151217
0.731364
-0.051617
0.320642
-0.245142
0.382969
0.597169
0.935252
-0.513148
0.650128
-0.407538
0.479783
0.534199
0.605538
0.703369
0.938254
-0.413494
-0.783002
0.681491
-0.527413
-0.143684
0.251422
0.004816
-0.275353
-0.278929
0.506820
-0.416475
-0.436491
0.766175
0.441265
-0.297064
-0.338510
0.055606
-0.485286
-0.114475
-0.864609
-0.367395
-0.162204
-0.057723
0.468101
0.883705
0.412248
0.308327
-0.814416
0.919492
0.770046
-0.572442
0.803268
-0.861622
0.869494
-0.389172
0.525670
-0.420038
0.749145
-0.338085
-0.743126
-0.879162
-0.710114
-0.359379
-0.161029
0.096429
0.562612
-0.878192
0.635205
0.878413
0.113071
0.382620
0.121740
-0.143302
-0.708588
-0.390967
-0.628767
-0.908691
-0.859213
0.428873
-0.498631
0.450735
0.740759
0.300122
0.110018
-0.972476
-0.238410
0.833474
-0.129482
-0.339119
-0.440268
-0.432877
0.382317
0.429473
-0.670197
0.698066
-0.849278
0.793382
-0.009608
0.639058
-0.644898
0.377364
-0.389500
0.693589
0.291525
0.854365
-0.144142
0.005588
-0.381955
-0.344456
0.291000
-0.124391
-0.048697
0.376817
0.755856
0.011531
0.560914
-0.415560
-0.514590
-0.842044
-0.465007
-0.050043
0.202449
0.831524
-0.839549
-0.181196
0.934110
0.369040
-0.627830
0.405786
0.444850
-0.748311
-0.131023
-0.665308
0.581285
-0.982032
-0.921473
0.967723
0.278796
0.590459
0.834691
0.730448
-0.349529
0.664147
-0.869188
-0.917967
0.951753
-0.416007
0.962535
0.526182
0.818107
-0.662893
0.941429
-0.126034
0.886726
-0.162958
-0.602405
0.838679
0.391555
-0.667348
0.000040
-0.628753
-0.574346
0.351393
-0.370837
-0.576430
0.744468
0.442624
-0.091801
-0.992419
-0.033004
-0.487212
-0.895724
0.688594
0.481720
0.947120
0.953262
-0.127088
-0.857156
0.007008
-0.050393
-0.641374
0.137093
-0.824627
0.655888
0.526454
0.903056
-0.277586
-0.391493
-0.243001
-0.728307
0.201217
-0.022556
0.187979
-0.779658
-0.666364
-0.351173
-0.292091
0.223697
-0.404765
-0.579362
0.437240
-0.834283
-0.849068
0.264662
-0.533532
-0.998736
-0.122221
-0.425107
-0.213568
-0.033077
0.106043
0.482049
0.257524
0.282464
0.208123
0.764064
0.575853
0.907848
-0.114107
-0.698163
0.747969
-0.894964
0.345891
-0.215049
-0.017785
-0.785470
-0.729983
-0.877797
0.343425
0.362191
0.080655
-0.776393
-0.493295
-0.642734
-0.352314
0.281545
0.626152
-0.157540
0.251955
-0.854603
0.608444
0.373662
-0.261863
-0.202817
-0.070950
0.963244
-0.197518
0.081326
-0.152563
0.809124
0.045520
-0.829722
0.801168
0.399215
0.655206
-0.986364
0.413580
0.108049
0.867119
-0.834369
-0.716939
0.222540
0.001574
0.409766
0.022462
-0.376501
0.793872
-0.331804
-0.653873
0.259120
-0.987042
-0.642325
-0.376933
-0.449107
0.585800
0.483601
0.081595
0.100809
-0.841668
-0.827927
0.813280
-0.839796
-0.642095
-0.815759
0.193634
-0.930652
-0.378445
-0.227756
-0.985847
0.458481
-0.279015
-0.739932
0.303932
0.813189
0.717761
-0.785073
0.577059
-0.798596
0.627795
0.471857
-0.529620
-0.857925
0.399142
0.846436
-0.456879
0.292495
1.000000
-0.741617
-0.796585
-0.600734
0.251693
0.575624
0.747701
0.989635
-0.554778
0.107010
0.246300
0.334365
0.069367
0.876262
0.145400
-0.661891
0.585027
-0.494116
-0.924830
0.256384
0.620714
-0.024167
-0.610723
-0.568438
-0.373973
0.376277
-0.583115
-0.110807
0.685165
-0.871871
0.974538
-0.475344
0.992179
0.698705
-0.474984
0.445107
0.439511
-0.997177
-0.124284
0.190258
0.656273
-0.457616
0.139185
-0.972964
-0.852208
-0.925623
0.466668
0.460251
-0.866139
-0.384766
0.814225
-0.721585
-0.313986
-0.688042
-0.165764
0.176306
0.198052
0.674452
0.323405
0.320824
0.870438
0.147775
-0.941981
0.660927
0.170347
0.165414
-0.361192
0.963839
-0.023861
0.886172
0.913224
0.172576
0.814419
0.583064
-0.471753
-0.332312
0.512964
-0.828165
0.004778
0.454566
0.843532
-0.733911
-0.422961
-0.405874
-0.525560
-0.403688
0.264789
0.184968
-0.620673
0.327313
0.184355
-0.533180
-0.925770
0.031187
-0.565061
0.140259
-0.309118
-0.162868
0.379582
0.602311
-0.335103
0.544029
0.287871
0.439320
-0.325579
0.972696
-0.318377
0.349269
0.985489
0.041885
0.785281
-0.101461
0.437511
-0.282594
-0.882302
0.670468
-0.757833
0.853380
-0.233950
0.261283
0.299503
0.991835
0.428610
-0.463801
-0.181880
0.503358
-0.898036
-0.629141
-0.544049
-0.054810
0.975294
0.869878
0.518437
0.969667
-0.228571
0.896504
-0.084773
0.771090
0.051936
-0.071637
0.269917
0.687318
0.944647
-0.911773
-0.815332
0.481877
0.703183
-0.168436
-0.210064
0.372777
0.806702
-0.658912
0.522131
0.606870
-0.021766
0.377316
0.969700
0.793286
0.453228
0.244226
0.213819
-0.407049
-0.343149
0.688401
0.778182
0.021656
-0.053752
-0.163551
0.011579
0.921468
-0.545015
-0.556517
-0.481430
-0.408673
-0.941078
-0.589636
0.282762
0.745794
-0.554309
0.117163
0.354305
-0.265734
-0.414449
0.529665
0.469946
0.098857
0.132815
0.438291
0.993806
-0.349940
-0.801629
0.301218
-0.551921
-0.506545
0.729641
0.217063
0.385219
-0.264364
-0.856503
-0.893365
0.964197
0.284081
0.718898
0.486485
-0.858476
-0.020403
0.959515
-0.997882
0.587660
-0.408225
-0.545435
-0.574699
-0.681336
-0.563862
0.292872
-0.977984
0.583705
0.521573
-0.807740
-0.594764
0.200402
0.280788
0.793055
0.789200
0.160008
0.761440
0.391793
-0.332695
-0.780210
-0.954354
0.777039
0.841948
0.768394
0.585257
-0.801599
-0.690773
0.550919
-0.586986
-0.898639
-0.259919
0.000039
-0.091840
-0.679043
0.745264
-0.981988
-0.782769
-0.086813
-0.926769
0.781356
-0.286591
-0.295857
0.909973
-0.891786
0.752406
-0.468107
0.208753
0.897771
0.958706
0.918436
-0.262890
-0.771451
-0.775716
-0.418673
0.647096
-0.829492
-0.780221
-0.119997
-0.991853
0.424933
-0.633542
0.430353
-0.798559
-0.246792
0.041603
-0.094000
-0.043491
-0.824232
0.511974
0.998299
0.211603
-0.108905
0.096877
0.387090
-0.899207
-0.817065
0.817441
0.458524
-0.592706
-0.667519
0.739097
0.625461
-0.896096
-0.328330
0.451460
-0.258829
-0.703850
-0.690966
-0.879646
0.216739
-0.785623
-0.715460
-0.195229
-0.020458
-0.760827
-0.420198
-0.676851
-0.050492
0.633692
-0.109521
0.017517
-0.538175
-0.640354
0.027800
-0.329900
-0.375769
0.768851
-0.762721
0.184594
0.838480
0.368350
-0.786713
0.815297
0.897892
0.412815
0.554443
-0.350968
0.971990
0.140848
0.801560
-0.401016
-0.602370
-0.755131
0.978601
-0.729884
-0.878878
0.677584
0.287851
-0.022169
0.944596
0.568109
0.030379
-0.641647
0.068264
0.574306
-0.210034
0.756950
-0.275348
-0.374207
-0.354434
-0.622282
0.346591
-0.516009
0.696418
-0.807667
0.736131
-0.327840
-0.440638
0.933097
0.567060
-0.987787
0.111175
-0.444486
-0.544986
-0.148493
-0.525456
-0.587793
0.908952
-0.507967
0.463210
-0.693285
0.692757
-0.250726
-0.743430
0.288709
-0.655550
0.424314
-0.431431
0.383153
0.518011
0.737829
0.513320
0.502298
-0.415590
0.029127
-0.115948
0.632031
0.510782
-0.512091
0.975647
0.946474
0.630165
0.488743
0.686839
0.849437
-0.800510
-0.449827
0.023474
0.871800
-0.458718
0.187636
-0.357162
-0.423101
0.845013
-0.924011
0.820136
0.974908
0.735949
-0.829046
0.012364
-0.605344
0.547190
-0.029054
0.577041
-0.651622
-0.735630
-0.686567
-0.754228
-0.003219
-0.569399
0.211794
0.240964
0.088676
0.593670
-0.389757
0.797826
-0.980936
-0.961583
-0.863762
-0.472729
0.870751
-0.039750
0.790158
0.041306
0.682644
-0.651416
0.273417
-0.022727
-0.228337
-0.221213
0.061747
0.288490
-0.384612
-0.740659
0.533529
0.282173
0.934847
-0.587070
0.345682
0.006556
-0.311967
-0.510074
0.220417
-0.191895
-0.644666
0.494929
0.139070
0.183774
-0.082349
-0.360519
0.296815
-0.384147
-0.866680
-0.918743
-0.747109
-0.793832
0.516082
-0.809086
-0.577993
-0.100140
-0.690319
-0.433362
0.322814
-0.983912
-0.006960
0.527021
0.627369
0.285189
-0.443561
-0.144130
0.872446
-0.756102
-0.868794
-0.328171
-0.603147
0.805742
0.417251
0.323595
0.503808
0.898505
0.453041
0.408904
-0.954362
0.482250
0.685043
0.906563
0.400413
-0.980445
-0.380316
0.829065
0.132749
-0.785494
0.780114
0.351053
0.243357
-0.024342
-0.703856
-0.088807
-0.931076
0.589635
0.576430
0.272528
0.256752
-0.810435
0.274655
0.044662
-0.578786
0.535274
-0.919610
-0.077537
0.851936
-0.956571
-0.597675
-0.433636
-0.396628
0.661178
0.673604
-0.473408
0.780460
-0.232948
0.633641
-0.485577
-0.031019
0.784966
-0.413157
0.265916
0.407080
-0.141940
0.592778
0.680462
-0.823268
0.551341
-0.754757
0.127778
-0.572303
0.607560
-0.770103
-0.383296
0.123225
-0.164800
0.345646
0.841865
0.130036
0.262527
-0.284531
-0.510689
0.980176
-0.906449
0.308516
-0.664316
0.198709
-0.110733
-0.037492
0.185770
0.847198
0.290794
0.478682
-0.665240
-0.043539
0.227704
0.882860
-0.714594
0.063062
0.640094
0.570175
-0.933295
0.359691
-0.540083
-0.965322
0.719937
-0.160983
0.660614
-0.072635
0.191256
0.496468
0.497789
0.382243
0.628710
-0.935549
-0.001301
0.505529
-0.393030
0.537968
-0.380405
0.939119
-0.766006
0.777598
-0.662258
-0.908568
-0.059507
-0.473655
0.009565
0.623197
0.611334
0.493485
0.767691
-0.772596
0.306745
0.961826
0.154770
-0.366802
-0.593871
0.579569
-0.053577
0.771369
-0.434124
0.296776
0.301690
-0.615407
0.250785
0.983965
0.901082
-0.002337
0.999875
-0.024992
0.058363
-0.154432
-0.939210
-0.291507
0.091745
0.445330
-0.446813
0.948445
0.504574
0.687722
-0.419649
-0.803778
0.958921
0.684991
-0.108694
0.060429
-0.523720
-0.374412
0.652982
-0.115234
-0.599330
0.214022
0.579126
0.968059
0.813962
-0.903943
-0.048282
0.991771
0.118094
0.488368
-0.198314
-0.417207
0.105312
0.425215
-0.915947
-0.032356
0.612437
0.403955
0.469697
0.379761
0.986112
0.240997
0.691272
0.269706
-0.021679
0.479570
0.687346
-0.277095
-0.567483
-0.717839
-0.784569
0.399060
0.155245
0.118353
-0.833942
-0.276767
-0.585313
-0.953731
0.492780
-0.269562
-0.577906
-0.304216
-0.012010
-0.224663
-0.256259
-0.240489
-0.115747
0.514668
-0.412705
0.280930
0.826259
0.935912
-0.109592
0.515788
0.133405
0.637065
-0.705220
0.870284
-0.261178
0.024367
0.958849
0.933215
-0.962295
0.729671
-0.456012
-0.171463
0.557062
0.334386
0.480262
-0.972064
-0.831783
0.137325
-0.365970
-0.362630
0.647369
-0.346061
-0.135349
-0.346350
-0.908562
0.522653
0.515333
-0.183201
0.501457
0.502441
-0.353386
0.326845
0.612926
-0.994794
0.870526
0.823612
0.038809
-0.707452
-0.958700
-0.611468
-0.816441
0.949190
0.382113
0.272879
-0.288365
-0.231332
-0.139884
-0.109039
-0.196891
-0.158363
-0.549318
-0.594898
0.689994
-0.305893
0.898144
0.630569
-0.600412
0.628793
-0.927167
-0.029845
0.684658
-0.600775
0.806936
0.299106
0.160200
0.812857
0.492720
-0.529119
-0.434714
0.470712
0.810747
0.289502
-0.208676
-0.317195
0.368418
-0.875103
0.198351
0.495345
-0.519423
-0.107650
-0.566859
-0.113697
0.850158
0.006892
0.224729
-0.853626
0.642390
-0.003859
0.235741
0.248698
0.449308
0.594900
-0.754091
-0.260497
-0.869849
0.825785
0.506497
-0.619307
-0.026315
-0.181557
-0.993945
0.137646
-0.192009
-0.341074
-0.680280
0.310742
-0.389645
-0.474292
0.643278
0.069759
0.465556
0.615903
-0.972228
0.151634
0.431069
0.990922
0.817021
0.535562
-0.303432
-0.938371
-0.030294
0.302180
0.332748
0.988146
0.444876
-0.659586
0.167258
-0.248455
0.527545
-0.527825
-0.651788
-0.143383
0.912572
0.707396
0.063574
0.379943
-0.844077
-0.252032
0.236043
0.766164
-0.814099
0.548848
-0.041205
-0.782447
0.915521
-0.037349
0.510704
0.058548
0.068487
0.110012
0.383664
0.019121
-0.418684
0.940460
0.543900
-0.896570
-0.530456
-0.225867
0.913491
-0.221611
0.226309
-0.183222
0.183592
-0.780252
-0.038689
0.539349
-0.462822
-0.964760
0.908510
-0.570475
-0.963741
-0.640747
-0.496850
-0.749050
0.387249
-0.442215
0.927888
-0.318246
0.983366
-0.094068
-0.868118
0.473519
0.345015
-0.019903
0.313000
0.782459
0.539436
0.555368
-0.374035
-0.152154
-0.987986
0.274030
0.580008
-0.619798
0.804016
0.978869
0.208030
0.172207
0.664506
0.772498
0.555662
-0.314042
0.555723
0.398948
-0.133129
0.099527
-0.575258
0.373171
-0.109942
-0.924887
-0.924089
0.666458
0.025036
0.258765
-0.132326
0.120184
0.750347
-0.007360
-0.608292
0.280528
-0.186773
0.927795
0.432286
-0.072644
-0.625956
-0.038374
-0.430568
-0.401980
0.268286
0.247207
0.870243
0.482369
-0.074230
-0.260450
-0.194409
-0.987899
0.574906
0.169949
-0.001307
0.344559
0.464801
0.962940
0.646626
-0.904244
0.848350
-0.010281
-0.458091
0.512549
-0.899394
0.371434
0.527393
0.033755
-0.064790
0.541550
0.449361
-0.456171
-0.018559
0.847133
0.104697
0.008150
0.657448
0.639584
0.598619
-0.042006
-0.753572
0.903000
0.872848
0.111000
0.138152
-0.450394
0.872537
-0.706278
-0.821730
0.842827
-0.401296
-0.441705
0.739532
-0.959432
0.686651
0.413510
-0.036397
0.890277
0.412039
0.866204
0.702032
0.421400
0.613203
-0.324949
-0.515502
-0.425385
0.790704
-0.855035
0.001983
-0.556923
0.822007
-0.361119
-0.797591
-0.484291
0.474420
-0.013237
0.327139
0.241393
-0.943368
-0.433672
-0.611090
-0.866953
0.798644
0.052287
-0.086065
0.406591
-0.083708
-0.774414
0.231547
-0.554622
0.562729
-0.635242
0.224339
0.499426
-0.744208
-0.926167
-0.118943
0.827838
0.958118
-0.176918
0.121796
-0.539305
0.146164
0.978453
-0.079563
0.144435
-0.869287
0.414003
-0.136002
0.798950
0.150733
0.262841
-0.769337
-0.093348
0.425642
0.648040
-0.664819
-0.295592
-0.985224
-0.236883
-0.009015
-0.369852
-0.185352
-0.664769
0.614674
-0.719707
0.772837
0.129841
0.208508
0.854800
-0.788037
-0.683694
-0.745163
-0.778630
-0.771757
0.982739
-0.912297
-0.696904
-0.418785
-0.032303
0.495735
-0.267725
0.503782
-0.001590
-0.288390
0.809403
-0.808255
-0.542567
-0.501578
-0.948646
0.323365
0.924637
0.477913
-0.529335
0.127499
0.272500
-0.759558
0.846730
-0.684067
-0.340308
0.571180
0.919209
-0.572767
0.087344
-0.650169
0.438281
-0.408488
-0.640414
-0.050010
0.226523
0.303763
-0.187383
-0.247388
-0.796486
0.456192
-0.985545
-0.166366
0.182086
0.888116
0.750574
0.283751
0.163326
0.746179
-0.810702
-0.118276
0.929382
0.765330
-0.337097
0.580752
-0.194901
-0.585476
-0.993651
0.693262
0.801378
0.272917
0.443528
0.793644
0.155890
-0.664384
-0.778222
-0.327070
-0.542773
0.134761
0.379518
-0.158334
0.985861
0.965753
-0.170584
0.386281
-0.808468
-0.084997
0.260567
-0.903211
-0.273639
0.023095
0.385968
-0.772225
-0.228344
0.339061
-0.682829
0.475325
0.210328
0.608733
-0.911113
0.262936
-0.765935
-0.793461
-0.168134
0.792078
-0.795476
0.876711
0.301180
-0.452303
-0.888685
0.868291
0.908379
0.778888
0.763639
-0.963611
0.259589
0.769198
0.832877
0.541271
-0.502671
-0.399013
0.338488
-0.985947
-0.442801
-0.566066
0.944486
0.272525
0.996507
0.096105
0.922392
-0.863018
0.723891
0.027877
0.445465
0.095516
0.090857
0.888341
-0.298905
-0.092134
0.328980
-0.728992
-0.177601
-0.625215
0.969741
-0.526911
0.196260
0.936447
0.825969
-0.092836
-0.571625
-0.519115
0.443778
0.083838
0.595036
-0.377924
0.372997
0.063527
-0.518765
0.898752
-0.507012
-0.109998
0.056054
-0.288299
-0.207286
-0.987046
-0.602756
-0.239617
-0.768324
-0.087461
0.915910
0.447559
-0.249396
0.842086
-0.507299
-0.239534
-0.673935
-1.000035
0.419622
0.475481
0.670503
-0.631325
0.303216
0.701545
0.316460
-0.283648
0.657050
-0.632775
-0.125253
0.648501
0.296311
0.149853
0.784186
-0.632791
-0.743449
0.463358
0.507684
0.859582
0.309996
0.539585
-0.228555
0.992691
0.624213
0.109770
0.705100
0.405467
0.801343
-0.329185
0.882839
0.570213
-0.521721
0.742067
0.514091
-0.831187
-0.457128
-0.508025
-0.126692
-0.903261
-0.954807
0.257344
0.127932
-0.496624
0.174614
-0.807968
0.244399
0.203224
0.343841
-0.749961
-0.515793
0.715643
0.631429
0.128442
-0.016658
0.180885
0.526406
-0.338733
0.938665
-0.487787
0.483748
-0.586679
-0.496408
0.292853
0.032934
-0.858465
0.535035
-0.852547
-0.349901
-0.688079
0.562408
-0.319509
0.429179
-0.520297
-0.715013
-0.277065
-0.191613
0.942594
-0.907765
0.905622
0.606207
0.301078
-0.562885
-0.232816
-0.860613
0.647847
-0.763967
0.811483
0.999271
-0.192638
0.843680
-0.481897
-0.778899
0.597500
0.062500
0.530966
0.087024
-0.931934
0.218826
-0.220367
0.397125
-0.978784
-0.507423
0.405895
-0.128644
-0.830412
-0.509372
0.898120
0.330219
-0.188453
0.890597
0.896054
-0.181836
0.182571
-0.398932
-0.012600
-0.576899
-0.892942
-0.383391
0.231686
-0.758270
-0.768316
-0.387314
-0.363499
-0.057721
0.010079
-0.369617
0.110154
0.803789
-0.686689
-0.874191
-0.197186
-0.313273
0.185997
0.479128
0.131265
-0.766751
0.408922
-0.206126
0.651181
0.000243
-0.292385
0.527008
0.376104
-0.994367
0.428288
0.736987
-0.011486
0.608649
0.458497
-0.302487
0.436773
-0.184464
0.807572
-0.205304
0.420323
-0.072185
-0.325266
0.335447
0.184429
0.819238
-0.702985
-0.908903
-0.594015
0.439163
-0.786545
0.290802
0.639849
-0.573019
0.503873
0.365579
0.442131
0.939054
-0.024058
-0.000092
0.928968
0.771272
0.327444
0.681452
0.475018
-0.155250
-0.658178
0.464982
-0.325550
0.498293
-0.551547
-0.660758
0.694179
-0.147644
-0.450797
-0.596036
-0.495824
-0.987350
0.596734
0.075529
0.764724
-0.742241
-0.604369
0.743236
0.258844
0.144520
-0.578355
0.257261
0.818957
0.403062
-0.082911
-0.031712
-0.817370
0.111248
0.128132
-0.370872
-0.905504
0.382244
0.179699
0.972507
-0.723388
0.722644
0.521720
-0.555224
0.072598
0.092097
-0.839055
-0.654699
0.363229
0.703225
-0.786054
0.846983
-0.940749
-0.006958
-0.546852
-0.176099
-0.819422
0.105714
-0.140206
0.032551
0.473728
-0.623359
-0.087403
0.978365
0.321170
0.792467
-0.045133
0.881729
-0.157518
0.281906
0.457134
0.638973
0.301772
-0.152663
0.254427
-0.409918
-0.122803
0.214934
0.404616
-0.286987
0.737757
-0.802023
0.271207
-0.726590
-0.494483
-0.119616
0.097481
-0.146436
0.141128
-0.850635
0.408813
-0.779680
-0.547793
-0.531423
0.716971
0.828795
-0.166796
0.590600
0.222719
0.154269
0.640725
-0.649298
0.790695
-0.722678
0.193981
0.654578
0.067935
0.054348
-0.795794
-0.505974
0.281133
-0.103973
0.123925
-0.228240
-0.594294
0.488769
-0.140938
-0.657922
0.544743
0.233862
0.498390
-0.556751
-0.080269
-0.376606
0.152248
-0.051657
0.328713
-0.890722
0.758976
0.336829
-0.290278
-0.945818
0.148872
0.615335
0.278163
0.345231
0.480280
0.061699
0.932629
0.969042
0.737385
0.503566
0.783518
-0.830345
-0.258663
0.508621
-0.222717
-0.318839
-0.034932
-0.165392
-0.484111
0.089241
-0.474387
-0.526859
-0.804985
0.196141
0.272718
0.636433
0.944947
-0.150209
-0.610130
0.929034
-0.371078
0.055468
-0.602173
-0.875100
-0.372148
0.847450
0.976140
-0.404870
-0.349025
-0.470694
0.451249
0.639581
0.031026
-0.663256
-0.323400
0.644425
0.658629
0.678133
0.377078
-0.892191
0.944688
-0.832443
0.406754
0.829598
-0.815556
0.866746
0.216028
0.867225
0.124615
0.116280
-0.323632
0.422255
-0.570657
-0.684601
-0.724418
-0.430951
0.481353
0.900731
-0.446826
-0.132139
-0.289971
0.208941
-0.861660
-0.004095
-0.839774
-0.808620
0.999059
0.645021
0.510685
0.440165
0.337046
0.233168
0.002740
0.284092
0.687500
-0.186622
0.707927
-0.423370
0.956580
-0.719210
0.712449
0.678823
0.608303
-0.083107
-0.136436
-0.343707
-0.659203
0.170908
-0.896041
-0.590957
-0.513876
-0.004662
-0.641758
0.034377
-0.838861
-0.590956
0.630304
-0.096957
0.255020
-0.794066
-0.064872
-0.495580
-0.043533
-0.061658
-0.322831
0.188598
0.567168
-0.319013
-0.303928
0.487266
0.477410
-0.781637
-0.997172
-0.555962
-0.867674
-0.212326
0.524466
0.080092
0.334053
0.259913
0.429996
-0.728091
-0.418863
0.993932
-0.966809
0.385205
0.419509
-0.227032
-0.755002
0.357945
-0.655743
0.964876
-0.002474
-0.336003
0.124827
-0.540897
0.339410
0.859159
0.210176
0.947406
-0.837896
-0.742059
0.765172
0.587741
0.868685
-0.085751
0.565975
-0.334118
0.700215
-0.354422
0.224500
-0.232142
-0.922879
-0.172719
0.935367
0.192166
-0.612871
-0.077584
0.702510
-0.310971
-0.749085
-0.501202
-0.526240
-0.103312
-0.026354
0.668699
-0.865404
-0.866281
-0.937865
0.510357
0.828803
-0.971231
-0.241745
-0.499089
0.494565
0.747213
-0.359508
-0.933212
-0.647822
0.366489
0.509360
-0.992238
-0.951753
-0.657717
0.228301
0.640198
0.444098
-0.896917
-0.316757
-0.828795
-0.895555
0.408592
-0.223799
0.417199
0.571772
-0.547846
-0.475250
0.065493
0.783685
0.043467
0.827623
-0.870981
0.366345
-0.819874
0.653699
-0.450241
0.097145
-0.820478
-0.504448
0.643738
0.871161
0.921288
0.344897
-0.308604
-0.168137
-0.921579
-0.296539
0.613916
0.490513
0.221660
0.825070
-0.559129
-0.927305
0.142156
-0.619438
-0.770847
0.327745
-0.865834
-0.090958
0.144617
0.943419
-0.076001
-0.044895
0.611527
0.099894
-0.802994
0.403267
-0.060514
0.469450
-0.488806
0.935323
0.319666
0.791851
0.522578
-0.657418
0.595597
-0.877683
-0.503311
0.556064
0.416864
-0.630169
-0.104518
0.494867
-0.869722
0.940115
-0.067036
-0.534706
-0.293144
0.245052
0.285083
-0.126038
0.216308
0.892495
0.154755
-0.937079
-0.705547
0.958810
-0.873345
0.525619
0.901918
-0.264111
0.604527
-0.217269
0.762816
0.608403
-0.549963
0.090729
-0.987254
0.553304
0.128471
0.446581
0.134986
-0.860994
0.214830
-0.763707
-0.977827
-0.143895
-0.647729
-0.267413
-0.343658
-0.646873
0.625149
-0.314275
-0.006174
-0.032208
-0.813526
0.011749
-0.179387
0.866444
0.546160
0.270354
0.927735
0.397239
0.497261
0.441869
-0.161890
0.673662
0.945581
-0.414362
0.289952
0.889076
0.840709
-0.005029
-0.376586
-0.913369
-0.329813
-0.503048
-0.627217
0.119345
0.549101
0.018813
0.133946
0.758880
-0.569676
0.647347
0.828495
-0.251745
-0.177140
-0.389474
0.039320
0.825772
-0.017498
0.491645
-0.719302
0.897016
-0.919154
0.139158
-0.470221
0.863707
-0.978631
-0.770228
-0.579150
-0.557198
-0.100412
0.279365
0.414654
0.998321
-0.357327
0.369517
-0.475979
0.189423
-0.221076
0.377583
-0.543321
0.468481
-0.249673
0.468383
-0.918861
-0.748262
0.506361
0.393853
-0.611700
0.894008
0.734770
-0.782663
-0.377460
0.357354
0.340383
0.691295
0.732186
0.501725
0.701251
-0.732871
0.110762
-0.329087
0.049448
0.054817
0.563231
0.334339
-0.580170
0.682820
-0.124555
0.681487
-0.930938
0.537791
-0.575559
-0.415131
0.546201
-0.920817
-0.561848
-0.235780
0.963474
-0.444878
0.321593
-0.297670
-0.328774
0.034100
0.012698
0.524894
0.522517
-0.359042
-0.313800
-0.277395
-0.545095
0.983098
0.799852
0.639639
-0.236995
-0.237268
-0.583384
-0.135849
0.181034
0.088954
0.527034
0.590217
-0.578251
-0.874737
-0.713212
0.208465
0.676925
-0.452294
-0.686737
-0.274003
-0.078887
0.480656
0.518943
-0.938959
0.073223
-0.699181
-0.977694
0.379404
-0.951430
-0.614491
-0.246707
0.066157
0.125001
-0.849683
-0.760126
0.167724
-0.708363
0.094374
-0.924907
0.591246
0.047818
-0.241323
0.167122
0.747944
-0.971865
-0.555762
-0.521988
-0.173672
-0.968752
0.405707
-0.842062
0.220151
-0.300614
0.526717
0.612966
-0.062298
-0.225315
0.022554
0.497818
0.365937
-0.354128
0.188084
0.137158
-0.631389
-0.672954
-0.447825
0.096396
0.340552
-0.436451
-0.544203
-0.404996
0.875710
-0.265756
-0.345397
-0.644759
0.450644
-0.092228
-0.200266
-0.832235
-0.498343
-0.405564
-0.097490
-0.478055
0.851574
-0.492581
-0.555478
0.998592
-0.590861
-0.257233
-0.483381
0.604762
0.821302
-0.322739
0.158154
-0.600084
-0.847324
-0.166922
-0.020501
0.535854
0.942825
-0.799772
-0.522179
0.219895
0.477690
0.263551
0.908466
-0.025865
0.299582
0.711740
0.865532
-0.233964
-0.807433
-0.280122
-0.225855
-0.368531
0.935562
0.618710
-0.949251
-0.559900
-0.095091
-0.426550
0.932668
0.149847
-0.041880
0.956667
-0.595934
-0.751501
0.034359
-0.125946
0.765350
0.653912
0.800315
0.037359
0.828749
0.505443
0.894403
-0.407087
-0.533180
0.950794
0.171907
-0.437876
-0.390511
0.015838
0.357714
0.359739
-0.544593
-0.654606
0.903948
0.730062
0.733932
-0.952882
-0.389967
0.994495
0.932861
0.127065
0.475475
-0.887706
-0.975549
0.046937
-0.242246
-0.689285
0.768534
-0.419699
0.392467
-0.090591
0.024905
-0.524481
0.168724
0.678690
-0.491773
0.844056
0.337758
0.058598
-0.070715
-0.943044
-0.671748
-0.524232
0.585513
0.296289
0.388844
-0.466173
0.846009
-0.832867
-0.527417
-0.981525
-0.714848
0.631448
0.127391
0.450887
-0.488529
-0.249207
-0.385195
-0.627271
0.206504
-0.641675
-0.412693
-0.453781
0.359137
0.572537
0.716566
-0.451453
0.511546
-0.905662
-0.341605
-0.194730
0.507221
-0.513753
0.297048
-0.454582
-0.612251
0.248032
-0.563258
-0.036906
-0.817705
0.559201
-0.325821
-0.582740
0.288136
0.810894
0.832469
0.723591
0.240848
0.812437
0.271585
0.937589
0.991034
0.207809
0.438905
-0.415946
-0.071629
-0.598928
0.474351
-0.730034
-0.817119
-0.916424
-0.304992
0.096500
-0.885207
0.610279
-0.222284
-0.825390
-0.440786
-0.655901
-0.312407
0.169913
0.782826
-0.390628
-0.675899
0.526555
0.848610
-0.581035
0.334538
0.646107
0.866525
0.957101
-0.875826
-0.363192
0.661749
0.328193
-0.120712
0.689346
0.586461
-0.842683
-0.987141
-0.588066
0.618745
-0.418716
-0.737501
-0.938620
-0.092734
0.380331
-0.924986
-0.987265
0.225297
-0.097647
-0.261051
-0.186995
0.291170
-0.888128
0.777892
0.408134
0.619409
0.007655
0.686429
-0.540096
0.464394
-0.091836
0.871794
0.891271
0.619881
-0.266274
-0.965818
-0.685156
0.043817
-0.284097
0.869029
0.989730
0.892750
-0.335630
0.619944
0.110760
-0.632327
-0.942313
0.861130
0.223943
-0.461509
0.187420
-0.390969
-0.266625
0.653211
-0.419776
-0.161044
-0.176020
0.887711
-0.195993
0.194058
-0.389277
-0.931469
-0.156846
0.110441
-0.042587
-0.230793
-0.687208
-0.415003
0.571410
0.386032
-0.632727
-0.057140
0.414166
-0.550657
0.230680
-0.227975
0.251405
0.611784
0.811771
-0.504216
-0.859652
-0.673953
0.196616
-0.184993
-0.843164
0.582760
-0.108252
0.770897
0.481499
-0.176118
-0.268917
0.605786
-0.515433
-0.607827
-0.030786
0.798113
-0.762687
-0.279319
-0.084664
-0.009808
-0.690043
-0.932119
-0.740894
-0.279705
-0.891578
0.297166
-0.374405
0.617441
-0.789155
0.802553
0.306084
0.819086
0.966036
-0.957500
0.828896
0.724868
-0.558108
0.580148
0.809211
-0.800780
0.654361
0.341543
0.184110
0.875211
-0.060952
-0.583178
0.666504
-0.477187
0.491802
0.456597
0.256650
0.847519
-0.217090
-0.489876
0.326091
-0.624270
-0.783293
0.286662
0.758686
0.712014
0.448636
-0.869819
-0.038100
0.071056
-0.610566
-0.261729
0.530074
0.734460
-0.214015
0.973640
0.811120
0.113923
-0.592605
0.062712
-0.571102
0.908070
0.895526
0.034977
-0.836316
-0.546440
-0.008743
-0.062916
0.423610
0.110699
0.092771
-0.741346
0.336637
0.751969
0.762537
-0.202065
-0.938932
0.539199
-0.284780
0.439683
-0.620150
0.436930
-0.061993
-0.237157
0.103445
0.668692
0.334118
0.376673
-0.503212
0.473907
0.064155
0.376382
-0.915935
-0.343345
-0.297378
0.140989
0.931735
-0.968016
-0.684112
-0.104207
0.583750
-0.289282
0.351996
-0.619859
0.635063
-0.724275
-0.098541
0.807686
-0.746875
-0.047470
0.968316
0.420201
-0.042063
0.511580
0.652466
-0.516523
-0.618700
0.107996
0.482632
-0.725875
0.071702
-0.690920
-0.409609
0.096635
-0.175131
0.856221
-0.534667
-0.776973
0.335454
0.971474
0.247781
0.477731
-0.266054
0.085333
-0.010162
0.953952
-0.722521
-0.752951
0.617672
-0.011304
0.963738
0.551812
0.339888
-0.931095
-0.690376
0.146212
0.997783
-0.665194
-0.797477
0.742525
0.721515
0.134566
-0.230136
0.880995
-0.057452
0.759155
-0.259294
-0.601132
0.405306
0.471291
0.789824
-0.607243
0.688248
-0.528941
-0.970457
-0.612307
0.679913
-0.220215
-0.478716
-0.288671
0.024515
0.993716
0.184112
0.948347
-0.035092
0.468942
0.716929
-0.482073
0.303652
0.858302
0.395896
0.544065
-0.336479
-0.937189
-0.123111
0.512529
0.564789
-0.860866
0.975743
-0.148561
-0.094483
-0.768021
-0.538583
0.823912
0.312343
0.887207
-0.682469
0.475732
-0.882646
0.612673
0.612155
-0.490608
-0.756330
-0.160135
0.503059
-0.802244
-0.761929
0.209390
0.102806
-0.869061
0.328907
-0.243254
-0.366387
-0.580322
0.156567
-0.157275
-0.761888
0.806018
0.264809
0.509683
-0.825380
-0.501714
0.872007
-0.347859
0.878025
0.620689
-0.395425
0.163795
-0.904314
0.950405
-0.062344
0.541229
-0.869412
0.049144
-0.975068
-0.754183
0.738201
0.290318
0.869272
0.474651
0.158911
-0.433181
-0.215663
-0.258869
0.113665
-0.752505
0.983792
0.281424
-0.770643
-0.513807
0.598985
-0.692675
-0.404535
-0.376828
-0.417933
-0.206341
0.108268
0.136493
0.946729
0.935290
0.120379
0.103068
-0.298347
0.503840
-0.000851
-0.190026
0.390862
-0.646767
-0.055843
-0.876451
0.508408
0.858753
0.175332
-0.937268
-0.084726
0.215217
0.448969
-0.112409
0.986532
-0.851709
0.536635
-0.168364
-0.348116
0.419263
-0.580886
-0.644078
0.019850
0.655039
0.572728
-0.779118
0.489807
-0.491392
-0.730746
-0.546453
-0.318938
-0.184845
0.961889
0.258515
-0.991554
-0.603351
0.621057
0.317034
-0.374865
0.698435
0.629965
-0.118032
0.507465
0.420909
0.875873
-0.251116
-0.788866
-0.762261
-0.315062
0.062236
0.065608
-0.239416
0.187751
-0.375018
-0.541770
0.897916
0.982496
0.168887
0.245287
-0.173400
-0.784924
-0.391197
-0.417043
0.941679
0.322608
0.219522
-0.143446
-0.574438
0.409115
0.866403
-0.926978
0.062140
-0.680212
0.993842
0.127651
0.525723
-0.263078
0.718322
0.475222
-0.891516
0.706873
-0.075531
-0.020825
-0.089404
0.107707
0.427576
0.776732
0.872401
0.234953
0.774060
-0.592428
-0.018940
-0.515706
0.770103
-0.455400
-0.872666
-0.560824
0.305162
0.473100
-0.686693
0.219227
-0.701310
-0.634568
-0.567209
-0.293018
0.789251
-0.076400
-0.111609
-0.331142
0.413659
-0.771992
0.145655
-0.303946
0.393061
0.450404
0.642721
0.258804
0.284661
-0.329075
0.385462
-0.880478
-0.173080
-0.046629
-0.875144
0.575666
-0.967922
0.516247
-0.270016
0.228028
-0.158039
0.657460
0.620685
-0.869146
-0.327814
0.781678
-0.753459
0.691540
-0.725866
0.379879
0.173014
-0.060905
0.382473
0.748880
-0.022817
-0.802855
0.592100
-0.100709
-0.236330
0.313337
0.906077
0.726995
-0.240725
-0.193630
0.239990
0.086619
0.615592
0.844081
-0.037915
0.438501
0.804370
-0.598856
-0.034481
0.619314
-0.153604
0.867445
0.694415
-0.918657
-0.262559
-0.804606
0.784815
0.649028
-0.318923
0.120019
0.594911
0.383166
0.988241
-0.009951
-0.665721
-0.349149
0.710341
-0.881481
0.602618
-0.652686
-0.722804
-0.532665
-0.954499
-0.142609
-0.452553
0.466183
0.480652
-0.029325
0.059229
-0.906751
-0.901746
0.267733
0.097594
-0.875876
0.262035
-0.319440
-0.629235
0.603493
-0.591542
-0.142075
0.005731
-0.712112
0.630362
0.438812
0.593334
-0.148416
0.480947
-0.606471
-0.008573
-0.489964
0.923913
0.094710
-0.878837
-0.666572
0.438043
-0.313624
0.547250
-0.566543
0.328609
0.196636
0.025786
-0.638235
-0.229199
0.565245
-0.851892
0.434892
0.156345
0.508082
0.700190
0.263124
0.019470
-0.363958
0.000391
-0.760465
0.558122
-0.707880
0.436222
-0.021412
0.146941
-0.992959
-0.378291
-0.108489
0.822003
0.556444
-0.271102
0.401591
0.118419
-0.905157
0.844067
-0.597588
0.959345
0.590001
0.360274
-0.208259
-0.003594
-0.132122
0.311355
0.201549
-0.388175
-0.922119
0.055022
-0.528321
0.201716
0.815198
0.881769
0.462729
0.005043
0.057934
-0.841823
-0.331706
0.640347
0.105029
0.606931
-0.643340
-0.102089
0.157334
0.555852
-0.781473
-0.366291
-0.981369
0.928537
0.215075
-0.943136
0.963360
-0.429088
0.652323
-0.224247
0.452107
-0.432653
0.252704
0.977453
0.011572
-0.125542
-0.566812
0.004395
0.884110
0.292969
0.045219
-0.508421
0.196226
-0.825742
0.354405
0.413208
-0.884823
0.271460
-0.693250
0.846916
0.206119
0.207823
-0.911388
0.075830
0.230075
-0.376193
0.833207
-0.348028
-0.620053
-0.290116
0.939594
-0.931972
-0.473859
0.660684
-0.005496
0.199640
-0.491886
0.766190
-0.667690
-0.385531
-0.507532
0.961094
0.956326
-0.322337
-0.721004
0.358901
0.286321
0.069268
-0.123903
0.929081
-0.876902
0.376995
-0.815770
-0.657981
-0.794318
-0.865772
-0.759235
-0.987521
-0.772633
0.873152
-0.091226
0.240573
0.494158
0.062687
0.850956
0.509565
0.490956
-0.101972
0.003091
0.794776
0.334277
0.404478
0.778499
-0.855732
0.295523
0.510663
0.874113
-0.743298
0.997880
0.186289
-0.868991
0.870425
0.746865
-0.684943
0.708695
0.240366
0.329774
-0.292871
0.876350
0.918022
-0.240646
-0.737145
-0.128601
0.917620
-0.711405
-0.727920
0.500659
-0.583257
0.713080
-0.907908
0.371660
-0.656419
0.543251
0.956478
0.921021
-0.518961
-0.776811
0.664066
0.013082
-0.777001
0.813861
-0.635722
0.648452
-0.651191
-0.022870
-0.702889
-0.944363
-0.028172
-0.425060
0.063601
-0.213359
0.723797
0.020879
0.388901
-0.019676
-0.187251
0.226519
-0.346171
-0.383494
-0.322106
-0.908578
-0.940021
-0.303168
-0.504235
-0.671604
-0.369248
0.284645
-0.258180
0.671666
-0.313489
0.105800
-0.843349
0.126351
0.288995
-0.725932
0.146665
0.152877
0.640445
0.021426
0.870862
0.754612
0.891306
0.094225
-0.096121
-0.874564
0.709358
0.253291
0.101024
-0.299446
0.780642
-0.794117
0.975353
-0.968803
-0.427924
0.693696
-0.179151
-0.082919
-0.164038
-0.625376
-0.013617
0.882201
0.677649
-0.907301
-0.360561
-0.372986
0.881748
-0.926552
0.735770
0.870795
-0.500087
-0.542750
-0.301128
0.092956
-0.473125
-0.950883
-0.553043
-0.783271
0.244853
-0.020010
0.509765
0.780867
-0.920602
-0.284783
0.268326
-0.594167
0.012822
0.443782
0.835897
0.767342
-0.810117
0.962570
-0.270202
-0.258669
0.891008
-0.499559
-0.922790
0.542928
-0.222560
-0.179110
0.442873
-0.182394
0.353881
0.857158
0.142864
-0.346204
-0.845857
-0.928190
-0.570728
0.451328
-0.767300
0.230725
0.853197
0.337946
-0.661063
-0.145582
0.641321
-0.810476
0.854048
0.154035
0.511042
0.132880
0.665036
-0.935776
0.964249
-0.645451
-0.666200
0.101704
-0.706622
-0.178536
-0.091709
-0.366317
-0.277873
0.912952
-0.377793
0.707145
0.423212
0.144585
-0.814140
-0.218768
0.347325
0.102092
-0.546695
-0.402832
0.320004
0.547677
0.390036
0.934488
0.981253
-0.193745
-0.032307
0.999068
-0.539798
0.420215
-0.077358
-0.962316
0.642912
-0.408757
0.377172
-0.337208
-0.837834
-0.742043
0.723993
-0.728549
-0.213164
0.878146
0.514424
0.566705
-0.452480
-0.668893
-0.296827
-0.854908
-0.485398
-0.260956
-0.706192
0.196602
0.375422
-0.537011
-0.747574
-0.446965
-0.638532
-0.254106
0.846078
-0.306831
0.266884
-0.321796
0.002842
0.889932
-0.080195
-0.393753
0.799406
-0.090375
-0.826917
0.876604
-0.130021
0.879540
0.596695
-0.249892
0.145571
0.793997
-0.386391
0.793193
0.735220
0.659415
0.599185
-0.401004
0.576774
0.671908
0.338824
-0.286577
0.959260
-0.014391
-0.827706
0.899792
-0.697736
0.144978
-0.373187
-0.488070
-0.556383
-0.696793
0.223901
0.480559
-0.600450
0.757138
0.092589
-0.594591
-0.451115
-0.569972
-0.930825
-0.251105
0.132514
-0.506036
0.296101
0.041634
-0.452132
0.187896
-0.036164
-0.658637
0.140946
0.137940
-0.589850
-0.406580
-0.194831
0.217508
0.774979
-0.870845
0.792855
-0.759925
0.932554
-0.885058
-0.596964
0.561284
-0.189804
-0.615698
0.595132
0.685700
0.037538
0.772235
-0.059598
-0.514546
0.097609
-0.551814
0.191648
-0.066305
0.296285
0.211476
-0.030355
0.510028
0.417797
-0.201045
0.369522
0.612495
0.833209
-0.862169
0.762398
0.029474
-0.008605
0.083018
0.702308
-0.512644
0.726695
0.008545
0.684012
-0.511037
0.231287
-0.655240
0.500684
-0.280631
-0.358626
-0.445708
-0.984827
-0.847029
0.865708
0.967051
-0.990213
-0.267149
-0.486757
-0.628923
0.803423
0.573045
-0.802070
-0.981548
-0.011037
0.676122
0.016746
-0.984815
-0.999547
-0.971752
-0.769514
-0.956357
0.941105
0.456586
-0.976143
-0.111704
0.700395
0.068179
-0.736654
-0.984865
0.500305
-0.702669
-0.891330
-0.632625
0.284665
0.177864
-0.847953
0.263967
-0.447104
-0.590277
0.692098
-0.212216
0.016374
0.329626
0.255220
-0.891097
-0.736114
-0.892580
-0.552092
0.810510
0.435092
0.240175
0.792498
-0.334289
0.419284
-0.332528
-0.875334
-0.931886
0.533009
0.198537
-0.788373
-0.353226
0.061175
-0.499421
-0.074430
-0.280276
0.843465
-0.491899
-0.644765
-0.049185
-0.147521
-0.855608
-0.603737
-0.974799
0.274061
0.932472
0.103682
-0.469924
-0.878589
0.796639
-0.630555
-0.552948
0.015931
0.663559
0.876122
-0.864044
0.025872
0.776658
0.552619
0.705713
-0.272719
-0.821651
0.705731
0.773828
-0.174458
-0.506139
0.052749
0.626624
0.332762
-0.374606
0.683535
0.442731
0.771781
-0.115464
0.725756
0.586470
0.098883
0.867194
-0.448321
0.651016
0.726253
0.444300
-0.908959
0.791475
-0.340234
-0.322282
0.039249
-0.171470
0.169493
-0.592972
0.224998
-0.823238
0.326468
-0.110168
-0.951037
0.922687
0.355693
-0.121836
-0.011932
-0.547331
-0.652535
-0.981447
0.338631
0.534209
0.915418
0.885556
-0.203169
-0.331229
-0.732951
0.550545
-0.034336
-0.043315
0.703133
0.646657
-0.235845
-0.090306
0.762331
0.471208
0.889079
-0.183679
-0.059754
-0.718400
-0.112763
0.396399
0.650649
0.046856
0.377100
-0.528782
-0.716582
0.784205
-0.979581
0.394264
-0.927110
-0.576943
-0.784399
0.998310
-0.967867
0.989648
0.580532
0.660105
0.022760
0.392713
0.463402
-0.035930
0.994294
0.116985
-0.412196
-0.344512
0.447293
0.293687
0.616182
-0.864927
0.498424
-0.543170
-0.603063
0.045230
0.063641
-0.664873
-0.863704
0.283089
0.826155
0.901768
0.057414
0.918035
-0.397063
0.994061
0.770962
0.178965
0.140897
-0.648289
0.327868
0.178304
0.555589
0.720057
0.385422
0.191601
0.073058
0.545808
0.057685
-0.113343
-0.757230
-0.365746
0.583651
-0.636678
0.290322
-0.162882
0.064402
-0.081589
0.859344
-0.451243
-0.520239
-0.202993
0.607340
-0.039579
0.614258
0.243683
-0.356142
0.153086
-0.383628
-0.703279
0.636223
0.856171
-0.149145
-0.443776
0.200477
0.348949
-0.282164
0.909409
0.973718
-0.842582
0.178289
0.866765
0.343357
0.149018
0.402236
-0.978108
0.499060
0.347148
0.913926
0.054058
-0.446252
-0.212251
0.806099
-0.745975
-0.353557
-0.703946
-0.292517
0.903671
0.328230
0.898423
-0.413437
-0.548320
-0.009083
0.955818
-0.749940
0.108558
0.109031
-0.493963
-0.171524
0.307076
0.843710
-0.417633
-0.140768
-0.973763
0.013229
-0.833076
0.246419
0.808989
-0.070570
0.825064
-0.735360
0.605534
0.631484
-0.595666
0.933917
0.705636
-0.209441
-0.984790
0.650743
0.318135
0.855122
0.761428
0.003711
-0.585758
-0.537751
0.879587
-0.743592
0.864002
0.948479
-0.115997
0.976446
-0.049182
-0.458582
-0.604948
-0.807810
0.651215
0.809580
-0.850611
-0.243129
-0.968956
0.387658
0.585451
0.766993
0.370475
0.372047
0.068750
-0.923150
-0.873845
0.703303
-0.605527
-0.500189
-0.012360
0.521287
-0.042474
0.275526
-0.238187
0.117430
0.847309
0.518548
0.090624
0.051329
-0.552957
0.069062
-0.278028
-0.888354
0.450990
-0.980379
-0.875729
0.011682
0.638073
0.028403
-0.628283
0.899372
-0.167794
0.191868
-0.731482
-0.479167
0.713135
-0.670731
-0.263666
0.616295
0.619895
0.638154
0.184717
0.052414
-0.841390
0.550439
-0.459439
-0.668292
0.923785
-0.254350
0.411034
0.711793
0.515144
0.240664
-0.980181
-0.217734
0.592140
0.472098
-0.704543
-0.067937
-0.672257
0.990203
-0.285485
-0.869673
-0.153253
-0.663096
-0.614592
0.976334
-0.125428
0.620383
-0.818700
0.900742
-0.466727
0.745267
0.291241
0.085471
-0.805004
-0.384330
-0.833639
-0.169741
0.247784
-0.478732
0.022269
-0.685183
-0.967521
-0.485230
0.218935
0.160454
-0.764738
0.887033
-0.173164
0.989511
-0.318200
-0.882390
0.862584
0.851883
-0.288400
-0.673779
-0.132838
0.769929
-0.831669
-0.679155
0.895562
-0.782627
-0.297574
0.433590
0.951832
0.088648
-0.852382
0.746574
-0.985802
0.198333
0.652202
-0.462628
-0.895637
0.645226
-0.599069
0.096023
0.560385
-0.330982
-0.548886
-0.788122
0.490255
-0.696409
-0.986056
-0.269231
0.466296
0.999348
0.370623
0.731672
0.333915
0.176114
0.186765
0.953183
0.918223
0.888480
-0.506984
0.221124
0.894697
-0.272151
-0.602177
0.815460
-0.053536
-0.524123
0.150033
-0.429610
-0.627285
-0.411590
-0.205879
0.945058
-0.574875
-0.457192
-0.819477
0.407887
-0.848168
0.961581
-0.217517
-0.952451
-0.753305
-0.657772
0.231157
0.993632
0.824978
-0.579243
0.333522
0.231485
-0.200584
0.300475
0.377738
-0.826187
0.015411
0.693408
0.317883
0.567458
-0.312627
-0.476795
-0.945806
-0.873903
-0.153869
0.135945
-0.347810
0.017655
-0.234573
-0.739417
-0.371255
0.244010
0.712820
0.400554
0.101793
-0.057958
-0.177401
0.536829
-0.818393
0.696175
0.425475
-0.168538
0.846615
-0.844622
-0.415041
0.701000
-0.714543
-0.713795
-0.663073
0.073794
-0.185047
0.053945
-0.830860
-0.794498
0.697598
0.873397
0.059620
-0.061441
0.427574
-0.469377
-0.206776
-0.910049
-0.215339
0.601114
-0.355736
0.877521
0.436620
-0.405377
-0.962823
-0.202386
0.087568
-0.996184
0.777031
-0.938191
0.309188
0.170687
-0.936170
0.656643
-0.820059
0.580101
0.594114
-0.801746
0.810622
-0.594241
0.035722
-0.366856
0.496185
-0.171457
0.554868
-0.883758
-0.254058
-0.308758
0.452423
0.889160
-0.124695
-0.160369
-0.618666
0.176979
-0.771630
0.168078
0.997532
0.518612
0.554277
0.353364
-0.088393
0.767996
-0.222201
0.104245
0.817524
-0.761591
-0.288493
-0.963026
-0.776023
-0.271272
0.295036
0.281273
0.061140
0.723130
-0.787895
0.707347
0.989295
0.838612
-0.018802
-0.443010
-0.645780
-0.904941
0.779873
0.810374
0.287305
0.516267
-0.292136
-0.234194
-0.521820
0.926388
0.899805
0.300544
0.888272
-0.965765
0.347421
0.474405
0.707955
0.906177
0.846979
-0.770638
0.783457
-0.938284
-0.632802
-0.428855
-0.603284
0.706592
0.526113
0.851186
-0.649718
-0.180125
0.257118
-0.813261
-0.881565
-0.553143
0.674532
-0.444933
0.989652
-0.433896
-0.898274
0.418337
0.528092
-0.135312
0.384185
0.263422
-0.871160
-0.070735
0.959423
-0.329588
0.580269
-0.772894
0.589900
0.954301
0.511325
-0.254729
0.601513
-0.399223
-0.707363
-0.099471
0.200241
0.632315
-0.815347
-0.842068
0.170919
0.919046
0.072757
0.632499
-0.278167
-0.179871
0.578500
0.347688
0.696478
0.948596
0.007286
0.179609
0.142859
0.809631
-0.242685
0.446339
-0.751260
-0.750588
-0.018450
0.985756
-0.989523
0.469876
-0.447257
0.827378
-0.581305
0.380518
-0.238586
0.058493
-0.351624
0.472365
-0.537802
-0.578481
-0.274309
0.935793
0.947714
-0.732596
-0.235550
-0.019783
-0.887962
0.207779
0.644175
0.046188
-0.317787
0.415894
0.151772
0.934793
-0.135989
0.677466
-0.127653
-0.971169
-0.734613
-0.584427
0.240373
0.683837
0.347918
-0.222113
-0.020779
0.239008
0.457614
0.703499
-0.032873
0.526705
-0.749904
-0.711633
-0.853119
0.333180
-0.512458
-0.856486
0.592412
0.451430
-0.264357
-0.026778
0.144339
-0.921087
-0.830462
-0.745563
0.370646
-0.854594
-0.157841
0.036289
0.815712
0.841039
-0.199236
0.926407
-0.930993
0.894822
-0.025892
0.631335
-0.450472
0.471615
-0.401948
0.037412
0.778118
-0.710401
-0.963122
-0.437982
-0.937381
-0.160887
0.354831
0.620909
0.339565
0.339541
0.572342
-0.779976
-0.933535
-0.222267
-0.058273
-0.252828
0.548239
0.360510
-0.258182
0.648206
0.072009
-0.538657
0.558700
-0.930020
-0.031052
-0.220257
-0.300203
-0.141699
0.057369
-0.257474
-0.173804
0.439314
0.191282
-0.483752
-0.300537
0.541814
0.402379
-0.958780
-0.178085
0.470146
-0.606144
-0.203588
-0.974510
-0.489300
-0.891603
-0.335395
0.042605
0.451487
-0.991824
0.779957
-0.474265
-0.325029
-0.433928
-0.978938
-0.120208
-0.877015
-0.772798
0.903061
0.945830
0.152070
-0.354088
-0.214378
0.832284
-0.549121
-0.046284
-0.543935
-0.742982
-0.945505
-0.559330
-0.961680
-0.649021
0.595827
-0.988474
-0.241542
-0.889002
0.614785
0.223367
-0.784875
0.946203
0.391404
-0.988376
0.595862
0.786122
-0.757061
-0.111293
0.185089
-0.149279
-0.652492
-0.898865
-0.085977
-0.619564
0.670264
-0.360478
0.822202
-0.170847
-0.422355
-0.625941
-0.394085
-0.306823
-0.126111
0.796557
0.407235
-0.757178
0.935973
0.978090
0.093533
0.098228
-0.940071
-0.060890
0.900869
0.783730
-0.748914
0.755541
0.590233
0.991962
-0.421919
0.257331
0.811524
0.093884
-0.234450
0.805516
-0.125837
-0.233573
0.255275
-0.288513
-0.827607
-0.878382
0.516490
-0.942117
-0.810024
-0.445387
0.796515
0.761885
-0.144564
0.952319
0.053315
-0.851846
0.329669
-0.359061
-0.835322
0.586482
-0.042983
-0.286471
-0.039620
-0.378071
-0.091332
-0.288792
0.310140
0.085603
-0.481099
0.852288
-0.555206
0.574419
0.429720
-0.512201
-0.263682
0.867602
-0.787314
-0.706601
0.088823
0.546396
0.499641
-0.813242
0.301814
-0.389358
0.044577
-0.840724
-0.972499
-0.811315
0.660788
0.468352
0.550793
-0.779312
-0.383572
-0.607426
0.707033
0.285820
0.019253
0.141510
-0.583848
-0.190704
-0.468166
-0.316321
0.417223
0.186484
0.879572
-0.124859
0.182667
0.765899
-0.369644
0.103941
-0.538911
-0.464924
0.639698
-0.370466
-0.886131
0.050653
-0.639215
0.066304
0.427494
-0.798797
0.182970
-0.617654
0.246825
0.160748
-0.956449
0.355460
0.820208
0.845954
0.441374
0.699100
-0.352549
-0.484682
-0.317829
-0.370347
0.832202
-0.368386
-0.731856
-0.073642
0.240540
0.716317
0.399040
0.842067
-0.003583
0.794887
0.348011
-0.821993
-0.268059
-0.076033
-0.554185
-0.139013
0.532018
0.146830
-0.393980
0.517373
0.471545
0.712069
-0.297507
-0.135348
0.591051
0.510284
0.027157
-0.654179
0.478212
0.728120
0.562261
-0.483615
0.066226
-0.812926
-0.476193
-0.703075
0.136554
-0.444677
0.810858
0.591936
-0.197753
0.369476
0.439123
-0.868518
0.170748
-0.899591
0.135329
-0.020583
-0.456674
0.499579
-0.659488
0.887233
-0.863677
-0.311748
-0.199066
-0.807352
-0.059775
-0.769770
-0.984572
0.371610
-0.257827
-0.140592
-0.766796
-0.670684
0.035629
0.325766
-0.308135
-0.272574
-0.566900
0.427013
-0.739073
0.076395
-0.344914
0.086871
-0.608961
-0.813249
0.963800
-0.406287
0.947746
0.051972
0.767306
0.654565
-0.043111
-0.074500
-0.293406
0.264936
0.828512
-0.920731
0.434405
-0.994001
0.104070
-0.600971
0.189164
0.067529
-0.935555
0.314280
0.639969
0.109125
0.182534
0.715884
0.147574
0.518367
0.115183
0.827100
-0.305472
0.324557
-0.054125
-0.409090
0.889705
0.408494
-0.136304
0.116630
0.279532
0.378928
0.341681
0.324923
0.638861
0.345425
0.206874
-0.145274
-0.368089
-0.653274
-0.752853
0.293841
-0.063503
-0.229470
-0.902006
0.437297
-0.639039
-0.709946
0.896362
0.806249
0.683048
-0.518384
0.062636
-0.173600
0.242722
0.979813
0.819572
0.367778
-0.081083
0.754221
0.690072
-0.741615
0.254444
-0.403356
-0.341885
-0.620622
-0.031756
0.592806
0.116809
0.536984
-0.532447
-0.828396
0.347867
-0.939224
-0.341046
-0.836185
0.646374
-0.400621
-0.073490
-0.063066
0.632578
-0.770360
-0.109499
0.296874
-0.292337
0.818915
0.918601
-0.379615
-0.524811
-0.845645
0.719272
0.722791
-0.071806
0.791945
-0.637499
-0.616316
-0.397531
0.263373
0.945559
-0.619518
0.771627
-0.061128
-0.699853
-0.584591
-0.028651
-0.720109
0.798642
0.938060
-0.191307
-0.385783
-0.530613
0.298826
0.381946
0.034541
-0.160760
0.054369
0.686998
0.587335
0.347875
0.732344
-0.534602
-0.072403
0.746399
-0.606855
0.753053
-0.329207
0.502083
0.974123
0.540092
0.326120
-0.469603
0.743262
0.028398
0.722326
0.455087
-0.520290
0.421617
-0.935139
-0.920985
0.027207
-0.229022
-0.226722
0.471085
-0.889103
-0.927754
-0.054725
0.360169
-0.332578
-0.325743
-0.093491
0.573361
-0.570214
0.619718
0.108125
-0.642957
-0.509329
0.426785
0.518932
-0.475142
-0.679312
0.021504
-0.362420
0.359770
0.091834
0.256457
0.831558
-0.718026
-0.195533
0.087583
0.243145
-0.920025
-0.099140
0.347171
-0.805735
0.083866
0.991866
-0.588274
0.564001
-0.088642
-0.120658
-1.026851
0.806306
0.026748
0.276011
0.200245
-0.123427
-0.084067
0.633351
0.915419
0.067891
-0.191530
-0.220291
0.182612
-0.801983
0.652887
-0.611951
-0.598828
-0.733914
-0.826979
0.600237
0.475371
-0.690649
0.045842
-0.806419
0.401727
-0.658594
0.047357
-0.881388
-0.824092
-0.205655
-0.539484
-0.174254
0.869374
-0.111645
0.214188
0.335431
-0.232622
0.891558
0.330440
0.630830
0.617158
-0.569436
0.119486
-0.015652
0.946811
0.640482
-0.782574
-0.120875
-0.087108
-0.657325
0.553857
0.451375
-0.337563
0.754510
-0.642497
0.002402
0.841197
0.102485
0.775308
-0.111560
0.195914
0.948657
0.731246
0.432264
-0.203533
-0.813003
0.196514
0.808258
-0.620201
0.453549
-0.930971
0.880090
-0.261788
-0.292985
0.731759
0.668549
-0.341677
-0.822553
-0.599568
0.783931
0.091584
-0.263262
-0.143179
-0.410507
0.990580
-0.059637
-0.512073
0.191617
0.903515
-0.209721
0.165114
0.665978
-0.444217
0.825788
0.618194
0.967881
0.636995
0.310713
0.761014
-0.796654
0.787068
-0.862896
-0.901669
-0.661058
0.706965
0.507612
0.891751
0.336882
-0.667539
-0.907008
-0.888725
0.579794
-0.744203
0.511613
0.822683
0.975747
0.088874
-0.522692
-0.414817
0.422173
-0.339453
0.100326
-0.119930
0.731695
-0.607658
0.447860
0.340075
-0.051852
0.426993
0.225632
-0.771860
0.872088
-0.578600
0.324443
0.440900
0.243252
-0.607712
-0.156097
-0.549461
-0.943675
0.220559
-0.592335
0.802889
0.847656
-0.197614
-0.879512
-0.499966
-0.500144
0.458287
0.166342
-0.507541
0.343208
-0.006709
-0.174633
0.210002
0.529734
0.395068
-0.668940
0.990611
0.962560
0.829350
0.044586
0.060117
-0.883917
0.896393
0.763204
0.339800
-0.145533
-0.299960
-0.295875
0.569570
-0.748766
0.474337
-0.368220
0.855824
0.092862
0.569489
0.134944
0.705544
0.038905
-0.077086
0.711597
0.131737
0.317299
-0.621992
-0.506962
-0.606066
-0.787859
0.850183
0.649166
0.696233
-0.652928
0.384496
-0.087069
-0.680140
-0.775267
0.539778
-0.575210
0.964337
0.610005
0.074934
-0.457166
-0.503112
-0.945478
0.085339
0.193657
0.619442
-0.130129
0.298077
0.695631
0.028426
0.569238
0.494325
0.957053
0.420278
-0.160295
0.677413
0.206241
0.421933
-0.550605
-0.891725
0.513941
-0.352404
0.621559
-0.313673
0.868884
0.041964
0.850089
-0.014066
-0.592871
0.127287
-0.020457
-0.840413
-0.355238
-0.418063
0.529657
-0.161614
-0.927547
-0.581268
0.445072
0.587877
-0.051660
-0.794747
-0.341756
0.944881
-0.133721
0.493254
-0.258219
-0.294738
-0.331965
0.259257
-0.241179
-0.218341
-0.197174
-0.345012
-0.875469
-0.791167
-0.622268
0.699865
-0.635146
-0.370082
-0.252057
0.352291
-0.533006
-0.476246
-0.219989
0.155697
-0.513632
-0.750625
-0.771196
-0.857264
0.340631
-0.456212
-0.794094
0.892116
-0.814220
-0.620395
0.357926
0.529538
-0.005831
-0.248088
0.744770
-0.185825
0.569120
-0.078207
-0.875237
-0.082581
0.061251
0.151855
0.914019
-0.365586
0.794611
-0.246716
0.005515
-0.052714
0.239906
0.198749
-0.068190
-0.394093
0.215374
-0.142788
-0.328661
-0.499052
-0.603700
-0.139535
-0.577605
-0.736513
0.602184
-0.858747
0.340894
0.963477
0.353834
0.486316
0.364017
0.578305
0.461550
-0.001403
0.243672
0.898192
0.085077
-0.289981
0.043875
-0.598346
0.920593
-0.495357
-0.634234
-0.399770
-0.793730
0.988195
0.350157
0.841713
-0.069489
-0.188996
0.225159
0.225814
-0.480984
-0.499622
0.387765
-0.226677
-0.785719
0.373728
0.769979
-0.037886
-0.824655
-0.835121
0.477118
0.301968
0.106316
0.789051
-0.658102
0.193631
0.247720
0.195205
-0.220710
-0.492365
0.203420
0.721124
-0.088417
0.747484
0.986118
0.014354
0.964387
-0.715464
-0.174850
0.980065
-0.026349
0.872063
0.829217
0.820472
0.606553
0.094968
0.070616
0.060406
0.215318
-0.281433
0.792747
-0.041508
-0.238066
0.319053
-0.373389
-0.821560
0.518237
0.805947
0.929480
-1.525979
-0.946033
0.645685
-0.773220
-0.008485
0.765457
0.816668
0.010032
0.798477
0.659097
0.185743
0.830975
0.744890
-0.721193
-0.826174
0.553047
-0.292102
0.328679
0.827386
0.663721
-0.109558
-0.211976
-0.073397
0.901726
0.460643
-0.648061
-0.972559
-0.543759
0.311122
0.452380
0.554142
0.114039
-0.014728
0.133576
-0.457653
-0.569632
-0.406048
-0.686762
0.738716
-0.291489
0.101882
-0.720802
0.512734
-0.990572
-0.820036
-0.079100
-0.861081
0.185013
0.171435
0.989808
0.837843
0.792455
0.829463
-0.656047
0.824020
-0.443982
0.937243
-0.875372
-0.291729
0.018061
0.569507
0.284589
0.824040
-0.751483
-0.122484
0.459991
-0.291668
0.630018
0.714217
-0.931454
0.598877
-0.415398
-0.369667
0.850183
-0.652430
-0.581423
-0.331096
-0.129466
-0.761401
-0.175584
0.740118
-0.209469
0.179854
0.649474
0.092727
-0.554069
-0.734951
0.713997
0.424432
0.341663
-0.276990
-0.329900
0.905482
0.100623
0.080722
0.680069
0.436094
0.031057
-0.185544
-0.850401
-0.565144
-0.910841
-0.905038
0.114559
0.987271
0.050192
0.489991
-0.899476
-0.183217
-0.924687
0.698410
-0.389869
-0.137138
-0.870712
-0.583187
0.579096
-0.468350
-0.064527
-0.926785
-0.702328
-0.685413
0.033107
-0.119716
-0.320812
-0.855424
0.827114
0.550825
-0.858575
0.425172
0.887292
-0.756967
-0.118419
0.691885
-0.275458
0.966600
0.931930
0.541825
0.643534
0.848541
-0.783150
-0.872672
-0.858207
0.377299
0.791730
0.441291
0.227057
-0.110351
-0.383815
0.166589
-0.589092
-0.020018
0.027622
-0.626094
-0.382344
0.966077
-0.435132
-0.073294
-0.002817
0.961934
-0.369431
0.365140
-0.069020
0.789847
0.461150
0.946016
-0.151276
-0.267736
0.026259
0.492740
0.597438
-0.887240
-0.455207
-0.967241
0.178254
0.563202
-0.180817
-0.594266
0.698948
0.745011
-0.006642
0.484844
-0.286520
-0.504015
0.322780
-0.678633
0.114307
-0.351157
0.430131
0.413335
-0.500733
-0.590886
-0.290071
-0.393467
-0.663524
-0.813257
-0.759517
-0.084374
0.775121
0.138241
0.885373
0.615815
-0.252585
0.487965
0.572107
-0.701638
0.172554
0.472058
-0.880422
0.986955
0.958145
-0.436996
0.421276
0.274204
0.851326
0.574501
-0.312217
0.783048
0.307339
0.534778
0.598664
-0.699860
0.247152
0.263713
-0.782592
-0.042638
0.748996
0.361443
0.690533
0.241130
0.336559
-0.586683
0.146356
0.350767
0.972442
-0.690769
-0.589716
0.713338
-0.917013
0.158823
-0.122711
0.274326
0.915975
0.721840
-0.888353
0.735614
0.621513
-0.568123
-0.757400
0.001631
0.783059
0.489270
0.798276
0.403878
-0.460405
0.374209
-0.197630
-0.497951
-0.540640
0.191143
0.118783
0.306928
-0.803591
-0.599400
0.672775
-0.121424
-0.662236
-0.158476
0.919294
-0.768048
0.819714
0.053132
-0.956560
-0.465120
-0.109918
0.707281
-0.867447
0.689956
-0.591261
-0.707625
0.272074
0.379340
0.968082
-0.957895
-0.621187
-0.451007
-0.685016
-0.456839
-0.909620
-0.688046
-0.266599
-0.559536
-0.861793
0.456720
-0.857362
-0.821599
0.012284
0.992209
-0.751452
0.918991
-0.045879
-0.924435
0.473859
0.658381
0.131717
0.929893
0.279639
0.278813
-0.663179
-0.278656
0.008797
0.454413
-0.809607
0.683801
-0.825231
0.669666
-0.882860
0.468789
0.574072
-0.064853
0.243957
0.698126
0.429353
0.126473
-0.916648
-0.959575
0.585998
0.657349
-0.520955
-0.741508
-0.520975
0.527834
0.565702
-0.760923
0.562879
0.081860
-0.142305
0.900505
0.051742
0.300536
0.913015
0.049738
0.805099
0.208586
0.974275
-0.543493
0.799122
-0.413500
-0.916259
-0.365729
-0.113623
0.858770
0.447115
0.182494
0.260586
-0.849473
0.585077
0.403383
-0.535012
0.312697
0.154283
0.095441
-0.733240
-0.017134
-0.508850
-0.822848
-0.612079
0.705261
-0.125939
0.787240
0.475962
0.917950
-0.853612
0.566313
0.659504
0.583181
-0.917226
0.967555
-0.308712
-0.336466
-0.295700
-0.293524
-0.826322
-0.234045
0.008088
-1.001257
-0.841473
-0.277459
0.145314
0.596415
0.885604
0.889505
-0.134516
-0.029287
-0.209857
0.135432
0.497870
0.418253
-0.855879
0.010349
-0.982568
0.014431
-0.146607
-0.952431
-0.829004
-0.893570
-0.051756
-0.045644
0.007870
-0.525853
-0.046422
-0.466255
-0.496299
0.242929
0.818118
0.073495
0.212627
0.650130
-0.656532
-0.706704
-0.797532
-0.936448
0.377920
-0.117008
0.088461
0.848508
0.765330
-0.053760
-0.082689
-0.076452
0.834421
-0.464321
0.013199
-0.747642
-0.148721
0.827086
-0.625039
0.611015
-0.843735
-0.256344
0.533407
0.742570
-0.309349
-0.568398
-0.196236
0.188173
-0.387266
0.182704
0.722966
-0.975410
-0.518469
0.801995
-0.501389
0.114477
-0.304481
0.864059
0.061905
0.699398
0.484995
-0.428806
0.382421
-0.471648
0.347597
-0.673100
0.826136
0.392522
0.512647
-0.750870
0.322831
0.716002
-0.265750
0.346711
0.393916
-0.816514
0.642137
-0.571319
-0.640297
0.150131
-0.765993
-0.556302
0.164946
0.078341
-0.742377
0.711952
0.838924
-0.029317
0.806969
0.928372
0.740245
-0.041866
0.180657
-0.403583
-0.125306
-0.782887
0.609845
0.648381
0.509287
0.098433
-0.714464
0.655643
-0.767985
0.714485
-0.694597
0.327071
-0.560255
-0.798871
0.110497
-0.548974
0.009362
-0.092315
-0.853347
-0.173860
0.184931
0.614478
0.636358
-0.028552
-0.471358
-0.746895
0.279000
0.619953
0.333976
0.050148
0.425038
-0.775230
-0.721456
0.410082
-0.454957
-0.529987
0.720914
0.421127
-0.229346
-0.805352
0.539178
-0.266312
0.635566
0.356122
-0.789474
-0.677617
0.929763
-0.096799
-0.923250
-0.333712
-0.122482
-0.570383
0.433297
0.922068
-0.789624
0.339691
-0.100207
-0.086041
-0.410054
0.123989
0.166605
0.601761
-0.043262
-0.643927
-0.576426
-0.973584
-0.534212
0.291620
-0.162555
0.674589
0.425454
-0.032526
0.793907
0.155857
0.764484
-0.501264
-0.253388
-0.792863
-0.383135
0.821729
0.785289
0.354992
-0.113318
-0.441117
0.720110
-0.587105
-0.860735
-0.032303
-0.657424
-0.694183
-0.810187
-0.834743
0.065441
0.342001
-0.878184
-0.467481
0.816479
0.484574
0.879315
-0.906159
-0.382945
-0.752205
-0.957308
-0.691115
-0.969258
-0.405520
0.243374
0.107144
0.419354
0.906219
-0.383318
0.428715
0.635710
0.065681
0.113149
-0.899012
-0.820986
-0.434967
0.310663
0.075239
0.378843
-0.045550
0.636459
-0.442351
0.245593
-0.931474
0.789849
0.300958
-0.210435
0.205168
0.755214
0.939341
0.098766
-0.468013
0.451522
-0.386401
-0.315707
0.153849
0.237916
0.665659
-0.571394
-0.392635
0.581322
0.878894
-0.177305
-0.070743
-0.390071
0.501537
-0.170269
0.121470
0.628152
0.011213
-0.860818
-0.251502
0.528930
-0.460778
0.171826
-0.454138
-0.662712
-0.319697
-0.584108
0.068486
-0.908300
-0.926802
-0.589708
-0.992105
0.501754
-0.793302
0.411508
0.855837
0.311116
0.831771
0.142053
0.490420
-0.115640
0.866406
0.978932
-0.034698
0.572896
0.683347
-0.005466
0.784146
0.312503
-0.505077
0.840103
0.824912
0.007871
0.738820
-0.862817
-0.968948
0.127445
-0.108568
0.154987
0.004503
0.949714
-0.156213
-0.789914
-0.112358
0.525532
0.586258
-0.077110
-0.843225
-0.463015
0.748939
-0.235612
-0.794173
-0.244776
-0.277888
-0.476187
-0.426382
-0.407078
-0.395742
-0.333713
0.306521
-0.876009
-0.416162
0.077755
0.583147
-0.602236
-0.529986
0.739400
-0.223535
-0.630130
0.953058
0.916775
0.763561
-0.094396
-0.146895
0.634985
-0.008018
-0.486970
-0.801623
0.899638
0.395047
-0.277249
0.726426
0.632445
0.565247
-0.619050
-0.377710
0.616937
-0.935905
0.510655
0.156492
-0.394691
0.890517
0.960324
-0.784784
0.305038
0.254878
-0.775004
0.650949
-0.498937
-0.752829
0.863739
0.625767
0.625025
-0.253741
-0.344704
-0.084211
0.067006
-0.814712
-0.919120
-0.694763
-0.392424
-0.664505
0.370484
-0.077016
0.613117
-0.979300
0.085130
0.022683
-0.620767
-0.018966
-0.805274
-0.714758
-0.546565
-0.507693
-0.194835
-0.213202
0.833341
-0.805860
-0.291993
-0.425704
-0.122170
-0.986586
-0.702163
-0.701586
-0.028283
0.753342
0.346747
-0.910284
-0.067016
0.108051
-0.310547
-0.860327
0.713132
-0.786637
0.686291
-0.088669
0.177931
0.644377
0.909140
0.646526
-0.426393
-0.763792
-0.813069
-0.214036
-0.280957
0.263008
0.923180
0.912068
-0.736292
0.880811
0.911525
0.565034
0.579670
0.048535
0.782039
0.276135
0.733569
0.599633
-0.065376
0.828408
0.054385
-0.939137
-0.390954
-0.549201
-0.610370
-0.577897
-0.620107
0.012253
-0.564707
-0.334118
0.906731
-0.012420
0.080314
0.979758
-0.748864
0.089490
0.125950
0.702648
0.111934
0.362885
0.113992
-0.866253
0.144985
-0.818561
-0.327707
-0.342956
0.187716
-0.975407
0.894798
0.990893
0.948391
-0.758559
-0.015287
0.836942
0.283234
-0.371810
-0.420225
-0.692611
-0.415195
0.319155
-0.246152
-0.586228
0.457209
0.063302
-0.232502
-0.377580
0.619926
0.993473
0.657553
-0.288638
0.678301
-0.836510
-0.094989
0.516704
0.580573
0.110552
0.340789
-0.971518
0.711131
-0.064141
-0.075312
0.927806
0.511525
0.317472
0.407273
0.996322
0.179085
-0.143259
-0.015595
-0.219668
-0.512961
-0.143661
0.792745
0.895351
0.700235
0.458408
0.038566
0.533031
0.626716
0.638164
-0.651234
0.322893
-0.053190
-0.323358
-0.940541
0.851183
0.369071
-0.454162
0.141449
0.062906
0.224264
0.035847
0.697085
-0.765227
-0.314716
-0.408525
0.147456
0.212850
0.252030
-0.317933
-0.820135
-0.340584
-0.224388
-0.196132
-0.422603
0.842362
0.498709
0.433820
-0.905917
-0.847514
-0.894715
-0.672928
-0.157664
0.866986
0.032611
0.100011
0.485605
0.234791
0.847834
-0.089576
-0.860241
0.242535
-0.632447
0.124273
0.282420
-0.977682
0.995710
-0.319735
-0.340051
0.737561
0.109025
0.996740
0.147325
-0.359201
-0.905531
-0.102510
-0.852394
-0.249594
0.129065
-0.180831
-0.299215
0.241945
0.288888
-0.693378
-0.220579
0.952725
0.532541
0.757354
0.608546
0.220912
0.425886
-0.532566
-0.133079
-0.018302
-0.040441
0.692665
0.130259
0.987872
-0.592814
0.848577
0.128714
-0.290608
0.982408
0.928811
-0.805785
-0.113263
0.256612
0.163934
-0.709067
0.327634
-0.096735
-0.872591
0.607309
-0.398649
-0.260038
0.680941
0.565513
0.302046
0.401213
0.189121
-0.181177
-0.348408
0.051533
-0.339405
-0.844550
0.916393
-0.658864
0.558127
0.516446
-0.131705
-0.195390
-0.894849
-0.324499
0.694839
0.490875
-0.981674
0.996771
0.464806
0.077212
0.480172
0.445646
-0.106382
-0.066777
-0.037362
-0.161991
0.724164
-0.995688
0.023915
-0.918482
-0.803472
0.658960
0.226466
-0.267868
0.776180
-0.238562
0.614532
0.016934
-0.405090
-0.072610
0.096920
0.426911
-0.252861
-0.506865
0.517805
-0.607686
-0.055778
0.856476
0.917118
-0.218532
0.376152
-0.101551
-0.135375
-0.378917
0.689382
-0.784273
-0.579316
0.716816
-0.178183
-0.576408
0.474146
-0.911219
-0.366531
0.342767
0.340412
-0.610427
0.944172
-0.324127
0.772114
-0.159209
-0.777269
0.614739
-0.558300
0.389890
0.175872
0.993305
0.549310
-0.781520
0.083711
-0.582408
0.916963
0.372547
-0.289000
-0.459903
0.621043
0.959554
0.705916
0.610378
-0.024282
0.977938
0.028391
-0.733674
-0.928205
0.557145
-0.315163
0.638538
0.328405
0.046233
0.929146
-0.889705
-0.332352
-0.807584
-0.087953
-0.699236
0.546336
-0.555428
0.840686
-0.485961
-0.199748
-0.046986
0.060952
-0.802721
0.249248
-0.178714
-0.938229
0.523403
-0.373674
-0.567608
0.272549
-0.861563
0.278325
0.335454
0.576057
0.244419
-0.155063
-0.700895
-0.644499
-0.395779
-0.995262
0.199561
0.833107
0.124693
-0.505642
0.933707
0.837625
0.954167
0.036159
-0.208157
0.053249
0.709271
-0.660019
-0.788358
0.277824
0.103370
-0.030462
-0.012800
-0.106404
-0.804617
-0.535125
-0.121274
0.137504
0.077634
0.425385
0.420612
0.741669
-0.917999
-0.791981
-0.459000
0.739046
0.470280
-0.263933
0.332964
0.567890
-0.490109
-0.755512
0.014240
0.303035
-0.830804
-0.518647
0.293526
0.333495
0.405539
-0.129565
-0.466967
-0.641347
-0.869618
0.878349
0.078143
0.894847
-0.012499
0.040007
-0.638609
-0.323297
-0.559887
-0.916778
-0.171504
0.776595
-0.044531
-0.869008
0.365809
0.161087
-0.956958
0.287285
0.873870
-0.114671
-0.110943
-0.596618
0.332917
-0.725481
-0.400418
-0.165102
0.326014
0.372990
0.451290
0.412197
0.696020
-0.643450
-0.249632
-0.692107
-0.764682
-0.219155
0.061615
-0.274813
-0.974306
-0.739212
0.158520
0.850301
0.500212
-0.803418
-0.974662
0.216649
0.462887
-0.854575
-0.674083
0.644726
0.538582
0.706637
0.933709
-0.810770
0.580467
0.192869
-0.978085
-0.180692
-0.833094
-0.127377
-0.579630
-0.085405
0.585042
-0.074145
-0.127344
0.250713
0.917500
0.984649
0.808480
-0.870792
-0.057549
-0.271741
0.657866
0.004785
0.687679
-0.030884
-0.454032
0.905312
-0.121962
0.810201
0.932635
0.708850
-0.087331
0.618419
0.816365
0.922731
-0.971374
0.310736
-0.847223
-0.047256
-0.425204
-0.862728
0.012418
-0.930554
0.416346
0.988038
0.004353
-0.414546
-0.582478
-0.844774
-0.494305
0.958914
0.071685
-0.095280
0.962636
0.196679
-0.980492
-0.921423
0.473910
-0.649524
0.513340
0.698259
0.896003
0.180424
-0.167380
-0.684139
-0.716246
0.624539
-0.778274
-0.519693
-0.901056
0.041199
0.620562
-0.722781
0.360194
-0.512001
0.074459
0.581787
-0.481508
-0.966634
-0.248279
-0.902880
-0.642504
-0.853702
0.877871
0.153041
-0.178014
-0.664915
-0.226756
-0.675649
-0.680456
0.487271
-0.066753
0.347522
-0.601773
-0.857215
-0.770911
0.763010
0.668142
0.385469
0.984837
-0.636138
0.743646
-0.721275
0.529184
0.505771
-0.568140
0.686340
0.680075
0.831481
0.911432
-0.610022
-0.241764
0.738154
-0.154772
0.599442
0.371609
0.889644
0.690805
-0.064207
0.229337
0.659476
0.747599
-0.776845
-0.966738
0.877206
0.988275
0.989770
-0.495102
-0.136324
0.445536
-0.776800
0.337168
0.485013
0.063590
-0.410173
-0.704204
-0.150696
-0.021664
0.446025
-0.746267
-0.992764
0.626985
-0.757838
-0.072791
-0.156371
-0.918574
-0.450778
-0.006495
-0.864159
0.668916
0.599616
0.592994
-0.256203
-0.971083
-0.935107
0.719589
0.319782
-0.592490
0.169607
-0.279307
0.166112
0.591111
-0.586221
-0.029656
-0.157267
-0.948068
-0.727103
0.911134
-0.950542
0.828872
-0.218437
-0.611931
-0.194359
0.460704
-0.005937
-0.055300
-0.405911
-0.182151
-0.321601
-0.574734
0.982257
0.918328
0.798031
-0.202157
-0.644614
-0.492013
-0.489572
0.569197
0.849965
0.611255
-0.437525
-0.909200
-0.815432
-0.888079
-0.785206
-0.472744
-0.545312
0.336429
0.884036
0.253811
-0.125758
0.083306
-0.381363
0.471506
0.287048
0.250566
0.821104
-0.106653
-0.130131
-0.530649
0.151472
0.494352
-0.727469
-0.902279
-0.583549
-0.739610
0.697018
-0.285915
-0.958661
0.875139
0.230974
-0.872030
0.358200
-0.252440
-0.205355
0.251784
0.162812
0.158819
-0.601686
-0.742785
-0.363511
0.005617
0.406658
0.331777
0.375105
0.905544
-0.489194
-0.225096
-0.323469
0.624552
-0.214095
-0.223326
-0.103337
-0.418954
0.318575
0.807222
-0.749149
-0.362018
-0.722165
0.482471
0.602348
0.007679
-0.583125
-0.556572
0.631653
-0.231151
-0.816923
-0.013779
-0.415452
0.483977
-0.277671
-0.169367
-0.350727
-0.998771
0.690910
0.410759
0.195298
-0.224402
0.481348
0.277854
-0.067280
0.930475
0.995489
0.608201
0.301779
-0.818960
-0.753508
-0.585878
-0.608035
0.668832
-0.794967
-0.834891
-0.406808
-0.279401
0.041715
-0.999991
0.782370
0.055727
0.938706
0.934016
0.626194
0.840661
-0.944902
-0.937149
0.592017
-0.174939
-0.672047
-0.812028
0.845285
-0.162582
0.829971
0.184209
-0.124348
-0.665500
-0.495784
0.093957
-0.533793
0.606667
0.833016
-0.814755
0.558890
-0.545209
-0.236250
0.429236
-0.951672
-0.493867
0.418946
0.683904
-0.142274
-0.327454
-0.303237
0.692883
-0.087408
-0.594641
-0.007303
-0.112681
0.163416
-0.764572
0.916957
0.907001
-0.817007
0.174285
0.675364
-0.164722
-0.291064
0.616306
0.825858
0.298406
0.272780
-0.835586
0.418693
0.612295
0.043205
0.574358
0.967424
-0.181627
-0.090314
0.847046
-0.323899
0.078427
-0.116253
-0.333997
0.351399
0.873282
-0.966262
-0.620711
-0.095267
0.603955
-0.364605
0.376134
-0.476243
0.643359
0.660005
0.954865
-0.120022
-0.352139
0.424209
-0.494602
0.159497
0.215661
-0.959850
0.525071
-0.574798
0.087380
0.176014
-0.460498
-0.698191
-0.072941
-0.102432
-0.013890
0.865674
-0.096529
-0.213120
-0.021975
-0.222820
-0.133701
0.166069
0.352652
0.550665
0.349618
0.710793
0.364308
-0.264860
0.365953
-0.649873
0.291634
-0.506350
-0.453748
0.603106
-0.439720
-0.351972
-0.246874
-0.127064
0.400244
0.995675
0.220423
-0.681139
0.647671
0.608272
0.439315
0.260134
-0.853650
-0.583568
-0.833061
-0.756919
-0.803227
-0.463630
-0.561849
0.394940
0.358838
-0.705943
-0.544760
0.794404
0.560406
0.180094
0.078539
-0.132230
-0.941630
0.451387
-0.498545
-0.884510
0.635960
-0.068960
-0.023005
-0.875352
0.873310
0.237554
0.526045
-0.358606
-0.369117
0.800936
-0.641530
-0.231651
0.787493
0.958473
-0.514198
-0.483511
-0.261206
0.096867
-0.839848
-0.756906
0.313540
-0.519502
0.928343
0.383127
0.701612
-0.203993
0.192968
0.835393
-0.143646
0.284676
0.560881
-0.004280
0.414646
-0.415263
-0.545113
-0.373002
0.120844
0.055250
-0.477882
-0.016450
-0.298903
0.344511
0.036350
0.388321
0.837302
-0.069652
0.295211
-0.859681
-0.006745
-0.260559
-0.250747
-0.509493
-0.069854
0.846791
-0.494187
-0.183486
0.503738
0.372770
-0.390968
-0.506771
0.347682
-0.854241
-0.583894
0.928374
-0.000862
-0.212494
-0.331495
0.927442
0.092868
-0.832730
0.647244
-0.946378
0.554923
-0.769190
-0.587867
0.067136
-0.315719
-0.670877
0.561886
-0.128327
-0.740077
-0.450565
0.910987
-0.168304
-0.374316
0.213375
0.220931
-0.944759
-0.367032
-0.550002
-0.619226
0.528849
0.276756
0.883259
0.721717
-0.603595
-0.994242
-0.204783
0.897807
-0.143888
0.997073
-0.481281
-0.963207
0.193048
-0.987950
0.545703
-0.320868
-0.077084
-0.410836
-0.841190
0.932355
0.012690
0.377114
0.939923
-0.687728
-0.276918
-0.470720
-0.176775
0.568437
0.800743
0.932956
0.184069
-0.686084
-0.021878
0.432393
-0.859707
-0.882047
-0.157010
0.204222
0.783515
0.537238
0.547015
-0.885871
0.775232
0.348890
0.021768
0.279813
0.202815
0.471318
-0.746269
0.272671
-0.951806
-0.617687
-0.167878
0.690525
-0.330854
0.216274
0.835005
-0.107220
-0.362170
-0.925546
0.088011
0.036887
0.621557
-0.140426
-0.147959
0.782713
0.919227
0.350175
0.293769
-0.012859
0.390382
-0.791358
-0.230817
-0.782165
0.109218
0.988507
0.827033
0.116339
-0.965726
-0.512225
0.619018
0.836592
0.631173
-0.216583
-0.596533
-0.658428
-0.793095
0.116996
0.697740
-0.202445
0.165886
0.688443
-0.441846
0.042596
-0.655193
0.982162
0.450382
0.682056
-0.289105
-0.392496
-0.476030
-0.166282
0.505154
-0.629606
0.434544
0.137374
0.658925
-0.518168
-0.305360
-0.886757
0.575989
-0.212006
0.971575
0.263186
0.142860
0.599079
0.517540
-0.715510
-0.500854
-0.216227
-0.991907
-0.201062
0.445268
0.510047
0.575533
-0.153912
-0.885104
-0.061276
-0.742804
-0.271903
0.774606
0.437033
0.887459
-0.959126
0.884315
0.793595
-0.174967
0.696592
-0.329478
0.792708
0.328694
0.796051
-0.536013
-0.303213
-0.945804
0.568656
0.474459
-0.257269
0.299849
0.202998
-0.608688
-0.204021
0.377362
-0.564674
0.678627
0.401228
-0.606130
-0.091177
0.369509
-0.243053
0.940433
-0.527519
0.643828
0.144034
0.439095
-0.146978
0.932427
-0.293744
0.500703
0.505620
0.877177
-0.181979
-0.168660
0.468431
-0.549090
-0.488431
0.867657
0.567168
0.142649
0.624312
-0.751139
-0.019707
-0.986533
-0.881581
0.861109
-0.216500
-0.822832
0.045404
-0.058736
0.071763
0.909030
-0.677256
-0.739889
0.794495
-0.598385
0.532403
-0.564506
-0.188412
-0.710297
0.469659
0.028661
0.348838
0.743415
0.485111
-0.163328
-0.923842
-0.486180
-0.071028
0.105156
-0.412829
-0.946760
0.529587
0.530321
0.927202
0.119272
-0.378637
-0.516050
-0.296188
0.280853
-0.282310
0.833389
0.132553
0.717205
0.675759
-0.155551
0.770664
-0.738335
-0.835322
-0.706180
0.690515
-0.837474
0.314481
0.762704
-0.443340
0.791214
-0.133478
-0.084940
0.610775
-0.958123
-0.074454
0.360094
0.702829
-0.413406
0.033036
0.981731
-0.682535
-0.294815
-0.531705
-0.943880
-0.682032
0.090127
-0.643455
0.525163
0.242799
0.859248
0.934907
0.099587
-0.893511
0.458513
0.618970
-0.439784
-0.018106
-0.848756
0.135651
-0.792393
0.340378
-0.407070
-0.570204
-0.656352
-0.493935
0.387319
-0.422459
0.357318
-0.422975
0.243843
-0.990369
0.277110
0.598334
0.988960
0.340076
0.511281
0.890381
-0.277634
-0.795350
0.618028
-0.184998
0.497132
0.449842
-0.874369
-0.379598
0.398840
-0.724297
0.753003
-0.211802
0.610307
0.448563
-0.571386
0.160404
-0.893617
0.571514
-0.583882
0.451700
0.505197
-0.315325
0.923482
0.389218
-0.939708
0.174766
0.232913
-0.627232
-0.944183
-0.691479
0.596381
-0.329443
0.074340
0.908342
-0.987477
0.688300
-0.110841
0.470352
0.044210
0.170911
0.293812
0.577995
-0.419738
0.581090
-0.251562
-0.875761
0.352599
-0.498228
-0.765273
0.540398
-0.743651
0.210175
-0.123957
0.455867
0.504748
-0.971472
-0.699643
-0.239529
0.206854
-0.125234
-0.000861
-0.929455
-0.864078
0.708497
0.591506
-0.335230
-0.710609
0.808368
-0.983630
-0.111191
-0.974619
0.935934
-0.533875
-0.936773
-0.609255
-0.213493
-0.238754
0.594942
0.530052
-0.474932
0.125595
0.040449
0.676703
-0.263748
0.403611
-0.092369
-0.765687
0.160372
0.015405
-0.939337
0.187749
0.653547
-0.233656
-0.104778
0.623040
0.538171
-0.650640
0.678890
-0.650146
-0.204029
-0.400488
-0.853283
0.395915
-0.031972
0.302459
-0.974697
0.049634
0.528906
-0.790520
0.062641
0.579870
0.883667
-0.456799
0.271693
-0.463446
0.840838
-0.841397
0.288055
0.358600
-0.556859
0.293316
-0.967407
-0.875644
-0.272646
0.937374
-0.940383
0.201406
-0.551356
-0.942105
0.402360
-0.642435
0.568086
0.041778
-0.795491
0.860630
0.946877
-0.479978
0.676460
0.842956
0.560547
0.856408
0.498738
-0.760717
-0.283357
0.265800
0.792189
0.602291
-0.784318
0.786506
0.794960
0.157087
0.093574
-0.268965
0.888674
-0.223984
-0.791108
0.425257
-0.445537
0.672605
0.385300
0.783802
0.487971
-0.138598
-0.714355
-0.254926
0.185787
-0.259731
0.427791
-0.981298
0.958855
-0.780589
-0.854909
0.680372
0.008402
0.865411
0.849620
-0.635853
0.414659
0.961292
0.461364
-0.140001
0.846343
0.579747
0.694637
-0.186123
-0.354294
-0.321020
-0.460230
0.270075
-0.141895
0.332675
0.859439
-0.528804
-0.482139
0.369409
0.276271
-0.858055
0.573303
0.561693
-0.108050
-0.317124
-0.725890
0.250776
0.546278
-0.513923
0.191120
0.605402
-0.786702
0.416853
0.434039
-0.136259
-0.955554
0.106547
0.945675
0.482128
-0.774973
0.268964
-0.209964
-0.190093
0.949910
-0.393647
-0.620967
0.047653
0.939379
0.528681
0.642484
-0.904539
0.445759
0.361862
-0.020749
-0.135252
0.616400
-0.654757
0.379265
0.421738
-0.568853
-0.804171
-0.285580
0.579567
-0.814461
0.919344
0.427587
0.123029
0.135476
0.649712
-0.075613
-0.201643
0.648664
0.935370
-0.134539
-0.223014
0.053490
0.254724
0.228211
0.118634
-0.409657
-0.887650
-0.502471
-0.590048
0.255475
0.762842
0.927212
-0.918920
-0.569364
0.881510
-0.440109
-0.835253
-0.873489
-0.968336
-0.597780
-0.075038
-0.671416
-0.629811
0.579726
-0.429761
0.800326
-0.069369
-0.667059
-0.000174
0.765356
-0.748394
0.741538
-0.544706
-0.112638
0.094913
-0.080868
-0.148853
-0.968605
-0.262046
-0.989711
0.961374
0.024580
0.744549
0.511290
-0.458970
-0.412524
-0.825392
0.834008
0.930408
-0.426434
-0.618424
-0.579641
0.183157
0.482164
-0.576945
0.744563
-0.748856
-0.357469
0.677711
0.954166
0.731021
-0.526182
-0.311668
0.161949
0.837653
0.352305
-0.194579
-0.154008
0.195441
0.053353
-0.730923
-0.973220
0.403272
-0.786145
0.422906
-0.113166
-0.245388
0.551979
0.739796
-0.745786
0.527803
0.765558
-0.502683
-0.576717
0.905925
0.749482
-0.249561
-0.051053
0.472106
-0.629849
-0.522520
0.106952
0.736632
-0.798970
-0.795610
-0.065292
0.652455
0.210570
0.396972
-0.775471
0.179975
0.953720
-0.968209
-0.537774
0.491762
-0.658273
0.912544
-0.650362
0.766704
-0.417681
-0.095520
0.384306
-0.945193
0.864574
-0.170290
-0.774944
-0.011426
0.953173
-0.298174
-0.839202
0.078326
-0.050123
-0.570956
-0.946254
0.213297
0.265007
-0.180650
0.011243
-0.998858
-0.426977
0.867420
0.338383
-0.819621
-0.607279
-0.920526
0.494351
0.694405
-0.966711
-0.286446
0.725046
-0.265155
-0.524925
0.120967
-0.667771
-0.096856
-0.461961
-0.914513
0.519042
0.686127
0.419535
-0.163197
0.144192
0.082451
-0.609789
-0.902744
0.543527
0.775585
-0.607342
0.583426
0.521362
-0.831326
0.403235
0.010364
-0.088632
0.339200
-0.718922
0.300244
0.369298
0.080622
-0.669811
0.546090
0.079702
-0.148407
0.020775
-0.884551
-0.894771
0.810446
0.766294
-0.897693
0.615576
0.419541
0.255659
-0.014729
0.982259
0.753154
0.895577
0.552745
-0.180029
0.451058
0.471622
0.088340
0.487461
-0.359619
-0.530197
-0.911968
0.166614
0.611638
0.634158
0.295664
-0.919169
-0.686160
0.503755
-0.931323
-0.425979
-0.506024
-0.969479
-0.580465
-0.067729
0.497763
-0.059576
-0.191049
0.335906
-0.122892
-0.278492
-0.838055
-0.166077
0.755821
0.858236
-0.215097
0.365783
-0.323855
-0.590660
-0.832251
-0.701740
-0.797506
0.016515
-0.852721
0.091522
-0.730039
0.071477
0.022423
-0.618484
0.839894
0.958574
0.561036
0.528689
0.650499
0.263410
-0.054467
0.993729
0.554803
0.944270
-0.093977
-0.885697
-0.262142
-0.843489
-0.045142
0.646003
-0.856331
0.797624
-0.053189
0.227333
-0.612174
-0.165229
0.455730
0.430023
-0.153784
0.509486
0.994733
0.727393
0.762555
0.251697
-0.118071
0.387217
0.106754
0.983209
-0.502131
-0.212730
-0.328867
-0.698864
-0.536160
0.598626
-0.885267
0.436003
-0.903343
-0.377934
-0.373198
0.545749
0.246044
0.383135
0.413292
0.580699
0.451308
-0.877880
-0.127232
0.070280
0.400244
0.279118
-0.127289
0.444097
0.012036
0.269035
0.802214
-0.258674
-0.230661
-0.884511
0.544151
-0.872265
0.098230
0.540932
-0.345649
0.034271
0.571796
-0.126239
0.829107
0.275172
0.368764
-0.145621
-0.592323
-0.080217
-0.223782
0.507885
0.499337
-0.672501
0.936855
-0.998895
0.498750
-0.774393
-0.618770
-0.783646
-0.264594
0.781393
0.805555
-0.789800
0.457170
0.994527
0.609275
0.379145
-0.288313
0.743304
0.773086
0.489588
-0.916913
-0.528013
-0.176449
-0.025929
-0.838026
-0.147762
-0.527093
-0.418354
0.631305
0.320290
0.354955
0.095099
-0.226072
-0.539143
0.216409
0.722249
-0.226836
-0.250787
0.460108
-0.689624
0.378135
-0.068094
0.519322
0.865721
-0.969237
-0.879425
-0.499738
-0.480201
0.700201
-0.658309
0.894708
-0.389890
-0.088701
-0.409724
-0.224609
-0.463300
-0.178264
0.604315
-0.611369
-0.096645
-0.369615
0.051076
0.469437
0.967390
0.962695
-0.915054
0.693024
-0.223338
-0.427335
-0.679139
-0.232367
-0.338937
0.085177
0.373716
-0.129303
-0.617979
-0.933529
-0.331613
0.671845
0.288744
-0.769336
0.771784
-0.505774
-0.712068
-0.772348
0.633447
0.714598
0.466317
-0.469724
0.129410
-0.337083
-0.664408
-0.390513
0.130749
0.930953
-0.439747
-0.331405
-0.461148
0.889301
-0.802150
0.783272
0.992963
0.139954
-0.227720
0.359868
0.196175
0.985280
0.196695
0.052080
-0.185884
0.207524
-0.898065
0.219410
0.495378
0.300473
-0.285585
-0.138497
0.299784
0.231142
-0.886603
0.120927
-0.939460
0.026961
-0.463692
0.623047
0.252618
-0.025282
0.307966
-0.229973
0.931624
0.518747
-0.678732
-0.111655
0.134943
-0.050841
0.332028
-0.191366
-0.453749
-0.986516
0.732944
-0.237031
0.717287
0.992435
0.588636
0.280505
0.200736
0.959848
0.617854
0.585253
-0.513891
-0.618039
-0.774531
0.121483
0.036078
-0.414517
0.206087
0.005436
0.815977
0.068049
0.235092
-0.189178
0.069679
0.274985
-0.741664
0.874373
-0.985075
0.042726
0.934482
0.830392
-0.252523
-0.007222
-0.799879
-0.066697
0.290749
0.908864
0.403007
0.588752
0.995607
0.388538
0.414273
0.002679
-0.596904
0.891177
-0.607525
-0.973127
-0.869419
0.076570
0.504954
0.444429
-0.751534
0.983298
-0.552589
-0.315396
0.444760
0.136770
-0.192751
-0.328302
-0.532771
-0.236656
-0.527566
-0.376014
-0.512223
-0.405313
-0.316358
0.389400
0.338670
-0.006636
-0.389275
-0.458702
-0.882557
-0.167863
-0.925224
0.550042
0.017839
0.808493
-0.320287
-0.474265
0.304879
-0.946479
-0.738166
-0.917063
-0.208214
0.573817
0.716733
-0.807125
0.074064
0.298128
-0.011517
-0.625854
-0.317911
0.102173
-0.564846
-0.855888
-0.238657
-0.118080
0.073594
0.940723
0.601850
-0.272364
-0.191848
0.983403
-0.060599
0.652865
0.149369
0.701403
0.089224
-0.717041
-0.220400
-0.973398
-0.264163
-0.292324
0.714301
0.312664
0.071315
0.349547
0.421111
0.324740
-0.985014
-0.797053
0.700366
-0.478175
-0.341911
-0.611683
0.429648
-0.223298
0.371219
0.437441
0.172840
0.495918
-0.265674
0.232573
-0.920829
-0.084542
0.577807
0.599524
-0.651518
0.170370
-0.696396
-0.503821
-0.546257
-0.021925
-0.745718
0.360107
0.528800
-0.642723
-0.938257
-0.040115
0.360705
0.558833
-0.655555
0.964991
-0.257411
0.856947
0.379077
0.315259
-0.304580
-0.270927
-0.433708
0.888290
0.024526
-0.286287
0.910873
0.812227
-0.123108
0.265164
0.338321
-0.041184
-0.023705
-0.670877
-0.009496
0.374568
0.156228
0.365850
-0.200170
0.942357
-0.740600
0.353414
-0.487304
0.779921
0.437383
-0.461998
-0.860541
0.491707
-0.319736
-0.899494
-0.511792
0.898258
0.744512
-0.700074
-0.258779
-0.078897
-0.625895
0.283055
0.746399
-0.450438
0.425733
-0.135581
-0.948910
0.257955
-0.695416
-0.229559
0.445901
-0.633426
-0.393096
0.877937
-0.142066
0.937886
-0.777841
-0.671024
0.806473
0.014354
0.405813
-0.065013
0.906584
-0.417618
0.360220
0.710596
0.495207
-2.175610
0.108156
-0.219184
0.596481
-0.240275
0.308519
-0.527783
-0.155926
-0.292217
-0.507952
0.837807
0.340611
-0.825881
0.286681
0.575012
0.868735
0.420158
-0.956998
-0.485792
-0.931278
-0.558122
-0.733689
0.253026
0.542261
0.471177
-0.401158
0.826916
0.402337
-0.439792
-0.098496
-0.511302
-0.214113
0.041619
-0.132119
-0.787642
-0.422499
-0.985721
-0.911777
-0.989082
0.424325
0.789314
0.351824
-0.890856
0.938622
0.579469
0.048478
-0.909160
0.597229
0.218171
-0.571915
0.477957
0.779654
-0.036457
0.121914
0.070224
0.436324
0.389970
0.348883
-0.038878
-0.746138
-0.133867
0.247789
0.731897
-0.245997
0.363300
-0.862254
0.759161
0.076406
0.047173
-0.732534
0.964288
0.423595
-0.789307
0.985813
-0.301368
1.003043
0.868735
-0.101450
0.400698
0.676039
-0.885129
-0.210913
0.596076
0.313144
-0.578564
0.665064
0.640179
0.207460
0.320492
-0.467466
0.049758
-0.224124
-0.333074
0.374996
0.314296
-0.327239
0.745466
-0.762642
0.464620
-0.779717
-0.243021
-0.701128
0.777897
0.173098
-0.835757
-0.673982
-0.788333
0.835473
-0.306608
0.194163
0.026477
0.129883
-0.427497
-0.978023
-0.513046
0.563836
-0.894621
-0.157384
0.624883
0.122286
-0.915126
0.648835
0.861074
-0.977315
0.601016
0.238717
0.205187
0.065769
-3.335928
-0.752046
-0.443807
0.585346
0.071314
-0.203528
0.002193
0.700116
0.876867
-0.806519
0.861576
0.831808
-0.944482
-0.386064
0.298042
-0.202757
0.816594
0.728828
0.006551
-0.977792
0.065860
-0.633513
-0.286539
0.532458
0.677985
-0.902302
-0.173934
-0.083389
-0.061479
-0.805529
0.056250
0.512844
-0.602380
0.950032
0.700079
0.994772
-0.173346
0.847642
-0.755882
-0.341262
-0.148256
-0.281339
-0.350622
0.696468
0.568681
0.942456
0.177926
0.103554
0.948716
-0.927296
-0.039782
-0.977627
-0.512445
0.894542
-0.812938
0.633402
0.368888
-0.568385
0.464935
0.808467
-0.510814
0.509078
0.183561
-0.067332
-0.338667
-0.954076
0.802415
0.871973
0.307385
0.796644
0.115452
-0.170714
-0.696589
-0.481976
-0.172338
0.300409
0.976085
-0.329116
0.738922
0.207048
-0.429917
0.445327
-0.483253
0.341513
1.006655
0.224860
0.511294
0.486952
-0.467723
-0.922763
-0.207655
-0.515095
-0.747242
-0.514859
0.424100
0.310786
-0.200728
0.020034
-0.922052
0.525004
0.543074
0.101490
-0.509452
-0.524687
0.209843
-0.367680
0.032035
0.959845
0.525689
-0.172154
-0.725383
0.102083
-0.711388
-0.645036
1.004935
-0.350477
0.611820
0.344347
-0.329145
-0.449533
0.679130
0.894301
0.658255
0.584058
0.027753
0.739868
-0.845466
0.328663
-4.631642
0.771757
0.543753
0.478006
-0.314278
-0.780055
-0.256372
0.630284
0.921883
-0.100621
-0.869756
0.109603
-0.513271
0.464349
0.316772
0.360512
0.115073
0.468414
-0.743469
-0.742101
-0.630651
-0.457488
0.619246
0.322351
0.721561
0.503504
-0.218371
-0.556441
0.313921
0.180790
-0.808844
0.490470
0.816673
0.341561
-0.019911
0.819220
0.593882
0.134988
-0.412290
0.051929
0.021009
0.424152
0.647470
0.906390
-0.169060
-0.057058
-0.673986
-0.893582
0.993632
0.980506
0.264858
-0.719490
-0.718965
-0.650043
-0.800309
0.306937
-0.595278
-0.717909
-0.329580
-0.032482
0.615564
0.991597
-0.104214
0.555559
-0.196470
-0.077837
-0.258924
-0.837526
0.119779
-0.895988
-0.662596
0.196521
-0.851561
0.020715
0.480335
-0.685534
-0.000389
0.033883
-0.174583
-0.026674
-0.348334
-0.219166
-0.566657
0.083795
0.535229
0.939563
0.587947
-0.426149
-0.054220
-0.976675
0.618042
-0.447090
-0.874717
0.432563
-0.348181
-0.931415
-0.529708
0.174423
0.172106
-0.054462
-0.705004
0.932256
-0.358032
0.821023
0.354641
-0.583091
0.907495
0.963669
-0.045530
-0.130132
0.084840
0.858351
-0.981165
0.833943
0.545663
0.078974
-0.326030
0.539245
0.157183
-0.515963
-0.662870
-0.891039
-0.352337
0.616676
0.602258
-0.069928
-0.485831
0.167292
-5.168639
0.921170
-0.902488
-0.472622
-0.105782
-0.909147
-0.068104
0.019862
0.223089
0.181965
-0.337098
-0.449604
-0.098401
-0.513454
-0.849646
-0.749231
0.191485
-0.305072
-0.992581
0.285786
0.857296
0.797332
-0.277465
0.536958
-0.450964
-0.709739
-0.095979
0.937509
-0.017868
0.409864
0.211062
0.202952
0.660006
0.070772
0.040504
-0.877119
-0.531356
0.907968
0.068286
-0.316095
-0.591625
0.514900
-0.727227
0.532870
0.057831
0.838168
-0.711887
-0.553824
0.408797
-0.936206
-0.178743
0.002398
0.250510
-0.563359
0.176388
-0.546850
0.616254
0.572437
0.120661
-0.962117
-0.159222
0.902838
-0.266814
-0.435275
0.110123
0.450502
0.224015
0.539333
-0.800649
0.116739
0.477574
-0.226735
-0.956715
0.948890
0.325283
0.732224
0.205997
-0.509404
0.885337
0.835414
0.288304
0.084992
-0.753946
0.691430
0.525648
0.374416
-0.686322
-0.982984
0.286542
0.714628
-0.004263
0.001788
-0.942137
0.127274
-0.868788
-0.288061
0.756996
0.393755
0.097715
0.167044
0.897450
-0.600969
-0.662667
0.040390
0.169797
0.360220
-0.525428
-0.986100
0.752266
0.391118
-0.222736
-0.894462
-0.510688
-0.858323
0.898764
0.339765
0.895873
-0.734224
-0.584020
0.655297
-0.875074
-0.149383
0.228136
-0.833313
-0.072268
-0.314821
0.105205
-0.847875
-7.912549
-0.767556
-0.845009
-0.344275
-0.774411
0.103411
0.005950
0.069653
-0.162255
-0.631163
0.145896
0.164887
-0.120187
0.624734
-0.148449
0.610503
-0.433219
-0.788502
0.710701
-0.840050
0.068800
-0.292075
-0.865462
-0.570765
-0.678547
-0.418858
0.782500
-0.218301
-0.034043
0.738979
-0.151776
-0.260133
-0.510425
0.151677
0.799420
-0.056804
0.916761
0.744905
-0.708467
0.786705
0.805211
-0.038438
0.716918
0.863830
-0.018139
-0.071327
-0.983253
0.313564
0.369131
-0.263149
0.135612
0.576323
-0.764339
-0.777740
-0.358217
0.947446
0.588814
0.839121
0.710248
-0.691039
-0.991907
0.065949
0.147732
0.233113
0.302818
0.940981
0.546853
-0.544385
0.377637
0.126250
0.903568
-0.086749
0.180750
0.533233
0.497441
0.711492
0.398761
-0.418844
0.647058
0.226159
-0.379399
-0.646457
-0.659814
0.476909
0.973763
-0.293918
-0.718091
0.480020
0.078993
0.710481
0.742629
0.196914
-0.572734
-0.603845
-0.317905
-0.138845
0.224013
0.675624
0.043931
0.753742
-0.785744
0.565630
0.394605
0.769329
0.588451
-0.280922
-0.663081
1.000527
-0.337624
0.299227
-0.081342
0.852085
0.979791
0.355743
-0.228411
-0.161092
0.757619
-0.121789
1.018892
0.743211
-0.681156
-0.490901
0.230178
0.394591
0.277927
0.423116
-0.374353
0.000885
-9.715330
-0.125763
0.699873
0.697846
-0.380871
0.702634
-0.864387
-0.330190
-0.223173
-0.049687
-0.396334
0.577645
-0.700996
0.740479
0.397706
0.478761
0.333689
-0.740701
0.252983
-0.947163
-0.174192
-0.476754
-0.880547
-0.167115
0.933252
0.875327
-0.218617
-0.424220
-0.474463
-0.424197
-0.070382
0.328071
-0.438159
-0.866336
-0.790303
0.303223
-0.389838
-0.852258
-0.439046
-0.862076
-0.021549
0.755772
0.738541
0.657454
-0.820348
-0.494596
-0.358365
-0.493807
0.203678
0.910352
0.822052
-0.294157
-0.774965
0.854053
-0.205296
-0.859037
0.634047
-0.282228
-0.381743
-0.547597
-0.607893
0.682681
0.651448
-0.611191
0.725972
-0.835837
0.526559
0.609148
-0.369043
0.029379
0.050345
-0.264240
-0.817699
0.046760
0.410792
0.672075
0.760945
0.670421
0.057789
-0.694799
-0.799538
0.428195
-0.367626
-0.383587
-0.054351
0.139317
-0.185067
0.129765
0.703021
-0.563839
0.158513
0.744086
0.900138
0.195403
-0.632307
-0.113687
-0.519511
0.500293
-0.706628
0.444478
-0.798935
-0.260200
0.405364
-0.626618
0.216588
-0.825050
-0.686848
-0.930225
-0.754677
0.057298
-0.492839
0.850916
0.101883
-0.739761
-0.368729
-0.436197
-0.641412
-0.207970
0.170641
-0.168697
0.260444
0.929023
0.280984
-0.876012
0.763720
-0.144409
-0.405188
-0.880954
-11.043263
-0.741548
-0.029166
-0.148418
-0.363978
-0.983274
-0.256332
0.441688
0.011379
-0.358695
-0.193443
0.010497
-0.382838
0.833556
0.429758
-0.516678
-0.768370
0.616183
-0.983110
0.666337
-0.510153
0.456041
-0.770404
0.178462
0.817094
0.490131
0.251016
-0.309351
0.013625
-0.749595
0.936044
0.209244
-0.261247
-0.916828
-0.906006
0.705399
0.176031
0.574626
-0.155545
-0.298075
-0.834448
-0.653411
-0.133428
0.592285
0.574192
0.842734
0.070601
-0.306233
-0.528424
1.030020
0.439297
-0.264658
-0.700362
-0.562411
-0.045006
-0.074739
0.093783
-0.015678
0.836136
0.312698
-0.150032
-0.644631
-0.802122
0.800781
0.651685
-0.545207
-0.494126
0.826533
-0.683695
0.590697
-0.231214
0.729713
-0.638828
-0.549513
-0.207091
0.801513
0.804331
-0.801121
-0.325673
-0.736601
0.729196
-0.510673
-0.402913
-0.555265
0.207195
0.691338
-0.868680
-0.441506
-0.722552
0.506395
0.926809
0.682053
-0.592800
0.672761
-0.510517
0.006888
0.328479
0.454042
-0.535144
-0.758092
0.025288
0.634395
-1.033048
0.330504
0.347527
0.632833
-0.334836
-0.753430
-0.548340
-0.360960
-0.087414
-0.166843
0.925672
0.379777
0.161209
-0.321285
-0.962680
-0.299709
0.314467
0.771090
0.315803
-0.649006
0.158646
-0.270537
-0.032284
-0.143061
-0.246370
0.204779
-11.940466
-0.210035
0.631231
-0.541020
0.329900
0.106008
-0.847630
0.520996
-0.146143
0.221215
-0.456894
-0.870637
0.449240
0.248686
0.069551
-0.687741
-0.798479
0.373035
0.846625
0.235492
0.298462
-0.483696
0.081894
-0.294388
0.565866
0.445219
0.137586
-0.528288
-0.664642
0.752248
0.980150
-0.421064
-0.963753
-0.313260
-0.918538
0.718100
-0.119727
0.075191
0.686485
0.355451
-0.147300
0.991376
0.129879
-0.243901
-0.305896
-0.174183
-0.120433
-0.838978
-0.012577
-0.128562
-0.742289
-0.628453
-0.598152
-0.016031
0.491221
0.116840
0.869430
0.938168
-0.038361
-0.911544
0.110291
-0.448055
-0.534479
-0.646445
0.194294
-0.858035
-0.787261
0.165699
0.196328
0.597265
0.955871
0.905629
0.753566
0.864181
-0.984891
0.098614
0.149292
0.444687
-0.838061
-0.288484
0.454837
-0.104280
0.085817
-0.771723
0.545885
0.277727
-0.640020
0.863781
0.055627
-0.254243
0.451425
-0.754008
0.481320
-0.440984
-0.886276
-0.085247
-0.632310
0.444544
0.742007
-0.531456
0.623748
0.132432
0.485285
0.980068
-0.655518
-0.798112
-0.183482
0.397342
0.234411
0.479919
0.894112
-0.256279
0.303450
0.327083
-0.722473
-0.634905
0.612250
0.732245
0.436173
0.806764
-0.723699
-0.707355
-0.175343
-0.248577
0.080203
0.714774
-0.516110
0.395032
-9.536356
0.803252
-0.880961
-0.390327
0.895208
-0.087208
-0.669689
-0.618763
-0.917159
0.141291
-0.856047
-0.239345
-0.438102
0.777628
-0.132328
-0.104932
-0.928019
-0.164865
-0.377491
0.123197
0.046306
-0.650830
-0.603264
0.493791
0.431414
0.083282
0.249383
-0.892555
-0.606232
-0.944730
0.704232
0.927853
0.685256
0.053317
-0.642225
0.467985
-0.209319
-0.613276
-0.243296
0.760414
-0.542953
0.757341
0.494443
0.311767
0.274508
0.343210
-0.993571
-1.012683
0.217905
0.733182
0.520113
-0.516699
0.696322
0.354332
0.495346
0.782011
-0.310657
-0.706824
-0.992279
0.958372
-0.749663
-0.291574
-0.333600
-0.699665
-0.486159
-0.247490
0.818576
-0.617130
-0.442722
0.241386
0.826426
-0.171160
-0.544141
-0.809648
-0.535260
-0.835448
-0.973637
0.570423
-0.809359
0.199807
0.083896
0.216027
-0.881538
-0.891603
0.793534
-0.907629
-0.377142
0.150065
0.314088
-0.158510
0.045973
0.546279
0.284811
0.638194
0.497976
0.682631
0.589817
0.221070
-0.294062
-0.596592
-0.930782
-0.262065
-0.803209
-0.930991
-0.550572
0.232293
-0.091287
0.865522
0.026821
0.131635
-0.792729
-0.116157
-0.656676
0.682839
0.744897
0.239308
-0.833560
-0.886079
0.075619
0.459517
0.211970
0.720368
-0.069823
0.426053
0.263761
-0.453329
-0.267740
0.426979
-7.621990
-0.608036
-0.022767
0.772779
-0.479459
0.296254
-0.346078
-0.234560
-0.058223
0.116055
0.120593
0.807766
-0.137429
0.249362
0.384277
0.027648
0.880241
-0.438540
-0.390183
-0.590687
-0.583028
0.207134
-0.360313
0.838901
-0.645545
-0.473129
0.286683
0.888815
0.040350
0.203559
0.387846
0.244315
0.850737
-0.323309
0.538845
0.365320
0.163281
-0.059667
-0.760412
-0.885358
-0.464627
-0.791701
-0.620024
0.256459
0.165842
-0.167763
0.110485
0.762168
-0.728763
0.740563
-0.496866
0.078993
0.994476
-0.484845
0.731712
0.105594
-0.853517
-0.311502
0.398439
-0.418927
0.790700
0.281815
-0.509440
0.540394
0.886854
-0.559895
0.429250
-0.333397
0.215565
-0.511821
0.222384
-0.526977
0.936294
-0.291861
-0.126627
0.319104
0.582245
-0.728811
0.306451
-0.767428
-1.013613
-0.913018
-0.886271
0.119571
-0.531745
0.341029
-0.857554
-0.551555
0.306176
-0.375532
-0.589483
0.655265
0.174971
-0.292514
-0.323472
0.270516
-0.674656
-0.515569
0.354541
0.160875
0.470727
-0.438682
0.392741
-0.010049
0.456718
0.067207
-0.780195
0.095392
-0.144661
-0.666018
-0.974462
-0.846704
0.449063
-0.031623
-0.267909
0.298157
-0.286407
-0.486456
-0.725608
-0.066302
-0.007117
0.228881
-0.551336
0.355270
0.576494
0.540065
0.926629
0.342709
-6.045402
-0.838885
0.572767
0.896314
-0.134821
0.242965
-0.267328
-0.818796
0.599334
0.600109
-0.978519
0.099222
0.920846
-0.974323
0.647133
0.527527
0.823273
0.768888
-0.236488
0.168284
0.445678
-0.026171
-0.580605
-0.897086
-0.919143
-0.369090
-0.240780
-0.890930
-0.288085
0.597125
-0.699338
0.382039
0.602432
0.058475
0.660964
-0.399423
-0.014380
-0.150530
0.859888
0.015644
0.914421
0.163402
0.720392
0.710768
0.159022
0.273706
-0.626311
-0.772962
0.640181
-0.138842
-0.476548
-0.675371
0.655763
-0.940141
-0.804014
-0.186977
0.224021
0.967383
0.672821
-0.668097
-0.200866
-0.028287
0.065356
-0.286616
-0.350516
0.166358
0.760842
-0.932339
-0.620602
-0.538116
0.354579
0.495334
0.352002
0.720998
0.921138
-0.060827
-0.462335
-0.360238
0.579736
-0.836343
0.194217
-0.945403
-0.440952
-0.334264
0.856136
-0.585086
-0.721884
0.601441
0.265801
-0.066329
0.707685
-0.643791
-0.763750
0.981722
-0.477879
0.733929
-0.969909
0.673160
-0.656704
-0.714327
0.761738
0.178331
-0.870931
-0.386495
-0.241785
0.905301
-0.427676
0.878597
0.939455
-0.259409
0.748521
-0.082185
0.356612
-0.029756
0.745596
0.812308
-0.216293
-0.107248
0.186393
-0.817703
0.620803
-0.031982
0.014539
-0.547953
0.155034
0.710993
0.275620
0.879546
-3.576544
0.121058
0.931871
0.387162
-0.236806
0.963543
-0.757569
-0.685511
0.924922
0.682561
-0.275968
0.935471
-0.433105
-0.897132
0.187423
-0.025287
-0.313102
0.736132
0.576963
0.685395
-0.736730
-0.227661
-0.782559
-0.459571
-0.196166
0.244311
0.575907
0.968619
0.898842
0.308071
0.977626
-0.808549
0.829847
-0.013535
0.006863
0.398753
0.280645
-0.492010
0.580788
-0.792181
-0.631513
0.057853
-0.477928
0.200550
-0.855145
0.806121
-0.764140
-0.517202
-0.361877
-0.021326
-0.985143
0.086371
0.560782
0.997249
0.696798
-0.038861
0.006169
0.988236
0.410554
0.558520
-0.731850
-0.886912
0.182087
-0.362844
0.559240
0.233854
0.621889
0.584954
-0.450376
-0.370893
-0.335178
-0.628955
-0.829379
0.625996
-0.681173
0.642194
0.144741
0.588332
-0.419346
0.009021
-0.207251
-0.086456
0.504731
0.775122
0.393198
-0.459434
-0.190047
0.529986
0.350693
0.716506
-0.193358
-0.309150
-0.890029
-0.575569
-0.394400
-0.186301
-0.304565
0.653284
-0.298448
-0.021235
0.448135
0.837709
0.700689
-0.706574
0.064453
-0.973204
0.769201
0.167279
0.445171
-0.742271
-0.042831
-0.668746
-0.934062
-0.323919
-0.169112
0.520340
-0.758665
-0.612893
0.831023
0.880193
0.071996
-0.286163
0.056233
-0.592700
-0.167495
-0.386455
-0.906978
-0.830720
-1.140613
0.927542
0.739348
-0.290273
-0.688415
-0.051720
-0.825408
-0.285692
0.734384
0.821734
-0.797552
-0.037448
-0.951080
0.409257
-0.557247
0.523014
-0.729774
0.405544
-0.313599
0.483697
0.848632
-0.429454
0.001816
0.894000
-0.108419
-0.815757
0.902345
-0.146458
0.228155
0.409689
-0.918247
0.283643
0.285471
0.095380
0.205520
-0.586493
0.254893
-0.019775
-0.899553
0.272674
0.149576
-0.482495
0.252285
0.106161
0.837629
-0.225912
-0.719684
-0.492455
-0.136507
-0.909431
-0.739917
-0.759465
0.576147
-0.929750
-0.728575
-0.774987
-0.752131
-0.464667
0.292747
-0.791168
0.960893
0.327420
0.506087
-0.196783
-0.490387
0.145223
0.139129
0.287134
-0.504901
-0.271280
0.590501
-0.552597
-0.378659
0.174086
0.074705
-0.503415
-0.106106
-0.184958
0.118706
0.485028
-0.295909
-0.325310
0.841279
-0.110584
-0.580836
0.191969
0.946053
-0.290126
-0.982029
0.893897
-0.969371
-0.264286
0.794853
-0.589451
-0.273327
0.662471
0.037194
-0.547002
0.311346
-0.026641
0.383200
-0.893166
-0.751789
0.980880
-0.445446
0.148742
0.877658
0.719928
-0.590148
0.066707
0.305601
0.531027
0.818274
0.709590
-0.946882
0.454116
-0.125585
0.195368
-0.880974
0.020182
-0.245633
-0.537530
-0.390828
0.122659
-0.289727
0.164285
-0.615610
0.713520
-0.639492
-0.437003
-0.800566
-0.927589
0.912746
-0.478181
-0.861657
0.079019
-0.482117
0.341255
0.289222
-0.605520
0.027631
0.958277
-0.340396
-0.017089
-0.954509
0.203518
-0.859551
-0.409809
0.868613
-0.444764
-0.249721
-0.519837
0.585202
0.071378
0.745138
-0.585999
0.002610
0.311033
-0.735835
-0.845840
-0.813113
-0.433161
0.514177
0.282657
-0.294421
0.608440
0.370829
-0.655886
-0.303479
0.035710
0.395607
-0.431923
0.155886
-0.815941
0.312922
0.079826
0.769530
-0.581092
-0.752976
0.974139
0.982434
0.998163
-0.259983
-0.347291
0.896237
-0.684782
0.802276
-0.541247
-0.080367
0.576736
0.259707
-0.152820
-0.769693
-0.820230
-0.769962
-0.765453
-0.379509
-0.008832
-0.347272
0.286052
-0.875160
-0.697211
-0.226922
0.352082
0.964759
0.636585
0.318704
0.496233
0.316693
-0.073527
0.884601
-0.433477
0.789688
0.155825
-0.367950
-0.803813
-0.891947
0.149126
-0.099173
0.827597
-0.455232
-0.292679
-0.254089
0.230748
0.788229
-0.203414
0.486034
-0.704067
-0.854127
0.379398
0.935391
0.763262
0.313903
-0.090753
0.013906
0.284622
0.504831
-0.177693
-0.915675
-0.980619
0.644136
-0.620361
-0.760447
-0.141245
0.275407
-0.090978
0.619135
-0.943719
-0.117953
-0.798592
-0.905108
0.558200
-0.482043
-0.372780
-0.338091
0.746205
-0.128426
0.741801
0.267045
0.505495
0.730689
0.178246
-0.715283
0.807342
0.148186
0.693710
-0.897130
0.388542
-0.180180
-0.160306
-0.139398
0.252695
0.009225
-0.173942
0.187397
-0.545288
0.812627
-0.338153
-0.661279
0.414931
0.157776
-0.820912
0.207140
0.894284
0.272844
0.220649
0.698812
0.928447
0.604188
0.156797
0.175103
0.855455
-0.388122
0.265833
-0.111111
0.117202
-0.882619
0.513885
-0.766957
-0.233116
0.020087
0.920931
0.643718
0.223899
-0.406803
-0.887522
0.153459
0.645199
0.783003
0.691326
-0.174097
0.092684
-0.170902
-0.483958
-0.487654
-0.281829
-0.869086
-0.089254
0.028038
0.165362
0.679349
-0.046553
-0.039469
0.437983
0.743297
0.879615
0.222968
0.601994
-0.913219
-0.410615
0.848522
0.386097
0.973205
0.027742
0.572103
0.867532
0.988532
-0.498064
0.168020
-0.541931
0.713222
0.715922
0.906089
-0.872670
-0.185992
-0.840868
-0.914128
0.575800
0.098770
-0.790255
-0.242322
-0.454015
-0.550952
-0.900677
-0.781588
0.726987
-0.176125
-0.423024
-0.623227
-0.953652
-0.481514
0.134269
0.348180
-0.281110
-0.821457
-0.637599
-0.141940
0.978528
-0.147592
0.248917
0.064981
0.886617
-0.422012
-0.667629
0.533933
0.503581
0.521474
-0.355660
0.935524
-0.461532
0.684059
0.436748
0.944743
-0.204482
0.481775
0.215189
0.902895
-0.814073
0.157710
0.284353
0.224656
-0.843922
0.574723
-0.996690
-0.317564
0.782080
-0.887967
0.768704
0.732244
-0.770750
0.837952
0.175230
-0.585201
-0.545911
0.179178
0.241568
-0.744331
-0.806660
0.991044
0.428555
0.143492
0.774515
-0.702155
-0.148616
0.050298
-0.553969
-0.255479
0.452463
0.612078
0.979669
-0.778411
0.141043
-0.917628
-0.722155
0.488773
-0.887550
0.725932
0.395771
-0.483266
-0.680369
-0.976254
-0.302559
-0.843654
0.255569
0.094520
-0.851344
-0.076116
0.955048
0.417805
0.836753
0.196276
0.303689
0.250009
0.949871
-0.930248
0.557237
0.882221
0.520016
-0.273641
0.686505
0.033091
-0.444372
-0.142164
-0.402219
-0.981203
-0.301974
0.750490
-0.615434
-0.069503
-0.652020
-0.099679
-0.186615
0.442920
-0.867551
-0.878473
0.980855
-0.150067
0.682198
0.874252
0.031098
-0.157358
0.082833
0.902411
-0.705304
-0.039142
0.724135
0.292688
0.100177
-0.896522
-0.755357
-0.701834
-0.543757
-0.268482
0.008201
-0.077371
0.586331
0.652536
0.769698
-0.163222
0.838777
0.929182
0.484710
-0.258942
-0.614775
0.105293
0.784200
0.560394
0.222831
0.340457
0.920842
-0.749586
-0.514541
0.774096
0.849853
-0.489360
-0.923024
-0.119913
0.088167
-0.797141
-0.672475
-0.962143
-0.294201
-0.787362
-0.066073
0.085960
-0.804184
-0.894541
0.887078
0.723663
-0.062131
0.912281
-0.829077
-0.670764
-0.969896
0.343016
0.045188
-0.357935
-0.157330
0.940953
-0.728273
-0.699064
-0.317632
-0.210563
-0.462559
0.578049
0.566775
-0.323999
0.988539
0.626513
0.837182
0.194499
-0.041109
-0.699041
0.931260
