-1.211681
-0.105747
1.324833
-0.278491
0.868963
-0.964542
0.715323
-1.292063
0.082038
-0.285357
0.640798
0.660099
-0.459335
0.615327
1.081649
0.392252
-0.390861
0.568398
-0.173362
-0.243280
-1.263573
-1.398707
0.356300
0.721546
0.500404
-0.332390
-0.295570
-1.885548
0.823948
-0.523805
-1.665376
-1.672911
-0.373640
0.617420
1.321461
-1.028539
1.467298
-0.196337
-1.310188
0.690000
-0.556759
-0.780023
-0.827694
-0.103982
-0.212209
0.665462
0.673892
0.977940
0.637950
-0.158582
0.303977
-0.434829
0.092559
1.554368
-0.794556
0.566610
-1.821104
-0.793756
-0.286620
-0.887679
1.805477
-3.036468
-2.335613
0.159420
-0.701287
0.146948
-0.326189
1.069039
-1.430875
1.041019
-0.074066
1.744369
0.001608
0.547764
0.814047
-0.804103
0.929026
0.368398
-1.268843
-1.115608
-1.730374
-1.536874
-0.021431
-0.735567
-0.225060
-0.615647
-0.787433
-0.097488
0.705552
-1.237267
-0.814669
-0.057175
-1.143980
0.211254
0.151965
0.861838
-0.648731
-0.648209
-0.358243
1.092962
0.893850
-1.358644
-0.538116
0.831321
-1.319597
1.094143
0.311559
0.305061
-0.820836
-1.256996
1.131281
-0.183041
-2.011289
-0.768656
-0.566912
0.828760
-0.757204
-0.345934
-0.411549
0.452833
-0.823276
0.912039
-0.125539
-0.205679
0.061942
0.228642
-0.070643
0.492257
0.268633
-0.623625
-1.452206
0.675601
-1.203661
0.192335
0.094224
0.341281
0.255123
-1.505222
-0.107737
-0.956672
-1.008744
0.304746
0.186814
-1.023952
0.303794
-0.639119
-0.676702
-0.071120
-0.490136
-1.301018
0.210084
-0.113722
0.311306
1.355579
-0.271986
-0.395699
0.351090
-0.621505
-0.976106
0.327131
-0.244382
2.157059
-1.087071
-1.986007
0.017731
-1.353308
-0.892816
-0.476276
-1.288355
0.472851
0.477570
-0.779234
0.501572
0.569792
-0.325674
-0.395447
-0.826651
0.532999
0.692256
0.363765
0.408416
-0.708393
1.598341
-0.300967
0.630981
-0.653345
-0.401010
0.584959
0.639993
-0.193476
0.218284
0.835558
0.445695
0.924942
-1.172351
-0.393296
2.398202
-2.426033
-0.340691
-1.775458
0.023607
1.086635
0.330125
2.042992
0.477889
0.967487
-1.147551
-0.849438
-1.707010
0.331072
-0.201832
1.069111
-1.122422
0.055713
0.155096
0.191256
-1.100646
0.089751
0.586399
0.679434
-0.072999
0.754254
-0.627473
-1.116422
-0.255327
0.794599
0.621172
0.998349
-0.572532
-0.704047
0.283521
2.726443
-0.199513
-1.113470
0.455810
0.586275
-0.648972
-0.257482
0.171380
-0.413061
-0.055343
1.717008
-0.561061
-0.383294
-0.241054
-0.290262
-0.254600
-1.096768
0.363449
-1.254381
-2.135432
1.128262
-0.396266
0.740812
-0.047152
-0.673783
-2.058155
0.688089
0.891396
-0.955127
-0.260191
-0.266653
0.562107
-0.401863
-1.145026
0.999480
-1.025814
-0.360539
-0.191323
-0.588311
0.790204
0.090679
0.162511
0.596120
-1.020777
-0.464440
0.046484
0.591763
0.503283
-0.562871
0.526167
0.703909
0.491556
-0.999708
0.340159
-0.731544
0.407058
-0.466326
0.539107
-0.010187
0.442240
0.608405
0.101047
-0.160269
0.093201
0.233878
-0.921342
0.782829
-0.326655
0.234038
0.095555
-2.934145
-0.915269
-0.225483
-1.170315
0.146194
-1.767030
-0.346642
-0.057801
-0.479354
-1.773397
-1.261805
-0.598342
0.173945
0.602463
-1.456117
-0.627123
0.311269
-0.461677
1.491164
-0.144654
0.872883
-1.615853
-0.300190
-0.636966
-1.419196
-0.662803
0.712211
-0.789309
0.339589
0.329562
0.224774
-0.271425
0.656338
-0.847011
0.143045
0.933479
-1.183553
1.380923
-1.047043
1.284840
0.197637
0.594080
-1.109379
-1.025547
-0.180193
0.401575
0.981234
-2.324813
0.328555
0.492270
1.038065
0.007717
-0.296097
0.152531
0.923797
0.426043
-0.271329
-0.500537
-0.478304
2.156291
0.576076
0.251802
-0.582292
-0.432267
1.435271
-0.532483
-1.322282
-0.811662
0.154212
-1.356293
2.005906
1.779868
-2.160243
-1.082561
-2.296412
-1.685202
-0.951973
0.468009
0.400496
-0.847248
-1.053343
-0.907788
0.781845
-0.100283
0.858516
-0.011922
-0.236117
-1.532004
-0.136444
-0.745746
1.099817
0.138072
-0.657081
0.492681
-1.001879
-0.361893
-1.602774
-0.873061
-1.254876
0.418511
-2.905482
-1.675369
-2.230976
-1.554385
0.180899
1.228645
0.485477
0.692982
-0.643075
-1.224793
1.183766
0.111265
-1.184327
-1.772510
0.331893
0.948000
-1.372041
1.382388
0.209954
0.076054
-0.368142
-0.147227
0.273321
0.656310
0.151638
0.432901
-0.772187
-0.459367
-0.915629
1.599832
0.520992
-0.392988
0.890549
0.279197
0.045531
0.414027
0.595208
-1.197644
-1.134178
-0.692420
0.242700
-0.421342
-0.323982
0.149866
-0.399017
-0.471398
0.415504
-0.119203
0.374241
-0.675504
-0.868781
0.688425
0.770914
-0.802949
-0.542293
-1.277285
-1.206353
0.150841
-0.246188
0.023355
-1.069861
-0.556815
0.198671
-0.804645
-1.664106
-0.720869
1.257653
-0.924480
0.829052
0.216525
0.261028
0.841946
-0.888512
-0.179855
-0.523105
-0.352736
1.012902
0.744074
0.308665
-1.108399
-0.358884
1.317413
-1.195619
-0.445666
0.021856
0.829198
-0.069723
-1.752798
-0.450992
1.135049
-0.750899
1.172700
0.680246
-1.613938
-0.334810
0.084635
-2.419652
1.894738
-0.690426
0.403457
0.280187
-0.018309
0.477195
0.027423
0.282325
-0.120277
0.840323
0.622303
0.172926
-0.709796
0.174381
-0.421909
0.305910
-1.607585
-0.016302
-0.651539
1.464155
-0.555017
-0.900094
-0.119317
-1.129822
-0.997762
-0.531727
0.842607
0.154329
0.607307
-0.538424
-0.023746
-0.449573
-1.209983
1.174281
-1.235598
0.588907
0.633190
0.917651
-1.462457
0.585697
1.475664
1.016209
-0.644794
-1.349031
-1.512723
-1.171003
0.384816
-0.738589
-0.143089
1.373268
-0.821087
0.204223
-0.738499
0.679957
-0.281515
-0.163492
-0.002119
1.135545
-0.117238
-1.269192
0.069730
-0.253784
0.209781
-0.719565
0.387028
0.509968
-1.202084
-0.403028
-0.141005
-0.358937
1.206222
-1.217649
-2.221081
0.089315
-0.825583
1.058467
0.775795
0.765005
-1.962685
-0.299011
0.109496
1.635913
-1.512080
-0.855011
1.147891
1.660542
-0.360573
0.559601
-1.266254
0.190916
-0.938898
0.382412
1.731296
-1.552870
-0.208461
-0.471407
0.499309
-0.348862
-0.789771
1.427678
-0.564268
0.350564
1.146021
0.275605
0.403148
1.690523
-0.246948
-0.113023
0.011475
-0.351258
-1.321542
-2.054129
-0.899554
-0.406782
0.739841
-1.096156
0.450972
-0.541957
-0.967934
0.300753
-0.888209
-0.012684
-0.686900
1.669795
-1.845579
-0.729323
-1.566833
-0.683090
-2.226817
0.564969
1.755574
-0.791213
-0.525807
0.297113
-0.375756
-0.717706
-1.189736
1.127683
-1.259609
0.043291
0.289986
-1.138334
0.054214
0.030167
-1.394470
0.558645
0.167095
0.520121
0.184971
-0.935855
-1.303678
-0.181058
2.590066
0.076880
0.408954
0.177807
-0.370523
0.243400
0.414996
-0.790328
-0.195591
0.321745
0.038033
0.865357
0.320118
0.411048
0.247600
-0.786784
-0.068747
-0.763322
0.673867
0.318087
0.335965
-1.804132
-0.021235
0.038508
0.106197
1.221566
0.939282
0.161395
-1.836010
-0.614747
-1.043310
1.560502
0.588524
-1.183236
0.412875
0.562377
0.792619
-1.727005
0.410244
-0.914552
-0.385500
-0.209083
2.222775
-2.099983
0.514206
-1.278103
3.307035
-2.219090
-1.673420
-0.278745
1.991682
-0.805604
0.546232
0.166646
-0.385573
-0.736710
-0.552843
0.675891
-0.169571
-0.956426
0.129759
1.880100
0.934903
-0.782083
-1.495423
-1.661331
-0.693117
1.137949
-1.342942
-0.783492
0.299754
0.475186
-0.039695
-0.678603
1.379438
-0.375990
-0.765911
-0.284686
0.529050
0.643818
-0.914058
-1.083405
-0.494705
-1.141300
1.712782
0.684740
0.413814
0.216042
-1.309412
1.130696
-0.447302
-0.190345
-1.924007
-0.335828
-0.801160
1.535292
-0.012920
-1.803031
0.891159
-1.397160
0.561834
2.705325
-1.027675
-0.384401
-0.963323
0.052973
-0.445910
0.034999
-1.067629
-1.083989
0.907375
-1.337379
0.565564
0.447329
0.332625
0.134646
1.341592
0.372670
-1.158509
-0.487842
1.973528
0.515255
0.053159
-0.775865
0.674329
0.611298
-0.586415
-0.042350
-0.946525
-1.125548
-0.849511
0.165052
-0.186971
0.030160
0.106934
0.520158
-1.080326
1.084626
-0.886764
0.822738
-1.531970
0.903178
1.074785
1.549755
-1.691839
-1.651114
0.227655
-0.288139
-0.983724
-0.577337
0.565212
-0.693043
0.982086
0.778445
1.113262
-1.133982
-2.330177
-0.389451
0.306556
-1.043600
-1.381306
-2.034759
-1.057719
-2.006389
2.073593
-0.489246
0.645679
1.105914
-0.155244
1.031272
2.225225
-1.527359
-1.126918
-0.196061
-1.076643
-0.678495
-1.571853
0.313829
0.027306
0.182378
0.047433
0.297494
-0.698919
-1.222883
0.269014
0.579146
-0.397220
-1.118802
-0.651744
0.345174
0.782508
0.222270
-0.547121
0.873983
0.068449
0.478815
-0.915741
-1.271313
0.012128
0.158234
-0.876584
-0.580109
-1.068506
0.060802
0.668888
0.540915
-1.151054
1.269476
0.133360
0.710694
-1.198062
0.008593
0.034461
1.078498
-1.084313
-0.863165
0.521972
0.532306
-0.994171
-0.618594
0.979480
-0.075016
0.473418
0.440362
0.379618
0.565955
0.421792
-0.476278
0.906792
0.246702
0.204949
-0.006645
0.359692
-0.073097
-0.265394
-0.121831
-0.132470
0.203990
-0.675150
-0.786069
-0.768169
-0.903269
0.759929
-0.831340
-0.898063
0.204121
-1.336104
1.111937
-0.921210
0.496221
1.349093
-0.009756
-1.933155
-0.501050
-2.069108
-0.026172
-1.221334
0.762484
-0.596822
0.524967
0.264698
0.649386
-0.161495
-0.420354
-0.408844
0.899707
-0.769573
-0.248159
-0.085814
-0.136136
0.921650
-0.091529
0.916382
0.578807
0.709649
0.188553
0.720516
0.611727
-0.506067
0.583099
0.226508
-0.994717
0.241409
0.609005
-0.376411
-0.264038
0.355230
-0.920328
-1.333658
1.128473
-0.517071
-0.544014
-0.763864
-0.710777
0.401453
-0.842763
-1.662612
-0.326761
1.278832
0.931148
-1.359060
0.378930
0.720677
-0.962517
0.250450
-0.382879
-0.321831
0.626922
0.150596
-0.540488
-0.098880
1.278464
-0.081715
0.274248
0.759512
0.029315
-0.009676
0.832195
0.056664
0.396686
0.557138
-1.162656
2.091672
-2.266247
-0.955168
-1.305425
-0.518755
-1.349361
0.230981
-2.073410
-0.470043
-0.516199
-0.275684
-1.107755
1.033139
1.468002
-0.515795
-1.627615
-1.071497
-0.582131
0.796282
-0.556675
0.211103
-0.138605
-0.727449
-0.409894
0.757568
-0.877548
-0.977711
-0.798823
-1.531280
2.776047
-0.831664
0.770421
-1.669223
-0.237935
-0.888443
0.550143
0.350316
-1.250555
-2.045655
-1.666989
-1.944200
0.212338
0.427225
-1.909502
0.374626
0.015167
0.610340
0.796083
0.859955
-0.625300
-0.661562
0.401982
-0.203941
-0.241841
0.561909
0.819207
0.749025
-0.428329
1.081782
-0.831120
0.325125
-0.643795
-0.709582
1.127778
1.147673
-0.081984
-0.679930
0.580741
-1.121860
0.434376
0.472769
-1.001116
-0.985794
-1.220808
1.485886
-0.447839
0.264961
-0.498584
-0.144005
0.005142
0.093304
0.354323
-0.660959
-0.810611
0.320480
-1.535850
-0.142609
-0.280971
-0.279538
0.363790
0.405626
-0.151424
-0.174937
-0.088777
-0.436918
-1.111831
0.475812
-1.113664
-0.795034
-0.138258
-1.349802
0.134603
1.690246
-1.674157
-0.531276
1.205192
-1.124066
1.512805
-0.022114
-1.311468
1.539138
-0.765858
-1.600215
-1.114489
1.442942
-0.137489
0.335085
-1.047512
0.232964
-0.507788
-0.230424
-0.509546
0.142650
-0.252813
-0.636473
0.788948
0.538305
-0.230602
-1.459329
0.971374
-1.345727
2.028581
-0.797734
0.740545
-0.103509
-0.006764
-0.022413
-0.176357
-0.775645
0.671013
-0.816619
-0.073725
1.110001
0.405947
-0.780455
-0.393812
-0.962086
-0.579526
-0.203848
0.659107
0.614279
-2.019604
-0.237212
-1.112511
1.631618
-0.211696
-1.755945
0.711010
-0.271434
-0.331748
-0.292953
-1.095557
-0.429578
-0.068190
0.883657
1.014306
-0.363973
0.007786
0.865680
0.505390
0.839764
0.819557
-0.848428
-0.287534
0.058155
-0.253134
-0.486983
0.794659
-1.028863
0.502486
-0.118397
0.591857
-0.681382
-0.924643
-0.227690
-0.644387
0.431335
0.071891
-1.683841
-0.507989
-0.000350
-1.802509
1.842045
-0.098512
0.170713
1.585894
-0.022867
0.647995
-0.620150
-1.079840
-1.195675
-0.975315
-0.626188
0.764056
-0.462730
-1.081198
0.844162
-0.083590
0.395928
-1.242276
-1.214788
0.206555
1.056778
1.383229
0.582013
-0.152080
-0.249424
-0.184361
0.327573
-0.221532
0.480099
0.652326
-0.356309
1.927580
-1.281989
-0.847254
-0.863109
-0.988581
0.710038
-1.407971
1.125258
1.450518
0.094128
-0.275797
-1.885245
-1.762759
1.197269
-0.724596
0.571025
1.096018
-0.994564
0.653935
0.146572
-0.040611
-1.193173
-0.110575
-1.101182
0.728750
-0.349936
-0.390509
-1.015725
0.166717
-0.680675
-0.644786
0.188956
-0.126555
-0.911861
0.501996
0.987163
-0.068540
-0.730637
0.151754
0.124087
0.202564
0.334200
0.071080
0.412594
-0.028228
-0.801982
0.729450
-0.010994
-0.134547
-0.029336
-0.168406
1.683917
0.053332
-0.387918
0.208131
-0.162572
0.522385
-1.219057
-0.469612
-0.646575
-0.503205
0.132349
0.108677
0.179096
-0.334113
-1.043888
0.569866
-0.931188
0.607099
-1.014311
0.728248
1.076955
0.403061
-0.145953
-0.063237
0.985134
0.834118
-0.633294
0.869646
0.052818
0.985860
-0.634495
-0.427651
-0.996132
0.358372
-0.788625
0.335649
0.590652
-0.476595
0.486486
-0.714220
-0.241873
0.872882
-0.601417
0.802117
